\data\
ngram 1=3455
ngram 2=12801
ngram 3=16379

\1-grams:
-1.4042284561936655 <unk>
-3.5909860688770525 banknote -0.1361428
-3.808700376490593 berlitz -0.1361428
-4.48634814613127 calloway -0.1361428
-4.392469740143191 centrust -0.1361428
-4.728755166079143 cluett -0.1361428
-4.644121119023548 fromstein -0.1361428
-4.7153280159279305 gitano -0.1361428
-4.725288328636943 guterman -0.1361428
-4.765616914094005 hydro-quebec -0.1361428
-4.565511641961081 ipo -0.1361428
-4.696248550457685 kia -0.1361428
-4.4637690599867055 memotec -0.1361428
-4.7266931740208555 mlx -0.1361428
-4.441958742456927 nahb -0.1361428
-4.507879628177225 punts -0.1361428
-4.715086778750763 rake -0.1361428
-4.4360941706582375 regatta -0.1361428
-4.521335015940405 rubens -0.1361428
-4.448834633046738 sim -0.1361428
-4.7121047863989345 snack-food -0.1361428
-4.501482634943277 ssangyong -0.1361428
-4.724983336930802 swapo -0.1361428
-4.564492769348963 wachter -0.1361428
-1.510163315764483 N -0.5381406999999999
-2.526924783883869 years -0.44217039999999996
-3.3368130645010967 old -0.1670626
-2.5526648329146755 will -0.6305386
-3.483750884334712 join -0.21909259999999997
-1.3072583653589471 the -0.6608698
-3.0554409557265023 board -0.31067369999999994
-2.3621897457089007 as -0.5558227
-1.5790670067065098 a -0.5965614
-3.936131404257424 nonexecutive -0.1361428
-3.398271336819667 director -0.5100598999999999
-4.083406718863628 nov. -1.6889359999999998
-2.3886739570060853 mr. -0.5977061
-2.155425410664921 is -0.6152862
-3.419985925140398 chairman -0.47987199999999997
-1.4764067127876017 of -0.5620663
-4.199586151826284 n.v. -0.15438289999999996
-4.463536140801664 dutch -0.1361428
-3.7096246913734 publishing -0.228436
-3.698057219917964 group -0.48822459999999995
-3.740728749349744 rudolph -0.4336638
-1.5593274740551528 and -0.5105456
-3.872056207852425 former -0.2351849
-4.704703053955735 consolidated -0.1828108
-4.106805857259979 gold -0.3058242
-3.951859561538474 fields -0.235211
-4.1971735806540265 plc -0.38570279999999996
-2.1907411784771473 was -0.4917573
-3.2234755393074694 named -0.23103889999999996
-2.7176213428017117 this -0.4485032999999999
-3.838495668943958 british -0.30042279999999993
-3.838515863808791 industrial -0.24471019999999993
-4.626237733464529 conglomerate -0.19317059999999997
-3.4241819941976797 form -0.3264718999999999
-3.537935483481012 asbestos -0.18319789999999994
-3.8821758204644405 once -0.33032559999999994
-3.1123564339288867 used -0.5437165999999999
-1.4821064226163159 to -0.7395636
-3.092414775826677 make -0.3232905
-3.561827135665163 kent -0.19312929999999995
-3.766673462964545 cigarette -0.18117159999999993
-3.508870645733245 filters -0.22205080000000002
-2.5206159433530773 has -0.6003408
-4.062871181635835 caused -0.5222389
-2.831071971461251 high -0.32452309999999995
-3.747677898347777 percentage -0.33524389999999993
-3.5227604876532057 cancer -0.2652589
-3.868959426755169 deaths -0.22833080000000003
-3.6288870641862787 among -0.3706315
-3.6242504216878952 workers -0.39480389999999993
-4.4206594648415285 exposed -0.36928939999999993
-2.2939025808286155 it -0.597709
-2.51153595686633 more -0.4211449
-2.5271170353414107 than -0.43489969999999994
-3.578625118807847 ago -0.23842899999999997
-3.6202037436050034 researchers -0.28333469999999994
-3.6417035891120326 reported -0.5257437
-3.9638903437343056 fiber -0.1361428
-4.674466827194151 unusually -0.1517298
-4.079327966413564 enters -0.29708369999999995
-2.226717666288754 with -0.48733819999999994
-2.959029422950571 even -0.42400009999999994
-4.282914091223517 brief -0.16160749999999996
-4.429125895524937 exposures -0.18127879999999996
-4.314685263708664 causing -0.2604764
-4.300671860523662 symptoms -0.24867919999999993
-1.9462944013812495 that -0.5696336999999999
-3.592954514851447 show -0.3124295999999999
-2.662586185191787 up -0.6039479999999999
-4.030907910417767 decades -0.27936419999999995
-3.7865288909242807 later -0.3707359
-2.1698567217774847 said -0.6847661999999999
-3.0957746543258953 inc. -0.5418797999999999
-3.459327098128104 unit -0.4825088999999999
-2.331674835272282 new -0.33393349999999994
-4.004503598275768 york-based -0.1361428
-3.1200741998886836 corp. -0.548521
-3.754459566826675 makes -0.3127227
-3.5175764558031926 cigarettes -0.19647759999999997
-4.325800161415342 stopped -0.19459669999999998
-3.7751897503330336 using -0.321881
-1.6235050251622454 in -0.7302237999999999
-2.2936291581734314 its -0.3503371
-3.6651418853281132 although -0.3014184
-3.8317873993918807 preliminary -0.1698034
-3.996011528585236 findings -0.24575269999999994
-2.5946939049557054 were -0.38811379999999995
-2.595150726615894 year -0.3548537
-3.55862057065125 latest -0.1671558
-3.874490274418149 results -0.4379115
-4.001843188287492 appear -0.3723424
-3.6793481696670076 today -0.5049422
-2.073666551458087 's -0.4260269999999999
-3.319424556097894 england -0.16434069999999998
-3.6097813650997193 journal -0.20822579999999993
-3.795068136927321 medicine -0.1560797
-3.854527910426923 forum -0.1361428
-3.9004288654567225 likely -0.3762614
-3.666693974446164 bring -0.2378487
-3.730307245982655 attention -0.3719572
-3.603323931301609 problem -0.36942469999999994
-2.440622640486374 an -0.5236567999999999
-3.6179424524709547 story -0.3090977999999999
-3.559897235516459 we -0.5638548
-3.48564455811214 're -0.1858149
-3.834481398697164 talking -0.42577079999999995
-2.482012993671118 about -0.5925801
-2.9907019106717585 before -0.4620926999999999
-4.496962201051624 anyone -0.28878679999999995
-4.253734426158425 heard -0.20022199999999996
-4.327039779492376 having -0.28726969999999996
-2.867883213379616 any -0.2611759
-4.307096255095674 questionable -0.15438289999999996
-4.663747110060556 properties -0.2882644999999999
-3.23278437218805 there -0.7346169999999999
-2.846189518513042 no -0.30235769999999995
-4.1037035161102535 our -0.2089607
-3.282984495996773 products -0.4617811
-3.0488425389181093 now -0.35159809999999997
-4.570643477073363 neither -0.20720899999999995
-3.7725423119249917 nor -0.2669731
-2.431660518612462 who -0.46733299999999994
-3.7072617811530035 studied -0.2355293
-3.9596258562386053 aware -0.6566789999999999
-2.6279442855404103 research -0.34628039999999993
-2.0627494811021836 on -0.5796112
-4.024432675557421 smokers -0.1361428
-2.3842824804593192 have -0.5043123999999999
-4.389224308174946 useful -0.1606373
-3.2915503218672693 information -0.40523439999999994
-3.630672265528665 whether -0.44166009999999994
-4.445247834505263 users -0.3346025999999999
-2.3781348300280145 are -0.4704007
-2.3927297769430904 at -0.6663230999999998
-3.821977473064683 risk -0.3416776
-3.844955856931987 james -0.27815829999999997
-3.768913451263525 a. -0.1402846
-4.068532023354202 boston -0.23837209999999995
-3.856532340564857 institute -0.3471228
-3.679209011279898 dr. -0.39484839999999993
-3.3885562547292225 led -0.673153
-3.376552378611131 team -0.26136329999999997
-2.35457850451871 from -0.49372859999999996
-3.622832276740154 national -0.2641988
-3.9021197708973103 medical -0.22480209999999998
-3.3671819494382067 schools -0.2649904
-4.354797146218971 harvard -0.14757339999999997
-3.398201901144962 university -0.32717399999999996
-3.9288511312812457 spokeswoman -0.4998231
-3.3824298179804697 very -0.2923242999999999
-4.410175821087866 modest -0.19256719999999997
-4.049636633629844 amounts -0.4250264999999999
-3.89643358064851 making -0.34615509999999994
-4.074241638682817 paper -0.32222839999999997
-1.9426290318365695 for -0.5728254
-3.2291772791391358 early -0.39937449999999997
-4.292461570267822 1950s -0.1361428
-4.234879674619847 replaced -0.22762549999999995
-3.65073642471036 different -0.21818649999999995
-4.009633870448432 type -0.47960339999999996
-2.652693344053559 billion -0.15134239999999993
-3.578169941835583 sold -0.45444599999999996
-2.8051522645106597 company -0.41344819999999993
-3.5694122873508793 men -0.36615739999999997
-3.7072083133652174 worked -0.3959279
-3.5193971469193905 closely -0.35447969999999995
-4.305724078757491 substance -0.1361428
-4.319128960326863 died -0.2599248
-3.1831390710532887 three -0.3765261999999999
-3.8291415102915027 times -0.3121607
-3.3471869014321642 expected -0.3606342
-3.113160368949531 number -0.45098599999999994
-3.363409128576712 four -0.3382832
-3.486147634051645 five -0.4003528
-4.539996170710875 surviving -0.19312929999999995
-3.656978963480697 diseases -0.1704387
-3.3330351038831076 including -0.3525721
-3.667676685366376 recently -0.2895518000000001
-3.3965541468769787 total -0.2637224
-4.340702179375728 malignant -0.17342280000000002
-4.337928741575481 lung -0.3939938
-3.3240367030916333 far -0.35460289999999994
-3.2104550605785405 higher -0.3950625
-3.0486446200541524 rate -0.4683454
-4.396129247540746 striking -0.15931309999999999
-3.7923999207527253 finding -0.26029459999999993
-2.974783258071445 those -0.2809463
-3.726918667464144 us -0.3005748999999999
-3.5108792418192647 study -0.2737725
-4.481633411717128 west -0.4543743999999999
-4.178695181487521 mass. -0.1724452
-3.2570783494576885 factory -0.2011151
-3.9248090755001903 appears -0.5413025999999999
-2.449222048494432 be -0.3242404
-3.9190859063727657 highest -0.16494090000000003
-3.57749659811384 western -0.26295139999999995
-4.304321584137817 industrialized -0.2312948
-3.2368010418871367 countries -0.34187709999999993
-2.513362780222485 he -0.6291690999999999
-3.2367470401479537 plant -0.3631771999999999
-2.7576295267520767 which -0.5111719
-4.1308283895950675 owned -0.49865829999999994
-2.050558217499258 by -0.47923589999999994
-3.134455951907495 & -0.3383361999999999
-3.1449113493852754 co. -0.44525229999999993
-2.8190783391480894 under -0.5782946
-4.083050015596989 contract -0.3672445999999999
-3.5043346956448764 probably -0.3418472
-3.4979381701111922 support -0.5091183999999999
-3.893343400486495 argue -0.5657258
-2.388839824610111 u.s. -0.2890720999999999
-3.2921781688947322 should -0.45230279999999995
-3.7989947099342323 regulate -0.1560797
-3.51745133681148 class -0.39071
-3.197138081358517 common -0.48163169999999994
-3.445001820927987 kind -0.5245996
-3.407074499991595 found -0.47044409999999987
-3.21659722168405 most -0.309359
-2.7534380881136813 other -0.27897349999999993
-3.8600760365505113 buildings -0.2889382
-2.732509647605666 one -0.4012252
-3.6014067792772555 few -0.21992769999999998
-3.4177161332901007 nations -0.28334889999999996
-3.2616612084898016 does -0.6596878999999999
-2.3631191577475756 n't -0.2815659999999999
-4.625176907218598 standard -0.3391668
-4.543758500417783 regulation -0.3592427999999999
-4.516832542970277 smooth -0.1361428
-3.4457099919438323 fibers -0.17329130000000004
-3.1231114273509437 such -0.44740769999999996
-4.392228449315848 classified -0.2599087
-3.342221178963723 according -1.980962
-4.245060283151964 t. -0.3469823
-3.7827919723015606 professor -0.40857219999999994
-4.452477923255781 vermont -0.2320004
-3.8412622979458773 college -0.23923509999999998
-4.278071635479177 easily -0.18894089999999994
-3.7365089141184513 rejected -0.39569219999999994
-3.941658354886147 body -0.16160749999999996
-4.414048111106133 explained -0.22888399999999998
-3.84526080766319 july -0.3134507999999999
-4.252418163613767 environmental -0.21347219999999995
-4.114582230913019 protection -0.3340988999999999
-3.6857204804956134 agency -0.3092231
-4.134989551425443 imposed -0.3422095
-4.27604556811604 gradual -0.1361428
-3.694994195608374 ban -0.26453649999999995
-4.391034117778235 virtually -0.2870119
-2.85017393295343 all -0.4060107
-4.299288074403362 uses -0.3021065
-3.6527822019836047 almost -0.40564269999999997
-4.2174722388216 remaining -0.152318
-4.550359787648098 outlawed -0.1361428
-3.142809045652169 made -0.5103215999999999
-4.202372571780872 areas -0.3088845
-3.904217089413834 particularly -0.27098479999999997
-4.661451572227887 dusty -0.1361428
-3.347119068249902 where -0.40840719999999997
-3.730779752906426 dumped -0.14757339999999997
-3.97678657536424 large -0.21045620000000004
-3.7211028945457425 imported -0.16911899999999996
-3.813461434287442 material -0.19336139999999996
-2.9091018319524053 into -0.44649229999999995
-3.9281503825495934 huge -0.18868879999999996
-3.7790307739229463 poured -0.19333589999999995
-3.848361783695524 cotton -0.2180059
-3.8769737221515737 mixed -0.2755736
-3.765995563109117 dry -0.17342280000000002
-3.732451668898959 process -0.33388879999999993
-3.653830343464221 described -0.4033823999999999
-3.958441859485427 clouds -0.1361428
-4.55873286919111 blue -0.33260969999999995
-4.5802080019991696 dust -0.1678971
-4.5153906887924435 hung -0.19333580000000003
-3.092126927714334 over -0.5798253
-3.9896468359769393 parts -0.41764
-3.6351598599324166 though -0.3718734
-4.449157897105782 fans -0.2475888
-4.113386914204886 area -0.306752
-4.152321903768362 question -0.3286249
-3.1839352846263367 some -0.34451089999999995
-3.2388723463527707 managers -0.31561819999999996
-4.3547202452289175 contracted -0.19877679999999998
-4.487352064853627 phillips -0.22342109999999996
-3.004736621766514 vice -1.076468
-2.682658033712266 president -0.4686135
-4.133499652803339 human -0.2438311
-4.409278794195303 resources -0.28497429999999996
-2.626038604544829 but -0.48439309999999997
-3.27972483215776 you -0.4676777
-3.8953846028719683 recognize -0.22729110000000002
-3.051526007423889 these -0.2713521
-4.219455757859409 events -0.2713275
-3.505930536216281 took -0.4662901
-3.8140788997161628 place -0.3419607
-4.3223558289828 bearing -0.24327869999999996
-3.242224887468333 work -0.44273339999999994
-3.4373616463664356 force -0.27002439999999994
-3.6630343647963963 yields -0.38976799999999995
-3.7980838032368562 money-market -0.3217175
-3.8907452182118663 mutual -0.6575731999999999
-2.827530104989008 funds -0.44396769999999997
-3.7679125208777813 continued -0.40201349999999997
-4.560917510709989 slide -0.2559298
-4.456565378383161 amid -0.2984282
-4.009909009498856 signs -0.644366
-3.6458617662548884 portfolio -0.3229905
-3.8301507179271663 expect -0.32593179999999994
-3.7631181606805937 further -0.2301157
-4.07193196770034 declines -0.44885649999999994
-3.031862627108952 interest -0.5808971999999999
-2.8981842138397904 rates -0.40346189999999993
-3.4945927899626787 average -0.24143389999999995
-3.9450039603519675 seven-day -0.2312948
-4.326944245770591 compound -0.20215769999999994
-3.5455097855935884 yield -0.3015719
-4.083292792578835 taxable -0.21391709999999994
-3.9383188280225476 tracked -0.2312948
-3.425683149980149 money -0.47624
-3.222384398115705 fund -0.35092689999999993
-3.2349351916438485 report -0.33143319999999993
-3.9171727411583106 eased -0.43649430000000006
-4.027118016848311 fraction -0.21420599999999998
-3.541798468683474 point -0.4216289999999999
-3.2925926927801936 week -0.31940909999999995
-3.700120715084687 ended -0.41125439999999996
-3.547597906539874 tuesday -0.4710912
-3.9812613313872793 assume -0.29965899999999995
-4.54739185206303 reinvestment -0.2588992
-4.255284342729575 dividends -0.28527479999999994
-3.8333297690124324 current -0.2089757
-3.818889663142107 continues -0.5964260999999998
-3.743900277431071 maturity -0.28880839999999997
-3.089984367748223 ' -0.205445
-4.1095022452622585 investments -0.368126
-3.592104036983231 day -0.3194737
-3.2670009174654226 days -0.4162431999999999
-4.323414852996839 longest -0.1678971
-3.2371116726670985 since -0.5877147999999999
-3.36924457889205 august -0.252477
-4.525051639225891 donoghue -0.35564909999999994
-3.7356598393267975 longer -0.18772859999999997
-3.7140629049131286 maturities -0.21453719999999996
-3.8610932733369765 thought -0.40869939999999993
-4.000585988794445 indicate -0.3254975
-3.916865069933821 declining -0.2034517
-2.7722475672295235 because -0.7210759999999999
-2.5181470422973122 they -0.5456702
-3.8209708931513857 permit -0.18563679999999996
-3.9175502073095023 retain -0.278404
-3.8022219594395437 relatively -0.2393754
-3.4749707582452105 period -0.3850462
-3.6665740609331188 considered -0.24889489999999997
-4.483918933880184 sign -0.2974485
-3.5403480338257043 rising -0.26362869999999994
-3.175262798144695 can -0.4208404
-3.7843214282208772 capture -0.1361428
-4.571908338410437 sooner -0.2895765
-4.023807856441123 open -0.3105972
-3.0790711696982673 only -0.4656017
-3.782535083090673 institutions -0.3281704999999999
-3.8257293282213953 stronger -0.17429610000000004
-3.952364563393679 indicator -0.3027728
-3.649946426988513 watch -0.2558519
-3.0863285629319623 market -0.44353149999999997
-3.3296706762659047 reached -0.33974779999999993
-3.692107962244166 editor -0.43548689999999995
-3.158699982429746 may -0.504938
-3.499334666688639 again -0.3861434
-3.161127291567133 down -0.5272561
-3.3606399718892304 recent -0.18494569999999996
-3.9745852677077256 rises -0.29772219999999994
-3.8857430536166166 short-term -0.25193279999999996
-4.614446490178046 six-month -0.23304509999999998
-3.5536427091127702 treasury -0.394953
-4.569752050767163 bills -0.3386711
-3.720034791481856 monday -0.46755379999999996
-4.732534333884371 auction -0.3139065999999999
-3.4295758581194344 example -0.2076509
-3.5056343997860333 rose -0.7606579999999998
-3.737019405035064 despite -0.3731925
-3.1127042706537313 investors -0.43202119999999994
-3.570596577872199 continue -0.3743908
-4.433456527329902 pour -0.1361428
-3.863807220016737 cash -0.3814254
-3.6974265136889577 assets -0.4446823999999999
-4.220582992049321 grew -0.40520709999999993
-2.062230185499259 $ -2.225179
-3.6464592474796342 during -0.7086329
-4.151193382357547 typically -0.15925939999999997
-3.6702365477252807 money-fund -0.19333580000000003
-4.267332367089063 beat -0.21721699999999994
-4.493693438619214 comparable -0.1605805
-4.1983492042117545 vary -0.2194582
-3.6660559148362157 go -0.35391759999999994
-3.057830141399822 after -0.4829321999999999
-3.8241417511338143 top -0.24511519999999998
-3.7039818070777706 currently -0.27581399999999995
-4.04714214335829 yielding -0.25068099999999993
-3.386390074012056 well -0.3497021
-3.6462595823219903 world-wide -0.2443027
-3.983770965433207 dollar -0.20855229999999997
-2.629748142292725 had -0.4953352
-3.2734849058380378 earlier -0.4332309999999999
-3.6082600504577984 invests -0.18127879999999996
-3.7743370265505556 heavily -0.383039
-4.371982767713594 dollar-denominated -0.1678971
-3.401411873736795 securities -0.40903829999999997
-4.053623988704137 overseas -0.2530195
-3.538932561334053 management -0.3375159999999999
-3.863254955542573 fees -0.3783418
-4.1966169727398395 boosts -0.18853309999999998
-4.037678897777683 simple -0.1733702
-3.905732755430283 30-day -0.19333589999999995
-3.3752721403560044 fell -0.6716931999999999
-4.637102038514188 slid -0.5930225999999998
-3.913602081300727 grace -0.20998689999999998
-4.029983846742014 holds -0.42475549999999995
-3.7090397019007084 elected -0.2823583
-3.585815643383002 succeeds -0.20128190000000004
-3.8189186755167097 d. -0.23737799999999998
-4.668861604025303 formerly -0.21430389999999996
-4.305234018330469 resigned -0.4124009
-3.748362114554343 energy -0.2889562
-4.113680864518216 seven -0.2878265
-4.020656475877063 seats -0.35312589999999994
-4.100351141737139 pacific -0.2612574
-2.956410572363212 first -0.27421219999999996
-3.4019072602075116 financial -0.36064139999999995
-4.50916768356995 shareholders -0.3483280999999999
-3.857306913702352 approved -0.4357315
-4.178638158350334 acquisition -0.31430099999999994
-4.553025819945791 royal -0.22796019999999995
-3.5008325702688894 ltd. -0.3926510999999999
-4.0430980485039925 toronto -0.1953576
-3.1330039512463235 share -0.3669441
-2.4635990937836945 or -0.3470729
-2.4661233183813147 million -0.1820262
-3.7215425312805213 thrift -0.22840339999999998
-3.638263053201137 holding -0.42324049999999996
-3.72224534304243 expects -0.3985084
-4.169517749602627 obtain -0.15067309999999998
-4.018314302519569 regulatory -0.22261289999999997
-3.970821495953591 approval -0.5503146
-3.620142269266887 complete -0.23115679999999997
-3.840814780292529 transaction -0.27271389999999995
-4.49593612124292 year-end -0.19312929999999995
-3.1511924799208777 international -0.28870429999999997
-3.5612051268237 completed -0.3743052
-3.661038902838646 sale -0.40780649999999996
-3.8150319297621533 controls -0.3004801999999999
-3.8951946639798907 operations -0.46336159999999993
-4.511715661909338 s.p -0.25873909999999994
-4.428559288742018 italian -0.15931309999999999
-4.4766330910504335 state-owned -0.1678971
-4.286894010644846 interests -0.3960196
-4.529465956958506 mechanical -0.18127879999999996
-4.16733144063364 engineering -0.3268738
-3.608275809866231 industry -0.43490619999999997
-3.4259096120786228 based -1.071545
-4.473895819776527 ohio -0.2094932
-4.358300652280549 computerized -0.1678971
-3.9073049081347704 systems -0.3567889
-3.823203632517239 employs -0.43541479999999994
-3.376643154605046 people -0.45264209999999994
-3.3133250146386115 annual -0.36148299999999994
-3.7474647937412158 revenue -0.4515798
-3.1569711486907224 federal -0.39488509999999993
-2.946559063628842 government -0.33362129999999995
-4.259722637842774 suspended -0.22482129999999997
-3.4181235332929774 sales -0.5215588999999999
-3.7749429750544983 savings -0.4401475
-4.0512570279050575 bonds -0.4488454
-3.5932361526942818 congress -0.36498519999999995
-4.48342618163486 lifted -0.1621221
-3.9901066053811527 ceiling -0.23056310000000002
-3.0642897632518467 debt -0.4094937
-3.185049075519028 until -0.4971067
-3.896725886910355 acts -0.2549044999999999
-3.881485318831736 authority -0.35878669999999996
-3.22349697575067 issue -0.37431139999999996
-3.888381517049297 obligations -0.20878659999999996
-4.571161655244917 borrowing -0.1777106
-4.398718532760339 dropped -0.5964897
-4.7307360490883985 midnight -0.1606373
-4.142831963262127 trillion -0.15804849999999998
-3.7134678303466897 legislation -0.3625986
-3.8381342175885207 lift -0.19774899999999998
-3.8590073278378783 fight -0.2515764999999999
-3.8608855897441856 cutting -0.28341579999999994
-4.064474417533275 capital-gains -0.2871754999999999
-3.7952922076274938 taxes -0.3796246
-3.7361770965864607 house -0.2803284999999999
-4.4740657537287465 voted -0.474104
-3.8363846098238197 raise -0.26289199999999996
-4.487316493256018 senate -0.2313142
-3.3985078423922137 act -0.3890141999999999
-2.9649807504282766 next -0.5991228999999999
-4.610305939426168 earliest -0.1361428
-3.7771934451072533 default -0.2809794
-3.096126324519291 if -0.5675187
-3.676727904463912 then -0.2580061
-3.7940286706020507 j. -0.19092639999999997
-3.356818554744859 senior -0.33810039999999997
-3.268014934185611 general -0.3587391
-3.305768908795706 manager -0.4392423
-3.3593279415088193 marketing -0.2732294999999999
-3.850860746105873 arm -0.45372879999999993
-2.7198572826492082 japanese -0.3260584999999999
-3.7795194674381904 auto -0.427312
-3.3626659549937017 maker -0.4475663
-3.7794669022229255 mazda -0.27356559999999996
-3.7119908492358302 motor -0.23521779999999998
-3.706751159243265 corp -0.8495642
-4.336754199164938 position -0.5054442
-4.142961288624506 oversee -0.1361428
-3.6511410290387025 service -0.3398748999999999
-3.731202994838125 previously -0.2774104999999999
-3.639566352143951 chrysler -0.2977974
-3.878755896988053 division -0.45994859999999993
-2.648952469249144 been -0.23760629999999996
-3.2156160216602494 executive -0.37690809999999997
-3.056553356669937 when -0.5039917
-3.1148719517651418 time -0.43586759999999997
-2.537812084700544 their -0.2862477
-3.560751829134022 nation -0.2209021
-3.7292814017040192 manufacturing -0.24561710000000003
-4.147398677866812 jet -0.15295229999999999
-3.1295863992449764 off -0.44603859999999995
-3.980245816843811 resort -0.22220049999999994
-3.9191124663819057 towns -0.1606373
-3.223736883499539 like -0.37025479999999994
-4.034001876295189 hot -0.17621219999999999
-3.783906823292367 springs -0.1361428
-2.934208129317622 not -0.3616348999999999
-3.2496701473503773 association -0.3835567
-3.639902789707447 manufacturers -0.37851189999999996
-3.805297919294788 settled -0.27657839999999995
-3.495685375546461 capital -0.4003025999999999
-3.6943459806662426 indianapolis -0.1361428
-3.810964006816793 fall -0.3446438
-3.4816052757999816 meeting -0.41471289999999994
-3.180052275966926 city -0.26170259999999995
-3.8672193605039706 decided -0.5296127
-4.042791641964704 treat -0.1361428
-3.753508342102098 guests -0.17329130000000004
-4.097621238379373 royalty -0.20215769999999994
-3.974791488274066 rock -0.2063096
-3.7252561730416502 stars -0.18111809999999998
-3.696303168931243 owners -0.2893495
-3.7114902039045923 idea -0.2629002999999999
-3.8931495563061462 course -0.22434020000000002
-4.025563172451716 prove -0.25995689999999994
-4.572448790698586 corporate -0.3065944
-3.5657276682963586 decision -0.3800011
-4.495766754281311 makers -0.28770999999999997
-4.640121249838543 buckle -0.21420599999999998
-4.58817828721788 belt -0.1678971
-3.105411736795406 so -0.4036269
-3.498865384748259 good -0.2627187999999999
-4.287596436760518 expand -0.1953576
-3.8221184009477027 receiving -0.1581247
-3.253436059375924 end -0.32660439999999996
-3.815833970376188 message -0.2089399
-3.137102001800851 officials -0.5303763
-3.924948354601954 giants -0.20536649999999998
-4.272270761201648 du -1.03689
-4.246553874191865 pont -0.1361428
-4.282558846529159 along -0.6066650999999998
-4.327809226833748 lesser -0.1361428
-4.0988356196346665 steel -0.2764306
-4.159014153409576 valley -0.2941512
-4.173358487049261 queen -0.17342280000000002
-3.4701201912451025 executives -0.3830936999999999
-3.8957677668327904 joined -0.3090118
-4.017120311207842 mayor -0.21610899999999997
-4.351643488118986 william -0.23566159999999994
-4.754180446278547 h. -0.1361428
-4.384116717636947 iii -0.19317059999999997
-4.511390562798319 evening -0.19065849999999998
-4.798599440083762 guest -0.1361428
-4.723310871420499 victor -0.19333589999999995
-4.1958696137683225 followed -0.4239145999999999
-3.936505390112069 morning -0.23678669999999996
-3.870395878661937 police -0.20754499999999998
-4.520330864671273 wives -0.1637985
-4.528454474926072 traffic -0.1946689
-4.5423585994568825 red -0.34270209999999995
-4.084520208644952 lights -0.20573719999999998
-3.6592085456261105 governor -0.24124029999999994
-2.874273470342097 could -0.4714981
-4.3228540700322 welcomed -0.27356559999999996
-3.575323965412829 special -0.1918795
-3.604453203115623 buffet -0.1361428
-3.7874510656224785 breakfast -0.1606373
-3.6136178933570506 held -0.3553976999999999
-4.281271149542379 museum -0.21438559999999995
-4.312999936969609 food -0.2741091
-4.224187928903217 drinks -0.17342280000000002
-4.562358683414195 banned -0.18650579999999997
-4.315985599013849 everyday -0.1864154
-4.473257742755825 visitors -0.1910858
-3.6345049493649064 honor -0.18117159999999993
-2.8645035319896515 out -0.5921514999999999
-4.073033103904199 drivers -0.17571869999999998
-4.376405923932979 crews -0.19312929999999995
-3.684952775247917 official -0.31146099999999993
-3.555995457256059 announcer -0.1606372
-4.369711890971423 exhibition -0.1768314
-3.9790550028909135 race -0.23215059999999996
-4.056459154029538 fortune -0.1361428
-3.7356134596380133 cars -0.3443843
-4.486917039041577 pointed -0.4134894
-3.446019836417506 still -0.2521651999999999
-3.6770966352346623 space -0.2650614
-3.946197702774511 machines -0.32466809999999996
-3.048364955450756 another -0.225391
-4.467818874816242 sponsor -0.23217290000000002
-3.6164712067969327 name -0.32274309999999995
-2.7704865375492775 two -0.3744752
-3.444499718932293 back -0.5107160999999999
-3.587923372168136 downtown -0.1935726
-4.337802437136326 squeezed -0.23500849999999998
-3.9520594165792176 meetings -0.2996175
-3.633290396427218 hotel -0.25178559999999994
-3.659581419559277 buses -0.1581247
-4.131175830803011 dinner -0.1637985
-3.681205223711233 block -0.19878889999999996
-3.4247273098685924 away -0.496653
-4.346466742513318 indiana -0.1361428
-3.8418652630072057 nine -0.3252478999999999
-4.424695937147991 hottest -0.1361428
-3.736474769105558 chefs -0.1361428
-4.4763379666028165 town -0.29386750000000006
-4.406254910344901 fed -0.19414379999999995
-3.0141765357879438 them -0.4703077
-3.9366609346920263 free -0.29304579999999997
-4.062399005854106 eat -0.15438289999999996
-3.588589165238036 gave -0.3594512
-3.7665500631477093 standing -0.22883549999999997
-3.0313132805367604 say -0.49631649999999994
-3.6423687718361295 treatment -0.26014429999999994
-3.510874214301899 return -0.4259340999999999
-3.6924206853377606 future -0.20923329999999998
-3.818873730565001 looking -0.6524528
-4.004044491841495 forward -0.2808639
-4.2581845841313575 winter -0.17329130000000004
-3.695083717095804 february -0.2683903
-2.9959357644572315 south -0.6240909999999998
-3.2299652916903634 korea -0.19517429999999997
-3.7662744418362126 registered -0.21721699999999994
-2.888202926424022 trade -0.3506546
-4.0146982188298495 deficit -0.2694253999999999
-3.0740046841621367 october -0.2666433
-4.540735713014833 reflecting -0.3549919999999999
-2.967804436337244 country -0.3152132
-3.150255900394385 economic -0.3561832999999999
-3.583978679924359 figures -0.32815469999999997
-4.238202813243249 released -0.29413959999999995
-4.414657174873687 wednesday -0.3722531
-3.8956913540985383 ministry -0.2861228
-3.8085011388530248 showed -0.3914252999999999
-3.584238947009208 fifth -0.21824049999999995
-3.7397516656075243 monthly -0.18122519999999998
-4.100577038881691 setback -0.24144189999999996
-4.027920548015295 casting -0.22796019999999995
-3.940367335030496 cloud -0.1678971
-3.568263640856335 economy -0.33328679999999994
-3.688565854232328 exports -0.35024149999999993
-4.390795143694278 stood -0.3765402
-4.393949781953148 mere -0.1361428
-3.374025087295729 increase -0.3758297
-4.135822230139459 while -0.29786569999999996
-3.5734523103878746 imports -0.3696111
-3.4101559185817103 increased -0.4225889
-4.264321696608449 sharply -0.3429398
-2.6495982995711356 last -0.7795550999999998
-4.526238954248471 boom -0.2683903
-3.514986864259159 began -0.34599929999999995
-4.452732428173913 prolonged -0.1581247
-4.293888410396886 labor -0.27574799999999994
-4.160179278937737 disputes -0.15295229999999999
-4.529841642965141 conflicts -0.21406149999999996
-4.409761743564509 sluggish -0.2228941
-2.762308333252079 would -0.5649655999999998
-3.5837891676123563 remain -0.23623279999999997
-3.84055014818823 target -0.27147549999999987
-3.8615887536071414 gloomy -0.1361428
-4.3630439949376445 forecast -0.32631039999999994
-4.360699966073387 recorded -0.22721630000000004
-4.375649044587215 surplus -0.22796019999999995
-3.7861455890106948 january -0.25958349999999997
-4.405071545901834 accumulated -0.1361428
-3.42580066553534 same -0.1404224
-3.5401055323934907 newsweek -0.18111809999999998
-3.498972310272563 trying -0.9301427999999998
-3.9151706642331896 keep -0.202994
-4.552450726404985 pace -0.2502735
-4.098352498744921 rival -0.1705538
-3.962201671599208 magazine -0.2904386999999999
-3.7194490372884115 announced -0.4996034
-3.681538545549672 advertising -0.3020498
-3.8969448459359746 introduce -0.21435989999999994
-3.715674917495868 incentive -0.27330689999999996
-3.3447002178807885 plan -0.4541764
-3.6691756966193805 advertisers -0.2708364
-3.089208722714758 ad -0.3321247
-3.566593523368038 washington -0.2850240999999999
-3.8870792750760526 post -0.21450699999999998
-4.208845442235453 second -0.212509
-3.5212868859257127 offered -0.4782342
-3.787271606994772 plans -0.6111440999999999
-3.7025228509712287 give -0.2672037
-4.463259152957695 discounts -0.18650579999999997
-3.847414800805624 maintaining -0.1606373
-3.658435002612645 increasing -0.2807756
-3.026159052948194 spending -0.38005479999999997
-3.5941210495171307 become -0.29333590000000004
-4.693722956362586 permanent -0.2431828
-3.4273346953688844 news -0.4026682999999999
-4.5942191306813465 underscore -0.21391699999999994
-4.525170599980661 fierce -0.1637985
-3.7820435866617026 competition -0.46642269999999997
-3.719857952478083 between -0.425126
-4.510871722704937 warner -0.30197809999999997
-3.9904853271932303 b. -0.20009530000000003
-3.03865919560814 world -0.2861815999999999
-3.6086811831799515 full -0.20632209999999995
-3.7105271923839784 page -0.1605521
-3.7015733635397705 cost -0.3973259
-3.5999014660910715 mid-october -0.16570639999999998
-4.463215886525827 lowered -0.31691829999999993
-4.542624506769651 guaranteed -0.2649214
-3.4562293354969467 circulation -0.22283509999999995
-4.408859293886445 base -0.28215869999999993
-3.7857831532719572 lower -0.36624739999999995
-4.248118912434706 effectively -0.18563679999999996
-4.2753391736590425 per -0.2597841000000001
-4.414172874221419 subscriber -0.18127879999999996
-4.042563195428559 costs -0.5178404
-3.8989746684135014 yet -0.26334409999999997
-4.195892072770912 announce -0.1760987
-3.7082565464379993 credit -0.3413574999999999
-4.185973818781147 credits -0.28100829999999993
-4.0729382837352714 renewal -0.1361428
-4.0364905128965445 reward -0.21462
-3.7897813117516623 bonuses -0.21401339999999996
-3.6594186674020506 meet -0.20824029999999993
-4.2838442043674725 exceed -0.32803009999999994
-3.5781892295631903 long -0.22661379999999998
-3.95082610509338 spent -0.3263389
-4.387684065384601 attempt -0.5311358999999999
-4.247764856498604 shore -0.17342280000000002
-3.536213693029555 decline -0.41373489999999996
-3.5564072424264594 pages -0.2656972
-3.432409449146715 months -0.3514303999999999
-4.1263098976103265 totaled -0.8061318999999999
-3.692641180456956 drop -0.3626119
-4.1294626526244125 publishers -0.1713789
-4.048614132298176 bureau -0.3091441
-3.2871059443199924 what -0.5067838
-3.7882543243004516 matters -0.2673957
-3.5353367157511286 paying -0.29065469999999993
-3.1950244579192626 department -0.38600759999999995
-3.6801868718596147 doing -0.34030599999999994
-4.18867562344284 fine -0.3053829
-3.38289896874157 both -0.2742969
-3.988702918092238 gaining -0.16778579999999996
-3.189952992652974 without -0.30071739999999997
-3.8358280863933567 heavy -0.21597879999999994
-3.3447835782120197 use -0.4081913999999999
-4.1422467108619285 electronic -0.2531295
-4.589971341364186 subscribers -0.20733149999999997
-4.564068591373084 telephones -0.1361428
-3.7133612154663096 watches -0.1361428
-4.016519637088917 however -0.32023769999999996
-3.7723666059505514 none -0.4036926
-3.5214263264619934 big -0.2530211
-3.8045633046938376 gains -0.4722492999999999
-3.9311453829239764 audit -0.18859589999999996
-3.6468093703365607 largest -0.17845959999999997
-3.992570584973545 decrease -0.2688947999999999
-3.699896086385793 six -0.40222189999999997
-3.983105222792533 flat -0.24171559999999992
-3.687352994723784 electric -0.2580276
-3.638745219345112 system -0.4501597
-4.197359749144346 bowed -0.28824089999999997
-4.128187757083576 bidding -0.3112841
-3.524035916687182 public -0.27383469999999993
-3.3829251195832795 hampshire -0.1361428
-3.5035186677657717 saying -0.4329863
-3.848218746363898 risks -0.282676
-3.3598477535450253 too -0.42027869999999995
-3.825044572064292 potential -0.23731789999999992
-4.147521796668364 justify -0.1361428
-3.4142438668586768 offer -0.38438479999999997
-3.8201053890604553 move -0.3150667
-3.860083830844991 leaves -0.26005899999999993
-4.202482470492458 united -0.37029989999999996
-3.865659482459734 illuminating -0.1361428
-3.5077965057779847 northeast -0.23973029999999995
-3.8650334344210915 utilities -0.2053731
-3.6176031238636948 outside -0.3095319999999999
-4.101407174763403 bidders -0.22251080000000004
-3.6058585566025783 ps -0.8028070999999999
-2.8341700937834133 also -0.38115999999999994
-3.772476299211284 proposed -0.2273209
-3.6526629937673736 internal -0.191104
-4.0801725143784715 reorganization -0.35126289999999993
-4.502270852867474 chapter -0.5150432999999999
-3.871056557340357 bankruptcy -0.3229846
-3.922275331929719 proceedings -0.2600532
-3.96854462242349 independent -0.2245404
-3.8767511207498853 acquire -0.1664226
-3.6836212368884533 below -0.4634074
-3.3885984473780986 value -0.42746839999999997
-4.051548516024885 places -0.28354889999999994
-3.3602620641386265 bid -0.44988989999999995
-2.580896284417501 says -0.5535978
-3.904946794634424 worth -0.33460249999999997
-4.525239628395276 haven -0.19892899999999994
-3.940322788036879 conn. -0.1646449
-4.23884053484289 hartford -0.23656539999999998
-4.21356093414908 conn -0.2808639
-4.5339211473538485 n.h. -0.1361428
-3.846680982870258 values -0.27311069999999993
-3.6650736394828973 john -0.2876274
-3.5968502000456235 rowe -0.1361428
-3.256945514259105 chief -0.4247252
-3.5343282871513133 officer -0.3009909
-4.230459485495511 equity -0.2994706
-3.6702254261465486 suffer -0.29784760000000005
-4.4101282937989685 forecasts -0.332736
-3.906469300254297 related -0.49205869999999996
-3.6028318838531375 growth -0.4621422999999999
-4.119318957375186 electricity -0.1750497
-3.559842273684485 demand -0.5098323999999999
-3.9543029236939744 improved -0.2252631
-3.869922094058119 operating -0.4224492
-3.0454775977335258 did -0.605144
-4.102915643246113 come -0.45944889999999994
-3.8869078296584734 true -0.26014620000000005
-3.656607611418071 raising -0.2736614
-3.9895332571088145 seemed -0.47228689999999995
-4.294635448445065 substantial -0.15575269999999997
-4.231713278142196 persistent -0.18865880000000002
-4.365830042722159 rewards -0.18865880000000002
-3.1931476130712406 way -0.40522189999999997
-3.7844307226791596 got -0.3179855999999999
-3.4516216819538412 hard -0.328282
-3.255024173206515 take -0.3674628999999999
-3.407403604842998 added -0.45446029999999993
-3.876530624691288 noted -0.5372282999999999
-3.2092535789794283 political -0.22270799999999996
-3.655426635845619 concerns -0.4480044999999999
-4.380359988295739 worried -0.490592
-3.764964474954128 matter -0.22056489999999998
-3.830036524789119 owns -0.42668429999999996
-4.344439487442114 emerges -0.22480739999999996
-3.6310532717631134 attracts -0.1361428
-3.5581299331173115 just -0.4111002999999999
-3.7472631372397736 factors -0.29443659999999994
-4.166562999504213 withdraw -0.20556719999999995
-3.606561780613828 ross -0.16131389999999998
-4.026708065003043 jr. -0.2620678
-4.53809826674012 rothschild -0.18650579999999997
-4.297353120318263 adviser -0.3207982
-3.879954519503065 troubled -0.16111299999999998
-4.455454242244256 holders -0.4123833
-4.534309773900723 withdrawal -0.289439
-3.814619941767201 might -0.39822749999999996
-4.464664618661513 speed -0.24575269999999994
-3.6364896421748067 fact -0.19841350000000002
-3.445594934744475 increases -0.3789642
-3.4211115236036362 against -0.40685109999999997
-3.363913442662176 around -0.4913629
-4.083926939695901 complicated -0.17571869999999998
-4.145761043738502 negotiations -0.36694229999999994
-2.992977725842988 state -0.3191463
-3.7514021084691214 asserted -0.3516952
-3.849002538293657 field -0.24627239999999995
-3.3376952057358746 less -0.34521349999999995
-3.0821078174613343 commission -0.2702127
-3.612340609331869 turned -0.41340669999999996
-3.7188361814067212 request -0.2561960999999999
-3.633045075745427 seeking -0.3852999
-3.4451074059206492 possible -0.22468069999999998
-3.4933441517794397 purchase -0.2922437999999999
-4.656087412597195 hopes -0.5646999999999999
-3.4825799101498065 review -0.29366089999999995
-4.595253774174273 ferc -0.1361428
-4.367255131051479 summer -0.25423049999999997
-3.4227269478868645 court -0.31706629999999997
-3.125321202722448 shares -0.5375856999999999
-3.8754995002219967 closed -0.5835889999999999
-3.3068629492037536 yesterday -0.46817609999999993
-3.687794542118544 cents -0.27753869999999997
-2.9727428015139385 york -0.13786100000000004
-3.003203722469491 stock -0.4576447
-3.388407594001932 exchange -0.30380419999999997
-3.7409984706712147 composite -0.22912629999999998
-3.3385416110852937 trading -0.39633579999999996
-4.44770657584864 norman -0.1581247
-4.602160773244009 toys -0.1361428
-4.513734080866822 r -0.1361428
-4.519254028760001 frederick -0.1678971
-3.614675676635622 banking -0.2840271999999999
-4.353899750824141 directors -0.31534559999999995
-3.7204302035217145 consumer -0.31026519999999996
-3.83071251450592 electronics -0.24245779999999992
-4.112922735081953 appliances -0.19333589999999995
-4.647382358598203 retailing -0.18123289999999997
-4.617095656384038 chain -0.26812559999999996
-3.7059495280967623 succeed -0.25541919999999996
-3.864770081805196 daniel -0.22123329999999997
-3.8375609660195487 m. -0.1459969
-4.034624550432567 retired -0.17211809999999997
-4.197064872320098 circuit -0.435518
-3.60612159506599 robert -0.27919229999999995
-3.4890458646377374 r. -0.1503195
-3.8409836120779963 undersecretary -0.17342280000000002
-3.6309119348102583 commonwealth -0.34750309999999995
-3.1958129309414534 edison -0.23966459999999995
-3.7643067341862126 ordered -0.3873906999999999
-3.380505559246973 refund -0.1361428
-3.74131147818565 illegal -0.20335159999999997
-4.4698467911303 collected -0.2312948
-4.620790772461036 overruns -0.1361428
-3.91072688929423 nuclear -0.3235197
-4.0981406881501625 power -0.39354189999999994
-3.896570441360128 illinois -0.1492866
-3.439431704579413 commerce -0.23591909999999996
-3.6518909048048127 groups -0.3450254
-3.74038903402239 ever -0.19824429999999996
-4.3926995653835075 required -0.34245889999999996
-3.5001646469705925 local -0.1931169
-3.823988037548249 utility -0.19786709999999993
-3.1830646065167585 judge -0.2744474
-4.368313560479089 richard -0.2557738
-3.553143728780056 curry -0.18659619999999996
-4.426751344284456 refunds -0.21406149999999996
-3.3587260974106585 each -0.30682719999999997
-3.6838923061011233 customers -0.3637247
-4.049937953765352 received -0.3639497
-4.211390634369833 april -0.42893279999999995
-4.524662535705884 moved -0.3122453
-3.9610822875476486 begin -0.21157039999999996
-4.544398487679822 feb. -1.0076949999999998
-3.9370379214170836 appeals -0.21469229999999997
-4.22849297652099 attempts -0.6790379999999999
-2.808471166467814 his -0.3051782
-3.9008246119735506 order -0.3324043
-4.086014178852007 pool -0.1753159
-3.3790054688838924 through -0.41489479999999995
-4.143351541765085 round -0.41419229999999996
-3.8651754684255972 already -0.32821839999999997
-4.44041408446013 appealing -0.29708379999999995
-4.415677447319953 underlying -0.14757339999999997
-4.302801927628662 considering -0.2305567
-3.734811891312982 exact -0.1756253
-3.7178270520190395 amount -0.4361451
-3.9165500867402687 determined -0.32036
-4.136073947540754 actual -0.15252409999999997
-3.8294146698160723 dec. -1.422668
-3.522348717892587 ruling -0.2509538
-4.096945481422368 slash -0.1637985
-3.7359469198602078 earnings -0.4665685
-3.5669016055272573 spokesman -0.6158121999999999
-4.176535041637407 tracking -0.18853309999999998
-3.779483005050508 whose -0.17079909999999998
-4.165551613564497 addresses -0.1361428
-3.8780773556409205 changed -0.34016339999999995
-3.570592779265259 past -0.1800849
-3.7872491849993057 administrative -0.2258
-4.123560375148439 nightmare -0.21420599999999998
-3.754098849322893 near -0.3160731
-4.0122226194190205 ill. -0.1455638
-3.7563980772467747 disputed -0.17342280000000002
-3.194181601400663 pay -0.3118581
-3.895492918622407 courts -0.2884912
-3.965078930143255 upheld -0.22251080000000004
-4.403728437194779 challenge -0.32976059999999996
-3.9638369974927072 supreme -0.7203999
-3.0426063989756154 construction -0.3102672
-3.8504398495254972 expenses -0.3909458
-4.249765495621925 collecting -0.1581247
-3.8708216899902212 subject -0.6214985999999999
-4.152500824283016 ruled -0.4217167
-3.9200148527220615 plus -0.2685583999999999
-3.764148817906115 additional -0.2059128
-4.193998503256637 calculations -0.23833559999999995
-3.032382316654912 month -0.2983907
-3.3695491993602746 set -0.5260437
-4.593924678059657 faces -0.265669
-4.396340661918893 appellate -0.39728199999999997
-4.085322198928288 estimated -0.42373649999999996
-3.8490102908039816 hope -0.4683987
-4.475561338978569 precedent -0.2019168
-3.378814979883257 case -0.3554153
-3.7289854399472055 involving -0.22378690000000004
-3.870432279163053 rule -0.2702275
-3.700313581980885 poor -0.170525
-4.111670644467955 performance -0.37903429999999994
-3.451633662321332 i -0.49461639999999996
-2.7988891833833125 japan -0.3668056
-3.708113078805142 domestic -0.23977269999999998
-4.176419022211172 trucks -0.28231509999999993
-3.804877834530352 units -0.378317
-3.6532873646793895 record -0.28077319999999995
-3.881510532581197 automobile -0.18150899999999998
-3.685795961391298 dealers -0.3499007
-3.609617226216868 strong -0.2770489
-4.5290916410968265 year-to-year -0.1361428
-3.0121091037399044 september -0.2638157
-4.201997272033611 setting -0.3207467
-3.8271215055761374 records -0.3111093999999999
-3.726185978992521 every -0.2586298
-3.575494291258402 march -0.3874871999999999
-3.48895338826161 compared -1.160966
-3.849334684000316 previous -0.17160559999999997
-3.9962135767158298 inched -0.27488099999999993
-3.9354934046945376 passenger -0.1837044
-3.8708344005260504 medium-sized -0.1361428
-4.074011814420482 benefited -0.5150432999999999
-3.566184303733948 price -0.41462819999999995
-4.067970548397975 reductions -0.28466339999999996
-4.100918972490144 arising -0.28824089999999997
-4.0918581139091925 introduction -0.22796019999999995
-4.135297707355491 consumption -0.23381489999999996
-3.744413622958981 tax -0.33855459999999993
-4.1402854121958965 doubled -0.19793529999999998
-3.6608728878993175 texas -0.30113969999999995
-3.626639275411047 instruments -0.2717703
-3.522895822939759 opened -0.37049109999999996
-3.9755428770061876 manufacture -0.1361428
-3.434891750443773 control -0.47516829999999993
-3.6527753350820458 devices -0.20179049999999998
-4.247160581918089 located -0.31651909999999994
-3.5366423668970643 miles -0.23057129999999992
-3.7615447419960337 seoul -0.19999519999999998
-3.075815994250219 help -0.25659709999999997
-4.322616786264433 diversifying -0.2019168
-3.982829223322891 produce -0.2294036
-4.213195612477048 vehicles -0.26522109999999993
-4.185079868467674 household -0.204788
-3.659989781559143 survival -0.23656539999999998
-3.4710437412393613 spinoff -0.17342280000000002
-2.867263379102098 cray -0.47198149999999994
-3.285596169504201 computer -0.31249039999999995
-4.169155498460851 fledgling -0.1361428
-3.6259649098464424 supercomputer -0.17342280000000002
-3.144711539446414 business -0.4192598
-4.079230257744396 depend -0.43541479999999994
-3.810057328311416 creativity -0.18127879999999996
-3.789682646650407 designer -0.1704387
-3.741972185313315 seymour -0.18127879999999996
-3.539976693181342 development -0.32644769999999995
-4.037447759148406 initial -0.22471199999999997
-3.52638078783097 machine -0.34081819999999996
-4.159430028684938 tied -0.524053
-4.245389159343371 directly -0.3494191
-3.706118488407499 balance -0.3429068
-4.2952337482055105 sheet -0.1958573
-3.6500676771746954 documents -0.287571
-3.8729024192856296 filed -0.5691810999999999
-3.8552885683982887 pending -0.2782391
-4.105019346808481 disclosed -0.35860159999999996
-3.676504882178403 financing -0.30983569999999994
-4.420246578440599 providing -0.2932427
-3.297485756777736 firm -0.39852889999999996
-3.5561300930336484 project -0.23974440000000002
-4.1114707309483345 heads -0.1910858
-4.306079333813482 scrapped -0.1606373
-3.7908979235457774 working -0.39414799999999994
-3.316003360782193 cray-3 -0.1361428
-3.5168415780752715 least -0.15310409999999997
-3.5597475626511526 fully -0.2421032999999999
-4.1022422418935784 operational -0.14893819999999997
-4.050027676109885 prototype -0.1361428
-3.2178547126660253 orders -0.4487748999999999
-3.4687447116409635 several -0.2975194
-4.3650946493820895 prospects -0.3858134
-3.0215008981542506 many -0.33851659999999995
-4.0692342425664485 anticipated -0.24943030000000002
-3.9696472650020835 attached -0.5745956
-3.172055696486613 much -0.40457049999999994
-4.341667206111494 choice -0.3603889
-4.065853935168448 gregory -0.1361428
-3.754536958052906 interview -0.23660340000000002
-3.6939047456950793 theory -0.18407309999999993
-3.3393974103615065 him -0.44399669999999997
-3.5653662817644842 want -0.4361117
-3.5850806997780555 include -0.2781326
-4.172615772805095 anticipates -0.15295229999999999
-3.7959787515347845 perhaps -0.2518062999999999
-3.571964857676405 beginning -0.3533414
-3.40802941369951 called -0.41511839999999994
-4.113020782057765 scenario -0.22802909999999998
-3.653355231886589 filing -0.2617041
-3.766950920781488 details -0.5053424
-4.143835604319315 jump -0.31114149999999996
-3.8581195829364874 close -0.40890789999999994
-3.7666392585027446 analysts -0.5262624999999999
-4.47065133992637 link -0.2525742999999999
-4.220882610576471 note -0.37809409999999993
-3.678676151989464 presence -0.3547721999999999
-4.37967065690356 complicate -0.2312948
-4.548926768593783 valuation -0.1637985
-4.583487246082245 investor -0.3034607999999999
-4.210262962794497 gary -0.1361428
-3.8613148907743784 p. -0.1361428
-4.573104845149906 minneapolis -0.19346419999999995
-4.373375667861867 concept -0.1880263
-3.7147264911078586 either -0.2537399
-3.73901502654233 believe -0.41417319999999996
-3.0466628493641035 do -0.589615
-3.6437844161729385 age -0.366461
-4.116544554437829 tricky -0.17342280000000002
-4.109644659942731 chip -0.19648359999999995
-3.716075446462725 technology -0.35601789999999994
-3.6726429600590755 sec -0.1807521
-4.187357487676927 describe -0.1581247
-4.186859282375779 chips -0.24725669999999997
-3.432033566495902 being -0.25522769999999995
-4.085099021128635 fragile -0.18111809999999998
-4.1011307927222855 minute -0.17031809999999997
-3.9422172527975428 require -0.21824999999999997
-3.9115326452337342 handling -0.26014489999999996
-3.8815397426700877 equipment -0.33014679999999996
-3.5337931768104696 addition -0.1907509
-4.386853588351922 contain -0.19720799999999994
-4.4810403293844185 processors -0.1361428
-4.785520664538965 twice -0.39961139999999995
-3.654157649979565 face -0.30098949999999997
-4.112260333083071 intense -0.18908210000000003
-3.899211212976341 roll -0.19326699999999997
-3.8190336114680012 direct -0.26584689999999994
-3.9359077036289234 competitor -0.19065849999999998
-4.369220739917617 compete -0.26618
-4.111013212336763 hitachi -0.24256589999999995
-3.9920516129495933 nec -0.2648018
-3.9200054556467503 fujitsu -0.23966449999999997
-3.834672584116815 ltd -0.7841154999999999
-4.44680656229827 believes -0.33923229999999993
-3.884746975086879 fewer -0.2852839
-4.304614453234309 priced -0.42268039999999996
-4.1363136736010535 presumably -0.17342280000000002
-4.262574386897893 range -0.4580443
-3.7137035748141676 terms -0.39527739999999995
-4.254560278839181 stockholders -0.2604853
-4.189314485597033 receive -0.25312299999999993
-3.1247986726979193 own -0.1997398
-4.077737456116119 distribution -0.209092
-4.092297886642876 occur -0.2542941
-3.5917996998160087 weeks -0.35293899999999995
-3.5714161533332285 companies -0.49666250000000006
-4.176354201322912 leave -0.23568639999999993
-4.274689801908949 marketplace -0.16633169999999997
-4.287013802192758 decide -0.3006154
-3.9438989898114225 applied -0.39821139999999994
-3.559287163679848 nasdaq -0.2958971
-3.643343753269041 calculate -0.1361428
-4.070294734921035 book -0.24970830000000002
-4.071684162686818 primarily -0.29751839999999996
-4.0591284595109585 drain -0.24867909999999996
-3.625289304881041 sheets -0.16778579999999996
-3.6515484399862035 clearly -0.21323539999999996
-3.7079136753312127 why -0.32502359999999997
-4.2477367100510595 favored -0.1733351
-3.6515622750040855 able -0.8110782999999999
-3.6588726636871565 profit -0.4800218
-3.8567306584183845 half -0.40654999999999997
-4.165885574871129 rather -0.7312531
-4.033441928625464 posted -0.44641529999999996
-4.1926894872332285 hand -0.24163719999999997
-4.601971219877473 existed -0.1361428
-4.547753643724523 incurred -0.2355293
-4.019719988310177 loss -0.4404968999999999
-3.9751910590511024 comment -0.3752540999999999
-4.030954336646778 colorado -0.23217290000000002
-4.102122135429851 colo. -0.1361428
-4.000807447325483 contractor -0.23796309999999996
-4.07742743015527 arrangement -0.18122519999999998
-4.22767036088032 father -0.1747126
-3.346149874572589 paid -0.40214539999999993
-3.8009394220474775 messrs. -0.23011999999999994
-3.5496755837591487 includes -0.30336959999999996
-4.485823934512215 neil -0.1361428
-3.943830852097592 joseph -0.18407309999999993
-4.288807307422519 malcolm -0.16954749999999996
-3.7724326481740027 software -0.2956227
-3.90070286728086 douglas -0.15363839999999995
-4.440196511424875 hardware -0.3384673999999999
-3.6550837081685756 came -0.5488359
-3.7222546988896146 stevens -0.1361428
-4.260684665484638 positions -0.3607697
-4.586645313700553 donald -0.19681619999999994
-3.7520686512561494 hatch -0.1361428
-3.648179616080873 eastern -0.3035635
-4.066186128687837 claiming -0.3166372
-4.520144074492375 success -0.30208519999999994
-3.906302383468491 removed -0.21453719999999996
-3.7838370116712716 taiwan -0.255224
-3.913016871089482 saudi -0.4096872
-3.7680857707033826 arabia -0.1361428
-3.60281433411054 list -0.30139779999999994
-4.208284001961738 watching -0.31904609999999994
-4.091139450605037 allegedly -0.15697989999999998
-3.790678392369048 failing -0.6118570999999999
-3.7092344553231382 patents -0.16570639999999998
-3.221206415351707 rights -0.39719249999999995
-4.154215765807444 china -0.33372289999999993
-3.9971323166998043 thailand -0.1361428
-4.534537577606048 india -0.317871
-4.6091409722856085 brazil -0.22041209999999997
-3.9185923911180236 mexico -0.27038999999999996
-4.162020549376128 so-called -0.15956629999999997
-3.9274502913048797 priority -0.20679609999999998
-3.779335436574978 result -0.2557648
-4.504304500186002 interim -0.1637985
-4.367679876773919 representative -0.15705229999999998
-4.698455002503387 carla -0.1361428
-3.476809630760014 hills -0.1678971
-2.92082016865504 law -0.3957786999999999
-3.7833983727977825 accelerated -0.2019168
-4.128331059021401 investigations -0.18650579999999997
-4.268660437280611 stiff -0.23656539999999998
-3.649101234555267 sanctions -0.3110050999999999
-4.091147614070798 improve -0.22507440000000004
-3.854747658269114 intellectual -0.1560797
-3.4518620389725307 property -0.3074407
-3.604840157639647 spring -0.21030749999999998
-2.8612092453402185 mrs. -0.5892466999999999
-2.5490130397526065 she -0.4645734999999999
-4.068287193290049 placed -0.2166792
-4.001432106538731 degrees -0.1637985
-4.42538176538543 scrutiny -0.26892389999999994
-4.549820543523289 genuine -0.1361428
-3.7751778980193587 progress -0.30788799999999994
-4.350252989752007 touchy -0.17342280000000002
-3.4398034751118103 growing -0.18923329999999997
-3.981573058358888 citizens -0.2759599
-3.971201694987973 negotiators -0.16570639999999998
-4.106124929173862 inadequate -0.2074142
-4.002438566503233 hurting -0.15438289999999996
-3.5117955258944824 themselves -0.33577629999999997
-3.94354111575454 discouraging -0.1560797
-3.815868953316061 scientists -0.23602119999999993
-3.620495412821868 authors -0.16778579999999996
-4.0082529996657845 high-technology -0.1361428
-3.5580874311883495 firms -0.38910359999999994
-3.92137657332814 investing -0.3481197999999999
-3.702102264878605 best -0.1866555
-4.294255796088924 creating -0.34420189999999995
-4.082991927115866 task -0.2812027
-3.7046656221558725 enforcement -0.2057861
-3.811691490566911 teams -0.22651700000000002
-4.272858525962153 officers -0.25541919999999996
-4.083424320556524 prosecutors -0.25737459999999995
-4.162424176806 trained -0.1678971
-3.9844686732923122 pursue -0.16259619999999997
-3.494735904806563 movie -0.22694769999999995
-4.15714628327003 instituted -0.24348480000000003
-3.874157029695245 effective -0.27063589999999993
-3.720900400084792 procedures -0.3040139
-3.8909303994942133 aid -0.3254911
-3.6805765843715945 copyright -0.2194582
-3.597257581898601 agreement -0.42001789999999994
-4.442218212479484 trademark -0.1361428
-4.484756280392357 introducing -0.1361428
-3.721316632513642 protect -0.17654429999999996
-3.012777740900668 foreign -0.3608229
-4.1299995345898015 producers -0.3118837
-4.447132811716613 unauthorized -0.1361428
-4.371192103450981 films -0.18117159999999993
-3.7526270087465043 measure -0.2678455
-4.595391041906148 taipei -0.2590594
-3.5623321452712804 small -0.2983525
-3.7159299232288654 showing -0.30008769999999996
-3.242920058860382 part -0.5766144999999999
-4.0521236881609815 vowed -0.6462680999999999
-4.0292924400940135 enact -0.1361428
-3.9736307718458197 compatible -0.43541479999999994
-3.7329151341406446 standards -0.37952339999999996
-3.8843065920354034 apply -0.41753319999999994
-3.921812288070043 literary -0.1678971
-3.952449935886345 works -0.2642188999999999
-4.099592912293515 completely -0.17129609999999998
-4.001707331414297 hook -0.21391709999999994
-4.37854512017748 italy -0.33430979999999993
-4.123623448244497 canada -0.3045077
-4.3068836685783785 greece -0.2469599
-3.857901930088003 spain -0.23223319999999997
-3.3235923124784597 concern -0.5287258
-4.242037735968281 deemed -0.18127879999999996
-4.244790674986262 pose -0.25873909999999994
-3.4915316837788035 problems -0.4444482
-3.2144596987971776 american -0.3142175
-3.925650603314981 patent -0.2411554
-3.6050305099174595 hoffman -0.18865880000000002
-3.5482201134786804 lawyer -0.25985259999999993
-4.512662276417949 specializing -0.6097549999999999
-3.643519028861864 cases -0.33953339999999993
-3.8575474112556907 threat -0.3673100999999999
-3.7419586788275225 combined -0.23733779999999996
-3.9582911881001412 recognition -0.2105922
-4.093038409472877 protecting -0.331432
-4.019352567703378 prompted -0.36490579999999995
-4.079705588027027 improvements -0.3315352999999999
-4.052867452317364 tells -0.2774077
-3.63286921897787 efforts -0.5961376999999999
-4.046553682755467 craft -0.1361428
-4.36568397379346 concerned -0.4755323
-3.7161515646049876 disturbing -0.1361428
-4.2948749594465045 developments -0.21462
-3.8797851821388893 turkey -0.1958573
-4.161568199873428 continuing -0.2063258
-4.132322463560874 slow -0.2543668
-3.5462049513184386 malaysia -0.25236499999999995
-4.16812456382367 elaborate -0.18650579999999997
-3.7482755525373825 reports -0.37514679999999995
-3.791854768822949 complained -0.46278339999999996
-3.9636860365385402 videocassette -0.18127879999999996
-3.917243097413709 pharmaceutical -0.28572139999999996
-4.299975656822828 requires -0.2192606
-4.285368493776413 bad -0.24654299999999996
-4.644461760987621 enough -0.39695469999999994
-4.594771657085669 merit -0.1361428
-3.9462700179396224 investigation -0.3293995
-4.414690653231699 provision -0.3018667
-3.6835214990666714 ask -0.23422859999999993
-4.188312503331976 creditor -0.18457389999999999
-3.608694653114939 banks -0.41452739999999993
-4.193111100872174 developing -0.23535559999999997
-3.621050775221468 declaration -0.18127879999999996
-3.812231665933136 minister -0.19050749999999997
-4.437482470370356 believed -0.3792329
-3.728356256490735 action -0.374292
-3.6429459513646085 latin -0.5100483
-3.571560356926836 little -0.24807889999999994
-3.8677795850353975 reach -0.23893689999999998
-3.7298370798065985 reduction -0.3502868
-3.8187184002136147 external -0.15607979999999996
-4.040976599200571 met -0.28071329999999994
-3.6026745507995437 assistant -0.3285144
-3.692278368683975 secretary -0.3228142
-3.623795011987557 david -0.251386
-3.9076394013017874 mulford -0.1361428
-3.635183504324616 negotiator -0.1361428
-4.202678400313779 carlos -0.1361428
-3.1899326380638713 office -0.37559099999999995
-4.311131417180617 feels -0.1768314
-3.587339868715222 significant -0.1798935
-3.4672003404647866 principal -0.2456403
-4.5856052711153 solved -0.1361428
-3.4217336494429604 wants -0.4800219
-3.9510086740971015 centennial -0.21420599999999998
-3.656773453332225 wall -0.625589
-3.6366314041864527 street -0.17029550000000002
-4.075807056512011 century -0.21295769999999994
-4.241056468759237 stand -0.30469559999999996
-4.532976272448767 milestones -0.1361428
-4.036553386234087 history -0.40101
-3.769745352063325 computers -0.3448783999999999
-3.7631282673929074 personal -0.3345446999999999
-3.9999329004949122 computing -0.1606373
-3.832055150384196 launched -0.3503701
-3.737342532150316 apple -0.2954494999999999
-3.486569775942055 ii -0.22122269999999994
-4.645964514944397 commodore -0.20203719999999997
-4.523981087929745 pet -0.20556719999999995
-4.470532806955069 tandy -0.2086796
-4.361385544712608 crude -0.3355639
-3.4232305890790613 television -0.2951408
-3.606019554443396 sets -0.244628
-4.0262605045317015 screens -0.1768314
-3.4639780839340193 data -0.3415005
-3.367088004156702 major -0.22231649999999994
-3.8776485414807254 advance -0.23857439999999996
-4.01509698417342 built -0.3753314
-4.490910304188466 garage -0.1361428
-4.3473609426560635 stephen -0.1832652
-4.3996583718376145 steven -0.18127879999999996
-4.3633755588772205 jobs -0.28873019999999994
-4.2682419095276 club -0.21855170000000002
-4.033168412507763 affordable -0.1361428
-3.4809106662730533 pcs -0.17831609999999998
-4.001016890613136 triggered -0.3547017
-3.9526707240541166 explosive -0.1361428
-4.032663839720609 product -0.3327551
-3.8931858848820537 desktop -0.3011636
-3.8153888584381717 models -0.23901499999999992
-3.3826776041835007 home -0.3225334999999999
-3.5974216483325336 mainframe -0.18676880000000004
-3.8286566006534763 unlike -0.23916590000000001
-3.709968484559469 types -0.7530811999999999
-4.44336631817942 store -0.2088365
-3.843011958611005 memories -0.23656539999999998
-4.48685325068957 faster -0.3885902
-4.206227206530958 memory -0.29733719999999997
-3.896972744299226 capacity -0.33991669999999996
-4.382178483497378 greater -0.22830459999999997
-4.379385205967192 counterparts -0.25019549999999996
-3.8538839924733255 pioneer -0.17129609999999998
-3.8573069265366318 pc -0.1756253
-3.7945058953569784 gates -0.165603
-4.429836251800009 paul -0.2205378
-4.530667914050815 allen -0.18121449999999995
-3.7945435144646056 developed -0.37746969999999996
-3.089613954779033 became -0.30993289999999996
-4.278359820965935 billionaire -0.1637985
-4.17122481302069 ibm -0.3092752
-4.245416389467327 adapted -0.18127879999999996
-4.188057369391353 versions -0.3658876999999999
-3.5994152278210225 f. -0.1361428
-4.134706682167447 seagate -0.33885579999999993
-3.9979203918983823 disk -0.37371409999999994
-3.998951229563266 drives -0.22356959999999998
-4.213489916292334 dale -0.1361428
-3.997092253885033 atlanta -0.20606199999999994
-3.9739450945772883 engineers -0.2225642999999999
-3.8310740535866494 allow -0.23124569999999994
-4.001418642455829 via -0.30060769999999987
-4.114392050005886 telephone -0.30866089999999996
-4.049479393702856 leader -0.283488
-4.011817055152104 entered -0.3655196
-3.7264789167486647 shipments -0.33712439999999994
-3.6304668031119887 annually -0.25977089999999997
-3.92993686645347 australian -0.17867209999999994
-3.979711838937572 pharmaceuticals -0.1605521
-4.135447073281669 affiliate -0.3108271
-4.057912669451897 acquired -0.32135779999999997
-4.2565292423784165 sells -0.2242555
-4.235323321784015 label -0.331432
-3.8512722336609997 voting -0.23200050000000003
-3.919843916130311 stake -0.4493908999999999
-4.011692160495508 together -0.3387536
-4.004640780476248 convertible -0.4159224999999999
-3.9259978388250256 preferred -0.4506506
-4.491163352752328 holdings -0.32334809999999997
-3.746035026322422 gives -0.3625999
-3.400055465313925 right -0.39462879999999995
-3.5863415614835117 oil -0.41146549999999993
-3.461003680205116 production -0.3700413
-3.8605497808679257 australia -0.2670931999999999
-4.488952512395486 bass -0.17342280000000002
-3.9870720392317187 raised -0.41111169999999997
-3.4117629560440768 barrels -0.2095475
-3.7703125300321325 launch -0.22948499999999997
-3.875454258569571 scheduled -0.4423137999999999
-3.8199166742916137 brought -0.31564139999999996
-4.461198520608203 exxon -0.2534525999999999
-3.9596685595028966 broken -0.19083179999999997
-4.2460715737704415 hill -0.201535
-4.451801043797677 operate -0.2139996
-3.8216706027780805 joint -0.3217549
-4.508816749698278 venture -0.30541299999999993
-4.278245088370143 started -0.3101202
-4.258963927821208 gradually -0.1361428
-3.9893157437473654 reaches -0.20416000000000004
-3.9562749076037482 reserves -0.37829949999999996
-4.456814348055897 start -0.24864469999999994
-4.245915508860568 producing -0.22779210000000003
-3.7314586030918306 southern -0.2910097
-4.078675214011564 optical -0.19731919999999997
-4.3654056283572436 subsidiary -0.48526319999999995
-4.112691048067176 thomas -0.22979829999999998
-4.268109523297217 sloan -0.1361428
-4.0469019083110735 following -0.39488119999999993
-3.730703757300711 buy-out -0.2872643
-4.479757358023176 shearson -0.39380599999999993
-4.300635626268461 lehman -0.22796019999999995
-4.315013201530123 hutton -0.1361428
-3.962316009111804 itself -0.3268738
-3.886665499470253 certain -0.1939127
-4.541178683972118 businesses -0.4198175
-3.417742125534829 program -0.5010129999999999
-3.7027717482372435 white -0.28772739999999997
-4.188427721013713 bush -0.2691138
-3.838176429111799 duty-free -0.2808639
-3.5007965390842295 produced -0.45822919999999995
-4.694420552961517 quantities -0.33820859999999997
-4.423970198303186 virgin -0.2312948
-4.173596553725838 islands -0.15295229999999999
-4.44527005804237 response -0.2805716
-4.496850628697233 petition -0.17342280000000002
-4.496525717011986 changes -0.4283033999999999
-4.262803154181587 preferences -0.31106129999999993
-4.363770649565008 denied -0.30139779999999994
-3.8650289271377827 requested -0.2109958
-3.815210262786921 covered -0.3365746
-3.9994223683267554 tariff -0.3304288
-3.97859022944838 grant -0.1664023
-4.292358237373158 status -0.22041209999999997
-4.511977057388446 categories -0.19638989999999998
-4.588657803061442 injury -0.20556719999999995
-4.241281209252453 producer -0.36233219999999994
-4.461525706174716 seller -0.24575269999999994
-4.23404190469044 assembled -0.18111809999999998
-3.7286268962299385 philippines -0.1361428
-3.7731468105093873 main -0.1580866
-4.663738827067636 beneficiaries -0.33885579999999993
-4.2976934311444 eligible -0.3564284999999999
-4.689740146047947 aide -0.25963319999999995
-3.6009033079267083 magna -0.1637985
-4.120087147758324 mcalpine -0.17342280000000002
-4.004922931845736 frank -0.21741000000000002
-4.065976984852651 stepping -0.27356559999999996
-3.6371024080940146 turn -0.25293839999999995
-4.568412424495169 manufacturer -0.3135354
-3.7367504960019047 effort -0.4896995
-4.086225373560918 reduce -0.28211819999999993
-3.7897525770293257 overhead -0.35564909999999994
-3.9259361961249946 curb -0.1469947
-3.957785084700922 satisfactory -0.1361428
-3.5351785676120775 level -0.41111659999999994
-3.8142848194173915 achieved -0.18653590000000003
-3.9533878008119645 maintained -0.26626499999999986
-3.5465577445025387 finance -0.28445129999999996
-3.5826136043228893 ambitious -0.1361428
-3.7069137113488937 expansion -0.3785335
-3.9879591542449253 left -0.2991062
-4.484877433184438 excess -0.315238
-3.8328215287152827 load -0.19319819999999996
-4.284990748835306 automotive -0.284215
-3.7577985283249133 downturn -0.3421758
-4.185018399206403 steady -0.187558
-4.0110577764562425 cut -0.3417954999999999
-4.503860831174581 quarterly -0.3320525
-4.49415637403336 dividend -0.32230229999999993
-4.392499322961383 52-week -0.1678971
-4.373333278214838 canadian -0.22260729999999995
-3.643969363664518 dollars -0.3129626
-4.21267388091675 us$ -1.1326339999999997
-3.822265443711088 c$ -1.1103569999999998
-3.6151672686593055 founder -0.31491519999999995
-4.3213107982827665 controlling -0.18650579999999997
-3.7426079325578696 shareholder -0.31952269999999994
-3.9215859632028893 seek -0.260449
-4.680239251024436 unsuccessfully -0.17342280000000002
-3.8278039821204364 seat -0.2067584
-4.049729591934867 parliament -0.20346539999999996
-4.355000112199768 resume -0.17567199999999997
-4.453615751239316 influential -0.1517298
-3.726091123613721 role -0.48567309999999997
-4.428928329162328 running -0.2898398999999999
-4.642916264572283 throughout -0.5698795
-3.145284676549052 organization -0.2661438
-4.500265271368911 personally -0.1581247
-4.346219820493547 restructuring -0.3595437
-4.463420068095404 consulting -0.3010866
-3.8371001295330815 career -0.2002687
-3.629881919527546 clients -0.35713029999999996
-4.1389562549932135 english -0.2183759
-3.6669767840080563 chemical -0.3007292
-3.9277192175458544 nearly -0.5575324
-4.564930495317802 bought -0.3235197
-3.93562761294769 mortgage -0.28151289999999995
-4.468891934553524 totaling -0.4744074999999999
-3.807013352901208 purchases -0.3662874
-4.466332358163044 fannie -1.1326339999999997
-4.458689123270075 mae -0.15438289999999996
-4.317477674771205 o. -0.1361428
-4.170847538179713 maxwell -0.31458449999999993
-3.6240249512323612 conference -0.27308030000000005
-4.329538354370106 institutional -0.42237519999999995
-3.622873574086191 rest -0.1596836
-3.705947062732745 went -0.45474029999999993
-4.180080218631969 france -0.32363519999999996
-3.753009008590206 hong -1.547607
-3.701820567558596 kong -0.1361428
-4.423139038902386 snapped -0.30351209999999995
-4.064734930715901 similar -0.22609029999999994
-4.153581941826962 mortgage-backed -0.4678455
-3.4120238469620014 put -0.40963229999999995
-4.479181791615288 blackstone -0.33885579999999993
-3.439676412597854 investment -0.40546209999999994
-2.935284738404849 bank -0.44629529999999995
-4.540475832210641 jointly -0.23221810000000004
-4.359177638242037 goldman -0.6992413999999999
-4.328674639867186 sachs -0.1361428
-4.444442730729925 daiwa -0.21808199999999997
-4.392055833352364 co -0.7244095999999999
-3.864742761441963 seven-year -0.1361428
-4.047821708600334 offering -0.33092279999999996
-3.827453039317471 fixed-rate -0.17342280000000002
-3.905859705085121 floating-rate -0.2588992
-4.080040393330673 linked -0.42047629999999997
-3.7342912282342366 london -0.2646031999999999
-4.005933632679226 interbank -0.25873909999999994
-3.721990951604839 key -0.17919529999999995
-3.8415657111415955 advantages -0.21406149999999996
-3.4808284409476125 designed -0.5980481999999999
-4.481657729426581 eliminate -0.1913954
-4.610456857746871 prepayment -0.17342280000000002
-4.033564740302345 forces -0.2640376
-4.01156600305103 channel -0.2841877
-4.525777936200579 payments -0.4250341
-4.640326203973031 semiannual -0.33745329999999996
-4.523911226201731 reducing -0.264131
-4.530097628825868 burden -0.2177121
-3.5901215757997362 addressing -0.24428179999999997
-3.8740522240920625 extremely -0.1974995
-3.9992132253234054 attractive -0.26014600000000004
-3.6653650649005747 boosted -0.393025
-3.638076088348135 outstanding -0.26345129999999994
-4.296249278780058 rapid -0.18676880000000004
-4.296236138164833 purchasers -0.27596
-4.460185553423503 buying -0.3583780999999999
-3.6673817093980348 issued -0.3500329999999999
-3.639807852720358 l. -0.15438289999999996
-3.9523691161696526 expanding -0.2036217
-3.332478545763156 members -0.43126919999999996
-3.8155141435007427 agreed -0.8650293999999998
-3.8207948696250784 extend -0.217633
-4.119503225003433 aerospace -0.22805199999999998
-4.49858879356647 exclusive -0.18485540000000003
-4.125562220524903 file -0.20139889999999994
-3.8710696788009007 code -0.17465800000000004
-3.8303026995465412 giving -0.3001414
-4.5934268304934 creditors -0.3202896
-4.587825628510645 lawsuits -0.23208869999999998
-3.9088649044433454 debts -0.24687479999999995
-3.991138916483887 giant -0.19187099999999999
-4.501646182558668 montedison -0.18659619999999996
-4.542016146795833 indirect -0.1361428
-4.295152258714431 tender -0.5385244
-4.060925224713332 erbamont -0.1361428
-4.429900421227788 incorporated -0.37742279999999995
-4.78524711221342 netherlands -0.15067309999999998
-3.899459262109744 advertised -0.17342280000000002
-4.094104406811583 editions -0.17342280000000002
-3.724799380478925 expire -0.2479684
-3.5397219007910175 november -0.28737219999999997
-4.383530353425684 currencies -0.20899340000000002
-3.9094687088582365 drawing -0.1517298
-3.8385778599979257 hefty -0.14647169999999998
-3.892583510748002 marks -0.3006097
-3.968718612080264 sixth -0.1361428
-4.118235615206936 consecutive -0.25553149999999997
-4.497117479280347 reflects -0.46860079999999993
-3.8923510694209487 intensity -0.1361428
-4.594559248211163 intervention -0.1837043
-4.408843013278899 june -0.389583
-4.192963535143422 currency -0.2587171
-4.401329116826581 temporarily -0.15438289999999996
-3.693779743421745 surged -0.4753412999999999
-4.0732117288868315 above -0.3833307
-4.304539962272162 yen -0.2822946
-3.700671172632825 announcement -0.29715869999999994
-3.8918275146982375 follows -0.3447291
-4.338590261109298 sharper -0.1361428
-4.099179817332407 pick -0.40078769999999997
-4.1398961504674645 craze -0.1361428
-3.949616018711188 sweeping -0.1464718
-3.958621834719398 rash -0.1361428
-3.9586737894514257 closed-end -0.2250296
-3.9028338382866963 publicly -0.2863346
-3.670298850517515 traded -0.3102831999999999
-3.785813177834688 portfolios -0.23359589999999997
-3.815869697043997 invest -0.23770859999999996
-3.136263071710962 stocks -0.45877929999999995
-4.040426530554868 single -0.15315539999999997
-4.164503180551666 regulators -0.27746029999999994
-4.050230102289731 triple -0.31106129999999993
-3.9549812473417933 charles -0.21638079999999998
-3.8267320640444034 e. -0.1517298
-4.170624340669501 simon -0.2312948
-4.030988688431322 washington-based -0.1361428
-3.6235016434969687 turf -0.16789719999999994
-4.260330719899556 ranged -0.43541479999999994
-4.352315509091927 chile -0.1361428
-4.170643699389146 portugal -0.17342280000000002
-4.214542135494291 philippine -0.1704387
-4.414431795057061 capped -0.23909179999999994
-4.456841621419199 visit -0.3315008
-4.228548302020893 aquino -0.1361428
-3.8699581212241343 head -0.4410356999999999
-4.3015366685086285 kicked -0.2597708
-4.030573275163339 here -0.41136
-4.114807121339328 province -0.2320004
-3.59889371545514 anything -0.30518999999999996
-3.893349840353304 how -0.45050439999999997
-4.74060803178432 guinea -0.22480739999999996
-4.314415566584734 george -0.3693352999999999
-4.396169899360785 foot -0.19035639999999998
-4.327391958436082 managing -0.4175250999999999
-3.8446275217448616 partner -0.3309989
-4.103352408273761 associates -0.27168149999999996
-4.470214261768453 mass -0.2004489
-4.073509099089759 explosion -0.21420599999999998
-4.483178921923609 mania -0.19333589999999995
-4.408566057987192 1920s -0.1361428
-4.611586362710356 narrowly -0.1560797
-4.615375195801451 focused -0.6439367999999999
-4.809524104664671 wildly -0.1361428
-4.196062354688639 popular -0.1651544
-4.3457916247491175 crash -0.2682339
-3.6093650547195923 traditional -0.15260069999999995
-4.617411895595882 issuing -0.1704387
-4.428466943145119 fixed -0.21009039999999998
-3.8543883596431536 surge -0.3594206999999999
-4.017811258991499 brings -0.1517298
-3.9999577819569656 soon -0.3488834
-3.766654820388325 listed -0.25236499999999995
-4.3478190364767935 account -0.40031
-3.8807147457212094 billions -0.5090833999999999
-3.836030889001869 claims -0.3898667
-4.369678065443933 available -0.44303319999999996
-4.333881079795588 runs -0.2629337
-4.124673399435742 michael -0.19673150000000003
-3.91663099045333 porter -0.1361428
-4.347047825378271 analyst -0.46351119999999996
-4.172611072661955 smith -0.2522692999999999
-4.1607467665980975 barney -0.21391709999999994
-4.229105287122067 harris -0.1581247
-4.280712339618813 upham -0.1361428
-4.311570910245353 behind -0.3235319
-3.5962050342795435 individual -0.30588379999999993
-4.433244246685268 scrambled -0.5597689999999999
-4.327005913890601 find -0.2784404
-4.302026014455504 brokers -0.27171159999999994
-3.915854838953361 easy -0.3112565
-4.487097635494668 sell -0.2903121
-4.3699328787660185 stretching -0.1637985
-4.2407999830295555 wide -0.1597382
-3.6385123738223335 planners -0.17206739999999998
-3.6725815289864805 often -0.20531989999999994
-4.510235311127632 urge -0.18468969999999998
-4.30699117721422 diversify -0.1637985
-4.112180243648021 hold -0.3012889999999999
-3.893737511589448 emerging -0.2723518999999999
-3.5550534825800524 markets -0.3859079999999999
-4.324578186092363 mature -0.1832652
-3.352828747940209 get -0.3160796
-4.279351583780499 taste -0.21406149999999996
-4.47004346022965 burned -0.1560797
-4.64500183920755 gyrations -0.19793529999999998
-3.51632460681861 prices -0.47751899999999997
-4.260935951595025 tend -1.148041
-4.6602713782144285 swing -0.21406149999999996
-3.700228216556735 broader -0.19780469999999994
-4.3136654922645254 oct. -1.8316039999999998
-4.352488399372513 instance -0.1361428
-4.284999446340946 plunged -0.49722449999999996
-4.56563453586861 clobbered -0.1361428
-3.7395115035763293 wild -0.23496519999999996
-4.4544658480577946 frenzy -0.15438289999999996
-4.376221995312636 historically -0.19774899999999998
-4.644358328178967 fat -0.20556719999999995
-3.7321668827819443 premiums -0.19799949999999994
-4.7052532611568285 discount -0.225548
-4.2562202277325705 late -0.465584
-3.828308136732548 premium -0.26455569999999995
-3.752518283220284 reason -0.435931
-4.451574832150885 climbed -0.7371143999999998
-4.176890971005453 partially -0.21391699999999994
-4.081374219648896 specialists -0.19770979999999996
-3.712375172351478 european -0.2640817
-4.487000480554398 skyrocketed -0.1361428
-4.4049728086600926 startling -0.1361428
-4.143922657890116 targeted -0.1896584
-4.421665666929442 long-term -0.24918509999999994
-4.312052981249841 play -0.26842269999999996
-3.555274011929975 integration -0.2074142
-4.101351031636531 invested -0.4858381
-3.6752331121147965 jumped -0.6399435
-3.726125000359121 'm -0.1361428
-4.095467753840918 alarmed -0.1678971
-3.7948584960236054 see -0.327145
-4.555131435263328 rich -0.1902108
-3.629678988909205 newly -0.2348552999999999
-4.348436545559454 reflect -0.35544719999999996
-4.224126869951007 increasingly -0.15845529999999997
-4.053986542614971 global -0.248212
-3.8673663658217414 suggests -0.435664
-3.164601884253984 asia -0.26029929999999996
-4.041403807479749 europe -0.30412719999999993
-4.033202795554496 exposure -0.4607546999999999
-4.513125328123246 viewpoint -0.18127879999999996
-4.425248957824592 cast -0.24882359999999998
-3.6860780041129213 plenty -0.7367957999999999
-3.9176544689904467 levels -0.4803974999999999
-3.5178454015533704 buy -0.2846918
-4.380962736243653 depositary -0.2312948
-4.0404224034752945 receipts -0.1459969
-3.691797718987141 adrs -0.1361428
-4.4056302480642895 represent -0.3109547999999999
-4.339141060518791 essentially -0.21956149999999997
-4.019945714442066 insist -0.41953299999999993
-4.592109218008043 jumping -0.22480739999999996
-4.416340713363187 advice -0.24200359999999999
-4.3413337394490386 folks -0.15438289999999996
-4.497522647655313 party -0.2669886
-3.956520954017603 better -0.29819579999999996
-4.533922204485951 ready -0.48744539999999986
-3.9770758386925995 quickly -0.26908239999999994
-3.8066133757797287 soviet -0.20913809999999997
-3.534317323490209 union -0.3036715
-4.344375330584467 technical -0.2275386
-3.620226703752613 talks -0.34948209999999996
-4.275260408608031 repayment -0.1678971
-4.021819487691344 moscow -0.22035450000000004
-4.416439148403811 russian -0.15067309999999998
-4.346651130518698 owed -0.2777178
-4.044123650158363 repaid -0.15438289999999996
-4.323147964351367 clear -0.27810289999999993
-3.920661020723161 soviets -0.14647169999999998
-4.234230399278237 happen -0.33869039999999995
-4.224833037387217 permitted -0.19035639999999998
-3.9115902136240774 branch -0.23363329999999993
-3.699570072946545 affairs -0.3222770999999999
-3.854939083512237 unless -0.43617809999999996
-4.039448903919098 settle -0.1935331
-4.16940825505777 lent -0.18659619999999996
-4.152559776365052 short-lived -0.19333589999999995
-3.706627102180523 democratic -0.23085599999999992
-4.0893357938384955 communists -0.1361428
-4.117490133140858 seized -0.3186845
-3.603211812483779 johnson -0.23394009999999996
-4.056476778448582 amended -0.2249185
-3.9836385206424034 americans -0.302157
-3.8563858011613146 monetary -0.4461122999999999
-3.671541138759319 u.s.s.r. -0.1361428
-4.03920448405661 belongs -0.31106129999999993
-4.277303093378162 stressed -0.39704179999999994
-4.363119164267056 satisfying -0.17342280000000002
-3.7743894864381295 legal -0.2356577
-4.483227376177074 obstacles -0.19877679999999998
-4.242690805285729 hundreds -0.9850584
-4.297703879430746 millions -0.6370317999999999
-3.794889733012523 war -0.2922893
-3.9190086307936465 reflection -0.1678971
-4.2486918103817235 manufactured -0.21391709999999994
-3.479649198395157 goods -0.2945817
-3.4047832162638763 failed -0.5584451999999999
-3.637902369566464 rise -0.39922359999999996
-4.606910472525191 meanwhile -0.16942159999999998
-3.574465973525001 purchasing -0.2601912
-3.543278936419027 survey -0.24854979999999993
-3.9451530467066487 indicated -0.4508986
-3.536972789080862 index -0.4354209
-3.608596248587972 reading -0.2115764
-3.540316801640649 sector -0.3045245999999999
-3.8799405431194622 generally -0.1862189
-3.656626757785461 booked -0.1361428
-3.261010925320631 defense -0.3034675
-4.534453839276744 contractors -0.1902783
-4.31599615081435 fallen -0.21424439999999997
-3.8546233249239927 separate -0.151903
-3.690428326837656 ran -0.35863519999999993
-4.3873115882877665 significantly -0.23525349999999998
-3.951784878901675 private -0.2239101
-3.7685809481907877 building -0.3105048999999999
-3.971266167972676 activity -0.32629529999999995
-3.7774441297291994 adjusted -0.31125069999999994
-3.8190667817167223 remove -0.18563679999999996
-4.2664787727926985 effects -0.46085319999999996
-4.306951192955441 usual -0.15248639999999994
-4.43736299855515 seasonal -0.2594188
-4.286826686896822 patterns -0.16778579999999996
-3.588340649184133 inflation -0.34687969999999996
-3.8580481287124013 economist -0.4461294
-3.83220630098917 society -0.3090977
-3.986686523824777 cleveland -0.2549044999999999
-4.113533097564818 revive -0.23656539999999998
-3.9797299048062493 residential -0.19892899999999994
-4.461950636757193 slack -0.17342280000000002
-3.6383860820953458 asked -0.36724139999999994
-3.746492556187469 draw -0.1637985
-4.236751067407112 blank -0.20215769999999994
-3.824015195249268 measures -0.3605632
-3.9731192607143475 slowly -0.18361929999999999
-4.191939464558705 reserve -0.24189429999999998
-3.8072000192440334 economists -0.28619279999999997
-4.674608496216906 predicting -0.3601029
-4.487990590395742 slip -0.1678971
-3.9358098423537755 recession -0.2518635000000001
-3.617478364188241 cite -0.1637985
-4.282380524594842 lack -0.4920499999999999
-4.5537863805413314 imbalances -0.1581247
-3.3702002795408306 provide -0.23148729999999995
-4.5225508855939855 warning -0.18123289999999997
-4.454507823113182 signals -0.17831609999999998
-3.8463928682479485 inventories -0.3226678
-4.359645122648499 watched -0.218376
-4.384430770953121 clues -0.19333589999999995
-4.569500391137883 buildup -0.24327869999999996
-4.460881771836956 cutbacks -0.331432
-3.757683322243687 lead -0.31387829999999994
-3.978736300937069 front -0.1744912
-3.7770368406676393 soft -0.2324211
-3.956565462532706 landing -0.19323259999999995
-4.279802382497355 elliott -0.19333580000000003
-4.435457864475254 donaldson -0.7364448
-4.280638440836745 lufkin -0.1361428
-4.29763678259019 jenrette -0.1361428
-4.278638864694199 excessive -0.17571869999999998
-4.36408427578054 slowdown -0.24271500000000001
-3.4774182096886985 leading -0.21647319999999998
-4.392337075466335 intended -0.5797396999999999
-4.460749652112075 climbing -0.2140133
-4.004956118954809 durable -0.6784528
-4.246660568597495 backlogs -0.20215769999999994
-4.325296162809455 unfilled -0.3087250999999999
-3.554644434418417 helped -0.27046629999999994
-3.792973424983833 strength -0.35527859999999994
-3.5148804078441525 declined -0.6799934999999999
-4.2830193697038395 accounts -0.3597122
-4.080505587908328 bankers -0.3513859999999999
-4.0536405907902795 predicted -0.37021239999999994
-3.9304459946357477 eventually -0.1922442
-3.771604841903149 boost -0.23952540000000003
-3.9387783589702736 single-family -0.23909179999999994
-3.9186412582774364 homes -0.3023745
-3.6243600288267803 adjusting -0.1678971
-3.8749152845375567 change -0.4074394
-4.483730032884575 contrast -0.16886719999999997
-3.554954637522813 mcgraw-hill -0.18127879999999996
-4.074242775485936 dodge -0.1361428
-4.465490268395207 contracts -0.34078089999999994
-4.390636982538803 awarded -0.27511899999999995
-4.262898532421421 counts -0.18111809999999998
-4.302566056291566 slowing -0.2339424
-4.513767983077795 imminent -0.1361428
-3.2720583434660773 committee -0.3567115
-3.701165630413988 materials -0.28618589999999994
-4.5125437279110745 pitney -0.5305738
-4.302147373177881 bowes -0.1361428
-3.813984625072176 stamford -0.2808638
-3.867756932432227 low -0.2674929
-3.716650554167409 evidence -0.47521149999999995
-3.601678506954757 export -0.20452559999999997
-4.260606346348002 purchased -0.29319459999999997
-4.167389719503552 vendors -0.1361428
-4.223666690861948 delivering -0.1361428
-3.6373436924746105 consider -0.2503233999999999
-4.258127592437566 pressures -0.2780358
-4.257607442328656 suppliers -0.24575269999999994
-4.482992426044575 handle -0.19602
-4.406259595088163 delivery -0.23868409999999998
-3.568730560412587 provided -0.39667009999999997
-4.413143967329681 indicators -0.15705229999999998
-4.234890538547073 difference -0.30334529999999993
-3.725443943152419 reporting -0.23457729999999996
-3.8081023961128047 improvement -0.3270238
-4.456347808247967 particular -0.15064809999999995
-4.362737495084268 worsening -0.1361428
-4.246762672696617 polled -0.1361428
-3.8529924712484096 import -0.22256439999999994
-3.618315782148858 acknowledging -0.17342280000000002
-3.704656275292823 trend -0.2865654
-3.985250108664616 suspect -0.21476179999999997
-3.706142534519801 going -0.5133342
-4.036484005516921 items -0.3444081
-4.220750716283458 short -0.3923963999999999
-4.504962502081617 supply -0.31581259999999994
-4.5158454783594415 numbered -0.21391699999999994
-4.117796986944091 dozen -0.1486886
-4.22792550524134 included -0.3731736
-4.291696700007933 milk -0.2104817
-4.28049756725039 odd -0.1517298
-3.540740854751341 thing -0.31924299999999994
-4.637650014185129 row -0.17571869999999998
-4.3102948378975645 shortage -0.26002919999999996
-3.735498145613302 blamed -0.35705299999999995
-4.56915023975245 dairy -0.21391699999999994
-4.5240772988304405 exceptionally -0.17342280000000002
-4.641522896058182 coupled -0.8316038
-4.461004172970232 quotas -0.22010659999999993
-4.458210837993284 contributed -0.7139740999999998
-4.291294717554822 article -0.27628309999999995
-4.187565619529246 seasonally -0.5818938
-3.4848711062738853 sheep -0.1361428
-3.8143652347338173 chase -0.24751139999999996
-4.245095235637363 baby -0.2765005
-4.2874597352017 boomers -0.1361428
-4.235475252103977 sides -0.18718399999999996
-3.787612253749167 lot -0.18360439999999997
-4.10446149790153 novel -0.1361428
-3.7794500658012247 entirely -0.19613659999999997
-4.027380645506393 especially -0.2816991999999999
-4.560667665940711 characters -0.18536409999999998
-3.766728282048209 drink -0.16570639999999998
-4.174674344067522 dogs -0.1361428
-4.020622896622706 bugs -0.17831609999999998
-3.9263391035988136 bunny -0.1361428
-3.9527239901219247 reruns -0.1361428
-3.804119153861625 read -0.2577381
-3.806993152943287 talk -0.415352
-3.750716950024576 worry -0.4118252
-4.1838087506897885 careers -0.24428179999999997
-4.6373293532563995 reader -0.20805340000000003
-4.438903549906764 engaging -0.37742279999999995
-4.500208163450563 recognizing -0.21420599999999998
-3.912444519929591 contemporary -0.1361428
-3.994393074281711 author -0.2868237
-3.954725550939913 belong -0.3900082999999999
-2.781105036000518 school -0.2980398
-3.7255576874990557 writers -0.19323259999999995
-3.736952970793405 notion -0.2759599
-3.846751483463843 unique -0.18111809999999998
-3.8492563359364205 outsiders -0.331432
-4.290817422749165 carries -0.22802909999999998
-4.447452657038184 implicit -0.17342280000000002
-3.6478898212533095 relations -0.27660660000000004
-4.156880174651498 think -0.3808225
-4.5268643863866025 plot -0.1768314
-4.411850973801459 rooted -0.35564909999999994
-4.481265417986882 reality -0.19317059999999997
-4.3797234987190645 funny -0.20767689999999994
-3.812407564983532 hero -0.1606373
-4.040100905306187 snow -0.1361428
-3.9800472060965753 search -0.22071769999999996
-3.7462498217460722 star -0.24690319999999996
-3.666471436744738 stanford -0.16379859999999996
-3.847896546820258 degree -0.2355293
-4.241552450485781 girlfriend -0.1361428
-4.282744868714958 sassy -0.1560797
-3.9125989979142974 mark -0.16841139999999996
-2.6057622226696213 her -0.23515159999999993
-4.19716681765726 meets -0.19333589999999995
-4.025015073089049 christian -0.18468969999999998
-4.247552147673028 offers -0.2601955
-3.938002360062406 god -0.1637985
-3.9738794673293167 phone -0.33057819999999993
-3.3522962184715555 man -0.26296849999999994
-4.132750977963631 sweet -0.1361428
-3.8722466658594508 figure -0.24642019999999995
-4.020609087119136 wears -0.17342280000000002
-3.967265350824006 else -0.2850767
-3.6018544472584217 40-year-old -0.1361428
-4.491744659369443 norwegian -0.17342280000000002
-4.357547887848636 wood -0.1650418
-4.214420490085301 seems -0.42239899999999997
-3.771883163010048 copies -0.47574469999999996
-4.227191834830814 published -0.3272783
-3.504388035231773 tokyo -0.23694459999999995
-3.905865571664954 pack -0.19877679999999998
-3.9172943732272896 charts -0.1361428
-3.784888516416879 books -0.2831105
-4.077462565700284 written -0.2761759999999999
-4.158543410673707 language -0.21909259999999997
-3.7775696264633836 usually -0.17818660000000003
-3.952485887220397 carry -0.265457
-4.055579964393664 macmillan -0.18659619999999996
-4.213570184540071 baseball -0.2109613
-4.1280894131229635 version -0.5529461999999999
-4.299508831706876 call -0.3198349999999999
-4.162565869805511 game -0.2692997
-4.105976887614461 describes -0.18853309999999998
-4.607560831292594 mirror -0.19877679999999998
-4.144972491024914 harmony -0.1361428
-3.7900758853318197 spirit -0.20920039999999998
-3.5973571014830226 player -0.28128739999999997
-3.8852882621437 commitment -0.49426259999999994
-3.8903939326590717 practice -0.3026702
-4.153865050631331 image -0.2920584
-3.6006063006960796 important -0.22035919999999998
-4.047137585608004 soul -0.1361428
-3.828736419026099 male -0.15295229999999999
-4.038865700034557 symbol -0.1768314
-4.016612848383384 played -0.28734079999999995
-4.268027298050384 ball -0.15067309999999998
-4.4005732620058815 bat -0.1361428
-4.505395419268199 balls -0.1361428
-4.418174093841167 stadium -0.17718329999999996
-4.179929293954512 strike -0.26499809999999996
-4.259254064568385 zone -0.1361428
-4.4692521477615745 depending -0.9119516
-4.5311757318254156 size -0.3527322
-4.231450965842108 ties -0.37340209999999996
-3.958560811801191 shame -0.2588992
-4.2213493207554045 defeat -0.18853309999999998
-4.32700315791696 players -0.2899064
-4.047339982773954 must -0.37086829999999993
-4.459939029615993 strict -0.15295229999999999
-4.418325050642383 rules -0.3430561999999999
-3.8819463434259927 conduct -0.17945319999999998
-4.0758267972987285 lives -0.3322592
-3.5077021657684315 always -0.18137569999999997
-4.465919586345337 wear -0.1560797
-4.600865265594535 road -0.204788
-3.9327794944016152 amusing -0.1361428
-4.441273257531017 fare -0.19638989999999998
-4.048566826052657 enormous -0.15387969999999998
-4.5459149711484645 sums -0.18659619999999996
-4.296092179426367 plate -0.1768314
-4.1573476764661 run -0.34854469999999993
-3.8908205965846103 complaint -0.18319789999999994
-3.8871834229061415 whom -0.21631070000000002
-3.452683006570492 sony -0.30695249999999996
-4.479035274584286 regret -0.1637985
-4.536304936199041 parties -0.3057274
-3.630199322642671 sometimes -0.15460279999999996
-4.421824463851137 vicious -0.1361428
-4.272682920858455 mundane -0.18127879999999996
-4.3784483977016375 aspects -0.5687928999999999
-4.33149024730858 employees -0.40620949999999995
-4.201609375568119 assigned -0.3444658
-4.369997829750379 lunch -0.1837895
-4.397714613573177 partners -0.3238058
-4.279669098420273 style -0.25969869999999995
-4.124827843177068 overtime -0.15438289999999996
-4.185266632795841 solidarity -0.20008849999999997
-4.456725936717349 letting -0.14893819999999997
-3.7609304476966314 young -0.2572015
-4.242685136036393 employee -0.21612299999999998
-4.018115604402015 responsibility -0.5635652999999999
-4.284050384826946 frustrating -0.1361428
-4.135836935696349 science -0.1747126
-3.8199818863036503 ultimately -0.15387969999999998
-3.9603651665759387 lesson -0.17342280000000002
-3.78574444009413 fired -0.19548279999999998
-4.037568574758346 committed -0.4228739
-3.6690744475577386 social -0.3183177
-3.486419850875498 crime -0.2496427
-4.083858516656459 appointment -0.2598321
-4.128831931762864 venerable -0.1361428
-3.825608248234405 never -0.23190139999999995
-3.6911298822869822 certainly -0.2172362
-3.915752504202587 learned -0.3467276
-3.654736452131592 something -0.33894539999999995
-3.8026758121806252 deputy -0.3438425
-4.066473310935036 editorial -0.1934321
-4.006376456074995 features -0.2215058
-4.4369239669441685 corners -0.1361428
-4.38218505107522 globe -0.1517298
-3.892294317455844 becoming -0.2825714999999999
-4.2471864765045595 tobacco -0.24011379999999996
-4.1770721355162 smoke -0.18865880000000002
-3.8824522807879758 singapore -0.2427674
-4.560874522309376 entering -0.3631101
-4.119224433769465 restaurants -0.2698815
-4.4085552257784535 stores -0.35762639999999996
-4.439712884360104 sports -0.21933389999999997
-4.133195563018105 centers -0.26492889999999997
-4.659871793269902 clubs -0.1560797
-4.7863199793861995 exempt -0.331432
-4.097284050861777 smoking -0.18111809999999998
-4.417650355023332 bars -0.1637985
-3.9154032791792304 except -0.39766549999999995
-4.023849716149404 hours -0.3426508999999999
-3.9794117194744336 bans -0.18659619999999996
-4.192188877296397 theaters -0.19312929999999995
-4.240100667066128 elevators -0.1361428
-4.206000753880973 hospitals -0.33885579999999993
-3.7583605792631425 fast-food -0.3008514
-4.084111448414208 prime -0.4950779999999999
-4.459341619027162 kuala -0.4336638
-4.415331973014765 lumpur -0.1361428
-4.50610642045964 urged -0.22067590000000004
-4.323474015699448 visiting -0.1678971
-4.4214977531454895 restricts -0.17342280000000002
-4.509927187360323 designated -0.2217299
-4.146610568560238 indicates -0.42305109999999996
-3.608198801698846 consumers -0.2716894
-3.6822639307343463 carried -0.3311662
-4.5796071208084905 backer -0.6980718
-4.505389667029961 spielvogel -0.1517298
-4.5374306494378045 bates -0.1361428
-4.55806812997993 colony -0.1704387
-4.611265356554382 feel -0.2705429
-4.574717708621489 pressured -0.24938210000000002
-4.569467428418303 surveyed -0.18529359999999995
-3.9206646056137364 identified -0.21441289999999996
-3.925947188009388 one-third -0.3688603
-3.536523780754257 great -0.21408659999999996
-3.4997536650361787 deal -0.3444845999999999
-4.041977435575472 stress -0.25465709999999997
-3.950226089789049 cabinet -0.1704387
-4.245069788656605 endorsed -0.2890362
-3.6204473266171306 proposal -0.34426719999999994
-3.72357457575502 build -0.2811199
-3.6792960895217495 center -0.3729839
-3.907710675667201 central -0.2549125
-3.908869500219879 plaza -0.18111809999999998
-3.942129362873648 balked -0.37742279999999995
-3.8002390504972623 conditions -0.3068814
-3.899115048216601 undertaking -0.1637985
-4.044339999951642 necessary -0.38235889999999995
-3.6232166216001973 arafat -0.17329130000000004
-3.85288600414362 olympic -0.19333580000000003
-3.9731805939099827 asking -0.2693625
-3.8750033793861642 palestinian -0.1361428
-4.052815490594783 liberation -0.1361428
-3.6537829293968036 membership -0.24418559999999995
-4.367906811729921 renewed -0.15118289999999998
-4.295646872257321 application -0.18975479999999997
-3.634318283154 plo -0.1361428
-4.014055562193478 organizations -0.1931809
-3.6407852783357675 win -0.23572649999999998
-3.4789291473460353 health -0.36357339999999994
-4.036476571227682 tourism -0.20920039999999998
-3.608289671023441 beijing -0.2119411
-4.0192423333956 chinese -0.19125210000000004
-3.8187539392422196 aids -0.24438509999999997
-3.824592249084397 sex -0.2991209
-3.9293673392185053 daily -0.22547259999999994
-3.549820383486406 disease -0.2534525999999999
-3.9806225006636513 hospital -0.23014119999999996
-3.094881812617364 tests -0.33127829999999997
-3.933314253453073 confirmed -0.36757979999999996
-4.267871441213831 family -0.283234
-3.7814301353755617 tested -0.14975060000000004
-3.708743784150365 newspaper -0.2363127
-4.095904967030434 chaotic -0.1361428
-3.4270601965914693 life -0.4037788
-3.6259178998113675 polish -0.17342280000000002
-3.7447614517894166 charges -0.43842829999999994
-4.211124229894885 gas -0.23875199999999994
-4.027010169022689 line -0.35359669999999993
-4.3657501933795135 compensate -0.22480739999999996
-4.547960487706759 coal -0.179915
-4.453218918493255 establishing -0.28100829999999993
-4.527113630328644 diplomatic -0.1864154
-4.531099025958137 poland -0.34048949999999994
-4.409588970078504 loans -0.43140719999999994
-4.601780346277192 financially -0.21434069999999994
-4.39662577647923 strapped -0.24428179999999997
-4.594393146154523 warsaw -0.1517298
-3.6536114806817124 victory -0.2600760999999999
-4.475881182149245 environmentalists -0.1864154
-3.995506575155175 hungary -0.20674439999999997
-4.3892704619424725 terminated -0.23656529999999995
-4.53919920204272 multibillion-dollar -0.1361428
-4.439516328960858 river -0.196603
-3.852648063889597 dam -0.1361428
-4.020503474126949 czechoslovakia -0.19892899999999994
-3.6176647271825497 ending -0.2692845
-4.374971384593713 authorized -0.18659619999999996
-4.156042608896221 modify -0.17342280000000002
-4.086720485936493 damage -0.43277439999999995
-4.02886222516091 planned -0.2926918
-4.347081457098193 ca -1.6109219999999997
-4.436782762716522 operated -0.20416000000000004
-4.38969656134943 solely -0.2500699
-4.447961627705863 peak -0.2511364
-4.315844886720096 periods -0.2045453
-3.6075089549230013 painting -0.18111809999999998
-4.41987758796984 stockholm -0.19333589999999995
-4.224868713197338 painted -0.1637985
-4.042189329785041 oils -0.20556719999999995
-4.190014579847197 playwright -0.19333589999999995
-4.449651222046341 couples -0.16570639999999998
-4.518992800350587 statistics -0.3011154
-3.963221659900685 debentures -0.24101669999999997
-4.465512966543426 due -0.5435627
-3.879102280305022 bond -0.4276791
-3.7986285822226202 warrants -0.2228941
-3.7480159250529375 toronto-based -0.15438289999999996
-3.8055675148636534 real -0.3900615
-4.250692923954616 estate -0.1559001
-4.1497099521565834 warrant -0.20203719999999997
-4.023157175448621 holder -0.26561909999999994
-4.135941643784721 par -0.18468969999999998
-4.185453733621948 accrued -0.23656539999999998
-3.9155251595585425 date -0.30302369999999995
-3.631396121242294 underwriters -0.229434
-4.112630264780428 dominion -0.20215769999999994
-3.845551388556277 actor -0.20215769999999994
-3.5194222236983435 lane -0.15295229999999999
-4.267759631668616 charlie -0.35564909999999994
-3.5985276027784368 martin -0.1637985
-4.46822608849133 laid -0.19319809999999998
-3.9346976236133457 claim -0.3577759999999999
-4.457071288000683 writer -0.22355099999999997
-3.4360953384639012 tramp -0.1361428
-3.518155590996692 film -0.18694529999999998
-3.2506523242520826 student -0.1485673
-4.3811242856695 campus -0.1361428
-3.6250317311800258 shot -0.332736
-4.217574290353768 black-and-white -0.1361428
-3.261140593539952 artist -0.162122
-3.6835882482867177 streets -0.22940689999999997
-3.865938434644355 revived -0.15438289999999996
-3.740449808668058 sidewalk -0.2808639
-3.887192866350707 stories -0.2335225
-3.8323423837984096 piece -0.3936313
-3.924219179958435 contained -0.3470893
