
\data\
ngram 1=202
ngram 2=27220

\1-grams:
-1.580688	0000	-4.072826
-2.282728	000100	-4.674101
-2.534681	0001010	-3.207586
-2.290319	0001011	-3.599897
-1.712874	000110	-3.352054
-2.212188	000111000	-3.57097
-2.514209	0001110010	-2.815959
-2.565514	00011100110	-3.93876
-2.798029	00011100111	-3.161913
-2.017586	000111010	-3.318956
-2.461515	0001110110	-2.880858
-2.514514	0001110111	-3.234485
-2.277033	00011110	-3.61424
-2.265086	000111110	-3.134378
-2.302241	000111111	-3.13409
-2.077423	0010000	-3.428761
-2.348468	0010001	-3.202697
-2.421502	0010010	-3.401479
-2.39962	0010011	-2.60837
-2.18855	001010	-3.47418
-2.96354	00101100	-4.874344
-2.7639	00101101	-2.884346
-3.041434	00101110	-2.846397
-2.452152	00101111	-3.487166
-2.181114	0011000	-4.396254
-2.474833	0011001	-2.664443
-2.016808	0011010	-2.632978
-2.313922	00110110	-2.612866
-2.617075	001101110	-3.523608
-2.731502	001101111	-3.700486
-1.975163	001110	-3.029053
-1.725054	001111	-3.167922
-2.067596	01000	-3.802726
-2.671845	0100100	-3.816027
-2.534841	0100101	-3.265311
-2.728741	0100110	-4.005854
-2.580723	0100111	-4.027283
-1.456474	01010	-3.269264
-3.002619	010110	-3.347292
-2.296008	0101110	-3.267932
-2.65274	0101111	-2.677572
-2.649393	0110000	-3.096621
-2.369282	0110001	-3.534446
-2.726496	01100100	-2.937441
-2.588442	01100101	-3.372543
-2.341233	01100110	-3.705973
-2.927293	011001110	-3.326895
-2.155177	011001111	-3.465908
-2.326321	01101000	-2.937253
-2.268627	01101001	-2.687371
-3.020367	0110101000	-3.25504
-2.977508	0110101001	-3.325941
-2.592993	0110101010	-4.350078
-2.702766	0110101011	-2.848475
-1.817688	011010110	-3.020806
-2.250953	0110101110	-2.86303
-2.495973	0110101111	-3.36904
-2.164697	011011000	-3.00908
-2.57577	0110110010	-3.122327
-2.97618	01101100110	-2.550018
-3.145469	01101100111	-2.64999
-2.428087	0110110100	-3.025262
-2.772668	01101101010	-3.107582
-2.699245	01101101011	-3.368868
-2.069292	0110110110	-2.755185
-2.479317	01101101110	-2.849159
-2.68499	011011011110	-2.336884
-2.701354	011011011111	-3.032456
-2.751861	0110111000	-3.71717
-2.777399	01101110010	-2.673656
-2.599261	01101110011	-2.754986
-2.288772	0110111010	-2.757446
-2.593909	01101110110	-2.897077
-2.300092	01101110111	-2.649831
-2.438348	011011110	-3.350072
-2.707743	011011111	-2.771166
-2.374673	011100	-3.460538
-2.10604	01110100	-2.800759
-2.147171	01110101	-2.794688
-2.519121	01110110	-2.577817
-2.347739	01110111	-2.955231
-1.59468	011110	-4.055567
-2.449646	0111110	-4.030611
-2.377115	01111110	-3.526127
-2.537893	01111111	-4.128109
-2.266033	10000000	-2.839751
-2.321985	10000001	-2.562354
-2.182961	10000010	-3.293107
-2.136741	10000011	-2.596766
-2.75824	10000100	-2.72124
-2.535482	10000101	-2.514428
-1.955918	10000110	-2.765805
-2.120102	10000111	-2.619115
-2.760657	10001000	-2.628206
-3.076196	100010010	-2.563267
-2.965261	100010011	-2.46739
-2.689309	100010100	-3.387149
-2.502611	100010101	-3.10317
-2.683184	100010110	-2.815014
-3.056069	1000101110	-2.37974
-2.532606	1000101111	-2.739856
-1.766184	1000110	-2.902957
-2.870687	100011100	-3.164517
-2.609975	100011101	-2.82981
-2.05986	100011110	-2.976392
-2.647522	1000111110	-3.633215
-2.273247	10001111110	-2.736684
-2.502165	10001111111	-3.509748
-2.186177	1001000	-2.43964
-2.728741	10010010	-3.061177
-2.211959	10010011	-3.204059
-2.662725	10010100	-4.386164
-2.317595	10010101	-2.597055
-2.410543	10010110	-3.436897
-2.360621	100101110	-3.081313
-2.624489	100101111	-2.914183
-2.682059	1001100	-2.550699
-2.57279	1001101	-2.630594
-2.799205	10011100	-2.998667
-2.660795	10011101	-3.057829
-2.837314	100111100	-2.677642
-2.842484	100111101	-3.314231
-2.707981	100111110	-3.141042
-2.55265	100111111	-3.005808
-1.918337	1010	-4.375616
-2.558865	10110000	-2.191994
-2.872425	10110001	-2.479494
-2.459627	101100100	-3.258238
-2.53967	101100101	-3.967024
-2.635247	101100110	-2.958944
-2.7836	101100111	-2.887521
-2.709893	101101000	-2.795907
-2.977065	10110100100	-2.610268
-2.610356	10110100101	-2.587258
-2.84216	10110100110	-2.424887
-2.866888	10110100111	-2.465649
-2.566546	101101010	-2.897858
-3.156046	1011010110	-2.720137
-3.278095	10110101110	-4.237282
-3.123814	10110101111	-2.81243
-2.357311	101101100	-2.860368
-2.352657	1011011010	-2.475926
-2.431228	1011011011	-2.461019
-2.216166	101101110	-2.381288
-2.419533	10110111100	-3.032776
-2.71714	10110111101	-2.718418
-2.388165	10110111110	-2.588807
-2.377784	10110111111	-2.917215
-1.269312	101110	-2.772969
-1.835519	101111	-3.600885
-1.641812	1100	-3.884151
-1.262641	11010	-4.177592
-2.261915	110110	-3.023259
-2.379907	110111	-3.269813
-2.524872	11100000	-2.673581
-2.535482	11100001	-2.983793
-2.284614	11100010	-3.510423
-2.550819	11100011	-2.805783
-2.774332	11100100	-2.783017
-2.480587	11100101	-2.458838
-2.047698	11100110	-3.260737
-2.525498	111001110	-3.101544
-2.657173	111001111	-2.713401
-2.510712	1110100	-3.699862
-2.328307	11101010	-3.443992
-2.153178	11101011	-2.64655
-2.786447	11101100	-3.012768
-2.834114	111011010	-2.552372
-2.583758	111011011	-2.740595
-2.194797	111011100	-2.615501
-2.827469	111011101	-3.156032
-2.157454	111011110	-2.539382
-2.125994	111011111	-2.750726
-2.906085	111100000	-3.743919
-3.089195	111100001	-3.065974
-2.701589	111100010	-2.904244
-2.846075	111100011	-2.83463
-2.864487	111100100	-2.222057
-3.077311	111100101	-2.334514
-2.68499	111100110	-3.077265
-2.647107	111100111	-2.600173
-2.449777	1111010	-2.950673
-2.090459	11110110	-3.060862
-2.710133	111101110	-2.561285
-2.43085	111101111	-2.938259
-2.575946	1111100	-2.883334
-2.832205	11111010	-4.676023
-2.871381	11111011	-2.624557
-3.025291	11111100	-2.811895
-2.421255	11111101	-2.87713
-2.904958	1111111000	-2.915681
-2.737587	11111110010	-2.766378
-2.985568	11111110011	-2.581832
-2.957567	1111111010	-2.916683
-2.786733	1111111011	-2.433296
-2.423231	111111110	-3.819624
-2.984214	11111111100	-2.628405
-2.856693	11111111101	-3.018773
-2.691829	11111111110	-3.038939
-2.702295	11111111111	-3.770275
-1.344339	</s>
-99	<s>	-3.544345

\2-grams:
-2.97311	0000 000100
-3.910962	0000 0001010
-3.723821	0000 000110
-4.087053	0000 0001110010
-2.925685	0000 00011100110
-4.087053	0000 0001110111
-3.157634	0000 00011110
-4.087053	0000 000111111
-4.087053	0000 0010011
-4.388083	0000 00101110
-4.388083	0000 00101111
-4.388083	0000 0011000
-4.087053	0000 0011001
-2.47427	0000 0011010
-4.388083	0000 00110110
-3.433841	0000 001101110
-4.388083	0000 001110
-3.723821	0000 001111
-1.421472	0000 01000
-2.52476	0000 0100100
-2.08923	0000 0100101
-4.087053	0000 0100111
-1.39026	0000 01010
-4.388083	0000 0101111
-3.609932	0000 0110000
-4.388083	0000 0110001
-4.087053	0000 01100100
-2.443601	0000 01100101
-4.388083	0000 01100110
-4.388083	0000 011001110
-2.443601	0000 011001111
-2.86957	0000 01101000
-2.8083	0000 01101001
-3.723821	0000 0110101000
-3.413482	0000 0110101001
-3.587857	0000 0110101010
-3.484993	0000 0110101011
-2.896722	0000 011010110
-3.308902	0000 0110101110
-3.910962	0000 0110101111
-1.723441	0000 011011000
-2.663808	0000 0110110010
-3.413482	0000 01101100110
-3.910962	0000 01101100111
-3.132811	0000 0110110100
-3.587857	0000 01101101010
-3.910962	0000 01101101011
-1.764834	0000 0110110110
-1.888396	0000 01101101110
-2.189426	0000 011011011110
-2.245069	0000 011011011111
-3.308902	0000 0110111000
-3.587857	0000 01101110010
-2.595692	0000 01101110011
-3.413482	0000 0110111010
-3.587857	0000 01101110110
-3.183964	0000 01101110111
-4.388083	0000 011011111
-3.723821	0000 01110100
-3.132811	0000 01110101
-3.587857	0000 01110110
-3.587857	0000 01110111
-4.087053	0000 011110
-4.388083	0000 0111110
-3.910962	0000 01111111
-1.874866	0000 10000000
-2.116242	0000 10000001
-1.925685	0000 10000010
-1.913867	0000 10000011
-3.910962	0000 10000100
-2.396857	0000 10000101
-2.490456	0000 10000110
-2.495989	0000 10000111
-3.433841	0000 10001000
-3.308902	0000 100010011
-2.632209	0000 100010100
-2.95672	0000 100010101
-2.663808	0000 100010110
-3.27414	0000 1000101110
-2.697887	0000 1000101111
-1.689983	0000 1000110
-4.388083	0000 100011100
-2.639895	0000 100011101
-1.850264	0000 100011110
-2.342761	0000 1000111110
-2.270812	0000 10001111110
-2.52476	0000 10001111111
-2.443601	0000 1001000
-2.896722	0000 10010010
-2.797019	0000 10010011
-2.647721	0000 10010100
-2.856605	0000 10010101
-3.609932	0000 10010110
-2.595692	0000 100101110
-3.27414	0000 100101111
-3.723821	0000 1001100
-3.910962	0000 1001101
-3.308902	0000 10011100
-2.882933	0000 10011101
-3.241955	0000 100111100
-3.007872	0000 100111101
-3.413482	0000 100111110
-3.183964	0000 100111111
-1.974784	0000 1010
-3.065864	0000 10110000
-3.183964	0000 10110001
-4.087053	0000 101100100
-3.241955	0000 101100101
-3.723821	0000 101100110
-2.910962	0000 101100111
-2.754615	0000 101101000
-3.484993	0000 10110100100
-2.910962	0000 10110100101
-2.632209	0000 10110100110
-2.734871	0000 10110100111
-2.7753	0000 101101010
-3.27414	0000 1011010110
-3.433841	0000 10110101110
-3.723821	0000 10110101111
-3.308902	0000 101101100
-2.280874	0000 1011011010
-2.555574	0000 1011011011
-2.137663	0000 101101110
-3.065864	0000 10110111100
-3.433841	0000 10110111101
-2.95672	0000 10110111110
-3.183964	0000 10110111111
-1.086619	0000 101110
-1.658109	0000 101111
-1.411275	0000 1100
-0.6646277	0000 11010
-1.632209	0000 110110
-1.57317	0000 110111
-2.346691	0000 11100000
-2.20624	0000 11100001
-1.77636	0000 11100010
-2.335005	0000 11100011
-3.413482	0000 11100100
-2.715986	0000 11100101
-1.873536	0000 11100110
-2.312536	0000 111001110
-2.52476	0000 111001111
-2.095827	0000 1110100
-1.955114	0000 11101010
-1.594293	0000 11101011
-2.388083	0000 11101100
-2.744631	0000 111011010
-2.342761	0000 111011011
-2.087054	0000 111011100
-2.831781	0000 111011101
-1.664628	0000 111011110
-1.937834	0000 111011111
-3.132811	0000 111100000
-4.087053	0000 111100001
-2.581903	0000 111100010
-2.697887	0000 111100011
-3.308902	0000 111100100
-3.346691	0000 111100101
-2.647721	0000 111100110
-2.65569	0000 111100111
-2.424296	0000 1111010
-2.102526	0000 11110110
-3.484993	0000 111101110
-2.725326	0000 111101111
-1.981543	0000 1111100
-2.896722	0000 11111010
-2.990144	0000 11111011
-3.609932	0000 11111100
-2.152555	0000 11111101
-2.940925	0000 1111111000
-2.536825	0000 11111110010
-2.7753	0000 11111110011
-2.725326	0000 1111111010
-2.043691	0000 1111111011
-2.167975	0000 111111110
-3.413482	0000 11111111100
-2.305298	0000 11111111101
-2.725326	0000 11111111110
-2.513022	0000 11111111111
-3.183964	0000 </s>
-1.889079	000100 0000
-3.68842	000100 000100
-2.169906	000100 000110
-2.910269	000100 000111000
-3.38739	000100 0001110010
-2.241262	000100 000111010
-2.888193	000100 0001110110
-3.38739	000100 0001110111
-3.38739	000100 00011110
-3.68842	000100 000111110
-2.78533	000100 000111111
-2.542292	000100 0010000
-3.211298	000100 0010001
-3.211298	000100 0010010
-3.211298	000100 0010011
-2.888193	000100 001010
-3.38739	000100 00101100
-2.609239	000100 00101101
-3.68842	000100 00101111
-2.910269	000100 0011010
-3.024158	000100 001101110
-2.226022	000100 001101111
-1.855911	000100 01000
-2.713818	000100 0100100
-3.38739	000100 0100101
-1.500899	000100 01010
-2.433147	000100 0110000
-1.729378	000100 0110001
-3.38739	000100 01100101
-1.940232	000100 01100110
-3.211298	000100 011001110
-1.692785	000100 011001111
-3.024158	000100 01101000
-2.132117	000100 01101001
-3.024158	000100 0110101001
-3.38739	000100 0110101010
-3.024158	000100 0110101011
-2.273447	000100 011010110
-2.574476	000100 0110101110
-2.78533	000100 0110101111
-2.169906	000100 011011000
-2.609239	000100 0110110010
-3.68842	000100 01101100111
-3.68842	000100 01101101011
-2.035207	000100 0110110110
-3.68842	000100 01101101110
-2.713818	000100 011011011110
-2.78533	000100 011011011111
-2.68842	000100 0110111000
-3.024158	000100 01101110010
-2.734177	000100 01101110011
-2.38739	000100 0110111010
-2.512329	000100 01101110110
-2.197058	000100 01101110111
-3.68842	000100 01110100
-3.211298	000100 01110101
-3.68842	000100 01110111
-2.273447	000100 011110
-3.68842	000100 01111110
-2.542292	000100 10000000
-2.457971	000100 10000001
-2.457971	000100 10000010
-2.647027	000100 10000011
-3.38739	000100 10000101
-2.542292	000100 10000110
-2.888193	000100 10000111
-2.910269	000100 10001000
-2.647027	000100 100010100
-3.68842	000100 100010101
-2.647027	000100 100010110
-3.68842	000100 1000101110
-2.713818	000100 1000101111
-2.108636	000100 1000110
-3.38739	000100 100011100
-2.241262	000100 100011101
-1.790793	000100 100011110
-2.78533	000100 1000111110
-2.38739	000100 10001111110
-3.024158	000100 10001111111
-2.574476	000100 1001000
-3.38739	000100 10010010
-2.888193	000100 10010011
-1.609239	000100 10010100
-2.574476	000100 10010101
-3.211298	000100 10010110
-3.68842	000100 100101110
-3.38739	000100 100101111
-3.38739	000100 1001100
-3.68842	000100 1001101
-3.68842	000100 10011101
-3.68842	000100 100111101
-3.68842	000100 100111110
-1.774606	000100 1010
-3.68842	000100 10110000
-3.38739	000100 101100101
-3.024158	000100 101100111
-3.024158	000100 101101000
-2.888193	000100 10110100101
-2.910269	000100 10110100110
-3.024158	000100 10110100111
-1.819188	000100 101101010
-2.542292	000100 1011010110
-2.68842	000100 10110101110
-2.78533	000100 10110101111
-3.68842	000100 101101100
-2.4843	000100 1011011010
-2.713818	000100 1011011011
-2.542292	000100 101101110
-2.910269	000100 10110111100
-3.68842	000100 10110111101
-2.910269	000100 10110111110
-3.211298	000100 10110111111
-1.202698	000100 101110
-1.932545	000100 101111
-0.8604047	000100 1100
-1.016322	000100 11010
-2.29048	000100 110110
-2.326692	000100 110111
-2.609239	000100 11100000
-2.512329	000100 11100001
-2.156941	000100 11100010
-2.457971	000100 11100011
-3.68842	000100 11100100
-3.024158	000100 11100101
-1.924992	000100 11100110
-3.211298	000100 111001110
-2.4843	000100 111001111
-3.024158	000100 1110100
-2.326692	000100 11101010
-2.054951	000100 11101011
-2.910269	000100 11101100
-2.713818	000100 111011010
-2.78533	000100 111011011
-2.29048	000100 111011100
-2.888193	000100 111011101
-2.18327	000100 111011110
-2.144352	000100 111011111
-3.68842	000100 111100000
-2.888193	000100 111100010
-2.78533	000100 111100011
-3.38739	000100 111100100
-2.888193	000100 111100110
-1.710696	000100 111100111
-2.78533	000100 1111010
-1.650993	000100 11110110
-1.014478	000100 111101110
-1.779935	000100 111101111
-3.211298	000100 1111100
-3.024158	000100 11111010
-2.888193	000100 11111011
-2.18327	000100 11111101
-3.68842	000100 1111111000
-2.409666	000100 11111110010
-1.701648	000100 11111110011
-2.910269	000100 1111111010
-2.609239	000100 1111111011
-1.558086	000100 111111110
-3.024158	000100 11111111100
-3.211298	000100 11111111101
-2.035207	000100 11111111110
-2.910269	000100 11111111111
-3.438226	0001010 0000
-2.483983	0001010 000100
-2.637999	0001010 0001011
-2.182953	0001010 000110
-2.637999	0001010 000111000
-2.438226	0001010 0001110010
-2.535136	0001010 00011100110
-3.438226	0001010 00011100111
-2.292098	0001010 000111010
-2.637999	0001010 0001110110
-2.660074	0001010 0001110111
-2.076498	0001010 00011110
-2.660074	0001010 000111110
-3.438226	0001010 000111111
-2.773964	0001010 0010000
-3.438226	0001010 0010001
-3.438226	0001010 0010010
-2.961105	0001010 0010011
-2.292098	0001010 001010
-2.961105	0001010 00101100
-3.137196	0001010 00101101
-2.463624	0001010 00101111
-3.438226	0001010 0011001
-2.438226	0001010 0011010
-2.535136	0001010 001101110
-2.234106	0001010 001101111
-0.8929187	0001010 01000
-2.961105	0001010 0100100
-1.674798	0001010 0100101
-2.773964	0001010 0100111
-0.7859794	0001010 01010
-3.438226	0001010 0110000
-2.961105	0001010 0110001
-3.438226	0001010 01100100
-3.438226	0001010 01100101
-2.773964	0001010 01100110
-3.137196	0001010 011001110
-3.137196	0001010 011001111
-2.961105	0001010 01101000
-2.359045	0001010 01101001
-3.438226	0001010 0110101000
-3.438226	0001010 0110101010
-1.814977	0001010 011010110
-2.773964	0001010 0110101110
-3.438226	0001010 0110101111
-2.483983	0001010 011011000
-2.535136	0001010 0110110010
-2.483983	0001010 01101100110
-2.483983	0001010 0110110100
-3.438226	0001010 01101101010
-3.438226	0001010 01101101011
-1.785013	0001010 0110110110
-3.438226	0001010 01101101110
-2.058015	0001010 011011011110
-2.324282	0001010 011011011111
-1.739256	0001010 0110111000
-2.234106	0001010 01101110010
-2.396833	0001010 01101110011
-2.961105	0001010 0110111010
-1.794773	0001010 01101110110
-2.483983	0001010 01101110111
-3.438226	0001010 011011111
-3.137196	0001010 011100
-1.894158	0001010 01110100
-1.580893	0001010 01110101
-3.137196	0001010 01110110
-2.324282	0001010 01110111
-2.095803	0001010 011110
-3.438226	0001010 0111110
-2.637999	0001010 01111110
-2.660074	0001010 01111111
-2.483983	0001010 10000000
-2.159472	0001010 10000001
-2.324282	0001010 10000010
-2.438226	0001010 10000011
-3.137196	0001010 10000101
-2.961105	0001010 10000110
-2.483983	0001010 10000111
-3.438226	0001010 100010100
-3.137196	0001010 100010101
-3.137196	0001010 100010110
-2.463624	0001010 1000101111
-2.006862	0001010 1000110
-3.137196	0001010 100011101
-2.292098	0001010 100011110
-2.961105	0001010 1000111110
-2.396833	0001010 10001111110
-3.438226	0001010 10001111111
-1.919712	0001010 1001000
-2.637999	0001010 10010010
-2.182953	0001010 10010011
-2.438226	0001010 10010100
-2.292098	0001010 10010101
-2.463624	0001010 10010110
-2.438226	0001010 100101110
-2.961105	0001010 100101111
-3.137196	0001010 1001100
-2.773964	0001010 10011100
-3.438226	0001010 10011101
-2.773964	0001010 100111100
-3.438226	0001010 100111101
-3.137196	0001010 100111111
-2.660074	0001010 1010
-3.438226	0001010 101100100
-3.137196	0001010 101100110
-3.438226	0001010 101100111
-2.483983	0001010 101101000
-2.961105	0001010 10110100101
-3.137196	0001010 10110100110
-3.438226	0001010 10110101111
-2.961105	0001010 101101100
-3.137196	0001010 1011011010
-2.773964	0001010 1011011011
-2.660074	0001010 101101110
-2.660074	0001010 10110111110
-2.773964	0001010 10110111111
-1.122255	0001010 101110
-2.324282	0001010 101111
-1.652896	0001010 1100
-1.580893	0001010 11010
-2.234106	0001010 110110
-2.660074	0001010 110111
-2.961105	0001010 11100001
-2.116007	0001010 11100010
-1.804757	0001010 11100011
-2.637999	0001010 11100100
-2.961105	0001010 11100101
-2.234106	0001010 11100110
-2.773964	0001010 111001110
-2.961105	0001010 111001111
-2.483983	0001010 1110100
-2.262135	0001010 11101010
-2.637999	0001010 11101011
-2.660074	0001010 111011011
-2.262135	0001010 111011100
-2.961105	0001010 111011101
-2.359045	0001010 111011110
-2.023252	0001010 111011111
-3.438226	0001010 111100000
-3.438226	0001010 111100001
-2.396833	0001010 111100010
-3.438226	0001010 111100011
-2.773964	0001010 111100100
-3.438226	0001010 111100101
-3.438226	0001010 111100110
-2.438226	0001010 111100111
-1.404802	0001010 1111010
-2.182953	0001010 11110110
-3.438226	0001010 111101110
-2.660074	0001010 111101111
-3.137196	0001010 11111010
-3.137196	0001010 11111011
-2.463624	0001010 11111100
-1.498707	0001010 11111101
-3.438226	0001010 1111111000
-2.637999	0001010 11111110010
-3.137196	0001010 1111111011
-2.535136	0001010 111111110
-2.396833	0001010 11111111100
-2.292098	0001010 11111111101
-2.961105	0001010 11111111110
-2.463624	0001010 11111111111
-3.137196	0001010 </s>
-3.379759	0001011 000100
-2.504697	0001011 00011100110
-3.680789	0001011 00011100111
-3.379759	0001011 0001110110
-3.680789	0001011 0001110111
-3.680789	0001011 00011110
-3.680789	0001011 0011001
-2.706187	0001011 0011010
-3.203667	0001011 001101110
-3.680789	0001011 001111
-0.8521287	0001011 01000
-2.037336	0001011 0100100
-2.265815	0001011 0100101
-0.9914798	0001011 01010
-2.880562	0001011 01100101
-3.203667	0001011 011001110
-2.902637	0001011 011001111
-3.379759	0001011 01101000
-2.566845	0001011 01101001
-3.379759	0001011 0110101001
-3.680789	0001011 0110101010
-2.777699	0001011 011010110
-3.680789	0001011 0110101111
-1.576985	0001011 011011000
-2.162275	0001011 0110110010
-3.379759	0001011 01101100110
-3.016527	0001011 01101100111
-2.902637	0001011 01101101010
-3.680789	0001011 01101101011
-1.605242	0001011 0110110110
-2.777699	0001011 01101101110
-2.534661	0001011 011011011110
-2.639396	0001011 011011011111
-2.601607	0001011 01101110011
-3.680789	0001011 0110111010
-3.203667	0001011 01101110110
-2.358569	0001011 01101110111
-3.680789	0001011 01110100
-3.680789	0001011 01110101
-3.680789	0001011 011110
-3.379759	0001011 01111111
-2.504697	0001011 10000000
-2.726546	0001011 10000001
-2.534661	0001011 10000010
-2.338366	0001011 10000011
-2.902637	0001011 10000100
-2.680789	0001011 10000101
-3.379759	0001011 10000110
-2.680789	0001011 10000111
-2.880562	0001011 100010011
-3.203667	0001011 100010100
-3.203667	0001011 100010101
-2.880562	0001011 100010110
-3.203667	0001011 1000101110
-3.016527	0001011 1000101111
-2.068005	0001011 1000110
-3.680789	0001011 100011100
-2.902637	0001011 100011101
-1.783162	0001011 100011110
-2.880562	0001011 1000111110
-2.300577	0001011 10001111110
-2.902637	0001011 10001111111
-2.880562	0001011 1001000
-3.680789	0001011 10010010
-3.016527	0001011 10010011
-3.680789	0001011 10010100
-2.680789	0001011 10010101
-3.680789	0001011 10010110
-2.902637	0001011 100101110
-3.379759	0001011 100101111
-3.379759	0001011 1001101
-3.203667	0001011 10011101
-2.639396	0001011 100111100
-3.680789	0001011 100111101
-3.379759	0001011 100111111
-1.874609	0001011 1010
-3.016527	0001011 10110000
-2.566845	0001011 101100111
-3.379759	0001011 101101000
-3.016527	0001011 10110100100
-3.680789	0001011 10110100101
-2.902637	0001011 10110100110
-2.777699	0001011 10110100111
-2.902637	0001011 101101010
-3.379759	0001011 1011010110
-3.680789	0001011 10110101110
-3.379759	0001011 10110101111
-2.680789	0001011 1011011010
-2.639396	0001011 1011011011
-2.706187	0001011 101101110
-2.880562	0001011 10110111100
-3.203667	0001011 10110111101
-2.902637	0001011 10110111110
-3.680789	0001011 10110111111
-1.244626	0001011 101110
-1.823456	0001011 101111
-1.163593	0001011 1100
-0.7016957	0001011 11010
-1.698517	0001011 110110
-1.811557	0001011 110111
-2.282849	0001011 11100000
-2.402035	0001011 11100001
-1.956513	0001011 11100010
-2.233631	0001011 11100011
-2.504697	0001011 11100100
-2.706187	0001011 11100101
-2.136721	0001011 11100110
-3.016527	0001011 111001110
-2.601607	0001011 111001111
-2.476669	0001011 1110100
-2.101005	0001011 11101010
-1.867875	0001011 11101011
-2.777699	0001011 11101100
-2.880562	0001011 111011010
-2.680789	0001011 111011011
-2.203667	0001011 111011100
-2.639396	0001011 111011101
-2.249425	0001011 111011110
-2.101005	0001011 111011111
-3.016527	0001011 111100000
-2.880562	0001011 111100001
-2.534661	0001011 111100010
-3.680789	0001011 111100011
-3.680789	0001011 111100100
-2.680789	0001011 111100110
-2.476669	0001011 111100111
-2.601607	0001011 1111010
-2.068005	0001011 11110110
-2.706187	0001011 111101110
-3.379759	0001011 111101111
-2.777699	0001011 1111100
-2.203667	0001011 11111010
-3.680789	0001011 11111011
-2.089724	0001011 11111101
-3.203667	0001011 1111111000
-2.534661	0001011 11111110010
-3.203667	0001011 11111110011
-2.706187	0001011 1111111010
-2.037336	0001011 1111111011
-2.018031	0001011 111111110
-2.706187	0001011 11111111101
-2.358569	0001011 11111111110
-2.249425	0001011 11111111111
-2.880562	0001011 </s>
-3.301994	000110 000100
-3.281635	000110 0001010
-3.281635	000110 0001011
-4.256237	000110 000110
-3.080145	000110 000111000
-3.591974	000110 0001110010
-3.142293	000110 00011100110
-4.256237	000110 00011100111
-3.353147	000110 000111010
-3.955207	000110 0001110110
-4.256237	000110 0001110111
-3.301994	000110 00011110
-3.591974	000110 000111110
-3.256237	000110 000111111
-3.955207	000110 0010000
-3.779115	000110 0011000
-3.779115	000110 0011001
-2.369746	000110 0011010
-3.591974	000110 00110110
-3.779115	000110 001101110
-4.256237	000110 001101111
-2.793839	000110 001111
-3.45601	000110 01000
-2.044049	000110 0100100
-3.142293	000110 0100101
-1.266342	000110 01010
-3.955207	000110 0110000
-3.955207	000110 0110001
-2.08305	000110 01100101
-3.591974	000110 01100110
-3.591974	000110 011001110
-3.080145	000110 011001111
-3.000964	000110 01101000
-2.913814	000110 01101001
-3.353147	000110 0110101000
-2.688035	000110 0110101001
-3.591974	000110 0110101010
-3.301994	000110 0110101011
-3.779115	000110 011010110
-3.45601	000110 0110101110
-3.779115	000110 0110101111
-0.9434247	000110 011011000
-2.654176	000110 0110110010
-3.591974	000110 01101100110
-3.45601	000110 01101100111
-3.955207	000110 0110110100
-3.955207	000110 01101101010
-1.851403	000110 0110110110
-2.824873	000110 01101101110
-2.540233	000110 011011011110
-2.654176	000110 011011011111
-3.779115	000110 0110111000
-2.841263	000110 01101110011
-4.256237	000110 0110111010
-3.591974	000110 01101110110
-3.214844	000110 01101110111
-4.256237	000110 01110101
-3.591974	000110 01110110
-2.632987	000110 01110111
-3.052117	000110 011110
-4.256237	000110 01111110
-2.593479	000110 01111111
-1.697528	000110 10000000
-2.824873	000110 10000001
-2.316717	000110 10000010
-2.162815	000110 10000011
-4.256237	000110 10000100
-2.169877	000110 10000101
-2.508049	000110 10000110
-2.436693	000110 10000111
-3.591974	000110 10001000
-3.353147	000110 100010011
-2.566041	000110 100010100
-2.463845	000110 100010101
-2.463845	000110 100010110
-3.45601	000110 1000101110
-2.566041	000110 1000101111
-2.013198	000110 1000110
-3.779115	000110 100011101
-2.824873	000110 100011110
-2.793839	000110 1000111110
-3.000964	000110 10001111110
-3.110109	000110 10001111111
-2.665172	000110 1001000
-2.574995	000110 10010010
-3.281635	000110 10010011
-2.142293	000110 10010100
-2.764875	000110 10010101
-3.177055	000110 10010110
-2.235047	000110 100101110
-3.45601	000110 100101111
-3.256237	000110 1001100
-3.591974	000110 10011100
-2.955207	000110 10011101
-3.955207	000110 100111100
-3.45601	000110 100111101
-3.478085	000110 100111110
-3.591974	000110 100111111
-2.450057	000110 1010
-3.025788	000110 10110000
-3.301994	000110 10110001
-3.591974	000110 101100101
-3.45601	000110 101100110
-3.080145	000110 101100111
-2.712168	000110 101101000
-2.737723	000110 10110100100
-3.478085	000110 10110100101
-2.26501	000110 10110100110
-3.142293	000110 10110100111
-3.955207	000110 101101010
-3.281635	000110 1011010110
-3.779115	000110 101101100
-2.632987	000110 1011011010
-2.793839	000110 1011011011
-2.593479	000110 101101110
-3.779115	000110 10110111100
-3.478085	000110 10110111101
-3.142293	000110 10110111110
-3.45601	000110 10110111111
-1.31922	000110 101110
-2.278513	000110 101111
-1.237536	000110 1100
-0.6025417	000110 11010
-1.704787	000110 110110
-1.849696	000110 110111
-2.574995	000110 11100000
-2.297195	000110 11100001
-2.036129	000110 11100010
-2.129132	000110 11100011
-3.301994	000110 11100100
-3.281635	000110 11100101
-2.036129	000110 11100110
-1.972935	000110 111001110
-2.135663	000110 111001111
-1.683365	000110 1110100
-1.614762	000110 11101010
-1.626827	000110 11101011
-2.712168	000110 11101100
-2.841263	000110 111011010
-2.643453	000110 111011011
-2.531961	000110 111011100
-3.353147	000110 111011101
-2.18069	000110 111011110
-2.162815	000110 111011111
-2.283109	000110 111100000
-2.977483	000110 111100001
-3.110109	000110 111100010
-2.643453	000110 111100011
-3.025788	000110 111100100
-4.256237	000110 111100101
-2.417387	000110 111100110
-1.858297	000110 111100111
-2.809078	000110 1111010
-2.301994	000110 11110110
-4.256237	000110 111101110
-2.751086	000110 111101111
-2.091884	000110 1111100
-2.955207	000110 11111010
-3.281635	000110 11111011
-2.751086	000110 11111100
-2.094868	000110 11111101
-2.809078	000110 1111111000
-2.436693	000110 11111110010
-2.699934	000110 11111110011
-2.603024	000110 1111111010
-2.751086	000110 1111111011
-1.861785	000110 111111110
-3.177055	000110 11111111100
-2.316717	000110 11111111101
-2.423728	000110 11111111110
-2.256237	000110 11111111111
-2.612784	000110 </s>
-2.980458	000111000 000100
-2.958382	000111000 0001010
-3.758609	000111000 0001011
-2.958382	000111000 000110
-3.457579	000111000 00011100110
-3.457579	000111000 00011100111
-2.784007	000111000 000111010
-3.758609	000111000 0001110111
-2.784007	000111000 00011110
-2.958382	000111000 000111110
-2.958382	000111000 000111111
-3.758609	000111000 0010000
-3.457579	000111000 0010001
-3.758609	000111000 00101101
-3.457579	000111000 0011000
-3.281488	000111000 0011001
-2.360669	000111000 0011010
-2.804367	000111000 001101110
-3.457579	000111000 001101111
-2.804367	000111000 001111
-2.758609	000111000 01000
-1.549094	000111000 0100100
-2.644666	000111000 0100101
-1.754288	000111000 01010
-3.094347	000111000 0110000
-3.758609	000111000 01100100
-2.327245	000111000 01100101
-3.457579	000111000 01100110
-2.267247	000111000 011001111
-3.457579	000111000 01101000
-3.281488	000111000 01101001
-3.457579	000111000 0110101001
-3.758609	000111000 0110101011
-3.457579	000111000 011010110
-3.281488	000111000 0110101110
-3.094347	000111000 0110101111
-1.980458	000111000 011011000
-1.559952	000111000 0110110010
-3.758609	000111000 01101100110
-3.281488	000111000 01101101010
-2.105397	000111000 0110110110
-2.343636	000111000 01101101110
-2.378398	000111000 011011011110
-1.814126	000111000 011011011111
-3.094347	000111000 0110111000
-3.758609	000111000 01101110010
-2.416187	000111000 01101110011
-3.758609	000111000 0110111010
-3.758609	000111000 01101110110
-2.980458	000111000 01101110111
-2.758609	000111000 01110100
-3.281488	000111000 01110101
-2.396881	000111000 011110
-2.958382	000111000 01111111
-2.327245	000111000 10000000
-2.018246	000111000 10000001
-2.43639	000111000 10000010
-2.22713	000111000 10000011
-3.758609	000111000 10000100
-2.554489	000111000 10000101
-2.503337	000111000 10000110
-2.479856	000111000 10000111
-3.758609	000111000 10001000
-3.758609	000111000 100010010
-2.296211	000111000 100010011
-2.457579	000111000 100010100
-2.980458	000111000 100010101
-1.634758	000111000 100010110
-3.758609	000111000 1000101110
-2.457579	000111000 1000101111
-1.672249	000111000 1000110
-3.281488	000111000 100011101
-2.042606	000111000 100011110
-2.855519	000111000 1000111110
-3.457579	000111000 10001111110
-3.094347	000111000 10001111111
-3.758609	000111000 1001000
-3.457579	000111000 10010010
-2.296211	000111000 10010011
-2.43639	000111000 10010100
-2.52816	000111000 10010101
-2.784007	000111000 100101110
-2.311451	000111000 100101111
-3.758609	000111000 1001100
-3.758609	000111000 1001101
-3.281488	000111000 10011100
-3.758609	000111000 10011101
-3.457579	000111000 100111101
-3.758609	000111000 100111111
-2.311451	000111000 1010
-3.758609	000111000 10110000
-3.758609	000111000 101100111
-2.644666	000111000 101101000
-2.784007	000111000 10110100100
-2.804367	000111000 10110100101
-2.416187	000111000 10110100110
-3.281488	000111000 10110100111
-3.758609	000111000 101101010
-3.758609	000111000 10110101111
-3.758609	000111000 101101100
-2.855519	000111000 1011011010
-2.396881	000111000 1011011011
-2.43639	000111000 101101110
-3.094347	000111000 10110111100
-3.281488	000111000 10110111101
-2.784007	000111000 10110111110
-3.094347	000111000 10110111111
-1.367674	000111000 101110
-2.018246	000111000 101111
-1.153304	000111000 1100
-0.5240918	000111000 11010
-1.591292	000111000 110110
-1.705531	000111000 110111
-2.644666	000111000 11100000
-2.296211	000111000 11100001
-1.672249	000111000 11100010
-2.296211	000111000 11100011
-2.980458	000111000 11100100
-2.855519	000111000 11100101
-1.745772	000111000 11100110
-2.281488	000111000 111001110
-2.784007	000111000 111001111
-2.396881	000111000 1110100
-2.396881	000111000 11101010
-2.086511	000111000 11101011
-2.758609	000111000 11101100
-2.804367	000111000 111011010
-2.457579	000111000 111011011
-2.042606	000111000 111011100
-1.883548	000111000 111011101
-1.668704	000111000 111011110
-2.026215	000111000 111011111
-2.804367	000111000 111100000
-2.784007	000111000 111100010
-2.644666	000111000 111100011
-3.457579	000111000 111100100
-2.784007	000111000 111100110
-2.679428	000111000 111100111
-2.582518	000111000 1111010
-2.077368	000111000 11110110
-2.980458	000111000 111101111
-2.267247	000111000 1111100
-3.094347	000111000 11111011
-3.457579	000111000 11111100
-2.296211	000111000 11111101
-2.855519	000111000 1111111000
-2.43639	000111000 11111110010
-2.784007	000111000 11111110011
-2.52816	000111000 1111111010
-2.457579	000111000 1111111011
-2.042606	000111000 111111110
-2.190408	000111000 11111111101
-2.758609	000111000 11111111110
-2.22713	000111000 11111111111
-2.202307	000111000 </s>
-2.679125	0001110010 000100
-2.657049	0001110010 000110
-2.793014	0001110010 000111000
-3.457276	0001110010 00011100110
-3.457276	0001110010 00011100111
-2.980155	0001110010 0001110110
-3.457276	0001110010 0001110111
-2.482674	0001110010 00011110
-2.980155	0001110010 000111110
-3.457276	0001110010 000111111
-3.457276	0001110010 0010000
-3.156246	0001110010 0011000
-2.311148	0001110010 0011010
-2.793014	0001110010 00110110
-3.156246	0001110010 001101110
-3.457276	0001110010 001101111
-2.503034	0001110010 001111
-2.793014	0001110010 01000
-1.965914	0001110010 0100100
-3.156246	0001110010 0100101
-1.866212	0001110010 01010
-3.457276	0001110010 0110000
-3.457276	0001110010 01100100
-2.378095	0001110010 01100101
-3.156246	0001110010 01100110
-2.135057	0001110010 011001111
-3.156246	0001110010 01101000
-2.679125	0001110010 01101001
-3.457276	0001110010 0110101001
-3.457276	0001110010 0110101010
-3.457276	0001110010 011010110
-3.457276	0001110010 0110101110
-3.457276	0001110010 0110101111
-1.758306	0001110010 011011000
-2.415884	0001110010 0110110010
-3.156246	0001110010 01101100111
-2.980155	0001110010 01101101010
-3.457276	0001110010 01101101011
-2.025913	0001110010 0110110110
-1.794518	0001110010 01101101110
-2.378095	0001110010 011011011110
-2.343333	0001110010 011011011111
-3.457276	0001110010 0110111000
-3.457276	0001110010 01101110010
-3.156246	0001110010 01101110011
-3.457276	0001110010 01101110110
-3.457276	0001110010 01101110111
-3.457276	0001110010 011110
-3.457276	0001110010 01111110
-2.657049	0001110010 10000000
-2.253156	0001110010 10000001
-2.679125	0001110010 10000010
-1.965914	0001110010 10000011
-1.980155	0001110010 10000101
-2.226827	0001110010 10000110
-2.253156	0001110010 10000111
-3.457276	0001110010 100010011
-3.156246	0001110010 100010101
-2.980155	0001110010 100010110
-2.281185	0001110010 1000101111
-1.855216	0001110010 1000110
-1.925797	0001110010 100011101
-2.059336	0001110010 100011110
-2.679125	0001110010 1000111110
-3.156246	0001110010 10001111110
-2.679125	0001110010 10001111111
-2.554186	0001110010 1001000
-3.156246	0001110010 10010010
-2.793014	0001110010 10010011
-3.156246	0001110010 10010100
-3.457276	0001110010 10010101
-3.457276	0001110010 100101110
-3.457276	0001110010 1001100
-3.156246	0001110010 10011101
-2.793014	0001110010 100111101
-2.679125	0001110010 100111110
-3.156246	0001110010 100111111
-1.844492	0001110010 1010
-3.156246	0001110010 10110000
-2.657049	0001110010 101101000
-3.156246	0001110010 10110100100
-2.679125	0001110010 10110100101
-2.793014	0001110010 10110100110
-2.253156	0001110010 1011011010
-2.980155	0001110010 1011011011
-2.202004	0001110010 101101110
-2.657049	0001110010 10110111100
-3.457276	0001110010 10110111101
-2.679125	0001110010 10110111110
-1.278299	0001110010 101110
-1.657936	0001110010 101111
-1.038975	0001110010 1100
-0.5011078	0001110010 11010
-1.532997	0001110010 110110
-1.679125	0001110010 110111
-2.980155	0001110010 11100000
-2.503034	0001110010 11100001
-2.010118	0001110010 11100010
-2.025913	0001110010 11100011
-3.457276	0001110010 11100100
-2.503034	0001110010 11100101
-1.693848	0001110010 11100110
-2.679125	0001110010 111001110
-2.657049	0001110010 111001111
-2.980155	0001110010 1110100
-2.135057	0001110010 11101010
-2.025913	0001110010 11101011
-2.503034	0001110010 11101100
-3.156246	0001110010 111011010
-2.457276	0001110010 111011011
-2.281185	0001110010 111011100
-3.457276	0001110010 111011101
-2.202004	0001110010 111011110
-2.114854	0001110010 111011111
-2.793014	0001110010 111100000
-3.457276	0001110010 111100001
-3.156246	0001110010 111100010
-3.457276	0001110010 111100011
-3.457276	0001110010 111100100
-2.281185	0001110010 111100110
-2.503034	0001110010 111100111
-2.482674	0001110010 1111010
-2.095548	0001110010 11110110
-2.793014	0001110010 111101110
-2.980155	0001110010 111101111
-2.042303	0001110010 1111100
-2.343333	0001110010 11111010
-2.657049	0001110010 11111011
-2.135057	0001110010 11111101
-2.311148	0001110010 1111111000
-2.503034	0001110010 11111110010
-3.457276	0001110010 11111110011
-2.457276	0001110010 1111111010
-2.202004	0001110010 1111111011
-1.813823	0001110010 111111110
-2.980155	0001110010 11111111100
-2.482674	0001110010 11111111101
-2.253156	0001110010 11111111110
-2.281185	0001110010 11111111111
-2.311148	0001110010 </s>
-2.62907	00011100110 000100
-3.106191	00011100110 0001010
-3.106191	00011100110 0001011
-2.203101	00011100110 000110
-3.106191	00011100110 000111000
-2.742959	00011100110 0001110010
-3.407221	00011100110 00011100110
-3.106191	00011100110 00011100111
-2.62907	00011100110 000111010
-3.106191	00011100110 0001110110
-3.407221	00011100110 0001110111
-2.504131	00011100110 00011110
-2.32804	00011100110 000111110
-3.407221	00011100110 000111111
-3.407221	00011100110 0010000
-2.32804	00011100110 001010
-3.106191	00011100110 0011000
-2.742959	00011100110 0011001
-2.176772	00011100110 0011010
-3.407221	00011100110 00110110
-2.62907	00011100110 001101110
-3.106191	00011100110 001101111
-2.176772	00011100110 001111
-1.320861	00011100110 01000
-2.62907	00011100110 0100100
-2.742959	00011100110 0100101
-0.9922475	00011100110 01010
-3.106191	00011100110 0110000
-2.742959	00011100110 01100100
-2.742959	00011100110 01100101
-2.9301	00011100110 01100110
-2.9301	00011100110 011001110
-2.504131	00011100110 011001111
-2.9301	00011100110 01101000
-3.407221	00011100110 01101001
-3.407221	00011100110 0110101001
-3.106191	00011100110 011010110
-2.407221	00011100110 0110101110
-1.839019	00011100110 011011000
-2.62907	00011100110 0110110010
-3.407221	00011100110 01101100110
-3.407221	00011100110 0110110100
-2.203101	00011100110 0110110110
-2.106191	00011100110 01101101110
-2.261093	00011100110 011011011110
-1.875742	00011100110 011011011111
-3.407221	00011100110 0110111000
-3.106191	00011100110 01101110011
-3.407221	00011100110 0110111010
-3.407221	00011100110 01101110110
-2.02701	00011100110 01101110111
-3.407221	00011100110 01110100
-3.407221	00011100110 01110101
-3.407221	00011100110 01110110
-3.407221	00011100110 01110111
-1.992248	00011100110 011110
-3.407221	00011100110 0111110
-3.106191	00011100110 01111110
-3.106191	00011100110 10000000
-2.432619	00011100110 10000001
-2.62907	00011100110 10000010
-2.432619	00011100110 10000011
-2.151948	00011100110 10000101
-2.742959	00011100110 10000110
-3.407221	00011100110 10001000
-3.106191	00011100110 100010011
-2.742959	00011100110 100010100
-2.407221	00011100110 100010101
-3.106191	00011100110 100010110
-2.9301	00011100110 1000101111
-1.960063	00011100110 1000110
-2.432619	00011100110 100011101
-2.176772	00011100110 100011110
-2.151948	00011100110 1000111110
-2.742959	00011100110 10001111110
-3.106191	00011100110 10001111111
-3.407221	00011100110 1001000
-3.407221	00011100110 10010010
-3.407221	00011100110 10010011
-2.432619	00011100110 10010100
-2.9301	00011100110 10010101
-2.9301	00011100110 100101110
-3.407221	00011100110 1001100
-3.106191	00011100110 1001101
-3.407221	00011100110 10011100
-2.9301	00011100110 10011101
-3.407221	00011100110 100111101
-1.960063	00011100110 1010
-3.407221	00011100110 10110000
-3.106191	00011100110 101100100
-3.106191	00011100110 101101000
-2.606994	00011100110 10110100101
-2.407221	00011100110 10110100110
-3.407221	00011100110 10110100111
-2.742959	00011100110 101101010
-2.452978	00011100110 1011011010
-2.432619	00011100110 1011011011
-2.62907	00011100110 101101110
-2.742959	00011100110 10110111100
-1.62907	00011100110 101110
-1.794437	00011100110 101111
-1.32804	00011100110 1100
-0.4844954	00011100110 11010
-1.717025	00011100110 110110
-1.915859	00011100110 110111
-2.452978	00011100110 11100000
-2.452978	00011100110 11100001
-2.293278	00011100110 11100010
-3.407221	00011100110 11100011
-2.742959	00011100110 11100100
-3.106191	00011100110 11100101
-2.32804	00011100110 11100110
-2.407221	00011100110 111001110
-3.407221	00011100110 111001111
-3.106191	00011100110 1110100
-2.32804	00011100110 11101010
-2.203101	00011100110 11101011
-3.407221	00011100110 111011010
-3.407221	00011100110 111011011
-2.742959	00011100110 111011100
-2.742959	00011100110 111011101
-2.106191	00011100110 111011110
-2.606994	00011100110 111011111
-2.742959	00011100110 111100010
-3.106191	00011100110 111100011
-2.9301	00011100110 111100100
-2.62907	00011100110 111100101
-2.606994	00011100110 111100110
-3.106191	00011100110 111100111
-2.9301	00011100110 1111010
-2.407221	00011100110 11110110
-3.407221	00011100110 111101110
-3.106191	00011100110 111101111
-2.452978	00011100110 1111100
-2.32804	00011100110 11111010
-3.106191	00011100110 11111011
-3.407221	00011100110 11111100
-1.515126	00011100110 11111101
-2.742959	00011100110 1111111000
-2.504131	00011100110 11111110010
-2.742959	00011100110 1111111010
-2.407221	00011100110 1111111011
-2.23113	00011100110 111111110
-2.62907	00011100110 11111111101
-2.407221	00011100110 11111111110
-2.504131	00011100110 11111111111
-1.60788	00011100110 </s>
-3.177248	00011100111 000110
-2.098067	00011100111 0001110110
-2.377021	00011100111 00011110
-2.876218	00011100111 000111110
-2.377021	00011100111 0011010
-3.177248	00011100111 00110110
-1.421373	00011100111 0100100
-3.177248	00011100111 0100101
-1.087343	00011100111 01010
-2.202646	00011100111 0110000
-1.762275	00011100111 0110001
-1.973128	00011100111 01100110
-2.876218	00011100111 011001110
-1.73009	00011100111 011001111
-3.177248	00011100111 01101000
-2.876218	00011100111 01101001
-2.377021	00011100111 011010110
-2.876218	00011100111 0110101110
-2.377021	00011100111 0110101111
-1.436885	00011100111 011011000
-1.73009	00011100111 0110110010
-3.177248	00011100111 01101100111
-2.512986	00011100111 0110110110
-2.001157	00011100111 01101101110
-2.399096	00011100111 011011011110
-3.177248	00011100111 01101110011
-3.177248	00011100111 0110111010
-2.876218	00011100111 01101110110
-1.399097	00011100111 01101110111
-2.876218	00011100111 011011111
-3.177248	00011100111 01110110
-3.177248	00011100111 01110111
-2.399096	00011100111 01111111
-3.177248	00011100111 10000000
-2.876218	00011100111 10000001
-3.177248	00011100111 10000010
-2.512986	00011100111 10000011
-2.876218	00011100111 10000101
-3.177248	00011100111 10000110
-3.177248	00011100111 10000111
-2.876218	00011100111 100010100
-3.177248	00011100111 100010101
-2.512986	00011100111 1000110
-3.177248	00011100111 100011100
-2.223005	00011100111 100011101
-1.63318	00011100111 100011110
-2.876218	00011100111 1000111110
-2.03112	00011100111 10001111110
-2.377021	00011100111 10001111111
-2.876218	00011100111 10010010
-3.177248	00011100111 10010011
-2.399096	00011100111 10010100
-2.876218	00011100111 10010101
-3.177248	00011100111 100101110
-2.876218	00011100111 1001100
-3.177248	00011100111 1001101
-2.063304	00011100111 1010
-2.512986	00011100111 101101000
-3.177248	00011100111 10110100100
-2.700127	00011100111 10110100101
-3.177248	00011100111 10110100110
-3.177248	00011100111 10110100111
-2.876218	00011100111 101101010
-2.512986	00011100111 1011011010
-3.177248	00011100111 1011011011
-2.876218	00011100111 101101110
-2.876218	00011100111 10110111100
-1.533795	00011100111 101110
-2.223005	00011100111 101111
-1.71485	00011100111 1100
-0.5850711	00011100111 11010
-1.797037	00011100111 110110
-1.779308	00011100111 110111
-2.399096	00011100111 11100000
-2.274158	00011100111 11100001
-1.779308	00011100111 11100010
-1.227858	00011100111 11100011
-2.700127	00011100111 11100101
-1.81552	00011100111 11100110
-2.512986	00011100111 111001111
-2.876218	00011100111 1110100
-2.512986	00011100111 11101010
-2.202646	00011100111 11101011
-2.700127	00011100111 111011010
-3.177248	00011100111 111011011
-2.202646	00011100111 111011100
-2.700127	00011100111 111011101
-2.399096	00011100111 111011111
-2.876218	00011100111 111100010
-3.177248	00011100111 111100011
-3.177248	00011100111 111100100
-2.876218	00011100111 111100101
-2.876218	00011100111 111100110
-1.797037	00011100111 111100111
-2.876218	00011100111 1111010
-2.512986	00011100111 11110110
-3.177248	00011100111 111101110
-2.700127	00011100111 111101111
-2.223005	00011100111 1111100
-1.855029	00011100111 11111010
-2.202646	00011100111 11111011
-2.876218	00011100111 11111100
-2.223005	00011100111 11111101
-2.202646	00011100111 1111111000
-2.399096	00011100111 11111110010
-2.876218	00011100111 11111110011
-2.876218	00011100111 1111111010
-2.063304	00011100111 1111111011
-2.876218	00011100111 111111110
-3.177248	00011100111 11111111100
-2.876218	00011100111 11111111111
-1.797037	00011100111 </s>
-2.673457	000111010 000100
-3.952211	000111010 0001010
-3.151984	000111010 000110
-3.952211	000111010 000111000
-3.049121	000111010 00011100110
-3.151984	000111010 00011100111
-3.952211	000111010 0001110110
-3.952211	000111010 0001110111
-2.629992	000111010 00011110
-3.287949	000111010 000111110
-3.952211	000111010 000111111
-3.952211	000111010 0010001
-3.952211	000111010 001010
-3.952211	000111010 0011001
-2.460849	000111010 0011010
-3.952211	000111010 00110110
-3.651181	000111010 001101110
-3.952211	000111010 001101111
-3.287949	000111010 001111
-1.588599	000111010 01000
-2.77612	000111010 0100100
-2.094879	000111010 0100101
-1.726902	000111010 01010
-2.977609	000111010 0110000
-3.952211	000111010 01100100
-2.572	000111010 01100101
-3.651181	000111010 01100110
-3.651181	000111010 011001110
-2.408143	000111010 011001111
-3.17406	000111010 01101000
-2.748091	000111010 01101001
-3.651181	000111010 0110101000
-3.287949	000111010 0110101001
-2.17406	000111010 0110101011
-2.748091	000111010 011010110
-3.651181	000111010 0110101110
-3.287949	000111010 0110101111
-1.841621	000111010 011011000
-2.590483	000111010 0110110010
-3.287949	000111010 01101100110
-2.977609	000111010 0110110100
-3.049121	000111010 01101101011
-1.724324	000111010 0110110110
-1.956576	000111010 01101101110
-1.884025	000111010 011011011110
-2.47509	000111010 011011011111
-3.049121	000111010 0110111000
-2.952211	000111010 01101110010
-2.489813	000111010 01101110011
-3.651181	000111010 0110111010
-3.47509	000111010 01101110110
-2.372427	000111010 01101110111
-3.952211	000111010 011011111
-2.997968	000111010 01110100
-3.651181	000111010 01110101
-3.952211	000111010 011110
-3.952211	000111010 01111111
-2.054584	000111010 10000000
-2.054584	000111010 10000001
-2.328962	000111010 10000010
-1.926905	000111010 10000011
-2.977609	000111010 10000101
-2.721762	000111010 10000110
-2.339427	000111010 10000111
-3.47509	000111010 10001000
-1.46366	000111010 100010010
-3.47509	000111010 100010011
-2.629992	000111010 100010100
-3.651181	000111010 100010101
-3.952211	000111010 100010110
-3.651181	000111010 1000101110
-2.537238	000111010 1000101111
-1.943611	000111010 1000110
-3.952211	000111010 100011100
-2.748091	000111010 100011101
-1.627929	000111010 100011110
-2.673457	000111010 1000111110
-2.350151	000111010 10001111110
-2.838268	000111010 10001111111
-2.082979	000111010 1001000
-2.910818	000111010 10010010
-2.87303	000111010 10010011
-2.673457	000111010 10010100
-2.088888	000111010 10010101
-2.952211	000111010 10010110
-2.806083	000111010 100101110
-3.287949	000111010 100101111
-3.17406	000111010 1001100
-2.520847	000111010 10011100
-2.15287	000111010 10011101
-3.651181	000111010 100111100
-3.287949	000111010 100111101
-2.027932	000111010 1010
-2.977609	000111010 10110000
-3.651181	000111010 10110001
-2.952211	000111010 101100101
-3.287949	000111010 101100111
-2.87303	000111010 101101000
-3.651181	000111010 10110100100
-3.151984	000111010 10110100101
-2.910818	000111010 10110100110
-2.651181	000111010 10110100111
-2.651181	000111010 101101010
-3.651181	000111010 10110101110
-3.952211	000111010 101101100
-2.696939	000111010 1011011010
-2.537238	000111010 1011011011
-2.328962	000111010 101101110
-2.977609	000111010 10110111100
-2.977609	000111010 10110111110
-3.952211	000111010 10110111111
-1.25411	000111010 101110
-1.666654	000111010 101111
-1.173337	000111010 1100
-0.6641855	000111010 11010
-1.714165	000111010 110110
-1.729495	000111010 110111
-2.629992	000111010 11100000
-2.447061	000111010 11100001
-1.899133	000111010 11100010
-2.166881	000111010 11100011
-2.977609	000111010 11100100
-2.629992	000111010 11100101
-1.87303	000111010 11100110
-2.87303	000111010 111001110
-2.721762	000111010 111001111
-2.372427	000111010 1110100
-2.132667	000111010 11101010
-1.809196	000111010 11101011
-2.952211	000111010 11101100
-2.806083	000111010 111011010
-2.47509	000111010 111011011
-2.06572	000111010 111011100
-2.696939	000111010 111011101
-1.69214	000111010 111011110
-1.960985	000111010 111011111
-3.952211	000111010 111100000
-3.651181	000111010 111100001
-2.629992	000111010 111100010
-3.287949	000111010 111100011
-3.17406	000111010 111100100
-3.651181	000111010 111100101
-2.244641	000111010 111100110
-2.77612	000111010 111100111
-2.017713	000111010 1111010
-2.082979	000111010 11110110
-2.748091	000111010 111101110
-2.77612	000111010 111101111
-2.318743	000111010 1111100
-3.287949	000111010 11111010
-2.838268	000111010 11111011
-3.151984	000111010 11111100
-1.802992	000111010 11111101
-2.361146	000111010 1111111000
-2.196336	000111010 11111110010
-2.572	000111010 11111110011
-2.408143	000111010 1111111010
-2.350151	000111010 1111111011
-1.935178	000111010 111111110
-3.287949	000111010 11111111100
-2.328962	000111010 11111111101
-2.211848	000111010 11111111110
-1.726902	000111010 11111111111
-3.151984	000111010 </s>
-3.211121	0001110110 0000
-2.711924	0001110110 000100
-3.035029	0001110110 0001010
-3.512151	0001110110 0001011
-2.609061	0001110110 000110
-2.711924	0001110110 000111000
-3.211121	0001110110 0001110010
-3.035029	0001110110 00011100110
-3.035029	0001110110 00011100111
-3.035029	0001110110 000111010
-3.211121	0001110110 0001110110
-2.711924	0001110110 0001110111
-2.847889	0001110110 00011110
-3.512151	0001110110 000111110
-3.512151	0001110110 000111111
-3.211121	0001110110 0010000
-2.366023	0001110110 001010
-3.512151	0001110110 00101111
-3.211121	0001110110 0011000
-3.211121	0001110110 0011001
-2.114211	0001110110 0011010
-2.847889	0001110110 00110110
-3.512151	0001110110 001101110
-2.281702	0001110110 001111
-2.847889	0001110110 01000
-2.233397	0001110110 0100100
-2.711924	0001110110 0100101
-3.512151	0001110110 0100110
-1.821954	0001110110 01010
-2.366023	0001110110 0110000
-1.849393	0001110110 0110001
-2.711924	0001110110 01100101
-1.830909	0001110110 01100110
-2.512151	0001110110 011001110
-1.620056	0001110110 011001111
-2.711924	0001110110 01101000
-2.308031	0001110110 01101001
-3.512151	0001110110 0110101000
-3.211121	0001110110 0110101010
-3.035029	0001110110 0110101011
-2.537549	0001110110 011010110
-2.847889	0001110110 0110101110
-3.035029	0001110110 0110101111
-1.955848	0001110110 011011000
-2.114211	0001110110 0110110010
-3.211121	0001110110 01101100110
-3.211121	0001110110 0110110100
-1.187868	0001110110 0110110110
-2.609061	0001110110 01101101110
-1.779757	0001110110 011011011110
-3.035029	0001110110 011011011111
-2.557908	0001110110 01101110010
-2.189931	0001110110 01101110011
-2.512151	0001110110 0110111010
-2.398207	0001110110 01101110111
-3.512151	0001110110 011011111
-3.512151	0001110110 01110101
-3.512151	0001110110 01110110
-2.847889	0001110110 011110
-2.733999	0001110110 10000000
-2.281702	0001110110 10000001
-3.211121	0001110110 10000010
-2.169728	0001110110 10000011
-3.512151	0001110110 10000101
-2.512151	0001110110 10000110
-2.609061	0001110110 10000111
-3.512151	0001110110 10001000
-3.512151	0001110110 100010010
-3.512151	0001110110 100010011
-2.233397	0001110110 100010100
-2.470758	0001110110 100010101
-3.035029	0001110110 100010110
-3.211121	0001110110 1000101110
-2.020789	0001110110 1000101111
-1.968083	0001110110 1000110
-3.512151	0001110110 100011100
-2.733999	0001110110 100011101
-1.932367	0001110110 100011110
-2.847889	0001110110 1000111110
-2.537549	0001110110 10001111110
-3.035029	0001110110 10001111111
-2.847889	0001110110 1001000
-2.537549	0001110110 10010010
-2.847889	0001110110 10010011
-2.537549	0001110110 10010100
-2.733999	0001110110 10010101
-3.035029	0001110110 10010110
-3.035029	0001110110 100101110
-3.035029	0001110110 100101111
-2.711924	0001110110 1001100
-2.512151	0001110110 1001101
-2.609061	0001110110 10011100
-2.336059	0001110110 10011101
-3.512151	0001110110 100111110
-3.035029	0001110110 100111111
-1.686076	0001110110 1010
-3.512151	0001110110 10110000
-3.211121	0001110110 101100101
-3.035029	0001110110 101101000
-3.211121	0001110110 10110100101
-3.035029	0001110110 10110100110
-2.432969	0001110110 10110100111
-3.211121	0001110110 101101010
-2.711924	0001110110 1011011010
-2.733999	0001110110 1011011011
-2.733999	0001110110 101101110
-3.211121	0001110110 10110111100
-3.035029	0001110110 10110111101
-2.847889	0001110110 10110111110
-3.512151	0001110110 10110111111
-1.418729	0001110110 101110
-1.598337	0001110110 101111
-1.20252	0001110110 1100
-0.5915055	0001110110 11010
-1.667053	0001110110 110110
-1.993637	0001110110 110111
-2.512151	0001110110 11100000
-2.512151	0001110110 11100001
-2.211121	0001110110 11100010
-2.512151	0001110110 11100011
-3.035029	0001110110 11100101
-2.211121	0001110110 11100110
-2.432969	0001110110 111001110
-3.512151	0001110110 111001111
-2.711924	0001110110 1110100
-2.470758	0001110110 11101010
-2.080787	0001110110 11101011
-2.733999	0001110110 11101100
-2.711924	0001110110 111011010
-2.711924	0001110110 111011011
-2.189931	0001110110 111011100
-2.557908	0001110110 111011101
-2.131939	0001110110 111011110
-2.537549	0001110110 111011111
-3.035029	0001110110 111100000
-3.035029	0001110110 111100001
-1.787875	0001110110 111100010
-2.256878	0001110110 111100011
-3.512151	0001110110 111100100
-2.733999	0001110110 111100101
-2.512151	0001110110 111100110
-3.035029	0001110110 111100111
-2.609061	0001110110 1111010
-2.211121	0001110110 11110110
-2.847889	0001110110 111101110
-2.398207	0001110110 111101111
-2.537549	0001110110 1111100
-2.366023	0001110110 11111010
-2.733999	0001110110 11111011
-2.711924	0001110110 11111100
-1.830909	0001110110 11111101
-2.609061	0001110110 1111111000
-2.398207	0001110110 11111110010
-2.432969	0001110110 11111110011
-2.847889	0001110110 1111111010
-2.557908	0001110110 1111111011
-2.020789	0001110110 111111110
-2.537549	0001110110 11111111100
-2.557908	0001110110 11111111101
-2.366023	0001110110 11111111110
-2.336059	0001110110 11111111111
-1.796147	0001110110 </s>
-3.457731	0001110111 0000
-3.156701	0001110111 000100
-1.913663	0001110111 000110
-2.793469	0001110111 000111000
-3.156701	0001110111 00011100110
-3.156701	0001110111 00011100111
-2.793469	0001110111 000111010
-3.156701	0001110111 0001110111
-2.980609	0001110111 00011110
-3.457731	0001110111 000111110
-2.793469	0001110111 000111111
-3.156701	0001110111 0010001
-3.457731	0001110111 0010010
-2.253611	0001110111 0011010
-3.457731	0001110111 00110110
-3.156701	0001110111 001111
-1.594408	0001110111 01000
-3.457731	0001110111 0100100
-2.281639	0001110111 0100101
-1.65839	0001110111 01010
-3.457731	0001110111 0110000
-3.457731	0001110111 0110001
-3.457731	0001110111 01100100
-2.135511	0001110111 01100101
-3.457731	0001110111 01100110
-2.554641	0001110111 011001111
-2.554641	0001110111 01101000
-2.679579	0001110111 01101001
-3.156701	0001110111 0110101000
-2.793469	0001110111 0110101010
-2.793469	0001110111 0110101011
-2.554641	0001110111 011010110
-2.657504	0001110111 0110101110
-3.457731	0001110111 0110101111
-2.178977	0001110111 011011000
-2.793469	0001110111 0110110010
-3.457731	0001110111 01101100111
-3.156701	0001110111 0110110100
-3.457731	0001110111 01101101011
-1.65839	0001110111 0110110110
-2.378549	0001110111 01101101110
-2.227282	0001110111 011011011110
-2.679579	0001110111 011011011111
-3.156701	0001110111 0110111000
-2.793469	0001110111 01101110011
-3.156701	0001110111 0110111010
-2.483129	0001110111 01101110110
-2.793469	0001110111 01101110111
-3.156701	0001110111 01110100
-3.457731	0001110111 01110101
-3.457731	0001110111 01110110
-2.980609	0001110111 01110111
-2.980609	0001110111 011110
-3.457731	0001110111 0111110
-3.457731	0001110111 01111110
-2.156701	0001110111 10000000
-1.725337	0001110111 10000001
-2.378549	0001110111 10000010
-1.980609	0001110111 10000011
-2.980609	0001110111 10000101
-1.877947	0001110111 10000110
-2.679579	0001110111 10000111
-3.457731	0001110111 100010011
-2.980609	0001110111 100010100
-2.178977	0001110111 100010101
-2.980609	0001110111 1000101110
-2.115308	0001110111 1000101111
-1.785633	0001110111 1000110
-3.457731	0001110111 100011100
-3.156701	0001110111 100011101
-1.980609	0001110111 100011110
-2.483129	0001110111 10001111110
-2.980609	0001110111 10001111111
-1.855671	0001110111 1001000
-2.980609	0001110111 10010010
-2.457731	0001110111 10010011
-2.793469	0001110111 10010100
-2.980609	0001110111 10010101
-3.457731	0001110111 100101110
-2.793469	0001110111 100101111
-2.793469	0001110111 1001100
-2.980609	0001110111 100111110
-2.980609	0001110111 100111111
-1.701856	0001110111 1010
-3.457731	0001110111 101100110
-2.793469	0001110111 101100111
-3.457731	0001110111 10110100100
-3.156701	0001110111 10110100101
-3.457731	0001110111 10110100110
-2.793469	0001110111 101101010
-3.457731	0001110111 101101100
-2.554641	0001110111 1011011010
-2.457731	0001110111 1011011011
-2.227282	0001110111 101101110
-3.156701	0001110111 10110111100
-2.793469	0001110111 10110111110
-1.172173	0001110111 101110
-1.424307	0001110111 101111
-0.9893832	0001110111 1100
-0.7157915	0001110111 11010
-1.966369	0001110111 110110
-1.877947	0001110111 110111
-2.483129	0001110111 11100000
-2.059791	0001110111 11100001
-2.178977	0001110111 11100010
-2.343787	0001110111 11100011
-2.980609	0001110111 11100100
-2.178977	0001110111 11100101
-1.794973	0001110111 11100110
-2.503488	0001110111 111001110
-2.483129	0001110111 111001111
-2.253611	0001110111 1110100
-2.135511	0001110111 11101010
-1.758761	0001110111 11101011
-2.483129	0001110111 11101100
-2.980609	0001110111 111011010
-2.378549	0001110111 111011011
-1.952581	0001110111 111011100
-2.793469	0001110111 111011101
-2.378549	0001110111 111011110
-2.115308	0001110111 111011111
-2.679579	0001110111 111100000
-2.679579	0001110111 111100001
-2.416338	0001110111 111100010
-2.483129	0001110111 111100011
-3.156701	0001110111 111100100
-3.156701	0001110111 111100101
-2.378549	0001110111 111100110
-3.457731	0001110111 111100111
-2.378549	0001110111 1111010
-1.741727	0001110111 11110110
-2.980609	0001110111 111101110
-2.554641	0001110111 111101111
-2.554641	0001110111 1111100
-2.793469	0001110111 11111010
-1.980609	0001110111 11111101
-3.457731	0001110111 1111111000
-2.135511	0001110111 11111110010
-2.503488	0001110111 11111110011
-2.554641	0001110111 1111111010
-2.156701	0001110111 1111111011
-1.785633	0001110111 111111110
-2.980609	0001110111 11111111100
-1.855671	0001110111 11111111101
-2.253611	0001110111 11111111110
-2.503488	0001110111 11111111111
-2.343787	0001110111 </s>
-2.893852	00011110 000100
-3.029817	00011110 0001010
-2.202717	00011110 00011100110
-3.393049	00011110 0001110111
-3.694078	00011110 000111111
-3.694078	00011110 0011001
-2.081295	00011110 0011010
-3.393049	00011110 001101110
-3.694078	00011110 001101111
-3.393049	00011110 001111
-1.052604	00011110 01000
-2.614897	00011110 0100100
-1.780265	00011110 0100101
-0.9641042	00011110 01010
-3.694078	00011110 0110000
-2.332351	00011110 01100101
-2.790988	00011110 011001111
-3.393049	00011110 01101000
-3.216957	00011110 0110101000
-3.694078	00011110 0110101010
-3.694078	00011110 0110101011
-3.393049	00011110 011010110
-2.332351	00011110 011011000
-2.614897	00011110 0110110010
-3.694078	00011110 01101100111
-3.393049	00011110 0110110100
-2.081295	00011110 0110110110
-2.893852	00011110 01101101110
-1.84282	00011110 011011011110
-2.580135	00011110 011011011111
-3.393049	00011110 0110111000
-2.893852	00011110 01101110011
-3.694078	00011110 0110111010
-2.790988	00011110 01101110111
-3.694078	00011110 01110101
-3.694078	00011110 01110110
-3.694078	00011110 01110111
-3.694078	00011110 011110
-3.694078	00011110 0111110
-2.915927	00011110 10000000
-3.029817	00011110 10000001
-3.029817	00011110 10000010
-2.719477	00011110 10000011
-2.719477	00011110 10000101
-3.393049	00011110 10000110
-2.547951	00011110 10000111
-3.694078	00011110 10001000
-2.614897	00011110 100010100
-3.216957	00011110 100010101
-3.694078	00011110 1000101111
-2.719477	00011110 1000110
-2.893852	00011110 100011101
-2.438806	00011110 100011110
-2.463629	00011110 10001111110
-3.694078	00011110 10001111111
-3.393049	00011110 1001000
-2.614897	00011110 10010010
-2.517987	00011110 10010011
-2.719477	00011110 10010100
-3.393049	00011110 10010101
-2.489959	00011110 100101110
-3.694078	00011110 100101111
-2.652686	00011110 1001100
-3.029817	00011110 1001101
-2.489959	00011110 10011101
-3.393049	00011110 100111100
-3.694078	00011110 100111110
-2.739836	00011110 100111111
-1.969803	00011110 1010
-2.694078	00011110 101100111
-2.893852	00011110 10110100101
-3.393049	00011110 101101010
-2.790988	00011110 1011011010
-3.029817	00011110 101101110
-3.694078	00011110 10110111100
-3.694078	00011110 10110111101
-2.694078	00011110 10110111110
-1.347726	00011110 101110
-1.277438	00011110 101111
-1.06061	00011110 1100
-0.7006422	00011110 11010
-2.021981	00011110 110110
-1.824847	00011110 110111
-2.739836	00011110 11100000
-2.614897	00011110 11100001
-2.719477	00011110 11100010
-2.517987	00011110 11100011
-1.94589	00011110 11100101
-2.081295	00011110 11100110
-2.415325	00011110 111001110
-2.694078	00011110 111001111
-2.614897	00011110 1110100
-2.012837	00011110 11101010
-1.694078	00011110 11101011
-3.393049	00011110 11101100
-3.029817	00011110 111011011
-3.216957	00011110 111011100
-3.029817	00011110 111011101
-2.003882	00011110 111011110
-2.790988	00011110 111011111
-3.393049	00011110 111100000
-2.332351	00011110 111100010
-3.393049	00011110 111100011
-3.694078	00011110 111100100
-1.073942	00011110 111100101
-3.029817	00011110 111100110
-2.694078	00011110 111100111
-2.393049	00011110 1111010
-2.652686	00011110 11110110
-3.694078	00011110 111101110
-2.790988	00011110 111101111
-2.021981	00011110 1111100
-2.547951	00011110 11111010
-2.893852	00011110 11111011
-3.029817	00011110 11111100
-2.202717	00011110 11111101
-2.719477	00011110 1111111000
-2.393049	00011110 11111110010
-3.029817	00011110 11111110011
-2.915927	00011110 1111111010
-2.694078	00011110 1111111011
-1.84898	00011110 111111110
-3.029817	00011110 11111111100
-2.24692	00011110 11111111101
-2.332351	00011110 11111111110
-2.296139	00011110 11111111111
-2.719477	00011110 </s>
-2.801575	000111110 000100
-3.704665	000111110 000110
-3.403635	000111110 00011100110
-2.750423	000111110 0001110111
-2.449393	000111110 00011110
-3.704665	000111110 000111111
-3.704665	000111110 0011000
-2.625484	000111110 0011010
-3.704665	000111110 001101111
-2.801575	000111110 001111
-1.933813	000111110 01000
-1.964303	000111110 0100100
-2.242267	000111110 0100101
-1.449393	000111110 01010
-3.403635	000111110 0110000
-2.926514	000111110 01100101
-3.040403	000111110 011001111
-2.904438	000111110 01101000
-2.362242	000111110 01101001
-2.926514	000111110 0110101010
-2.926514	000111110 0110101011
-2.926514	000111110 0110101110
-1.611243	000111110 011011000
-2.160597	000111110 0110110010
-2.904438	000111110 0110110100
-3.704665	000111110 01101101010
-3.704665	000111110 01101101011
-1.237798	000111110 0110110110
-2.273301	000111110 01101101110
-2.362242	000111110 011011011110
-2.663273	000111110 011011011111
-3.403635	000111110 0110111000
-3.040403	000111110 01101110010
-2.449393	000111110 01101110011
-3.040403	000111110 0110111010
-2.342937	000111110 01101110111
-3.704665	000111110 01110101
-3.704665	000111110 01110111
-3.403635	000111110 011110
-3.403635	000111110 01111111
-2.625484	000111110 10000000
-2.500545	000111110 10000001
-2.801575	000111110 10000010
-2.124882	000111110 10000011
-3.227544	000111110 10000100
-2.590722	000111110 10000101
-2.704665	000111110 10000110
-2.730063	000111110 10000111
-3.227544	000111110 10001000
-3.704665	000111110 100010010
-3.040403	000111110 100010011
-3.403635	000111110 100010101
-3.227544	000111110 100010110
-2.926514	000111110 1000101111
-1.997095	000111110 1000110
-3.040403	000111110 100011100
-2.425912	000111110 100011101
-1.549329	000111110 100011110
-2.081416	000111110 10001111110
-2.625484	000111110 10001111111
-2.801575	000111110 1001000
-3.403635	000111110 10010010
-3.040403	000111110 10010011
-2.403635	000111110 10010100
-2.904438	000111110 10010110
-3.040403	000111110 100101110
-2.663273	000111110 100101111
-2.730063	000111110 1001100
-2.289692	000111110 1001101
-3.704665	000111110 10011101
-3.704665	000111110 100111100
-3.704665	000111110 100111110
-3.040403	000111110 100111111
-1.372227	000111110 1010
-3.403635	000111110 10110000
-3.704665	000111110 10110001
-3.704665	000111110 101100100
-3.403635	000111110 101100101
-2.801575	000111110 101100111
-3.040403	000111110 101101000
-3.227544	000111110 10110100100
-2.926514	000111110 10110100101
-2.625484	000111110 10110100110
-3.704665	000111110 10110100111
-2.324454	000111110 101101010
-3.704665	000111110 10110101110
-3.403635	000111110 101101100
-2.324454	000111110 1011011010
-2.558537	000111110 1011011011
-2.558537	000111110 101101110
-2.500545	000111110 10110111100
-3.704665	000111110 10110111101
-2.625484	000111110 10110111110
-3.403635	000111110 10110111111
-1.095071	000111110 101110
-1.310213	000111110 101111
-1.169371	000111110 1100
-0.7161062	000111110 11010
-1.94879	000111110 110110
-2.081416	000111110 110111
-2.081416	000111110 11100000
-2.199515	000111110 11100001
-2.023424	000111110 11100010
-2.227544	000111110 11100011
-3.040403	000111110 11100100
-2.663273	000111110 11100101
-1.717893	000111110 11100110
-2.663273	000111110 111001110
-2.362242	000111110 111001111
-2.590722	000111110 1110100
-2.071197	000111110 11101010
-1.801575	000111110 11101011
-2.750423	000111110 11101100
-2.926514	000111110 111011010
-2.474216	000111110 111011011
-2.081416	000111110 111011100
-2.590722	000111110 111011101
-2.124882	000111110 111011110
-2.124882	000111110 111011111
-2.041907	000111110 111100010
-3.040403	000111110 111100011
-3.704665	000111110 111100100
-2.926514	000111110 111100101
-2.926514	000111110 111100110
-2.324454	000111110 111100111
-2.199515	000111110 1111010
-2.091881	000111110 11110110
-3.704665	000111110 111101110
-2.425912	000111110 111101111
-2.590722	000111110 1111100
-2.324454	000111110 11111010
-2.403635	000111110 11111011
-2.051453	000111110 11111101
-2.625484	000111110 1111111000
-2.199515	000111110 11111110010
-2.704665	000111110 11111110011
-2.801575	000111110 1111111010
-2.403635	000111110 1111111011
-1.865816	000111110 111111110
-3.040403	000111110 11111111100
-2.324454	000111110 11111111101
-2.362242	000111110 11111111110
-2.306725	000111110 11111111111
-3.704665	000111110 </s>
-3.668293	000111111 000100
-3.367263	000111111 000111000
-3.367263	000111111 0001110110
-3.191171	000111111 0001110111
-2.693691	000111111 00011110
-3.367263	000111111 000111110
-3.668293	000111111 0010001
-3.367263	000111111 0011001
-2.589112	000111111 0011010
-3.668293	000111111 00110110
-3.668293	000111111 001101111
-3.668293	000111111 001111
-1.862113	000111111 01000
-2.288081	000111111 0100101
-1.500975	000111111 01010
-3.367263	000111111 0110000
-3.668293	000111111 0110001
-2.554349	000111111 01100101
-3.668293	000111111 01100110
-2.346073	000111111 011001111
-2.868066	000111111 01101000
-2.589112	000111111 01101001
-3.668293	000111111 0110101000
-3.367263	000111111 0110101001
-3.668293	000111111 0110101010
-3.004031	000111111 0110101011
-2.765203	000111111 011010110
-3.668293	000111111 0110101110
-3.668293	000111111 0110101111
-1.969323	000111111 011011000
-2.890141	000111111 0110110010
-3.367263	000111111 01101100111
-3.668293	000111111 01101101010
-3.668293	000111111 01101101011
-2.191171	000111111 0110110110
-1.868952	000111111 01101101110
-2.055509	000111111 011011011110
-2.554349	000111111 011011011111
-2.868066	000111111 0110111000
-3.668293	000111111 01101110010
-2.205895	000111111 01101110011
-3.367263	000111111 0110111010
-3.004031	000111111 01101110110
-2.71405	000111111 01101110111
-3.668293	000111111 01110100
-3.367263	000111111 01110110
-3.191171	000111111 01110111
-3.668293	000111111 01111111
-2.149779	000111111 10000000
-2.464173	000111111 10000001
-2.437844	000111111 10000010
-2.163143	000111111 10000011
-2.464173	000111111 10000101
-2.693691	000111111 10000110
-2.668293	000111111 10000111
-3.191171	000111111 10001000
-3.668293	000111111 100010011
-2.668293	000111111 100010100
-2.088509	000111111 100010101
-2.437844	000111111 100010110
-3.668293	000111111 1000101110
-2.389539	000111111 1000101111
-1.728773	000111111 1000110
-3.367263	000111111 100011100
-2.464173	000111111 100011101
-1.759808	000111111 100011110
-2.6269	000111111 1000111110
-2.367263	000111111 10001111110
-2.492202	000111111 10001111111
-2.868066	000111111 1001000
-2.890141	000111111 10010010
-3.191171	000111111 10010011
-2.6269	000111111 10010100
-3.004031	000111111 10010101
-2.693691	000111111 100101110
-3.668293	000111111 100101111
-3.668293	000111111 10011100
-3.668293	000111111 100111101
-3.367263	000111111 100111111
-1.567922	000111111 1010
-3.191171	000111111 10110000
-3.668293	000111111 101100101
-3.004031	000111111 101100111
-2.868066	000111111 101101000
-3.668293	000111111 10110100100
-2.868066	000111111 10110100101
-2.868066	000111111 10110100110
-2.71405	000111111 101101010
-3.668293	000111111 1011010110
-3.668293	000111111 10110101111
-3.191171	000111111 101101100
-2.32587	000111111 1011011010
-2.288081	000111111 1011011011
-2.306565	000111111 101101110
-3.367263	000111111 10110111100
-3.367263	000111111 10110111101
-2.6269	000111111 10110111110
-3.191171	000111111 10110111111
-1.139376	000111111 101110
-1.373827	000111111 101111
-0.9607225	000111111 1100
-0.6974811	000111111 11010
-1.578388	000111111 110110
-1.695165	000111111 110111
-2.253319	000111111 11100000
-2.32587	000111111 11100001
-1.996195	000111111 11100010
-1.904865	000111111 11100011
-2.71405	000111111 11100100
-2.668293	000111111 11100101
-1.686021	000111111 11100110
-2.41302	000111111 111001110
-2.6269	000111111 111001111
-2.554349	000111111 1110100
-2.124225	000111111 11101010
-1.92793	000111111 11101011
-2.71405	000111111 11101100
-3.004031	000111111 111011010
-2.492202	000111111 111011011
-2.288081	000111111 111011100
-2.765203	000111111 111011101
-2.32587	000111111 111011110
-2.367263	000111111 111011111
-2.868066	000111111 111100000
-2.437844	000111111 111100001
-2.492202	000111111 111100010
-2.693691	000111111 111100011
-3.004031	000111111 111100100
-3.668293	000111111 111100101
-2.437844	000111111 111100110
-2.554349	000111111 111100111
-2.01508	000111111 1111010
-1.749215	000111111 11110110
-3.191171	000111111 111101110
-2.492202	000111111 111101111
-2.32587	000111111 1111100
-2.890141	000111111 11111010
-3.004031	000111111 11111100
-2.100091	000111111 11111101
-2.522165	000111111 1111111000
-2.221135	000111111 11111110010
-2.589112	000111111 11111110011
-2.492202	000111111 1111111010
-2.367263	000111111 1111111011
-1.718903	000111111 111111110
-2.221135	000111111 11111111100
-2.270353	000111111 11111111101
-2.41302	000111111 11111111110
-2.191171	000111111 11111111111
-2.589112	000111111 </s>
-2.716615	0010000 0000
-2.688587	0010000 000100
-3.892707	0010000 0001010
-3.892707	0010000 0001011
-1.743487	0010000 000110
-2.374193	0010000 000111000
-3.591677	0010000 0001110010
-2.512495	0010000 00011100110
-2.613953	0010000 00011100111
-2.301642	0010000 000111010
-2.918105	0010000 0001110110
-2.401345	0010000 0001110111
-2.512495	0010000 00011110
-2.918105	0010000 000111110
-2.918105	0010000 000111111
-3.892707	0010000 0010000
-3.892707	0010000 0010001
-3.591677	0010000 0010010
-3.591677	0010000 001010
-3.591677	0010000 00101101
-2.688587	0010000 0011000
-3.415585	0010000 0011001
-1.578839	0010000 0011010
-3.114555	0010000 00110110
-2.550284	0010000 001101110
-3.415585	0010000 001101111
-3.09248	0010000 001111
-2.249254	0010000 01000
-3.415585	0010000 0100100
-2.185137	0010000 0100101
-2.168431	0010000 01010
-3.09248	0010000 0110000
-2.851314	0010000 0110001
-3.892707	0010000 01100101
-2.989617	0010000 01100110
-3.228445	0010000 011001110
-2.716615	0010000 011001111
-3.892707	0010000 01101000
-1.018225	0010000 01101001
-2.477733	0010000 0110101000
-2.387557	0010000 0110101001
-1.963288	0010000 0110101010
-1.828249	0010000 0110101011
-1.361228	0010000 011010110
-2.415585	0010000 0110101110
-2.229949	0010000 0110101111
-2.851314	0010000 011011000
-3.09248	0010000 0110110010
-2.374193	0010000 0110110100
-3.09248	0010000 01101101010
-2.029384	0010000 01101101011
-1.072505	0010000 0110110110
-2.851314	0010000 01101101110
-2.374193	0010000 011011011110
-2.121855	0010000 011011011111
-1.839628	0010000 0110111000
-1.71952	0010000 01101110010
-1.847384	0010000 01101110011
-1.387557	0010000 0110111010
-2.290647	0010000 01101110110
-1.792336	0010000 01101110111
-1.287402	0010000 011011110
-2.716615	0010000 01110100
-3.09248	0010000 01110101
-3.415585	0010000 01110110
-3.591677	0010000 01110111
-1.708015	0010000 011110
-3.892707	0010000 0111110
-3.892707	0010000 01111110
-3.591677	0010000 01111111
-3.09248	0010000 10000000
-2.324505	0010000 10000001
-3.114555	0010000 10000010
-2.892707	0010000 10000011
-3.591677	0010000 10000101
-2.637434	0010000 10000110
-3.09248	0010000 10000111
-2.813525	0010000 10001000
-3.591677	0010000 100010011
-3.892707	0010000 100010100
-3.591677	0010000 1000101110
-3.114555	0010000 1000110
-3.892707	0010000 100011101
-3.114555	0010000 100011110
-3.591677	0010000 1000111110
-2.746579	0010000 1001000
-2.637434	0010000 10010010
-3.415585	0010000 10010011
-2.185137	0010000 10010100
-2.989617	0010000 10010101
-3.114555	0010000 10010110
-2.989617	0010000 100101110
-2.477733	0010000 100101111
-3.892707	0010000 10011101
-2.570487	0010000 1010
-3.591677	0010000 10110000
-3.892707	0010000 101100110
-3.228445	0010000 101100111
-3.892707	0010000 101101000
-3.228445	0010000 10110100111
-2.269457	0010000 101101010
-3.415585	0010000 1011010110
-3.114555	0010000 10110101110
-3.228445	0010000 10110101111
-3.591677	0010000 101101100
-3.591677	0010000 1011011010
-3.892707	0010000 1011011011
-3.591677	0010000 101101110
-3.591677	0010000 10110111100
-3.892707	0010000 10110111101
-3.591677	0010000 10110111110
-3.892707	0010000 10110111111
-1.217845	0010000 101110
-2.688587	0010000 101111
-1.11819	0010000 1100
-1.264318	0010000 11010
-2.570487	0010000 110110
-3.415585	0010000 110111
-3.591677	0010000 11100000
-2.918105	0010000 11100001
-2.813525	0010000 11100010
-3.228445	0010000 11100011
-3.591677	0010000 11100100
-2.918105	0010000 11100101
-2.239494	0010000 11100110
-3.415585	0010000 111001110
-2.918105	0010000 111001111
-3.09248	0010000 1110100
-2.637434	0010000 11101010
-2.892707	0010000 11101011
-2.591677	0010000 11101100
-3.415585	0010000 111011010
-3.09248	0010000 111011011
-3.591677	0010000 111011100
-3.591677	0010000 111011101
-2.716615	0010000 111011110
-2.938464	0010000 111011111
-2.989617	0010000 111100000
-3.892707	0010000 111100001
-2.374193	0010000 111100010
-3.415585	0010000 111100011
-3.09248	0010000 111100110
-2.637434	0010000 111100111
-1.933665	0010000 1111010
-1.386202	0010000 11110110
-2.301642	0010000 111101110
-1.644733	0010000 111101111
-2.813525	0010000 1111100
-3.415585	0010000 11111010
-3.09248	0010000 11111011
-2.938464	0010000 11111100
-2.813525	0010000 11111101
-3.114555	0010000 1111111000
-2.851314	0010000 11111110010
-3.114555	0010000 1111111010
-3.228445	0010000 1111111011
-1.847384	0010000 111111110
-2.000612	0010000 11111111100
-2.716615	0010000 11111111101
-1.901481	0010000 11111111110
-2.401345	0010000 11111111111
-2.445549	0010000 </s>
-3.320458	0010001 0000
-2.542307	0010001 000100
-3.320458	0010001 0001011
-1.788979	0010001 000110
-2.417368	0010001 000111000
-2.843337	0010001 0001110010
-2.391039	0010001 00011100110
-2.843337	0010001 00011100111
-2.366215	0010001 000111010
-2.667245	0010001 0001110110
-2.542307	0010001 0001110111
-2.206515	0010001 00011110
-2.843337	0010001 000111110
-3.320458	0010001 000111111
-3.621488	0010001 0010000
-2.821261	0010001 0011000
-3.144367	0010001 0011001
-2.144367	0010001 0011010
-2.843337	0010001 001101110
-3.621488	0010001 001101111
-2.718398	0010001 001111
-1.697209	0010001 01000
-2.667245	0010001 0100100
-2.15909	0010001 0100101
-2.957226	0010001 0100111
-1.662446	0010001 01010
-3.621488	0010001 0110001
-3.621488	0010001 01100110
-2.821261	0010001 011001110
-2.821261	0010001 011001111
-2.718398	0010001 01101000
-1.349646	0010001 01101001
-2.417368	0010001 0110101000
-2.366215	0010001 0110101001
-1.354316	0010001 0110101010
-1.8733	0010001 0110101011
-0.8648518	0010001 011010110
-1.808575	0010001 0110101110
-1.109604	0010001 0110101111
-3.144367	0010001 011011000
-3.144367	0010001 01101100110
-1.580095	0010001 0110110100
-3.621488	0010001 01101101010
-2.07742	0010001 01101101011
-1.366215	0010001 0110110110
-2.821261	0010001 01101101110
-2.47536	0010001 011011011110
-3.621488	0010001 011011011111
-1.922518	0010001 0110111000
-1.94939	0010001 01101110010
-1.865613	0010001 01101110011
-1.608651	0010001 0110111010
-2.130126	0010001 01101110110
-1.897212	0010001 01101110111
-1.373515	0010001 011011110
-3.621488	0010001 011011111
-2.718398	0010001 01110100
-3.320458	0010001 01110111
-1.881125	0010001 011110
-3.320458	0010001 10000001
-3.621488	0010001 10000010
-3.144367	0010001 10000011
-3.320458	0010001 10000101
-2.667245	0010001 10000110
-3.621488	0010001 10000111
-2.342734	0010001 10001000
-3.621488	0010001 100010101
-3.320458	0010001 1000110
-3.320458	0010001 100011110
-2.366215	0010001 1001000
-3.320458	0010001 10010010
-2.957226	0010001 10010011
-2.507545	0010001 10010100
-2.957226	0010001 10010101
-3.621488	0010001 10010110
-3.320458	0010001 100101110
-2.821261	0010001 100101111
-3.320458	0010001 100111100
-2.342734	0010001 1010
-3.621488	0010001 10110000
-3.320458	0010001 101100101
-3.320458	0010001 10110100100
-2.821261	0010001 10110100111
-2.47536	0010001 101101010
-3.320458	0010001 1011010110
-2.821261	0010001 10110101110
-2.821261	0010001 10110101111
-3.144367	0010001 1011011010
-3.621488	0010001 1011011011
-3.621488	0010001 10110111111
-1.228791	0010001 101110
-2.507545	0010001 101111
-1.277096	0010001 1100
-1.388492	0010001 11010
-2.47536	0010001 110110
-2.843337	0010001 110111
-3.144367	0010001 11100010
-3.320458	0010001 11100011
-3.621488	0010001 11100100
-2.718398	0010001 11100101
-2.366215	0010001 11100110
-3.144367	0010001 111001110
-3.144367	0010001 111001111
-3.621488	0010001 1110100
-2.843337	0010001 11101010
-2.718398	0010001 11101011
-3.320458	0010001 11101100
-3.320458	0010001 111011010
-3.320458	0010001 111011100
-3.621488	0010001 111011101
-3.621488	0010001 111011110
-3.320458	0010001 111011111
-2.957226	0010001 111100000
-3.621488	0010001 111100001
-2.053286	0010001 111100010
-3.621488	0010001 111100011
-2.718398	0010001 111100111
-2.190124	0010001 1111010
-1.531583	0010001 11110110
-2.445397	0010001 111101110
-1.843337	0010001 111101111
-2.957226	0010001 1111100
-3.621488	0010001 11111010
-3.621488	0010001 11111011
-3.320458	0010001 11111100
-2.621488	0010001 11111101
-3.621488	0010001 1111111000
-3.144367	0010001 11111110010
-2.957226	0010001 1111111010
-1.95873	0010001 111111110
-2.17433	0010001 11111111100
-2.821261	0010001 11111111101
-2.190124	0010001 11111111110
-2.718398	0010001 11111111111
-2.580095	0010001 </s>
-2.885109	0010010 0000
-3.248341	0010010 000100
-2.574769	0010010 000110
-3.248341	0010010 000111000
-3.07225	0010010 00011100110
-2.435428	0010010 00011100111
-2.749144	0010010 000111010
-3.549371	0010010 0001110110
-3.07225	0010010 0001110111
-3.07225	0010010 00011110
-3.549371	0010010 000111111
-1.816977	0010010 0010011
-3.549371	0010010 001010
-1.801183	0010010 0011000
-3.549371	0010010 0011001
-3.549371	0010010 001110
-2.435428	0010010 01000
-2.270617	0010010 0100100
-1.905918	0010010 0100101
-2.005303	0010010 0100111
-1.809008	0010010 01010
-3.549371	0010010 0110000
-3.549371	0010010 01100110
-2.77122	0010010 011001111
-1.536534	0010010 01101000
-2.030857	0010010 01101001
-3.07225	0010010 0110101001
-2.134398	0010010 0110101010
-2.47019	0010010 0110101011
-0.6441151	0010010 011010110
-1.562599	0010010 0110101110
-1.704273	0010010 0110101111
-3.248341	0010010 011011000
-3.549371	0010010 01101101011
-2.77122	0010010 0110110110
-3.248341	0010010 01101101110
-2.77122	0010010 011011011110
-2.885109	0010010 011011011111
-2.574769	0010010 0110111000
-2.07225	0010010 01101110010
-2.102213	0010010 01101110011
-1.519987	0010010 0110111010
-1.859175	0010010 01101110110
-2.151431	0010010 01101110111
-1.254905	0010010 011011110
-0.7431912	0010010 011011111
-1.657277	0010010 01110100
-2.227152	0010010 01110111
-1.905918	0010010 011110
-2.574769	0010010 10000000
-2.549371	0010010 10000001
-3.549371	0010010 10000010
-3.07225	0010010 10000011
-3.248341	0010010 10000101
-3.07225	0010010 10000110
-3.549371	0010010 10000111
-3.549371	0010010 10001000
-3.549371	0010010 100010100
-3.248341	0010010 100010101
-3.248341	0010010 100010110
-3.549371	0010010 1000101110
-2.058009	0010010 1000110
-3.248341	0010010 100011110
-3.248341	0010010 10001111110
-2.595129	0010010 1001000
-3.07225	0010010 10010010
-2.885109	0010010 10010011
-2.885109	0010010 10010100
-3.07225	0010010 10010101
-3.549371	0010010 10010110
-3.248341	0010010 100101111
-3.549371	0010010 10011101
-2.749144	0010010 1010
-3.549371	0010010 10110000
-3.248341	0010010 10110100100
-3.549371	0010010 1011011010
-3.549371	0010010 101101110
-1.36468	0010010 101110
-1.318922	0010010 1100
-1.793496	0010010 11010
-3.248341	0010010 110110
-2.47019	0010010 110111
-3.07225	0010010 11100000
-3.248341	0010010 11100010
-2.749144	0010010 11100011
-2.595129	0010010 11100110
-3.248341	0010010 111001110
-2.646281	0010010 111001111
-3.248341	0010010 11101100
-3.248341	0010010 111011110
-2.646281	0010010 111100010
-2.47019	0010010 111100110
-3.248341	0010010 111100111
-2.403243	0010010 1111010
-2.151431	0010010 11110110
-2.749144	0010010 111101110
-1.915903	0010010 111101111
-3.248341	0010010 1111100
-3.07225	0010010 11111100
-2.206949	0010010 11111101
-2.646281	0010010 11111110010
-3.07225	0010010 11111110011
-2.574769	0010010 1111111010
-1.886613	0010010 111111110
-1.886613	0010010 11111111100
-2.749144	0010010 11111111101
-2.885109	0010010 11111111110
-2.885109	0010010 11111111111
-2.885109	0010010 </s>
-3.572174	0010011 0000
-2.572174	0010011 000100
-2.907912	0010011 0001010
-2.907912	0010011 0001011
-2.125016	0010011 000110
-2.458231	0010011 000111000
-2.271144	0010011 0001110010
-2.109776	0010011 00011100110
-3.095053	0010011 00011100111
-2.426046	0010011 000111010
-2.771947	0010011 0001110110
-2.572174	0010011 0001110111
-3.095053	0010011 00011110
-3.095053	0010011 000111110
-2.771947	0010011 000111111
-2.771947	0010011 0010000
-2.907912	0010011 0010001
-3.572174	0010011 0010010
-3.271144	0010011 0010011
-3.271144	0010011 001010
-3.572174	0010011 00101111
-2.210447	0010011 0011000
-3.572174	0010011 0011001
-3.572174	0010011 0011010
-3.271144	0010011 00110110
-2.271144	0010011 001111
-2.249955	0010011 01000
-3.095053	0010011 0100100
-2.174234	0010011 0100101
-2.597573	0010011 0100111
-1.864604	0010011 01010
-2.669084	0010011 0110000
-2.907912	0010011 0110001
-3.271144	0010011 01100101
-3.271144	0010011 01100110
-2.907912	0010011 011001110
-1.759261	0010011 011001111
-2.003973	0010011 01101000
-1.948925	0010011 01101001
-3.095053	0010011 0110101000
-2.771947	0010011 0110101001
-2.572174	0010011 0110101010
-2.458231	0010011 0110101011
-1.043258	0010011 011010110
-1.733325	0010011 0110101110
-2.271144	0010011 0110101111
-2.771947	0010011 011011000
-3.095053	0010011 0110110010
-3.271144	0010011 01101100111
-1.890933	0010011 0110110100
-2.229752	0010011 01101101011
-2.316902	0010011 0110110110
-1.727076	0010011 01101101110
-2.293421	0010011 011011011110
-3.271144	0010011 011011011111
-2.572174	0010011 0110111000
-2.669084	0010011 01101110010
-1.823986	0010011 01101110011
-2.015872	0010011 0110111010
-2.492993	0010011 01101110110
-2.530782	0010011 01101110111
-1.708851	0010011 011011110
-1.115808	0010011 011011111
-2.210447	0010011 01110100
-2.771947	0010011 01110101
-3.572174	0010011 01110110
-2.617932	0010011 01110111
-1.503989	0010011 011110
-3.572174	0010011 01111110
-2.794023	0010011 10000000
-2.14081	0010011 10000001
-2.617932	0010011 10000010
-2.229752	0010011 10000011
-1.816299	0010011 10000101
-2.771947	0010011 10000110
-2.572174	0010011 10000111
-3.572174	0010011 10001000
-3.572174	0010011 100010011
-3.095053	0010011 100010100
-3.572174	0010011 100010101
-2.316902	0010011 100010110
-2.080813	0010011 1000101111
-2.003973	0010011 1000110
-2.368054	0010011 100011110
-3.572174	0010011 1000111110
-2.617932	0010011 10001111110
-2.125016	0010011 1001000
-3.572174	0010011 10010010
-2.907912	0010011 10010011
-2.293421	0010011 10010100
-3.572174	0010011 10010101
-3.271144	0010011 10011100
-3.572174	0010011 10011101
-3.572174	0010011 100111100
-3.572174	0010011 100111111
-2.316902	0010011 1010
-3.271144	0010011 10110000
-3.271144	0010011 101100111
-3.271144	0010011 101101000
-3.271144	0010011 10110100101
-3.271144	0010011 10110100111
-3.572174	0010011 101101010
-3.572174	0010011 1011010110
-3.572174	0010011 10110101110
-3.095053	0010011 101101100
-3.271144	0010011 1011011010
-3.271144	0010011 1011011011
-2.597573	0010011 101101110
-3.572174	0010011 10110111100
-3.572174	0010011 10110111110
-3.271144	0010011 10110111111
-1.329136	0010011 101110
-2.492993	0010011 101111
-0.985587	0010011 1100
-1.142422	0010011 11010
-1.881978	0010011 110110
-2.14081	0010011 110111
-3.572174	0010011 11100000
-2.771947	0010011 11100001
-2.771947	0010011 11100010
-3.572174	0010011 11100011
-3.271144	0010011 11100101
-2.080813	0010011 11100110
-2.597573	0010011 111001110
-2.669084	0010011 111001111
-3.271144	0010011 1110100
-2.771947	0010011 11101010
-2.597573	0010011 11101011
-2.907912	0010011 111011010
-3.271144	0010011 111011011
-2.458231	0010011 111011100
-2.249955	0010011 111011110
-2.530782	0010011 111011111
-2.794023	0010011 111100000
-2.040695	0010011 111100001
-2.426046	0010011 111100010
-2.907912	0010011 111100110
-2.794023	0010011 111100111
-2.003973	0010011 1111010
-1.576539	0010011 11110110
-2.396083	0010011 111101110
-2.080813	0010011 111101111
-2.617932	0010011 1111100
-3.271144	0010011 11111010
-3.095053	0010011 11111100
-2.080813	0010011 11111101
-2.794023	0010011 1111111000
-2.191963	0010011 11111110010
-3.095053	0010011 11111110011
-2.669084	0010011 1111111010
-2.771947	0010011 1111111011
-1.702943	0010011 111111110
-1.881978	0010011 11111111100
-2.341725	0010011 11111111101
-3.095053	0010011 11111111110
-2.530782	0010011 11111111111
-2.109776	0010011 </s>
-2.703363	001010 0000
-2.879454	001010 000100
-3.305423	001010 0001010
-2.828302	001010 0001011
-1.823503	001010 000110
-2.291183	001010 000111000
-3.481514	001010 0001110010
-2.636416	001010 00011100110
-2.092348	001010 00011100111
-2.807943	001010 000111010
-2.807943	001010 0001110110
-2.335386	001010 0001110111
-2.119787	001010 00011110
-3.481514	001010 000111110
-3.481514	001010 000111111
-3.481514	001010 0010000
-3.004393	001010 0011000
-3.481514	001010 0011001
-3.305423	001010 0011010
-3.481514	001010 00110110
-3.305423	001010 001101110
-3.782544	001010 001111
-2.139091	001010 01000
-3.481514	001010 0100100
-2.277394	001010 0100101
-3.481514	001010 0100111
-2.202761	001010 01010
-3.305423	001010 0110000
-3.004393	001010 0110001
-3.782544	001010 01100101
-3.782544	001010 01100110
-2.828302	001010 011001110
-3.305423	001010 011001111
-2.982317	001010 01101000
-1.050151	001010 01101001
-2.552095	001010 0110101000
-2.384604	001010 0110101001
-1.402333	001010 0110101010
-1.931286	001010 0110101011
-1.023632	001010 011010110
-2.066541	001010 0110101110
-1.983204	001010 0110101111
-3.782544	001010 011011000
-3.782544	001010 0110110010
-3.782544	001010 01101100110
-1.800273	001010 0110110100
-3.481514	001010 01101101010
-1.853125	001010 01101101011
-0.9736584	001010 0110110110
-2.982317	001010 01101101110
-2.26403	001010 011011011110
-2.807943	001010 011011011111
-1.833154	001010 0110111000
-1.800273	001010 01101110010
-1.786909	001010 01101110011
-1.359298	001010 0110111010
-2.058268	001010 01101110110
-1.710662	001010 01101110111
-1.222638	001010 011011110
-2.982317	001010 01110100
-3.118282	001010 01110101
-3.481514	001010 01110111
-2.149076	001010 011110
-3.118282	001010 10000000
-2.481514	001010 10000001
-2.703363	001010 10000011
-3.782544	001010 10000100
-3.782544	001010 10000101
-2.807943	001010 10000110
-3.118282	001010 10000111
-3.004393	001010 10001000
-3.305423	001010 100010101
-3.481514	001010 1000101110
-3.782544	001010 1000101111
-2.277394	001010 1000110
-3.782544	001010 100011100
-2.982317	001010 100011101
-2.460325	001010 100011110
-3.782544	001010 1000111110
-3.004393	001010 10001111110
-3.305423	001010 10001111111
-2.367571	001010 1001000
-2.703363	001010 10010010
-2.828302	001010 10010011
-2.402333	001010 10010100
-2.982317	001010 10010101
-2.552095	001010 100101110
-2.807943	001010 100101111
-3.782544	001010 1001101
-3.481514	001010 10011101
-3.782544	001010 100111101
-2.668601	001010 1010
-3.481514	001010 10110000
-3.782544	001010 101100101
-2.828302	001010 101100111
-3.481514	001010 10110100100
-3.481514	001010 10110100111
-3.118282	001010 101101100
-2.982317	001010 1011011010
-3.305423	001010 1011011011
-3.782544	001010 101101110
-3.782544	001010 10110111100
-3.782544	001010 10110111101
-3.782544	001010 10110111111
-1.091463	001010 101110
-2.982317	001010 101111
-1.833154	001010 1100
-1.645824	001010 11010
-3.305423	001010 110110
-2.982317	001010 110111
-3.782544	001010 11100000
-3.118282	001010 11100001
-2.807943	001010 11100010
-2.828302	001010 11100011
-2.782544	001010 11100101
-2.004393	001010 11100110
-2.879454	001010 111001110
-2.879454	001010 111001111
-3.118282	001010 1110100
-3.004393	001010 11101010
-3.118282	001010 11101011
-2.578424	001010 11101100
-3.118282	001010 111011010
-3.782544	001010 111011011
-3.305423	001010 111011100
-2.807943	001010 111011101
-2.982317	001010 111011110
-2.982317	001010 111011111
-2.879454	001010 111100000
-3.481514	001010 111100001
-1.863466	001010 111100010
-2.807943	001010 111100110
-2.460325	001010 111100111
-1.89045	001010 1111010
-1.389847	001010 11110110
-2.277394	001010 111101110
-1.765511	001010 111101111
-3.782544	001010 1111100
-3.481514	001010 11111011
-2.636416	001010 11111100
-2.481514	001010 11111101
-2.741152	001010 1111111000
-2.741152	001010 11111110010
-2.703363	001010 11111110011
-3.118282	001010 1111111010
-2.481514	001010 1111111011
-2.636416	001010 111111110
-2.16976	001010 11111111100
-2.741152	001010 11111111101
-3.118282	001010 11111111110
-2.527272	001010 11111111111
-2.578424	001010 </s>
-2.71265	00101100 0001010
-2.349418	00101100 000110
-3.01368	00101100 00011100110
-2.039078	00101100 000111010
-3.01368	00101100 0001110110
-2.349418	00101100 0001110111
-2.235528	00101100 00011110
-1.651952	00101100 000111111
-1.899736	00101100 0010000
-2.536558	00101100 0010001
-2.71265	00101100 00101111
-2.71265	00101100 0011000
-2.71265	00101100 0011001
-1.758407	00101100 0011010
-3.01368	00101100 00110110
-3.01368	00101100 001101110
-2.71265	00101100 001101111
-2.536558	00101100 001111
-3.01368	00101100 01000
-2.039078	00101100 0100101
-3.01368	00101100 0100110
-1.899736	00101100 0110000
-1.837588	00101100 0110001
-2.536558	00101100 01100110
-1.536558	00101100 011001111
-3.01368	00101100 01101001
-3.01368	00101100 011010110
-3.01368	00101100 0110101111
-2.71265	00101100 0110110010
-2.213453	00101100 0110110100
-3.01368	00101100 0110110110
-2.71265	00101100 01101101110
-1.522318	00101100 011011011110
-3.01368	00101100 011011011111
-1.536558	00101100 0110111000
-1.323484	00101100 01101110010
-2.349418	00101100 01101110011
-3.01368	00101100 01101110110
-2.039078	00101100 01101110111
-0.307816	00101100 011011110
-2.039078	00101100 01110100
-3.01368	00101100 01110101
-2.235528	00101100 01110110
-2.71265	00101100 01110111
-2.11059	00101100 011110
-3.01368	00101100 0111110
-1.899736	00101100 10000010
-2.71265	00101100 100010011
-3.01368	00101100 100011101
-2.039078	00101100 100011110
-3.01368	00101100 1001000
-2.536558	00101100 10010011
-3.01368	00101100 10010100
-3.01368	00101100 10010101
-3.01368	00101100 1010
-3.01368	00101100 10110100100
-3.01368	00101100 10110100110
-3.01368	00101100 101101010
-2.213453	00101100 101110
-3.01368	00101100 101111
-2.235528	00101100 1100
-1.71265	00101100 11010
-2.213453	00101100 110110
-2.71265	00101100 110111
-2.71265	00101100 11100010
-3.01368	00101100 11100011
-3.01368	00101100 11100110
-3.01368	00101100 111001111
-3.01368	00101100 11101010
-2.71265	00101100 111011011
-3.01368	00101100 111100000
-1.783231	00101100 1111010
-2.039078	00101100 11110110
-2.059437	00101100 111101110
-1.934498	00101100 1111100
-3.01368	00101100 11111101
-2.71265	00101100 1111111000
-2.235528	00101100 11111110010
-2.536558	00101100 1111111010
-3.01368	00101100 111111110
-2.349418	00101100 11111111101
-3.01368	00101100 11111111111
-1.495166	00101100 </s>
-3.207634	00101101 0001011
-2.233033	00101101 000110
-2.730513	00101101 000111000
-2.906604	00101101 0001110010
-3.207634	00101101 00011100110
-2.906604	00101101 00011100111
-3.207634	00101101 000111010
-2.906604	00101101 0001110110
-3.207634	00101101 00011110
-3.207634	00101101 000111110
-3.207634	00101101 000111111
-2.906604	00101101 0010001
-3.207634	00101101 00101100
-2.304544	00101101 00101111
-2.543372	00101101 0011010
-3.207634	00101101 00110110
-2.730513	00101101 001101110
-3.207634	00101101 001101111
-2.543372	00101101 001111
-2.906604	00101101 0100101
-3.207634	00101101 01010
-2.730513	00101101 0110000
-2.543372	00101101 0110001
-2.304544	00101101 01100110
-2.031543	00101101 011001111
-2.906604	00101101 011010110
-2.730513	00101101 0110110010
-3.207634	00101101 01101100110
-2.906604	00101101 01101101110
-2.304544	00101101 011011011110
-2.730513	00101101 011011011111
-2.207634	00101101 0110111000
-1.310007	00101101 01101110010
-2.906604	00101101 01101110011
-2.906604	00101101 01101110110
-3.207634	00101101 01101110111
-0.1288152	00101101 011011110
-2.003514	00101101 01110100
-2.233033	00101101 01110101
-2.207634	00101101 01110110
-2.128453	00101101 01110111
-2.429483	00101101 011110
-3.207634	00101101 10000000
-2.906604	00101101 10000110
-3.207634	00101101 1000110
-2.906604	00101101 100011110
-2.730513	00101101 1001000
-2.407408	00101101 10010011
-3.207634	00101101 10010100
-2.906604	00101101 10010101
-3.207634	00101101 100101110
-2.253392	00101101 1010
-2.906604	00101101 10110100110
-3.207634	00101101 101101010
-3.207634	00101101 101101100
-3.207634	00101101 1011011011
-2.207634	00101101 101110
-2.730513	00101101 101111
-2.031543	00101101 1100
-1.865212	00101101 11010
-2.429483	00101101 110110
-2.730513	00101101 110111
-3.207634	00101101 11100000
-3.207634	00101101 11100001
-3.207634	00101101 11100011
-2.906604	00101101 11100101
-3.207634	00101101 111001110
-3.207634	00101101 1110100
-2.543372	00101101 11101011
-3.207634	00101101 111011100
-2.407408	00101101 1111010
-2.543372	00101101 11110110
-2.543372	00101101 111101110
-2.207634	00101101 1111100
-2.730513	00101101 11111110010
-3.207634	00101101 11111110011
-3.207634	00101101 1111111010
-2.906604	00101101 111111110
-3.207634	00101101 11111111101
-3.207634	00101101 11111111110
-3.207634	00101101 11111111111
-1.845906	00101101 </s>
-2.929929	00101110 0000
-2.929929	00101110 000100
-1.783802	00101110 000110
-1.955328	00101110 000111000
-2.929929	00101110 0001110010
-2.6289	00101110 000111010
-2.929929	00101110 0001110110
-2.929929	00101110 0001110111
-2.265668	00101110 00011110
-2.929929	00101110 0010010
-1.286477	00101110 0010011
-2.6289	00101110 00101100
-1.888537	00101110 00101111
-2.6289	00101110 0011000
-2.929929	00101110 0011001
-2.929929	00101110 0011010
-2.929929	00101110 001110
-2.929929	00101110 001111
-2.929929	00101110 0100100
-2.6289	00101110 01010
-2.452808	00101110 0110000
-1.92993	00101110 01101000
-0.9614466	00101110 01101001
-2.6289	00101110 0110101001
-1.815986	00101110 0110101010
-2.6289	00101110 0110101011
-1.084831	00101110 011010110
-2.026839	00101110 0110101110
-1.699481	00101110 0110101111
-2.929929	00101110 0110110010
-2.929929	00101110 0110110100
-2.6289	00101110 01101101010
-1.398451	00101110 01101101011
-0.9954311	00101110 0110110110
-2.6289	00101110 01101101110
-2.151778	00101110 011011011110
-1.888537	00101110 0110111000
-1.043439	00101110 01101110010
-1.568202	00101110 01101110011
-1.317146	00101110 0110111010
-1.753838	00101110 01101110110
-1.72581	00101110 01101110111
-1.361728	00101110 011011111
-2.151778	00101110 011100
-1.72581	00101110 01110100
-2.151778	00101110 01110101
-2.929929	00101110 01110110
-1.975687	00101110 01110111
-2.929929	00101110 10000000
-2.6289	00101110 10000001
-2.929929	00101110 10000011
-2.151778	00101110 10000110
-2.6289	00101110 10000111
-2.929929	00101110 100011110
-2.265668	00101110 1001000
-2.6289	00101110 10010010
-2.6289	00101110 10010101
-2.929929	00101110 100101110
-2.929929	00101110 100101111
-2.452808	00101110 101100100
-2.929929	00101110 101100101
-2.929929	00101110 10110100111
-2.929929	00101110 1011011011
-2.929929	00101110 101101110
-1.350146	00101110 101110
-1.92993	00101110 1100
-2.026839	00101110 11010
-2.929929	00101110 11100110
-2.929929	00101110 111011110
-1.975687	00101110 1111010
-1.60771	00101110 11110110
-2.265668	00101110 111101110
-2.265668	00101110 111101111
-2.929929	00101110 11111100
-2.929929	00101110 1111111000
-2.929929	00101110 1111111011
-2.265668	00101110 111111110
-2.6289	00101110 11111111100
-2.929929	00101110 11111111101
-2.929929	00101110 11111111110
-2.929929	00101110 </s>
-2.518251	00101111 000100
-2.564008	00101111 000110
-2.740099	00101111 000111000
-3.217221	00101111 00011100110
-2.740099	00101111 00011100111
-2.543649	00101111 000111010
-3.041129	00101111 0001110110
-2.853989	00101111 0001110111
-2.615161	00101111 00011110
-3.217221	00101111 000111111
-3.217221	00101111 0010000
-1.916191	00101111 0010011
-3.518251	00101111 001010
-2.156523	00101111 0011000
-2.740099	00101111 0011010
-3.518251	00101111 001101110
-3.217221	00101111 001111
-3.041129	00101111 01000
-2.372123	00101111 0100100
-2.404307	00101111 0100101
-1.916191	00101111 0100111
-2.314131	00101111 01010
-2.615161	00101111 0110000
-3.518251	00101111 0110001
-2.740099	00101111 011001111
-1.643189	00101111 01101000
-1.961948	00101111 01101001
-2.853989	00101111 0110101000
-3.518251	00101111 0110101001
-2.476858	00101111 0110101010
-2.43907	00101111 0110101011
-0.7654342	00101111 011010110
-1.465172	00101111 0110101110
-1.828055	00101111 0110101111
-3.518251	00101111 0110110100
-3.518251	00101111 01101101010
-3.518251	00101111 01101101011
-2.718024	00101111 0110110110
-2.543649	00101111 01101101110
-2.262978	00101111 011011011110
-3.518251	00101111 011011011111
-2.518251	00101111 0110111000
-2.262978	00101111 01101110010
-2.120311	00101111 01101110011
-1.740099	00101111 0110111010
-2.086887	00101111 01101110110
-2.013101	00101111 01101110111
-1.535979	00101111 011011110
-0.7731758	00101111 011011111
-1.986772	00101111 01110100
-2.43907	00101111 01110111
-1.108317	00101111 011110
-2.372123	00101111 10000000
-2.718024	00101111 10000001
-3.217221	00101111 10000010
-2.372123	00101111 10000101
-3.518251	00101111 10000110
-3.041129	00101111 10000111
-3.041129	00101111 10001000
-3.518251	00101111 100010010
-3.518251	00101111 100010011
-3.217221	00101111 100010100
-3.217221	00101111 100010101
-2.853989	00101111 100010110
-3.217221	00101111 1000101111
-2.086887	00101111 1000110
-2.615161	00101111 100011110
-3.217221	00101111 10001111110
-2.718024	00101111 1001000
-3.217221	00101111 10010011
-2.853989	00101111 10010100
-3.217221	00101111 10010101
-3.518251	00101111 10010110
-3.518251	00101111 100101110
