
\data\
ngram 1=102
ngram 2=8561

\1-grams:
-2.016905	000	-3.904124
-1.455994	0010	-2.794714
-2.125058	00110	-3.876847
-2.96483	00111	-2.686256
-2.499501	0100000	-3.090591
-2.716409	01000010	-2.648719
-2.940127	01000011	-2.685693
-1.620551	0100010	-2.814035
-2.184387	01000110	-2.24357
-1.979286	01000111	-2.946773
-1.572563	0100100	-2.575543
-2.401971	0100101	-2.749789
-2.036579	0100110	-2.887994
-1.734458	0100111	-2.472886
-2.426088	0101000	-2.351436
-2.356886	0101001	-2.575209
-2.347739	0101010	-2.87646
-2.687258	0101011	-2.817933
-1.587899	0101100	-2.147775
-2.140857	0101101	-2.311134
-1.972349	0101110	-2.5911
-1.76796	01011110	-2.326665
-2.011019	01011111	-2.101896
-1.917563	01100	-3.221931
-1.970948	0110100	-2.200649
-1.804265	0110101	-2.690781
-1.216642	0110110	-2.405191
-2.068689	0110111	-2.108817
-2.340516	011100	-2.803421
-1.745237	011101	-2.48799
-2.000416	0111100	-2.823463
-1.645927	01111010	-2.761246
-2.414287	011110110	-3.353233
-2.359765	0111101110	-2.664355
-2.346907	0111101111	-2.640871
-2.096776	011111000	-2.657192
-2.070719	011111001	-2.335074
-2.402089	0111110100	-2.114222
-2.742207	0111110101	-2.977699
-2.243769	0111110110	-2.738291
-2.093288	0111110111	-2.668797
-2.653792	0111111000	-2.267025
-2.579302	0111111001	-3.539601
-2.523934	0111111010	-2.782976
-2.513598	0111111011	-2.601005
-1.943354	011111110	-2.272993
-2.377895	0111111110	-2.163359
-2.11881	0111111111	-2.333753
-1.639606	1000	-3.823217
-1.261821	10010	-3.905821
-2.422984	100110	-3.145688
-2.274125	1001110	-2.533249
-2.015595	1001111	-3.189904
-1.764606	10100	-2.664848
-1.662725	101010	-2.170416
-1.888314	1010110	-2.396586
-2.313153	1010111	-2.174057
-2.394376	10110	-3.146241
-2.621351	1011100	-3.074664
-2.56073	1011101	-2.918124
-2.405879	1011110	-3.394769
-2.168675	1011111	-2.889237
-1.594331	1100	-3.215062
-1.580403	11010	-3.183305
-1.693233	1101100	-3.212082
-1.911577	11011010	-3.223379
-1.97773	110110110	-3.302891
-1.925597	110110111	-2.975134
-2.277652	11011100	-2.762342
-2.724509	11011101	-2.523375
-2.517734	110111100	-2.251353
-2.283446	110111101	-3.014281
-2.256906	110111110	-3.100228
-2.334015	110111111	-2.765964
-2.13976	1110000	-3.795995
-2.336949	1110001	-2.374988
-1.964357	1110010	-2.283894
-2.248545	11100110	-2.769659
-2.80275	111001110	-2.503262
-2.237509	111001111	-2.754152
-1.969988	111010	-2.28708
-1.717993	1110110	-2.693779
-2.228244	11101110	-2.495245
-2.509955	111011110	-3.009883
-2.567926	1110111110	-2.623697
-2.720809	1110111111	-2.639323
-2.188118	111100	-3.199474
-2.337253	1111010	-3.435582
-2.150197	11110110	-4.04731
-2.839569	11110111	-2.734202
-2.226903	11111000	-3.081538
-1.82634	11111001	-2.964356
-2.15491	11111010	-2.623083
-2.261573	111110110	-2.689427
-2.551318	111110111	-3.909846
-1.968508	1111110	-3.204778
-2.438348	11111110	-2.878197
-2.642981	111111110	-2.720953
-2.192098	1111111110	-2.770874
-2.747399	1111111111	-2.72726
-1.344339	</s>
-99	<s>	-3.482506

\2-grams:
-0.002923897	000 0010
-3.951435	000 00110
-2.188007	000 0110110
-3.097337	0010 000
-0.6541948	0010 0010
-0.6866899	0010 00110
-1.581362	0010 00111
-2.593233	0010 0100000
-2.956008	0010 01000010
-2.066707	0010 0100010
-2.831069	0010 01000110
-2.466988	0010 01000111
-1.73561	0010 0100100
-3.080947	0010 0100101
-2.391737	0010 0100110
-2.512311	0010 0100111
-1.552316	0010 0101000
-1.545231	0010 0101001
-3.080947	0010 0101010
-2.436764	0010 0101100
-3.398367	0010 0101101
-2.796307	0010 0101110
-2.455406	0010 01011110
-2.222276	0010 01011111
-2.643079	0010 01100
-2.459232	0010 0110100
-2.33622	0010 0110101
-1.870837	0010 0110110
-3.190091	0010 0110111
-2.849553	0010 011101
-2.779917	0010 0111100
-2.405101	0010 01111010
-2.648988	0010 011110110
-2.148699	0010 0111101110
-2.004455	0010 0111101111
-3.049913	0010 011111000
-2.932527	0010 011111001
-3.150583	0010 0111110100
-3.558068	0010 0111110101
-2.405101	0010 0111110110
-3.33622	0010 0111110111
-3.257038	0010 0111111000
-4.03519	0010 0111111001
-2.980832	0010 0111111010
-2.878842	0010 0111111011
-2.038095	0010 011111110
-2.577812	0010 0111111110
-2.840213	0010 0111111111
-1.554225	0010 1000
-2.185975	0010 10010
-2.648988	0010 100110
-3.558068	0010 1001110
-3.33622	0010 1001111
-2.276782	0010 10100
-2.261891	0010 101010
-2.405101	0010 1010110
-2.71297	0010 1010111
-2.321979	0010 10110
-2.840213	0010 1011100
-2.993797	0010 1011101
-3.211281	0010 1011110
-2.553269	0010 1011111
-1.200345	0010 1100
-1.565367	0010 11010
-1.684942	0010 1101100
-2.385206	0010 11011010
-2.181897	0010 110110110
-1.889061	0010 110110111
-2.706131	0010 11011100
-3.655472	0010 11011101
-2.319186	0010 110111100
-1.957216	0010 110111101
-2.363092	0010 110111110
-2.944109	0010 110111111
-2.910251	0010 1110000
-3.007161	0010 1110001
-2.840213	0010 1110010
-2.673462	0010 11100110
-3.190091	0010 111001110
-2.190091	0010 111001111
-3.097337	0010 111010
-1.662277	0010 1110110
-4.03519	0010 11101110
-4.211281	0010 111011110
-3.097337	0010 1110111110
-2.980832	0010 1110111111
-3.080947	0010 111100
-2.748883	0010 1111010
-2.878842	0010 11110110
-3.734159	0010 11110111
-2.993797	0010 11111000
-2.279315	0010 11111001
-2.771948	0010 11111010
-3.211281	0010 111110110
-3.558068	0010 111110111
-2.512311	0010 1111110
-2.910251	0010 1111111110
-1.109534	0010 </s>
-2.153099	00110 000
-2.697167	00110 0010
-3.843295	00110 00110
-3.843295	00110 00111
-2.667204	00110 0100000
-2.986456	00110 01000010
-2.588022	00110 0100010
-2.588022	00110 01000110
-2.481567	00110 01000111
-2.08742	00110 0100100
-3.144325	00110 0100101
-3.366174	00110 0100110
-1.945668	00110 0100111
-3.144325	00110 0101000
-0.9699745	00110 0101001
-1.865571	00110 0101100
-3.241235	00110 0101101
-2.564542	00110 0101110
-1.861024	00110 01011110
-2.986456	00110 01011111
-2.801902	00110 01100
-2.481567	00110 0110100
-2.102932	00110 0110101
-1.856523	00110 0110110
-3.366174	00110 0110111
-3.542265	00110 011101
-2.380897	00110 0111100
-2.351933	00110 01111010
-3.542265	00110 011110110
-1.782597	00110 0111101110
-1.913876	00110 0111101111
-2.986456	00110 011111000
-2.764114	00110 011111001
-3.144325	00110 0111110100
-3.843295	00110 0111110101
-2.190083	00110 0111110110
-3.241235	00110 0111110111
-2.01722	00110 0111111010
-3.065144	00110 0111111011
-2.220046	00110 011111110
-3.542265	00110 0111111110
-1.93481	00110 0111111111
-1.612846	00110 1000
-2.095107	00110 10010
-3.144325	00110 100110
-3.366174	00110 1001110
-3.366174	00110 1001111
-2.030382	00110 10100
-1.856523	00110 101010
-1.879507	00110 1010110
-2.889053	00110 1010111
-2.380897	00110 10110
-2.171197	00110 1011100
-2.697167	00110 1011101
-2.986456	00110 1011110
-2.843295	00110 1011111
-1.489187	00110 1100
-1.181482	00110 11010
-1.03172	00110 1101100
-2.162054	00110 11011010
-1.620579	00110 110110110
-1.519013	00110 110110111
-2.612846	00110 11011100
-3.843295	00110 11011101
-0.9676551	00110 110111100
-1.183379	00110 110111101
-2.411931	00110 110111110
-2.697167	00110 110111111
-2.986456	00110 1110000
-3.366174	00110 1110001
-2.729352	00110 1110010
-2.500872	00110 11100110
-2.889053	00110 111001110
-2.324781	00110 111001111
-1.687959	00110 1110110
-2.889053	00110 1110111110
-3.542265	00110 1110111111
-3.144325	00110 111100
-3.144325	00110 1111010
-2.940205	00110 11110110
-2.639175	00110 11111000
-2.230511	00110 11111001
-2.639175	00110 11111010
-3.843295	00110 111110110
-3.366174	00110 111110111
-2.445355	00110 1111110
-2.889053	00110 1111111110
-3.542265	00110 1111111111
-0.8534005	00110 </s>
-1.642163	00111 000
-2.049649	00111 0010
-3.003891	00111 01000011
-3.003891	00111 01000111
-2.702861	00111 0100111
-3.003891	00111 0101100
-3.003891	00111 01011110
-2.401831	00111 0110101
-2.401831	00111 0110110
-2.702861	00111 0111100
-3.003891	00111 011110110
-1.702861	00111 0111101111
-2.702861	00111 0111110100
-2.304921	00111 0111110110
-2.702861	00111 0111110111
-3.003891	00111 0111111001
-2.52677	00111 0111111011
-3.003891	00111 011111110
-0.2804355	00111 1000
-2.401831	00111 10010
-1.92471	00111 100110
-3.003891	00111 10100
-1.748619	00111 1010110
-2.147053	00111 10110
-3.003891	00111 1011101
-3.003891	00111 1011111
-1.054501	00111 1100
-2.049649	00111 11010
-1.498741	00111 1101100
-2.52677	00111 11011010
-1.962498	00111 110110110
-1.725138	00111 110110111
-2.702861	00111 110111100
-1.661469	00111 110111101
-2.52677	00111 110111110
-2.304921	00111 110111111
-3.003891	00111 1110000
-2.52677	00111 11100110
-2.401831	00111 111001111
-3.003891	00111 111010
-1.799771	00111 1110110
-3.003891	00111 1110111110
-3.003891	00111 111100
-3.003891	00111 1111110
-0.8933014	00111 </s>
-3.468938	0100000 000
-2.866878	0100000 0100000
-1.298676	0100000 0100010
-0.4839607	0100000 01000110
-1.92487	0100000 01000111
-1.642863	0100000 0100100
-1.991817	0100000 0100101
-0.9425985	0100000 0100110
-1.698086	0100000 0100111
-3.468938	0100000 0101000
-2.468938	0100000 0101001
-2.070998	0100000 0101100
-2.769968	0100000 0101101
-2.354995	0100000 0101110
-2.213665	0100000 01011110
-1.769968	0100000 01011111
-2.769968	0100000 01100
-3.468938	0100000 0110100
-2.690787	0100000 0110101
-1.815725	0100000 0110110
-2.991817	0100000 0110111
-3.167908	0100000 011100
-2.991817	0100000 011101
-2.190184	0100000 0111100
-2.088727	0100000 01111010
-1.544659	0100000 011110110
-1.877873	0100000 0111101110
-2.769968	0100000 0111101111
-2.866878	0100000 011111000
-2.565848	0100000 011111001
-3.468938	0100000 0111110100
-2.991817	0100000 0111110101
-2.866878	0100000 0111110110
-2.514695	0100000 0111111000
-2.690787	0100000 0111111001
-2.167908	0100000 011111110
-2.00654	0100000 0111111111
-2.690787	0100000 1000
-3.468938	0100000 10010
-2.991817	0100000 100110
-3.468938	0100000 1001110
-2.769968	0100000 1001111
-2.10721	0100000 10100
-2.292846	0100000 101010
-2.427545	0100000 1010110
-2.866878	0100000 1010111
-3.167908	0100000 1011100
-3.167908	0100000 1011101
-1.912635	0100000 1100
-1.825485	0100000 11010
-1.70551	0100000 1101100
-2.190184	0100000 11011010
-1.856154	0100000 110110110
-2.126515	0100000 110110111
-2.612099	0100000 11011100
-2.238489	0100000 110111100
-2.514695	0100000 110111101
-2.00654	0100000 110111110
-2.427545	0100000 110111111
-2.565848	0100000 1110000
-2.612099	0100000 1110001
-2.514695	0100000 1110010
-2.427545	0100000 11100110
-2.612099	0100000 111001110
-2.612099	0100000 111001111
-2.10721	0100000 111010
-1.486667	0100000 1110110
-2.00654	0100000 11101110
-3.167908	0100000 111011110
-2.213665	0100000 1110111110
-2.991817	0100000 111100
-2.991817	0100000 1111010
-2.690787	0100000 11110110
-2.126515	0100000 11111000
-1.571311	0100000 11111001
-2.565848	0100000 11111010
-3.468938	0100000 111110110
-3.167908	0100000 111110111
-2.213665	0100000 1111110
-2.389756	0100000 1111111110
-3.167908	0100000 1111111111
-1.40448	0100000 </s>
-3.252125	01000010 01000010
-2.395286	01000010 01000011
-1.733611	01000010 0100010
-2.076033	01000010 01000110
-2.021676	01000010 01000111
-1.650065	01000010 0100100
-2.473973	01000010 0100101
-2.172943	01000010 0100110
-2.021676	01000010 0100111
-2.951095	01000010 0101001
-1.536121	01000010 0101100
-2.650064	01000010 0101101
-0.4660833	01000010 0101110
-2.252125	01000010 01011110
-1.683923	01000010 01100
-2.395286	01000010 0110100
-2.172943	01000010 0110101
-1.760763	01000010 0110110
-2.650064	01000010 0110111
-2.951095	01000010 011101
-2.775003	01000010 0111100
-2.076033	01000010 01111010
-2.297882	01000010 011110110
-2.553154	01000010 0111101110
-2.349035	01000010 011111000
-2.650064	01000010 011111001
-3.252125	01000010 0111110101
-2.553154	01000010 0111110110
-2.553154	01000010 0111110111
-2.951095	01000010 0111111000
-2.473973	01000010 0111111001
-2.951095	01000010 0111111010
-2.048005	01000010 011111110
-2.951095	01000010 0111111110
-2.473973	01000010 0111111111
-1.951095	01000010 1000
-1.909702	01000010 10010
-2.951095	01000010 100110
-2.775003	01000010 1001110
-2.775003	01000010 1001111
-2.138181	01000010 10100
-2.021676	01000010 101010
-2.650064	01000010 1010110
-3.252125	01000010 10110
-3.252125	01000010 1011100
-2.951095	01000010 1011101
-2.951095	01000010 1011110
-3.252125	01000010 1011111
-2.553154	01000010 1100
-0.994446	01000010 11010
-2.021676	01000010 1101100
-2.210732	01000010 11011010
-2.553154	01000010 110110110
-2.473973	01000010 110110111
-2.775003	01000010 11011100
-2.650064	01000010 11011101
-2.951095	01000010 110111100
-2.650064	01000010 110111101
-2.138181	01000010 110111110
-2.951095	01000010 110111111
-1.650065	01000010 1110000
-2.553154	01000010 1110001
-2.349035	01000010 1110010
-2.210732	01000010 11100110
-2.395286	01000010 111001111
-2.252125	01000010 111010
-1.481273	01000010 1110110
-1.598912	01000010 11101110
-1.49625	01000010 111011110
-2.553154	01000010 1110111110
-2.650064	01000010 1110111111
-3.252125	01000010 111100
-2.951095	01000010 1111010
-2.951095	01000010 11110110
-2.210732	01000010 11111000
-1.837151	01000010 11111001
-2.775003	01000010 11111010
-2.553154	01000010 111110110
-2.650064	01000010 111110111
-2.048005	01000010 1111110
-3.252125	01000010 111111110
-2.349035	01000010 1111111110
-1.239287	01000010 </s>
-3.028571	01000011 0010
-3.028571	01000011 01000010
-3.028571	01000011 01000011
-1.914628	01000011 0100010
-1.426511	01000011 01000110
-0.5783222	01000011 01000111
-2.125481	01000011 0100100
-2.426511	01000011 0100101
-1.55145	01000011 0100110
-2.171732	01000011 0100111
-3.028571	01000011 0101000
-2.329601	01000011 0101100
-3.028571	01000011 0101101
-2.727541	01000011 0101110
-2.55145	01000011 01011111
-2.125481	01000011 01100
-3.028571	01000011 0110100
-3.028571	01000011 0110101
-1.824451	01000011 0110110
-0.4063572	01000011 0110111
-3.028571	01000011 011100
-2.55145	01000011 01111010
-2.329601	01000011 011110110
-3.028571	01000011 0111101110
-2.727541	01000011 011111001
-1.497092	01000011 0111111001
-3.028571	01000011 0111111111
-3.028571	01000011 10010
-2.171732	01000011 10100
-1.257719	01000011 101010
-2.329601	01000011 1010110
-2.074329	01000011 1011110
-1.472269	01000011 11010
-2.727541	01000011 1101100
-3.028571	01000011 11011010
-2.55145	01000011 110110110
-3.028571	01000011 110110111
-3.028571	01000011 11011100
-2.727541	01000011 110111100
-2.55145	01000011 1110000
-3.028571	01000011 1110001
-3.028571	01000011 11100110
-3.028571	01000011 111001110
-2.727541	01000011 111010
-2.727541	01000011 1110110
-3.028571	01000011 11101110
-2.727541	01000011 1110111110
-2.727541	01000011 1110111111
-3.028571	01000011 111100
-3.028571	01000011 1111010
-2.727541	01000011 11111000
-2.25042	01000011 11111001
-3.028571	01000011 11111010
-3.028571	01000011 111110111
-3.028571	01000011 1111110
-3.028571	01000011 1111111110
-1.727541	01000011 </s>
-3.347759	0100010 000
-2.615366	0100010 0010
-2.779557	0100010 0100000
-3.201631	0100010 01000010
-3.745699	0100010 01000011
-1.250155	0100010 0100010
-1.654912	0100010 01000110
-1.834542	0100010 01000111
-1.316755	0100010 0100100
-2.036005	0100010 0100101
-1.61376	0100010 0100110
-1.54567	0100010 0100111
-2.528215	0100010 0101001
-3.870638	0100010 0101010
-1.243614	0100010 0101100
-1.864886	0100010 0101101
-1.883866	0100010 0101110
-2.085308	0100010 01011110
-2.528215	0100010 01011111
-2.548419	0100010 01100
-2.648789	0100010 0110100
-2.183406	0100010 0110101
-1.544986	0100010 0110110
-2.657563	0100010 0110111
-3.444669	0100010 011100
-2.347759	0100010 011101
-2.130275	0100010 0111100
-1.589605	0100010 01111010
-1.717331	0100010 011110110
-2.154635	0100010 0111101110
-2.648789	0100010 0111101111
-2.302436	0100010 011111000
-2.356533	0100010 011111001
-2.967548	0100010 0111110100
-2.484436	0100010 0111110101
-2.779557	0100010 0111110110
-2.584331	0100010 0111110111
-2.72451	0100010 0111111000
-2.334922	0100010 0111111001
-3.347759	0100010 0111111010
-3.870638	0100010 0111111011
-2.261399	0100010 011111110
-3.069006	0100010 0111111110
-2.466946	0100010 0111111111
-2.189397	0100010 1000
-2.092487	0100010 10010
-2.967548	0100010 100110
-2.870638	0100010 1001110
-3.092487	0100010 1001111
-2.275877	0100010 10100
-2.428681	0100010 101010
-2.223907	0100010 1010110
-3.490921	0100010 1010111
-3.233816	0100010 10110
-2.870638	0100010 1011100
-2.986031	0100010 1011101
-3.092487	0100010 1011110
-2.949819	0100010 1011111
-1.720393	0100010 1100
-1.822714	0100010 11010
-1.673817	0100010 1101100
-2.011299	0100010 11011010
-1.744615	0100010 110110110
-1.967548	0100010 110110111
-2.233816	0100010 11011100
-2.829245	0100010 11011101
-2.318375	0100010 110111100
-2.298541	0100010 110111101
-2.127651	0100010 110111110
-2.584331	0100010 110111111
-2.073601	0100010 1110000
-2.360987	0100010 1110001
-1.936139	0100010 1110010
-1.876467	0100010 11100110
-2.599571	0100010 111001110
-2.32657	0100010 111001111
-2.135572	0100010 111010
-1.103235	0100010 1110110
-1.156029	0100010 11101110
-2.085308	0100010 111011110
-2.069006	0100010 1110111110
-3.347759	0100010 1110111111
-2.584331	0100010 111100
-2.648789	0100010 1111010
-2.694547	0100010 11110110
-3.490921	0100010 11110111
-2.127651	0100010 11111000
-1.712276	0100010 11111001
-1.691661	0100010 11111010
-2.261399	0100010 111110110
-2.615366	0100010 111110111
-1.826621	0100010 1111110
-4.347759	0100010 111111110
-2.154635	0100010 1111111110
-3.306366	0100010 1111111111
-1.055725	0100010 </s>
-3.005824	01000110 000
-2.336817	01000110 0010
-2.927136	01000110 0100000
-3.783975	01000110 01000010
-1.540937	01000110 01000011
-1.844456	01000110 0100010
-2.181915	01000110 01000110
-1.87549	01000110 01000111
-1.653641	01000110 0100100
-1.429867	01000110 0100101
-1.750551	01000110 0100110
-1.829733	01000110 0100111
-3.783975	01000110 0101000
-1.991583	01000110 0101001
-3.783975	01000110 0101010
-3.783975	01000110 0101011
-1.783975	01000110 0101100
-3.306854	01000110 0101101
-1.984634	01000110 0101110
-1.824934	01000110 01011110
-2.160726	01000110 01011111
-2.059699	01000110 01100
-2.670032	01000110 0110100
-1.478624	01000110 0110101
-1.582578	01000110 0110110
-2.783975	01000110 0110111
-3.783975	01000110 011100
-2.482945	01000110 011101
-1.926643	01000110 0111100
-1.758669	01000110 01111010
-2.013123	01000110 011110110
-2.150506	01000110 0111101110
-2.607884	01000110 0111101111
-2.239907	01000110 011111000
-2.607884	01000110 011111001
-2.829732	01000110 0111110100
-2.927136	01000110 0111110101
-2.829732	01000110 0111110110
-2.670032	01000110 0111110111
-2.579855	01000110 0111111000
-2.150506	01000110 0111111001
-3.783975	01000110 0111111010
-2.093779	01000110 0111111011
-2.076405	01000110 011111110
-3.005824	01000110 0111111110
-2.252496	01000110 0111111111
-2.067972	01000110 1000
-2.020547	01000110 10010
-2.880885	01000110 100110
-2.742582	01000110 1001110
-2.607884	01000110 1001111
-2.579855	01000110 10100
-2.204191	01000110 101010
-2.403764	01000110 1010110
-2.783975	01000110 1010111
-3.085005	01000110 10110
-2.670032	01000110 1011100
-2.579855	01000110 1011101
-2.783975	01000110 1011110
-3.005824	01000110 1011111
-1.886348	01000110 1100
-1.750551	01000110 11010
-1.465912	01000110 1101100
-1.758669	01000110 11011010
-1.602131	01000110 110110110
-1.991583	01000110 110110111
-1.977795	01000110 11011100
-3.005824	01000110 11011101
-2.607884	01000110 110111100
-2.505221	01000110 110111101
-2.441552	01000110 110111110
-2.482945	01000110 110111111
-2.0281	01000110 1110000
-2.239907	01000110 1110001
-2.059699	01000110 1110010
-2.278825	01000110 11100110
-2.637847	01000110 111001110
-1.971062	01000110 111001111
-1.265461	01000110 111010
-1.509817	01000110 1110110
-2.482945	01000110 11101110
-2.704794	01000110 111011110
-2.013123	01000110 1110111110
-2.369002	01000110 1110111111
-2.704794	01000110 111100
-2.403764	01000110 1111010
-2.607884	01000110 11110110
-3.306854	01000110 11110111
-1.766942	01000110 11111000
-1.195143	01000110 11111001
-2.085005	01000110 11111010
-2.321577	01000110 111110110
-2.369002	01000110 111110111
-1.593643	01000110 1111110
-3.482945	01000110 111111110
-2.020547	01000110 1111111110
-2.927136	01000110 1111111111
-0.8896589	01000110 </s>
-3.290079	01000111 000
-3.13221	01000111 0010
-2.710295	01000111 0100000
-2.875106	01000111 01000010
-3.989049	01000111 01000011
-1.20586	01000111 0100010
-2.1502	01000111 01000110
-2.025261	01000111 01000111
-1.343627	01000111 0100100
-2.218197	01000111 0100101
-1.453755	01000111 0100110
-1.338742	01000111 0100111
-2.627321	01000111 0101000
-1.503328	01000111 0101001
-3.688019	01000111 0101010
-1.433955	01000111 0101100
-2.345597	01000111 0101101
-2.290079	01000111 0101110
-1.610651	01000111 01011110
-1.935971	01000111 01011111
-2.397985	01000111 01100
-2.541891	01000111 0110100
-1.227121	01000111 0110101
-1.509042	01000111 0110110
-3.210898	01000111 0110111
-2.812958	01000111 011101
-2.05963	01000111 0111100
-1.84917	01000111 01111010
-2.189709	01000111 011110110
-2.842921	01000111 0111101110
-2.733777	01000111 0111101111
-2.45757	01000111 011111000
-2.420847	01000111 011111001
-2.989049	01000111 0111110100
-3.210898	01000111 0111110101
-2.784929	01000111 0111110110
-2.812958	01000111 0111110111
-2.842921	01000111 0111111000
-3.085959	01000111 0111111001
-2.541891	01000111 0111111010
-3.386989	01000111 0111111011
-1.810072	01000111 011111110
-2.511928	01000111 0111111110
-2.182869	01000111 0111111111
-2.541891	01000111 1000
-2.011326	01000111 10010
-3.13221	01000111 100110
-3.13221	01000111 1001110
-2.812958	01000111 1001111
-2.298853	01000111 10100
-2.45757	01000111 101010
-2.326291	01000111 1010110
-2.875106	01000111 1010111
-3.290079	01000111 10110
-2.444981	01000111 1011100
-2.909868	01000111 1011101
-3.13221	01000111 1011110
-3.511928	01000111 1011111
-1.726598	01000111 1100
-1.528151	01000111 11010
-1.199468	01000111 1101100
-1.717208	01000111 11011010
-1.885245	01000111 110110110
-1.572409	01000111 110110111
-2.1502	01000111 11011100
-2.608838	01000111 11011101
-2.386989	01000111 110111100
-2.290079	01000111 110111101
-1.798717	01000111 110111110
-2.733777	01000111 110111111
-2.541891	01000111 1110000
-2.45757	01000111 1110001
-2.196657	01000111 1110010
-2.225621	01000111 11100110
-2.574076	01000111 111001110
-2.264773	01000111 111001111
-2.842921	01000111 111010
-1.378389	01000111 1110110
-2.627321	01000111 11101110
-2.812958	01000111 111011110
-2.355581	01000111 1110111110
-3.511928	01000111 1110111111
-2.66683	01000111 111100
-2.316951	01000111 1111010
-2.511928	01000111 11110110
-3.290079	01000111 11110111
-2.091422	01000111 11111000
-1.45123	01000111 11111001
-2.608838	01000111 11111010
-2.989049	01000111 111110110
-2.909868	01000111 111110111
-1.909868	01000111 1111110
-2.409266	01000111 1111111110
-3.034807	01000111 1111111111
-1.022907	01000111 </s>
-3.219654	0100100 000
-2.723648	0100100 0010
-3.696776	0100100 0100000
-3.395746	0100100 01000010
-4.094716	0100100 01000011
-2.255867	0100100 0100010
-3.492656	0100100 01000110
-2.839443	0100100 01000111
-2.295375	0100100 0100100
-2.933348	0100100 0100101
-3.281802	0100100 0100110
-2.526514	0100100 0100111
-4.094716	0100100 0101000
-3.492656	0100100 0101001
-4.395746	0100100 0101010
-4.395746	0100100 0101011
-2.422618	0100100 0101100
-3.696776	0100100 0101101
-2.827544	0100100 0101110
-2.382908	0100100 01011110
-3.140473	0100100 01011111
-2.323864	0100100 01100
-2.441503	0100100 0110100
-2.170436	0100100 0110101
-1.594342	0100100 0110110
-3.281802	0100100 0110111
-3.015534	0100100 011100
-1.579504	0100100 011101
-1.869406	0100100 0111100
-1.37126	0100100 01111010
-2.408974	0100100 011110110
-2.278474	0100100 0111101110
-2.466327	0100100 0111101111
-2.008356	0100100 011111000
-2.071463	0100100 011111001
-2.732988	0100100 0111110100
-2.142893	0100100 0111110101
-2.569671	0100100 0111110110
-2.418022	0100100 0111110111
-3.116992	0100100 0111111000
-3.617594	0100100 0111111001
-3.793686	0100100 0111111010
-3.617594	0100100 0111111011
-2.112444	0100100 011111110
-2.877232	0100100 0111111110
-2.18892	0100100 0111111111
-2.094716	0100100 1000
-1.809158	0100100 10010
-3.053323	0100100 100110
-2.742533	0100100 1001110
-2.772496	0100100 1001111
-2.705549	0100100 10100
-2.422618	0100100 101010
-2.476668	0100100 1010110
-2.964382	0100100 1010111
-3.015534	0100100 10110
-2.851678	0100100 1011100
-2.762277	0100100 1011101
-3.538907	0100100 1011110
-3.073526	0100100 1011111
-1.407633	0100100 1100
-1.394878	0100100 11010
-1.248998	0100100 1101100
-1.621959	0100100 11011010
-1.55564	0100100 110110110
-1.704664	0100100 110110111
-1.9725	0100100 11011100
-2.827544	0100100 11011101
-2.354353	0100100 110111100
-1.965993	0100100 110111101
-2.020997	0100100 110111110
-1.999546	0100100 110111111
-1.970864	0100100 1110000
-2.278474	0100100 1110001
-1.53781	0100100 1110010
-2.133295	0100100 11100110
-2.487261	0100100 111001110
-2.105711	0100100 111001111
-2.520684	0100100 111010
-1.220524	0100100 1110110
-2.679742	0100100 11101110
-1.739647	0100100 111011110
-2.295375	0100100 1110111110
-1.762277	0100100 1110111111
-2.302324	0100100 111100
-2.271894	0100100 1111010
-2.40452	0100100 11110110
-3.165297	0100100 11110111
-2.175637	0100100 11111000
-1.974142	0100100 11111001
-1.215907	0100100 11111010
-1.549409	0100100 111110110
-2.1577	0100100 111110111
-1.420774	0100100 1111110
-3.617594	0100100 111111110
-1.915739	0100100 1111111110
-2.827544	0100100 1111111111
-0.8717392	0100100 </s>
-3.566437	0100101 000
-3.566437	0100101 0100000
-3.265408	0100101 01000010
-2.663347	0100101 0100010
-3.566437	0100101 01000110
-2.964377	0100101 01000111
-2.525045	0100101 0100100
-3.566437	0100101 0100101
-3.566437	0100101 0100110
-2.663347	0100101 0100111
-3.566437	0100101 0101010
-2.566437	0100101 0101100
-3.566437	0100101 0101101
-1.746894	0100101 01011110
-2.390346	0100101 01011111
-2.335989	0100101 01100
-3.089316	0100101 0110100
-2.244218	0100101 0110101
-1.740363	0100101 0110110
-3.089316	0100101 0110111
-2.867467	0100101 011100
-0.8614295	0100101 011101
-1.858867	0100101 0111100
-1.285404	0100101 01111010
-2.287684	0100101 011110110
-2.663347	0100101 0111101110
-2.964377	0100101 0111101111
-2.104039	0100101 011111000
-2.151464	0100101 011111001
-2.788286	0100101 0111110100
-2.487256	0100101 0111110101
-2.788286	0100101 0111110110
-2.788286	0100101 0111110111
-2.525045	0100101 0111111001
-3.265408	0100101 0111111010
-2.186226	0100101 011111110
-3.089316	0100101 0111111110
-2.390346	0100101 0111111111
-2.612195	0100101 1000
-2.390346	0100101 10010
-2.964377	0100101 100110
-3.265408	0100101 1001110
-2.788286	0100101 10100
-2.867467	0100101 101010
-3.265408	0100101 1010110
-3.265408	0100101 1010111
-3.265408	0100101 1011100
-3.566437	0100101 1011101
-3.566437	0100101 1011111
-1.66881	0100101 1100
-1.66881	0100101 11010
-1.541132	0100101 1101100
-2.010135	0100101 11011010
-1.998236	0100101 110110110
-1.913225	0100101 110110111
-2.566437	0100101 11011100
-3.089316	0100101 110111100
-2.244218	0100101 110111101
-1.826075	0100101 110111110
-2.709599	0100101 110111111
-0.875356	0100101 1110000
-2.135074	0100101 1110001
-2.119279	0100101 1110010
-2.20471	0100101 11100110
-2.663347	0100101 111001110
-2.663347	0100101 111001111
-2.964377	0100101 111010
-1.263241	0100101 1110110
-2.964377	0100101 11101110
-1.210412	0100101 111011110
-2.788286	0100101 1110111110
-1.579666	0100101 1110111111
-3.566437	0100101 111100
-2.788286	0100101 1111010
-2.709599	0100101 11110110
-2.867467	0100101 11110111
-1.826075	0100101 11111000
-2.287684	0100101 11111001
-1.271971	0100101 11111010
-1.426558	0100101 111110110
-1.89434	0100101 111110111
-1.509533	0100101 1111110
-3.566437	0100101 111111110
-1.685624	0100101 1111111110
-3.265408	0100101 1111111111
-1.269772	0100101 </s>
-2.533823	0100110 000
-2.139371	0100110 0010
-3.329703	0100110 00110
-3.454642	0100110 0100000
-3.931763	0100110 01000010
-1.724937	0100110 0100010
-3.232793	0100110 01000110
-1.97752	0100110 01000111
-2.160911	0100110 0100100
-2.570035	0100110 0100101
-2.153612	0100110 0100110
-2.58934	0100110 0100111
-3.074924	0100110 0101001
-3.931763	0100110 0101010
-2.727643	0100110 0101100
-2.67649	0100110 0101110
-1.96328	0100110 01011110
-3.329703	0100110 01011111
-2.484605	0100110 01100
-2.727643	0100110 0110100
-2.308514	0100110 0110101
-1.98728	0100110 0110110
-3.232793	0100110 0110111
-3.074924	0100110 011100
-2.1914	0100110 011101
-2.07443	0100110 0111100
-1.583458	0100110 01111010
-1.099893	0100110 011110110
-2.012685	0100110 0111101110
-2.37546	0100110 0111101111
-2.269005	0100110 011111000
-2.27855	0100110 011111001
-2.516789	0100110 0111110100
-2.852582	0100110 0111110101
-2.28831	0100110 0111110110
-2.89037	0100110 0111110111
-2.67649	0100110 0111111000
-3.454642	0100110 0111111001
-3.153612	0100110 0111111010
-3.931763	0100110 0111111011
-1.98728	0100110 011111110
-3.232793	0100110 0111111110
-2.183575	0100110 0111111111
-2.27855	0100110 1000
-1.997264	0100110 10010
-3.153612	0100110 100110
-2.785635	0100110 1001110
-3.931763	0100110 1001111
-3.074924	0100110 10100
-2.701314	0100110 101010
-2.931763	0100110 1010110
-2.97752	0100110 1010111
-3.232793	0100110 10110
-2.413249	0100110 1011100
-2.484605	0100110 1011101
-3.630733	0100110 1011110
-1.558851	0100110 1100
-0.8856581	0100110 11010
-1.240681	0100110 1101100
-1.838341	0100110 11011010
-1.390184	0100110 110110110
-1.542597	0100110 110110111
-2.099254	0100110 11011100
-2.67649	0100110 11011101
-2.400284	0100110 110111100
-1.666945	0100110 110111101
-1.859881	0100110 110111110
-2.37546	0100110 110111111
-2.426613	0100110 1110000
-2.484605	0100110 1110001
-1.949492	0100110 1110010
-2.160911	0100110 11100110
-2.413249	0100110 111001110
-2.07443	0100110 111001111
-3.931763	0100110 111010
-1.287324	0100110 1110110
-2.092914	0100110 1110111110
-2.469365	0100110 111100
-2.551552	0100110 1111010
-2.755672	0100110 11110110
-3.329703	0100110 11110111
-2.308514	0100110 11111000
-1.609544	0100110 11111001
-1.282428	0100110 11111010
-1.874858	0100110 111110110
-2.551552	0100110 111110111
-1.669312	0100110 1111110
-3.630733	0100110 111111110
-2.034136	0100110 1111111110
-0.9698674	0100110 </s>
-2.330769	0100111 000
-2.370536	0100111 0010
-4.233859	0100111 0100000
-3.756737	0100111 01000010
-4.233859	0100111 01000011
-1.842924	0100111 0100010
-2.279616	0100111 01000110
-1.6973	0100111 01000111
-1.805724	0100111 0100100
-2.027033	0100111 0100101
-2.347368	0100111 0100110
-1.766991	0100111 0100111
-3.631799	0100111 0101000
-2.818885	0100111 0101001
-4.233859	0100111 0101010
-1.926363	0100111 0101100
-3.455708	0100111 0101101
-2.165673	0100111 0101110
-2.027033	0100111 01011110
-2.742497	0100111 01011111
-2.314781	0100111 01100
-2.642794	0100111 0110100
-2.221022	0100111 0110101
-1.659827	0100111 0110110
-3.932829	0100111 0110111
-3.087731	0100111 011100
-2.40135	0100111 011101
-2.008549	0100111 0111100
-1.585499	0100111 01111010
-2.289376	0100111 011110110
-2.364627	0100111 0111101110
-2.534889	0100111 0111101111
-2.123269	0100111 011111000
-2.233859	0100111 011111001
-2.978586	0100111 0111110100
-3.057767	0100111 0111110101
-2.552618	0100111 0111110110
-2.621075	0100111 0111110111
-3.192466	0100111 0111111000
-3.057767	0100111 0111111001
-2.978586	0100111 0111111010
-2.294339	0100111 011111110
-3.119915	0100111 0111111110
-1.981006	0100111 0111111111
-2.247087	0100111 1000
-1.829025	0100111 10010
-2.802495	0100111 100110
-2.728709	0100111 1001110
-2.853647	0100111 1001111
-2.631799	0100111 10100
-2.61061	0100111 101010
-2.891436	0100111 1010110
-3.087731	0100111 1010111
-3.119915	0100111 10110
-2.631799	0100111 1011100
-2.621075	0100111 1011101
-3.330769	0100111 1011110
-2.911639	0100111 1011111
-1.070697	0100111 1100
-1.474191	0100111 11010
-1.341208	0100111 1101100
-1.417617	0100111 11011010
-1.298856	0100111 110110110
-1.460072	0100111 110110111
-2.200435	0100111 11011100
-2.60039	0100111 11011101
-2.330769	0100111 110111100
-1.687316	0100111 110111101
-1.943824	0100111 110111110
-1.868371	0100111 110111111
-2.427679	0100111 1110000
-2.274817	0100111 1110001
-1.775977	0100111 1110010
-1.990821	0100111 11100110
-2.3826	0100111 111001110
-2.08464	0100111 111001111
-2.621075	0100111 111010
-1.234728	0100111 1110110
-2.642794	0100111 11101110
-3.330769	0100111 111011110
-2.161977	0100111 1110111110
-3.330769	0100111 1110111111
-2.29936	0100111 111100
-2.260731	0100111 1111010
-2.477984	0100111 11110110
-3.119915	0100111 11110111
-2.046338	0100111 11111000
-1.404555	0100111 11111001
-1.926363	0100111 11111010
-2.376526	0100111 111110110
-2.60039	0100111 111110111
-1.581612	0100111 1111110
-3.631799	0100111 111111110
-2.176954	0100111 1111111110
-3.00341	0100111 1111111111
-0.9044609	0100111 </s>
-3.542327	0101000 000
-1.114193	0101000 0010
-2.764176	0101000 00110
-3.542327	0101000 00111
-2.500935	0101000 0100010
-2.940267	0101000 01000111
-2.463146	0101000 0100100
-2.500935	0101000 0100101
-2.311878	0101000 0100110
-2.764176	0101000 0100111
-2.940267	0101000 0101000
-2.843357	0101000 0101001
-3.065206	0101000 0101100
-3.542327	0101000 0101110
-3.542327	0101000 01011110
-3.241297	0101000 01011111
-2.095169	0101000 01100
-2.588085	0101000 0110100
-1.974126	0101000 0110101
-1.861086	0101000 0110110
-2.940267	0101000 0110111
-2.588085	0101000 011101
-2.287055	0101000 0111100
-2.180599	0101000 01111010
-2.396199	0101000 011110110
-2.241297	0101000 0111101110
-2.241297	0101000 0111101111
-2.241297	0101000 011111000
-2.263574	0101000 011111001
-3.241297	0101000 0111110100
-3.241297	0101000 0111110101
-2.241297	0101000 0111110110
-2.843357	0101000 0111110111
-0.8503623	0101000 0111111000
-2.940267	0101000 0111111001
-2.199905	0101000 0111111010
-2.843357	0101000 011111110
-2.940267	0101000 0111111110
-2.180599	0101000 0111111111
-1.801965	0101000 1000
-1.500935	0101000 10010
-2.940267	0101000 100110
-2.500935	0101000 1001110
-2.639237	0101000 1001111
-2.500935	0101000 10100
-2.542327	0101000 101010
-2.639237	0101000 1010110
-2.843357	0101000 1010111
-2.843357	0101000 10110
-2.940267	0101000 1011100
-2.764176	0101000 1011101
-3.542327	0101000 1011110
-2.685489	0101000 1011111
-1.493109	0101000 1100
-1.093621	0101000 11010
-1.546692	0101000 1101100
-1.786453	0101000 11011010
-2.050966	0101000 110110110
-1.428384	0101000 110110111
-1.986025	0101000 11011100
-2.180599	0101000 110111100
-2.065206	0101000 110111101
-2.037177	0101000 110111110
-2.500935	0101000 110111111
-2.500935	0101000 1110000
-2.241297	0101000 1110001
-2.220108	0101000 1110010
-2.023813	0101000 11100110
-2.542327	0101000 111001110
-1.618048	0101000 111001111
-3.241297	0101000 111010
-1.431738	0101000 1110110
-2.764176	0101000 11101110
-2.463146	0101000 111011110
-2.940267	0101000 1110111110
-3.542327	0101000 1110111111
-2.110964	0101000 111100
-1.986025	0101000 1111010
-2.428384	0101000 11110110
-2.843357	0101000 11110111
-2.263574	0101000 11111000
-2.127354	0101000 11111001
-2.263574	0101000 11111010
-2.241297	0101000 111110110
-3.065206	0101000 111110111
-2.162116	0101000 1111110
-2.764176	0101000 111111110
-2.685489	0101000 1111111110
-2.463146	0101000 1111111111
-0.7314231	0101000 </s>
-1.450143	0101001 000
-2.055208	0101001 0010
-3.611511	0101001 0100000
-2.754672	0101001 0100010
-3.310481	0101001 01000110
-2.708421	0101001 01000111
-2.611511	0101001 0100100
-2.912541	0101001 0100101
-1.978042	0101001 0100110
-2.754672	0101001 0100111
-3.310481	0101001 0101000
-3.009451	0101001 0101001
-2.708421	0101001 0101010
-3.13439	0101001 0101100
-2.83336	0101001 0101110
-2.611511	0101001 01011110
-2.912541	0101001 01011111
-2.611511	0101001 01100
-2.611511	0101001 0110100
-1.958298	0101001 0110101
-1.998727	0101001 0110110
-3.310481	0101001 0110111
-3.611511	0101001 011100
-2.611511	0101001 011101
-2.164353	0101001 0111100
-1.62924	0101001 01111010
-1.742279	0101001 011110110
-1.246023	0101001 0111101110
-1.53233	0101001 0111101111
-2.465383	0101001 011111000
-2.497568	0101001 011111001
-2.912541	0101001 0111110100
-2.83336	0101001 0111110101
-2.708421	0101001 0111110110
-2.657268	0101001 0111110111
-3.13439	0101001 0111111000
-3.13439	0101001 0111111010
-3.611511	0101001 0111111011
-2.381062	0101001 011111110
-2.570118	0101001 0111111111
-1.633787	0101001 1000
-1.848083	0101001 10010
-3.13439	0101001 100110
-3.310481	0101001 1001110
-2.912541	0101001 1001111
-2.83336	0101001 10100
-2.657268	0101001 101010
-3.009451	0101001 1010110
-2.106361	0101001 1010111
-3.310481	0101001 10110
-2.381062	0101001 1011100
-2.497568	0101001 1011101
-3.611511	0101001 1011111
-1.582127	0101001 1100
-0.9831219	0101001 11010
-0.9997876	0101001 1101100
-1.871148	0101001 11011010
-1.65247	0101001 110110110
-1.535964	0101001 110110111
-2.180147	0101001 11011100
-3.310481	0101001 11011101
-1.785436	0101001 110111100
-1.554606	0101001 110111101
-1.903941	0101001 110111110
-2.53233	0101001 110111111
-2.2313	0101001 1110000
-3.009451	0101001 1110001
-1.978042	0101001 1110010
-2.332757	0101001 11100110
-2.497568	0101001 111001110
-2.043309	0101001 111001111
-3.13439	0101001 111010
-1.388794	0101001 1110110
-3.611511	0101001 11101110
-2.657268	0101001 111011110
-2.180147	0101001 1110111110
-3.13439	0101001 1110111111
-2.754672	0101001 111100
-3.009451	0101001 1111010
-2.53233	0101001 11110110
-2.092997	0101001 11111000
-1.748188	0101001 11111001
-1.779002	0101001 11111010
-2.332757	0101001 111110110
-3.310481	0101001 111110111
-1.730697	0101001 1111110
-2.120149	0101001 1111111110
-3.310481	0101001 1111111111
-0.8170229	0101001 </s>
-1.794582	0101010 0010
-3.620656	0101010 00110
-3.620656	0101010 0100000
-2.258929	0101010 0100010
-3.319627	0101010 01000110
-3.143535	0101010 01000111
-2.189293	0101010 0100100
-2.579264	0101010 0100101
-2.842505	0101010 0100110
-2.541475	0101010 0100111
-3.620656	0101010 0101000
-2.506713	0101010 0101100
-3.319627	0101010 0101101
-2.102143	0101010 0101110
-2.842505	0101010 01011110
-2.842505	0101010 01011111
-1.957899	0101010 01100
-2.474529	0101010 0110100
-1.849805	0101010 0110101
-1.821316	0101010 0110110
-2.842505	0101010 0110111
-3.620656	0101010 011100
-2.763818	0101010 011101
-2.018596	0101010 0111100
-1.620656	0101010 01111010
-2.205683	0101010 011110110
-2.763818	0101010 0111101110
-2.076588	0101010 0111101111
-2.240445	0101010 011111000
-2.089178	0101010 011111001
-2.620656	0101010 0111110100
-3.018596	0101010 0111110101
-3.018596	0101010 0111110110
-2.921686	0101010 0111110111
-0.8226969	0101010 0111111000
-3.018596	0101010 0111111010
-3.620656	0101010 0111111011
-3.620656	0101010 011111110
-3.018596	0101010 0111111110
-2.143535	0101010 0111111111
-1.957899	0101010 1000
-1.468368	0101010 10010
-2.921686	0101010 100110
-2.717566	0101010 1001110
-2.842505	0101010 1001111
-2.143535	0101010 10100
-2.620656	0101010 101010
-2.365384	0101010 1010110
-2.763818	0101010 1010111
-3.143535	0101010 10110
-3.018596	0101010 1011100
-2.921686	0101010 1011101
-3.018596	0101010 1011110
-1.516853	0101010 1100
-1.788148	0101010 11010
-1.616335	0101010 1101100
-1.642933	0101010 11011010
-1.745595	0101010 110110110
-1.616335	0101010 110110111
-2.158258	0101010 11011100
-2.763818	0101010 11011101
-2.018596	0101010 110111100
-2.115506	0101010 110111101
-2.240445	0101010 110111110
-2.444565	0101010 110111111
-2.341903	0101010 1110000
-2.416537	0101010 1110001
-1.864782	0101010 1110010
-1.888263	0101010 11100110
-2.506713	0101010 111001110
-1.563752	0101010 111001111
-1.192522	0101010 111010
-1.527235	0101010 1110110
-3.319627	0101010 11101110
-3.620656	0101010 111011110
-2.666414	0101010 1110111110
-2.189293	0101010 111100
-2.076588	0101010 1111010
-2.143535	0101010 11110110
-2.842505	0101010 11110111
-2.390208	0101010 11111000
-1.835327	0101010 11111001
-2.222717	0101010 11111010
-2.444565	0101010 111110110
-2.717566	0101010 111110111
-1.977204	0101010 1111110
-2.717566	0101010 1111111110
-3.620656	0101010 1111111111
-0.6907269	0101010 </s>
-3.281261	0101011 000
-0.8218682	0101011 0100000
-2.980231	0101011 01000010
-1.294489	0101011 0100010
-1.919533	0101011 01000110
-1.556985	0101011 01000111
-1.565257	0101011 0100100
-2.582291	0101011 0100101
-2.582291	0101011 0100110
-2.167317	0101011 0100111
-2.002507	0101011 0101000
-3.281261	0101011 0101001
-0.8974453	0101011 0101100
-2.327018	0101011 0101101
-1.713059	0101011 0101110
-2.135133	0101011 01011110
-2.804139	0101011 01011111
-2.10517	0101011 01100
-2.424422	0101011 0110100
-2.050812	0101011 0110101
-1.322219	0101011 0110110
-2.378171	0101011 0110111
-2.327018	0101011 011101
-1.938838	0101011 0111100
-1.565257	0101011 01111010
-2.679201	0101011 011110110
-2.503109	0101011 0111101110
-3.281261	0101011 0111101111
-2.378171	0101011 011111000
-2.424422	0101011 011111001
-3.281261	0101011 0111110100
-2.980231	0101011 0111110101
-2.980231	0101011 0111110110
-2.804139	0101011 0111110111
-2.804139	0101011 0111111000
-2.679201	0101011 0111111001
-2.804139	0101011 011111110
-2.980231	0101011 0111111110
-2.582291	0101011 0111111111
-2.424422	0101011 1000
-2.077141	0101011 10010
-2.980231	0101011 100110
-3.281261	0101011 1001110
-2.980231	0101011 1001111
-1.367447	0101011 10100
-1.776111	0101011 101010
-1.959041	0101011 1010110
-2.503109	0101011 1010111
-3.281261	0101011 1011100
-2.503109	0101011 1011101
-2.281261	0101011 1011110
-2.679201	0101011 1011111
-2.20208	0101011 1100
-2.804139	0101011 11010
-2.582291	0101011 1101100
-2.239868	0101011 11011010
-2.239868	0101011 110110110
-2.239868	0101011 110110111
-2.503109	0101011 11011100
-2.679201	0101011 110111100
-2.378171	0101011 110111101
-2.804139	0101011 110111110
-3.281261	0101011 110111111
-1.804139	0101011 1110000
-2.327018	0101011 1110001
-2.424422	0101011 1110010
-2.503109	0101011 11100110
-2.980231	0101011 111001110
-2.167317	0101011 111001111
-1.442412	0101011 111010
-1.423928	0101011 1110110
-1.668477	0101011 11101110
-2.281261	0101011 1110111110
-2.679201	0101011 1110111111
-3.281261	0101011 111100
-2.980231	0101011 1111010
-2.804139	0101011 11110110
-2.10517	0101011 11111000
-1.762747	0101011 11111001
-2.281261	0101011 11111010
-3.281261	0101011 111110110
-2.980231	0101011 111110111
-2.10517	0101011 1111110
-2.582291	0101011 1111111110
-1.079864	0101011 </s>
-2.949046	0101100 000
-2.664407	0101100 0010
-4.07938	0101100 00110
-3.234282	0101100 0100000
-3.101657	0101100 01000010
-2.836342	0101100 01000011
-1.67284	0101100 0100010
-2.57423	0101100 01000110
-2.323505	0101100 01000111
-1.526712	0101100 0100100
-2.030162	0101100 0100101
-2.426168	0101100 0100110
-1.632222	0101100 0100111
-4.38041	0101100 0101000
-2.59508	0101100 0101001
-3.523571	0101100 0101010
-4.38041	0101100 0101011
-1.378244	0101100 0101100
-2.824108	0101100 0101101
-1.989475	0101100 0101110
-1.842591	0101100 01011110
-2.499597	0101100 01011111
-1.835103	0101100 01100
-2.511178	0101100 0110100
-2.047972	0101100 0110101
-1.37523	0101100 0110110
-2.17629	0101100 0110111
-3.68144	0101100 011100
-2.416622	0101100 011101
-1.921018	0101100 0111100
-1.390516	0101100 01111010
-2.38041	0101100 011110110
-2.529152	0101100 0111101110
-2.67284	0101100 0111101111
-2.26982	0101100 011111000
-2.327332	0101100 011111001
-2.949046	0101100 0111110100
-3.149961	0101100 0111110101
-2.903289	0101100 0111110110
-2.640048	0101100 0111110111
-2.918012	0101100 0111111000
-2.346987	0101100 0111111001
-3.204319	0101100 0111111010
-3.339018	0101100 0111111011
-2.402687	0101100 011111110
-2.836342	0101100 0111111110
-2.393639	0101100 0111111111
-2.155101	0101100 1000
-1.962109	0101100 10010
-3.018682	0101100 100110
-2.933252	0101100 1001110
-2.889049	0101100 1001111
-2.222048	0101100 10100
-2.319712	0101100 101010
-2.488316	0101100 1010110
-3.07938	0101100 1010111
-3.101657	0101100 10110
-2.57423	0101100 1011100
-2.812208	0101100 1011101
-3.47732	0101100 1011110
-3.204319	0101100 1011111
-1.612513	0101100 1100
-1.10006	0101100 11010
-1.484988	0101100 1101100
-1.851494	0101100 11011010
-1.813384	0101100 110110110
-1.837585	0101100 110110111
-2.367573	0101100 11011100
-3.149961	0101100 11011101
-2.416622	0101100 110111100
-2.393639	0101100 110111101
-2.231191	0101100 110111110
-2.335087	0101100 110111111
-1.66776	0101100 1110000
-1.980736	0101100 1110001
-1.811036	0101100 1110010
-2.17629	0101100 11100110
-2.727198	0101100 111001110
-2.184511	0101100 111001111
-1.310003	0101100 111010
-1.404978	0101100 1110110
-2.030162	0101100 11101110
-2.499597	0101100 111011110
-1.958806	0101100 1110111110
-2.266467	0101100 1110111111
-2.602259	0101100 111100
-2.376089	0101100 1111010
-2.690214	0101100 11110110
-3.339018	0101100 11110111
-1.675402	0101100 11111000
-1.348195	0101100 11111001
-2.323505	0101100 11111010
-2.727198	0101100 111110110
-2.426168	0101100 111110111
-1.597222	0101100 1111110
-4.38041	0101100 111111110
-1.996595	0101100 1111111110
-3.125138	0101100 1111111111
-0.9816025	0101100 </s>
-2.786106	0101101 000
-2.68137	0101101 0010
-3.128529	0101101 0100000
-3.350377	0101101 01000010
-3.128529	0101101 01000011
-1.883016	0101101 0100010
-2.505279	0101101 01000110
-2.365101	0101101 01000111
-1.766801	0101101 0100100
-1.941008	0101101 0100101
-2.225439	0101101 0100110
-1.814661	0101101 0100111
-3.827498	0101101 0101000
-2.68137	0101101 0101001
-1.946685	0101101 0101100
-3.225439	0101101 0101101
-1.893	0101101 0101110
-1.90842	0101101 01011110
-2.873256	0101101 01011111
-2.322349	0101101 01100
-2.68137	0101101 0110100
-2.350377	0101101 0110101
-1.645655	0101101 0110110
-2.924408	0101101 0110111
-3.225439	0101101 011100
-2.396135	0101101 011101
-1.720289	0101101 0111100
-1.366601	0101101 01111010
-2.174286	0101101 011110110
-2.214715	0101101 0111101110
-2.623379	0101101 0111101111
-2.225439	0101101 011111000
-2.146257	0101101 011111001
-2.873256	0101101 0111110100
-3.128529	0101101 0111110101
-2.68137	0101101 0111110110
-2.713555	0101101 0111110111
-2.97066	0101101 0111111000
-2.06407	0101101 0111111001
-3.128529	0101101 0111111010
-3.827498	0101101 0111111011
-2.485076	0101101 011111110
-2.873256	0101101 0111111110
-2.526469	0101101 0111111111
-2.259297	0101101 1000
-2.071624	0101101 10010
-2.873256	0101101 100110
-3.350377	0101101 1001110
-2.97066	0101101 1001111
-2.485076	0101101 10100
-2.548745	0101101 101010
-2.380341	0101101 1010110
-2.786106	0101101 1010111
-3.049347	0101101 10110
-2.924408	0101101 1011100
-2.713555	0101101 1011101
-3.827498	0101101 1011110
-2.748317	0101101 1011111
-1.678279	0101101 1100
-2.035107	0101101 11010
-1.697165	0101101 1101100
-1.802193	0101101 11011010
-1.958267	0101101 110110110
-1.929871	0101101 110110111
-2.155401	0101101 11011100
-3.128529	0101101 11011101
-2.505279	0101101 110111100
-2.597049	0101101 110111101
-2.350377	0101101 110111110
-2.322349	0101101 110111111
-1.234212	0101101 1110000
-1.919014	0101101 1110001
-1.859016	0101101 1110010
-2.429559	0101101 11100110
-2.786106	0101101 111001110
-2.308985	0101101 111001111
-0.7585709	0101101 111010
-1.483106	0101101 1110110
-3.225439	0101101 11101110
-2.447287	0101101 111011110
-1.935404	0101101 1110111110
-2.924408	0101101 1110111111
-2.505279	0101101 111100
-2.572226	0101101 1111010
-2.827498	0101101 11110110
-3.827498	0101101 11110111
-1.45275	0101101 11111000
-1.316954	0101101 11111001
-2.184046	0101101 11111010
-2.412525	0101101 111110110
-2.056647	0101101 111110111
-1.424378	0101101 1111110
-3.827498	0101101 111111110
-1.727128	0101101 1111111110
-2.873256	0101101 1111111111
-1.016594	0101101 </s>
-2.882043	0101110 000
-2.225134	0101110 0010
-3.297016	0101110 0100000
-3.518865	0101110 01000010
-2.882043	0101110 01000011
-2.115172	0101110 0100010
-3.217835	0101110 01000110
-3.139147	0101110 01000111
-2.288416	0101110 0100100
-2.954593	0101110 0100101
-2.653563	0101110 0100110
-2.314745	0101110 0100111
-3.297016	0101110 0101000
-3.694956	0101110 0101001
-3.393926	0101110 0101011
-2.518865	0101110 0101100
-3.995986	0101110 0101101
-2.393926	0101110 0101110
-2.954593	0101110 01011110
-2.598046	0101110 01011111
-1.427784	0101110 01100
-2.791866	0101110 0110100
-2.132663	0101110 0110101
-1.499056	0101110 0110110
-1.705951	0101110 0110111
-3.518865	0101110 011100
-2.882043	0101110 011101
-2.416202	0101110 0111100
-1.978953	0101110 01111010
-2.916805	0101110 011110110
-2.791866	0101110 0111101110
-2.288416	0101110 0111101111
-2.416202	0101110 011111000
-2.634258	0101110 011111001
-3.297016	0101110 0111110100
-3.092896	0101110 0111110101
-3.092896	0101110 0111110110
-2.882043	0101110 0111110111
-3.217835	0101110 0111111000
-2.882043	0101110 0111111001
-3.518865	0101110 0111111010
-3.694956	0101110 0111111011
-2.717232	0101110 011111110
-2.849858	0101110 0111111110
-2.615775	0101110 0111111111
-2.240111	0101110 1000
-2.061487	0101110 10010
-3.139147	0101110 100110
-2.954593	0101110 1001110
-2.765537	0101110 1001111
-2.819895	0101110 10100
-2.504624	0101110 101010
-2.163477	0101110 1010110
-3.393926	0101110 1010111
-2.954593	0101110 10110
-2.653563	0101110 1011100
-3.041744	0101110 1011101
-3.518865	0101110 1011110
-3.297016	0101110 1011111
-1.846767	0101110 1100
-0.3473333	0101110 11010
-1.686356	0101110 1101100
-2.163477	0101110 11011010
-1.859265	0101110 110110110
-2.041744	0101110 110110111
-2.314745	0101110 11011100
-3.092896	0101110 11011101
-2.849858	0101110 110111100
-2.464507	0101110 110111101
-1.885396	0101110 110111110
-2.740714	0101110 110111111
-1.939081	0101110 1110000
-2.189806	0101110 1110001
-2.157137	0101110 1110010
-2.451918	0101110 11100110
-2.791866	0101110 111001110
-2.548828	0101110 111001111
-1.97068	0101110 111010
-1.200106	0101110 1110110
-3.694956	0101110 11101110
-3.041744	0101110 111011110
-2.819895	0101110 1110111110
-2.352533	0101110 1110111111
-2.598046	0101110 111100
-2.717232	0101110 1111010
-2.791866	0101110 11110110
-3.139147	0101110 11110111
-2.314745	0101110 11111000
-1.694956	0101110 11111001
-2.393926	0101110 11111010
-2.765537	0101110 111110110
-2.916805	0101110 111110111
-1.916805	0101110 1111110
-3.995986	0101110 111111110
-2.404921	0101110 1111111110
-3.518865	0101110 1111111111
-1.132663	0101110 </s>
-2.708996	01011110 000
-2.380814	01011110 0010
-3.246115	01011110 0100000
-3.723237	01011110 01000010
-2.213586	01011110 0100010
-3.086415	01011110 01000110
-2.577109	01011110 01000111
-1.785385	01011110 0100100
-2.83863	01011110 0100101
-2.476082	01011110 0100110
-1.990843	01011110 0100111
-3.200358	01011110 0101000
-2.969909	01011110 0101001
-3.024267	01011110 0101010
-4.200358	01011110 0101011
-2.03899	01011110 0101100
-2.878139	01011110 0101101
-2.644055	01011110 0101110
-1.809423	01011110 01011110
-2.286544	01011110 01011111
-2.04807	01011110 01100
-2.501388	01011110 0110100
-1.871978	01011110 0110101
-1.542347	01011110 0110110
-3.422207	01011110 0110111
-3.246115	01011110 011100
-2.695208	01011110 011101
-2.007233	01011110 0111100
-1.628649	01011110 01111010
-2.73796	01011110 011110110
-2.519117	01011110 0111101110
-2.380814	01011110 0111101111
-2.051139	01011110 011111000
-2.209132	01011110 011111001
-2.587574	01011110 0111110100
-2.820147	01011110 0111110101
-2.35526	01011110 0111110110
-2.510162	01011110 0111110111
-3.024267	01011110 0111111000
-3.246115	01011110 0111111001
-2.996238	01011110 0111111010
-3.422207	01011110 0111111011
-2.467964	01011110 011111110
-2.723237	01011110 0111111110
-1.959809	01011110 0111111111
-1.865904	01011110 1000
-1.665064	01011110 10010
-2.510162	01011110 100110
-2.429506	01011110 1001110
-2.361509	01011110 1001111
-2.476082	01011110 10100
-2.222634	01011110 101010
-2.547145	01011110 1010110
-2.899328	01011110 1010111
-2.945086	01011110 10110
-2.501388	01011110 1011100
-2.65629	01011110 1011101
-3.246115	01011110 1011110
-3.200358	01011110 1011111
-1.144216	01011110 1100
-1.103796	01011110 11010
-1.40587	01011110 1101100
-1.35464	01011110 11011010
-1.343629	01011110 110110110
-1.534777	01011110 110110111
-1.897162	01011110 11011100
-2.899328	01011110 11011101
-2.374283	01011110 110111100
-2.093148	01011110 110111101
-2.073253	01011110 110111110
-2.113998	01011110 110111111
-2.297268	01011110 1110000
-2.1359	01011110 1110001
-1.394857	01011110 1110010
-2.14728	01011110 11100110
-2.444483	01011110 111001110
-2.073253	01011110 111001111
-2.415028	01011110 111010
-1.534777	01011110 1110110
-3.297268	01011110 11101110
-3.501388	01011110 111011110
-2.113998	01011110 1110111110
-2.945086	01011110 1110111111
-2.380814	01011110 111100
-2.200358	01011110 1111010
-2.270939	01011110 11110110
-3.200358	01011110 11110111
-1.996238	01011110 11111000
-1.26284	01011110 11111001
-2.407966	01011110 11111010
-2.73796	01011110 111110110
-2.519117	01011110 111110111
-1.624017	01011110 1111110
-3.723237	01011110 111111110
-2.15114	01011110 1111111110
-2.878139	01011110 1111111111
-0.9374325	01011110 </s>
-2.55938	01011111 000
-2.25835	01011111 0010
-2.480199	01011111 00110
-3.05423	01011111 0100000
-3.65629	01011111 01000010
-3.95732	01011111 01000011
-2.323851	01011111 0100010
-3.05423	01011111 01000110
-2.781229	01011111 01000111
-1.952999	01011111 0100100
-2.843377	01011111 0100101
-1.915927	01011111 0100110
-2.106061	01011111 0100111
-3.100481	01011111 0101000
-3.480199	01011111 0101001
-2.304107	01011111 0101100
-3.35526	01011111 0101101
-2.65629	01011111 0101110
-2.55938	01011111 01011110
-2.304107	01011111 01011111
-2.157979	01011111 01100
-2.480199	01011111 0110100
-1.817441	01011111 0110101
-1.65629	01011111 0110110
-2.915927	01011111 0110111
-3.35526	01011111 011100
-2.55938	01011111 011101
-2.144407	01011111 0111100
-1.65629	01011111 01111010
-2.201445	01011111 011110110
-2.678566	01011111 0111101110
-2.017801	01011111 0111101111
-2.048835	01011111 011111000
-2.106061	01011111 011111001
-2.465958	01011111 0111110100
-3.05423	01011111 0111110101
-2.276079	01011111 0111110110
-2.55938	01011111 0111110111
-1.975049	01011111 0111111000
-2.843377	01011111 0111111001
-2.702047	01011111 0111111010
-3.480199	01011111 0111111011
-2.25835	01011111 011111110
-2.811192	01011111 0111111110
-1.911997	01011111 0111111111
-2.022821	01011111 1000
-1.453529	01011111 10010
-2.915927	01011111 100110
-2.678566	01011111 1001110
-2.465958	01011111 1001111
-2.595592	01011111 10100
-2.678566	01011111 101010
-2.65629	01011111 1010110
-3.003077	01011111 1010111
-2.7532	01011111 10110
-2.377536	01011111 1011100
-2.878139	01011111 1011101
-3.480199	01011111 1011110
-3.05423	01011111 1011111
-1.259219	01011111 1100
-0.9814287	01011111 11010
-1.505533	01011111 1101100
-1.820599	01011111 11011010
-1.412013	01011111 110110110
-1.577109	01011111 110110111
-2.082259	01011111 11011100
-2.811192	01011111 11011101
-2.048835	01011111 110111100
-2.17199	01011111 110111101
-2.131245	01011111 110111110
-2.043506	01011111 110111111
-2.137776	01011111 1110000
-2.241317	01011111 1110001
-1.588104	01011111 1110010
-1.878139	01011111 11100110
-2.494922	01011111 111001110
-1.729433	01011111 111001111
-1.874534	01011111 111010
-1.532438	01011111 1110110
-2.186468	01011111 11101110
-3.480199	01011111 111011110
-2.070829	01011111 1110111110
-2.702047	01011111 1110111111
-1.853516	01011111 111100
-1.998278	01011111 1111010
-2.093997	01011111 11110110
-2.811192	01011111 11110111
-2.144407	01011111 11111000
-1.385611	01011111 11111001
-2.313867	01011111 11111010
-2.811192	01011111 111110110
-2.614897	01011111 111110111
-1.830215	01011111 1111110
-3.65629	01011111 111111110
-2.313867	01011111 1111111110
-3.05423	01011111 1111111111
-0.8453856	01011111 </s>
-4.050766	01100 0010
-3.573645	01100 00111
-2.795494	01100 0100000
-3.573645	01100 01000010
-3.448706	01100 01000011
-2.728547	01100 0100010
-3.749736	01100 01000110
-4.050766	01100 01000111
-2.820318	01100 0100100
-4.050766	01100 0100101
-3.749736	01100 0100111
-4.050766	01100 0101000
-3.573645	01100 0101001
-4.050766	01100 0101011
-2.459702	01100 0101100
-3.573645	01100 0101101
-2.670555	01100 0101110
-3.351796	01100 01011110
-2.749736	01100 01011111
-0.9658327	01100 01100
-2.904638	01100 0110100
-2.136952	01100 0110101
-0.4395742	01100 0110110
-0.3624355	01100 0110111
-3.147676	01100 011101
-3.272615	01100 0111100
-2.820318	01100 01111010
-3.009374	01100 011110110
-4.050766	01100 0111101111
-3.573645	01100 011111000
-3.749736	01100 011111001
-1.795494	01100 0111110101
-3.749736	01100 0111110110
-3.573645	01100 0111110111
-3.096524	01100 011111110
-4.050766	01100 0111111110
-3.749736	01100 0111111111
-2.728547	01100 1000
-3.050766	01100 10010
-3.272615	01100 100110
-4.050766	01100 1001110
-3.749736	01100 1001111
-2.343196	01100 10100
-2.588368	01100 101010
-2.772013	01100 1010110
-3.050766	01100 1010111
-4.050766	01100 1011101
-3.749736	01100 1011110
-3.573645	01100 1011111
-3.448706	01100 1100
-3.193928	01100 11010
-3.351796	01100 1101100
-3.749736	01100 11011010
-3.749736	01100 110110110
-4.050766	01100 110110111
-3.573645	01100 11011100
-4.050766	01100 110111100
-4.050766	01100 110111111
-2.904638	01100 1110000
-2.820318	01100 1110001
-3.573645	01100 1110010
-3.351796	01100 11100110
-3.749736	01100 111001111
-2.302578	01100 111010
-2.36057	01100 1110110
-2.407314	01100 11101110
-2.193434	01100 111011110
-3.749736	01100 1110111110
-3.193928	01100 1110111111
-3.749736	01100 111100
-4.050766	01100 1111010
-3.573645	01100 11110110
-2.820318	01100 11111000
-2.749736	01100 11111001
-4.050766	01100 111110110
-3.448706	01100 111110111
-3.009374	01100 1111110
-3.351796	01100 1111111110
-2.532252	01100 </s>
-2.171312	0110100 000
-1.151049	0110100 0010
-3.696356	0110100 00110
-2.406322	0110100 0100000
-2.918205	0110100 01000010
-3.696356	0110100 01000011
-1.79056	0110100 0100010
-2.158537	0110100 01000110
-1.997386	0110100 01000111
-1.444718	0110100 0100100
-2.506025	0110100 0100101
-2.088901	0110100 0100110
-1.903965	0110100 0100111
-2.851258	0110100 0101000
-2.550228	0110100 0101001
-2.344174	0110100 0101010
-1.746966	0110100 0101100
-2.465908	0110100 0101101
-2.566023	0110100 0101110
-2.171312	0110100 01011110
-2.134063	0110100 01011111
-2.134063	0110100 01100
-2.015115	0110100 0110100
-1.785199	0110100 0110101
-1.453318	0110100 0110110
-3.140548	0110100 0110111
-3.997386	0110100 011100
-2.316145	0110100 011101
-2.067967	0110100 0111100
-1.730215	0110100 01111010
-2.344174	0110100 011110110
-2.534988	0110100 0111101110
-2.257024	0110100 0111101111
-2.212057	0110100 011111000
-2.316145	0110100 011111001
-2.955994	0110100 0111110100
-3.094296	0110100 0111110101
-2.599446	0110100 0111110110
-2.478873	0110100 0111110111
-3.696356	0110100 0111111000
-3.140548	0110100 0111111001
-3.043144	0110100 0111111010
-2.675167	0110100 0111111011
-2.453318	0110100 011111110
-2.429185	0110100 0111111110
-2.316145	0110100 0111111111
-1.848167	0110100 1000
-1.243803	0110100 10010
-2.534988	0110100 100110
-2.212057	0110100 1001110
-2.094296	0110100 1001111
-1.870282	0110100 10100
-1.839024	0110100 101010
-2.184473	0110100 1010110
-1.976197	0110100 1010111
-2.281383	0110100 10110
-2.675167	0110100 1011100
-2.177842	0110100 1011101
-2.696356	0110100 1011110
-2.851258	0110100 1011111
-1.599446	0110100 1100
-1.492236	0110100 11010
-2.019663	0110100 1101100
-1.918205	0110100 11011010
-2.078308	0110100 110110110
-1.980353	0110100 110110111
-2.289816	0110100 11011100
-3.219235	0110100 11011101
-2.334629	0110100 110111100
-2.177842	0110100 110111101
-2.599446	0110100 110111110
-2.478873	0110100 110111111
-2.140054	0110100 1110000
-2.344174	0110100 1110001
-1.777278	0110100 1110010
-1.921839	0110100 11100110
-2.696356	0110100 111001110
-1.95996	0110100 111001111
-1.301905	0110100 111010
-1.356905	0110100 1110110
-2.316145	0110100 11101110
-3.298416	0110100 111011110
-2.30719	0110100 1110111110
-2.918205	0110100 1110111111
-2.198046	0110100 111100
-2.325289	0110100 1111010
-2.184473	0110100 11110110
-1.618989	0110100 11110111
-2.047996	0110100 11111000
-1.707352	0110100 11111001
-2.164877	0110100 11111010
-2.384603	0110100 111110110
-2.718633	0110100 111110111
-1.900476	0110100 1111110
-3.997386	0110100 111111110
-2.353934	0110100 1111111110
-3.140548	0110100 1111111111
-1.012859	0110100 </s>
-2.686934	0110101 000
-2.572991	0110101 0010
-2.465085	0110101 0100000
-3.209813	0110101 01000010
-3.465085	0110101 01000011
-1.481008	0110101 0100010
-2.885302	0110101 01000110
-2.632576	0110101 01000111
-1.938746	0110101 0100100
-1.933606	0110101 0100101
-2.686934	0110101 0100110
-2.415867	0110101 0100111
-3.863025	0110101 0101000
-2.099597	0110101 0101001
-2.783844	0110101 0101010
-1.976535	0110101 0101100
-3.084874	0110101 0101101
-2.325206	0110101 0101110
-2.114837	0110101 01011110
-2.561995	0110101 01011111
-2.126629	0110101 01100
-2.09587	0110101 0110100
-1.938746	0110101 0110101
-1.546007	0110101 0110110
-2.456485	0110101 0110111
-3.465085	0110101 011100
-2.172829	0110101 011101
-1.946571	0110101 0111100
-1.48372	0110101 01111010
-2.014836	0110101 011110110
-2.103358	0110101 0111101110
-2.371664	0110101 0111101111
-2.130631	0110101 011111000
-2.250242	0110101 011111001
-2.783844	0110101 0111110100
-3.307217	0110101 0111110101
-2.607753	0110101 0111110110
-2.645541	0110101 0111110111
-3.050112	0110101 0111111000
-2.164055	0110101 0111111001
-3.307217	0110101 0111111010
-3.465085	0110101 0111111011
-2.465085	0110101 011111110
-3.050112	0110101 0111111110
-2.138749	0110101 0111111111
-1.95454	0110101 1000
-1.734303	0110101 10010
-2.632576	0110101 100110
-2.821633	0110101 1001110
-3.164055	0110101 1001111
-2.318957	0110101 10100
-2.181784	0110101 101010
-2.271961	0110101 1010110
-3.164055	0110101 1010111
-3.122663	0110101 10110
-3.050112	0110101 1011100
-3.017927	0110101 1011101
-3.164055	0110101 1011110
-3.260965	0110101 1011111
-1.506044	0110101 1100
-2.266428	0110101 11010
-1.652172	0110101 1101100
-1.839773	0110101 11011010
-1.923506	0110101 110110110
-1.901604	0110101 110110111
-2.070634	0110101 11011100
-2.959935	0110101 11011101
-2.491957	0110101 110111100
-2.300732	0110101 110111101
-2.114837	0110101 110111110
-2.423693	0110101 110111111
-1.555529	0110101 1110000
-2.092173	0110101 1110001
-1.95454	0110101 1110010
-2.030516	0110101 11100110
-2.584272	0110101 111001110
-2.159734	0110101 111001111
-0.8369008	0110101 111010
-1.437328	0110101 1110110
-1.399132	0110101 11101110
-1.796699	0110101 111011110
-1.970931	0110101 1110111110
-2.701657	0110101 1110111111
-2.40818	0110101 111100
-2.325206	0110101 1111010
-2.501297	0110101 11110110
-3.307217	0110101 11110111
-1.616281	0110101 11111000
-1.464218	0110101 11111001
-2.017927	0110101 11111010
-2.415867	0110101 111110110
-2.344511	0110101 111110111
-1.631301	0110101 1111110
-3.686934	0110101 111111110
-1.923506	0110101 1111111110
-3.084874	0110101 1111111111
-1.032116	0110101 </s>
-2.710263	0110110 000
-2.196562	0110110 0010
-3.637713	0110110 00110
-4.751656	0110110 00111
-2.787868	0110110 0100000
-2.651286	0110110 01000010
-2.882425	0110110 01000011
-1.423277	0110110 0100010
-2.36249	0110110 01000110
-1.934752	0110110 01000111
-1.413001	0110110 0100100
-2.590288	0110110 0100101
-2.103296	0110110 0100110
-1.616524	0110110 0100111
-2.988228	0110110 0101000
-2.665296	0110110 0101001
-3.260295	0110110 0101010
-3.637713	0110110 0101011
-1.433802	0110110 0101100
-2.433593	0110110 0101101
-1.768481	0110110 0101110
-1.771198	0110110 01011110
-2.008147	0110110 01011111
-1.891318	0110110 01100
-2.341723	0110110 0110100
-1.966326	0110110 0110101
-0.9557762	0110110 0110110
-2.08327	0110110 0110111
-3.751656	0110110 011100
-2.3843	0110110 011101
-2.218902	0110110 0111100
-1.773476	0110110 01111010
-2.587303	0110110 011110110
-2.658235	0110110 0111101110
-2.114166	0110110 0111101111
-2.224026	0110110 011111000
-2.405303	0110110 011111001
-2.676109	0110110 0111110100
-2.865165	0110110 0111110101
-2.608641	0110110 0111110110
-2.534172	0110110 0111110111
-3.128407	0110110 0111111000
-2.694752	0110110 0111111001
-2.959265	0110110 0111111010
-3.195354	0110110 0111111011
-2.13048	0110110 011111110
-2.475194	0110110 0111111110
-2.019263	0110110 0111111111
-1.69781	0110110 1000
-1.495661	0110110 10010
-2.289258	0110110 100110
-2.491585	0110110 1001110
-2.049226	0110110 1001111
-1.944798	0110110 10100
-1.823773	0110110 101010
-2.115168	0110110 1010110
-2.787868	0110110 1010111
-2.812137	0110110 10110
-3.003468	0110110 1011100
-2.912807	0110110 1011101
-2.734623	0110110 1011110
-2.832578	0110110 1011111
-1.713434	0110110 1100
-1.482611	0110110 11010
-1.614302	0110110 1101100
-1.653359	0110110 11011010
-1.928835	0110110 110110110
-1.842635	0110110 110110111
-2.229212	0110110 11011100
-2.751656	0110110 11011101
-2.323521	0110110 110111100
-2.237108	0110110 110111101
-2.225317	0110110 110111110
-2.261698	0110110 110111111
-1.943445	0110110 1110000
-2.053556	0110110 1110001
-2.013669	0110110 1110010
-2.250597	0110110 11100110
-2.756021	0110110 111001110
-2.264518	0110110 111001111
-1.950253	0110110 111010
-1.340373	0110110 1110110
-1.716627	0110110 11101110
-1.866861	0110110 111011110
-2.417202	0110110 1110111110
-2.188175	0110110 1110111111
-2.508618	0110110 111100
-2.493978	0110110 1111010
-2.466099	0110110 11110110
-3.289258	0110110 11110111
-2.257502	0110110 11111000
-1.778067	0110110 11111001
-2.265935	0110110 11111010
-2.590288	0110110 111110110
-2.702438	0110110 111110111
-2.056175	0110110 1111110
-3.894818	0110110 111111110
-2.389928	0110110 1111111110
-3.019263	0110110 1111111111
-1.125213	0110110 </s>
-3.297596	0110111 000
-2.128804	0110111 0010
-3.598626	0110111 00110
-3.297596	0110111 0100000
-1.287933	0110111 01000010
-2.620903	0110111 01000011
-1.846578	0110111 0100010
-3.899656	0110111 01000110
-2.899656	0110111 01000111
-1.996566	0110111 0100100
-2.753528	0110111 0100101
-2.159294	0110111 0100110
-2.024595	0110111 0100111
-3.200686	0110111 0101000
-2.468293	0110111 0101001
-1.90843	0110111 0101100
-1.583686	0110111 0101101
-1.67177	0110111 0101110
-2.200686	0110111 01011110
-2.331455	0110111 01011111
-1.935869	0110111 01100
-2.598626	0110111 0110100
-2.256204	0110111 0110101
-1.393151	0110111 0110110
-2.073582	0110111 0110111
-3.598626	0110111 011100
-2.343354	0110111 011101
-1.785713	0110111 0111100
-1.243558	0110111 01111010
-2.484683	0110111 011110110
-2.753528	0110111 0111101110
-2.785713	0110111 0111101111
-2.128804	0110111 011111000
-2.519445	0110111 011111001
-2.945414	0110111 0111110100
-3.422535	0110111 0111110110
-2.620903	0110111 0111110111
-3.422535	0110111 0111111000
-2.785713	0110111 0111111001
-1.891056	0110111 0111111010
-3.200686	0110111 0111111011
-2.753528	0110111 011111110
-2.695536	0110111 0111111110
-2.484683	0110111 0111111111
-1.649236	0110111 1000
-1.756642	0110111 10010
-2.167263	0110111 100110
-3.200686	0110111 1001110
-2.785713	0110111 1001111
-2.200686	0110111 10100
-2.159294	0110111 101010
-2.820475	0110111 1010110
-3.042818	0110111 1010111
-3.297596	0110111 10110
-3.200686	0110111 1011100
-3.200686	0110111 1011101
-3.598626	0110111 1011110
-2.945414	0110111 1011111
-1.996566	0110111 1100
-1.842752	0110111 11010
-1.904021	0110111 1101100
-2.266188	0110111 11011010
-2.452498	0110111 110110110
-2.128804	0110111 110110111
-2.343354	0110111 11011100
-3.899656	0110111 11011101
-2.945414	0110111 110111100
-2.820475	0110111 110111101
-2.437258	0110111 110111110
-2.945414	0110111 110111111
-1.274344	0110111 1110000
-1.381142	0110111 1110001
-2.355588	0110111 1110010
-2.331455	0110111 11100110
-3.422535	0110111 111001110
-2.723565	0110111 111001111
-1.028083	0110111 111010
-1.358077	0110111 1110110
-1.775805	0110111 11101110
-1.66161	0110111 111011110
-2.723565	0110111 1110111110
-1.67177	0110111 1110111111
-2.820475	0110111 111100
-2.753528	0110111 1111010
-2.501716	0110111 11110110
-3.598626	0110111 11110111
-1.455612	0110111 11111000
-1.300866	0110111 11111001
-2.484683	0110111 11111010
-2.620903	0110111 111110110
-2.236899	0110111 111110111
-1.634839	0110111 1111110
-3.899656	0110111 111111110
-1.83147	0110111 1111111110
-3.422535	0110111 1111111111
-1.317593	0110111 </s>
-2.423758	011100 000
-2.48175	011100 0010
-3.326848	011100 01000011
-2.397429	011100 0100010
-3.627878	011100 01000110
-2.150756	011100 01000111
-2.513934	011100 0100100
-3.627878	011100 0100110
-2.627878	011100 0100111
-3.326848	011100 0101000
-2.771039	011100 0101100
-2.48175	011100 0101110
-3.150756	011100 01011110
-3.326848	011100 01011111
-3.150756	011100 01100
-2.586485	011100 0110100
-2.513934	011100 0110101
-1.023652	011100 0110110
-2.849726	011100 0110111
-2.548697	011100 011101
-1.035701	011100 0111100
-0.5040261	011100 01111010
-2.627878	011100 011110110
-1.594454	011100 0111101110
-2.423758	011100 0111101111
-1.795369	011100 011111000
-1.497544	011100 011111001
-1.835486	011100 0111110100
-3.326848	011100 0111110101
-1.570973	011100 0111110110
-1.236943	011100 0111110111
-3.150756	011100 0111111000
-3.326848	011100 0111111001
-3.627878	011100 0111111011
-2.059676	011100 011111110
-2.109364	011100 0111111110
-1.849726	011100 0111111111
-1.223044	011100 1000
-1.504026	011100 10010
-2.036813	011100 100110
-2.26615	011100 1001110
-2.586485	011100 1001111
-2.724788	011100 10100
-1.586485	011100 101010
-2.18072	011100 1010110
-2.627878	011100 1010111
-3.150756	011100 10110
-3.025818	011100 1011100
-3.150756	011100 1011101
-3.326848	011100 1011110
-2.673635	011100 1011111
-2.096399	011100 1100
-2.928908	011100 11010
-1.7088	011100 1101100
-2.372605	011100 11011010
-2.724788	011100 110110110
-1.937682	011100 110110111
-2.16548	011100 11011100
-2.349124	011100 110111110
-2.048094	011100 110111111
-2.372605	011100 1110000
-2.397429	011100 1110001
-2.548697	011100 1110010
-3.150756	011100 11100110
-3.150756	011100 111001110
-3.150756	011100 111001111
-3.025818	011100 1110110
-3.627878	011100 1110111110
-3.150756	011100 111100
-3.326848	011100 1111010
-3.326848	011100 11110110
-2.849726	011100 11110111
-3.326848	011100 11111000
-3.326848	011100 11111001
-3.326848	011100 11111010
-3.627878	011100 111110110
-3.627878	011100 111111110
-2.372605	011100 1111111110
-2.771039	011100 1111111111
-2.326848	011100 </s>
-1.924227	011101 000
-2.061713	011101 0010
-3.62102	011101 00110
-2.691602	011101 0100000
-4.223081	011101 01000010
-3.92205	011101 01000011
-1.73453	011101 0100010
-2.704566	011101 01000110
-2.064718	011101 01000111
-1.486684	011101 0100100
-3.01896	011101 0100101
-2.076952	011101 0100110
-1.597768	011101 0100111
-3.268838	011101 0101000
-2.842869	011101 0101001
-4.223081	011101 0101010
-2.365748	011101 0101100
-3.01896	011101 0101101
-2.704566	011101 0101110
-2.490687	011101 01011110
-2.679012	011101 01011111
-2.008237	011101 01100
-1.985034	011101 0110100
-1.413521	011101 0110101
-1.406177	011101 0110110
-2.82514	011101 0110111
-2.11587	011101 011101
-2.437751	011101 0111100
-2.390572	011101 01111010
-3.366242	011101 011110110
-2.967808	011101 0111101110
-1.645589	011101 0111101111
-1.731719	011101 011111000
-2.08636	011101 011111001
-2.227445	011101 0111110100
-2.353849	011101 0111110101
-1.798199	011101 0111110110
-2.058728	011101 0111110111
-3.52411	011101 0111111000
-4.223081	011101 0111111001
-3.046989	011101 0111111010
-3.745959	011101 0111111011
-2.384231	011101 011111110
-2.095976	011101 0111111110
-1.605032	011101 0111111111
-1.160498	011101 1000
-0.866099	011101 10010
-2.01896	011101 100110
-1.670412	011101 1001110
-1.305575	011101 1001111
-1.982531	011101 10100
-1.636493	011101 101010
-1.944327	011101 1010110
-2.22308	011101 1010111
-2.309267	011101 10110
-2.880658	011101 1011100
-2.231854	011101 1011101
-2.403537	011101 1011110
-2.71793	011101 1011111
-1.704566	011101 1100
-2.325453	011101 11010
-1.878688	011101 1101100
-1.970227	011101 11011010
-1.880658	011101 110110110
-1.745959	011101 110110111
-2.293661	011101 11011100
-3.52411	011101 11011101
-2.330986	011101 110111100
-2.390572	011101 110111101
-2.33659	011101 110111110
-1.980042	011101 110111111
-3.143899	011101 1110000
-2.654879	011101 1110001
-1.363342	011101 1110010
-2.599831	011101 11100110
-2.842869	011101 111001110
-2.099229	011101 111001111
-2.967808	011101 111010
-2.010893	011101 1110110
-3.366242	011101 11101110
-3.181688	011101 111011110
-3.01896	011101 1110111110
-3.143899	011101 1110111111
-1.813147	011101 111100
-2.444929	011101 1111010
-1.538235	011101 11110110
-2.532884	011101 11110111
-3.268838	011101 11111000
-2.403537	011101 11111001
-3.143899	011101 11111010
-3.92205	011101 111110110
-3.92205	011101 111110111
-2.704566	011101 1111110
-4.223081	011101 111111110
-2.967808	011101 1111111110
-3.31999	011101 1111111111
-1.492298	011101 </s>
-2.569982	0111100 000
-2.536558	0111100 0010
-3.967922	0111100 00110
-3.967922	0111100 0100000
-3.268952	0111100 01000010
-3.666892	0111100 01000011
-1.999439	0111100 0100010
-3.111084	0111100 01000110
-2.19707	0111100 01000111
-1.976696	0111100 0100100
-2.967922	0111100 0100101
-2.334454	0111100 0100110
-1.871012	0111100 0100111
-3.365862	0111100 0101000
-3.111084	0111100 0101001
-3.189771	0111100 0101010
-2.365862	0111100 0101100
-3.111084	0111100 0101101
-2.39972	0111100 0101110
-2.104599	0111100 01011110
-2.141847	0111100 01011111
-2.536558	0111100 01100
-2.791831	0111100 0110100
-2.129073	0111100 0110101
-1.818703	0111100 0110110
-3.189771	0111100 0110111
-3.189771	0111100 011100
-2.606194	0111100 011101
-2.39972	0111100 0111100
-2.39972	0111100 01111010
-3.490801	0111100 011110110
-3.111084	0111100 0111101110
-2.536558	0111100 0111101111
-2.260352	0111100 011111000
-2.462772	0111100 011111001
-2.587711	0111100 0111110100
-3.666892	0111100 0111110101
-2.436443	0111100 0111110110
-2.606194	0111100 0111110111
-3.666892	0111100 0111111000
-2.791831	0111100 0111111010
-3.666892	0111100 0111111011
-2.295824	0111100 011111110
-2.645703	0111100 0111111110
-2.116664	0111100 0111111111
-1.724884	0111100 1000
-1.669069	0111100 10010
-2.71265	0111100 100110
-2.552949	0111100 1001110
-2.235528	0111100 1001111
-2.569982	0111100 10100
-2.155009	0111100 101010
-2.39972	0111100 1010110
-2.888741	0111100 1010111
-2.967922	0111100 10110
-2.737473	0111100 1011100
-2.967922	0111100 1011101
-3.064832	0111100 1011110
-2.967922	0111100 1011111
-0.2348052	0111100 1100
-2.212047	0111100 11010
-1.777591	0111100 1101100
-1.766525	0111100 11011010
-1.517673	0111100 110110110
-1.950889	0111100 110110111
-2.295824	0111100 11011100
-2.853979	0111100 11011101
-2.737473	0111100 110111100
-2.569982	0111100 110111101
-2.490801	0111100 110111110
-2.763802	0111100 110111111
-2.926529	0111100 1110000
-2.888741	0111100 1110001
-1.871012	0111100 1110010
-2.536558	0111100 11100110
-2.821794	0111100 111001110
-2.552949	0111100 111001111
-3.967922	0111100 111010
-2.028403	0111100 1110110
-3.666892	0111100 11101110
-3.967922	0111100 1110111110
-2.625499	0111100 111100
-2.666892	0111100 1111010
-2.268952	0111100 11110110
-3.490801	0111100 11110111
-3.490801	0111100 11111000
-2.689169	0111100 11111001
-2.967922	0111100 11111010
-2.926529	0111100 111110110
-3.967922	0111100 111110111
-2.505524	0111100 1111110
-2.737473	0111100 1111111110
-2.449408	0111100 1111111111
-1.457377	0111100 </s>
-2.000165	01111010 000
-1.972137	01111010 0010
-2.831023	01111010 0100000
-3.845263	01111010 01000011
-2.014889	01111010 0100010
-2.942173	01111010 01000110
-2.269306	01111010 01000111
-1.81184	01111010 0100100
-2.831023	01111010 0100101
-2.188846	01111010 0100110
-1.97408	01111010 0100111
-3.368142	01111010 0101000
-2.924445	01111010 0101001
-3.845263	01111010 0101010
-2.280992	01111010 0101100
-2.979962	01111010 0101101
-2.669172	01111010 0101110
-2.309547	01111010 01011110
-2.907411	01111010 01011111
-2.017033	01111010 01100
-2.211795	01111010 0110100
-1.493081	01111010 0110101
-1.402261	01111010 0110110
-2.845263	01111010 0110111
-4.322385	01111010 011100
-2.56651	01111010 011101
-2.368142	01111010 0111100
-2.529993	01111010 01111010
-3.280992	01111010 011110110
-2.589991	01111010 0111101110
-1.730208	01111010 0111101111
-2.059934	01111010 011111000
-1.989946	01111010 011111001
-2.167049	01111010 0111110100
-2.803871	01111010 0111110101
-2.059934	01111010 0111110110
-2.002239	01111010 0111110111
-2.699135	01111010 0111111000
-3.845263	01111010 0111111001
-2.368142	01111010 0111111010
-3.845263	01111010 0111111011
-2.641144	01111010 011111110
-2.459062	01111010 0111111110
-1.633965	01111010 0111111111
-1.131773	01111010 1000
-1.064227	01111010 10010
-1.929688	01111010 100110
-2.010631	01111010 1001110
-1.544233	01111010 1001111
-2.030129	01111010 10100
-1.784566	01111010 101010
-2.059934	01111010 1010110
-2.110197	01111010 1010111
-2.198533	01111010 10110
-2.322385	01111010 1011100
-2.43029	01111010 1011101
-2.720325	01111010 1011110
-2.875227	01111010 1011111
-1.336958	01111010 1100
-2.641144	01111010 11010
-1.250135	01111010 1101100
-0.9216741	01111010 11011010
-1.564989	01111010 110110110
-1.512825	01111010 110110111
-1.905744	01111010 11011100
-3.845263	01111010 11011101
-2.669172	01111010 110111100
-1.987931	01111010 110111101
-1.891021	01111010 110111110
-2.12926	01111010 110111111
-3.280992	01111010 1110000
-3.043631	01111010 1110001
-1.690941	01111010 1110010
-2.516205	01111010 11100110
-2.659627	01111010 111001110
-2.239599	01111010 111001111
-3.623415	01111010 111010
-2.006414	01111010 1110110
-3.720325	01111010 1110111110
-3.720325	01111010 1110111111
-2.465052	01111010 111100
-2.574197	01111010 1111010
-2.004321	01111010 11110110
-3.091936	01111010 11110111
-3.118265	01111010 11111000
-2.544234	01111010 11111001
-3.021355	01111010 11111010
-3.280992	01111010 111110110
-3.845263	01111010 111110111
-2.803871	01111010 1111110
-2.688916	01111010 1111111110
-2.859987	01111010 1111111111
-1.389404	01111010 </s>
-1.229843	011110110 000
-0.3538224	011110110 0010
-2.122762	011110110 0100010
-3.077004	011110110 01000110
-2.474944	011110110 01000111
-2.775974	011110110 0100100
-2.192398	011110110 0100110
-2.048976	011110110 0100111
-3.077004	011110110 0101001
-2.855155	011110110 0101100
-3.554126	011110110 0101101
-2.855155	011110110 0101110
-2.952066	011110110 01011110
-2.512733	011110110 01011111
-3.077004	011110110 01100
-1.952066	011110110 0110100
-2.275372	011110110 0110101
-1.974342	011110110 0110110
-3.253096	011110110 011101
-3.253096	011110110 0111100
-3.253096	011110110 01111010
-2.952066	011110110 0111101110
-1.805938	011110110 0111101111
-2.651036	011110110 011111000
-1.974342	011110110 011111001
-1.728051	011110110 0111110100
-1.813763	011110110 0111110110
-3.253096	011110110 0111110111
-3.253096	011110110 0111111000
-2.952066	011110110 0111111010
-3.554126	011110110 0111111011
-2.599883	011110110 011111110
-2.952066	011110110 0111111110
-2.010057	011110110 0111111111
-1.930876	011110110 1000
-2.077004	011110110 10010
-2.512733	011110110 100110
-2.697287	011110110 1001110
-1.941342	011110110 1001111
-2.651036	011110110 10100
-2.651036	011110110 101010
-2.407998	011110110 1010110
-2.952066	011110110 1010111
-2.599883	011110110 10110
-2.554126	011110110 1011100
-2.775974	011110110 1011101
-3.554126	011110110 1011110
-3.554126	011110110 1011111
-0.8241513	011110110 1100
-1.721617	011110110 1101100
-1.673312	011110110 11011010
-2.139152	011110110 110110110
-1.747946	011110110 110110111
-2.211703	011110110 11011100
-3.554126	011110110 110111100
-2.173914	011110110 110111101
-2.035612	011110110 110111110
-1.690803	011110110 110111111
-2.697287	011110110 1110001
-3.253096	011110110 1110010
-2.775974	011110110 11100110
-2.952066	011110110 111001110
-2.697287	011110110 111001111
-3.554126	011110110 111010
-2.275372	011110110 1110110
-3.554126	011110110 1110111111
-3.077004	011110110 11110110
-3.554126	011110110 11110111
-2.952066	011110110 11111001
-2.697287	011110110 1111111110
-3.554126	011110110 1111111111
-1.640312	011110110 </s>
-2.529452	0111101110 000
-2.26621	0111101110 0010
-1.421112	0111101110 0100000
-3.608633	0111101110 01000010
-1.595796	0111101110 0100010
-2.462505	0111101110 01000110
-2.529452	0111101110 01000111
-1.769784	0111101110 0100100
-2.909663	0111101110 0100101
-2.040431	0111101110 0100110
-2.307603	0111101110 0100111
-3.307603	0111101110 0101000
-1.187029	0111101110 0101001
-3.307603	0111101110 0101010
-1.884357	0111101110 0101100
-2.654391	0111101110 0101101
-2.751794	0111101110 0101110
-2.307603	0111101110 01011110
-2.462505	0111101110 01011111
-3.131512	0111101110 01100
-2.654391	0111101110 0110100
-1.65439	0111101110 0110101
-1.901063	0111101110 0110110
-3.608633	0111101110 0110111
-3.608633	0111101110 011101
-2.35336	0111101110 0111100
-1.936535	0111101110 01111010
-2.404513	0111101110 011110110
-1.630909	0111101110 0111101110
-1.909663	0111101110 0111101111
-2.49469	0111101110 011111000
-2.432542	0111101110 011111001
-2.307603	0111101110 0111110100
-1.985384	0111101110 0111110110
-2.909663	0111101110 0111110111
-3.307603	0111101110 0111111000
-3.307603	0111101110 0111111001
-3.608633	0111101110 0111111010
-2.19366	0111101110 0111111011
-2.909663	0111101110 011111110
-3.131512	0111101110 0111111110
-1.823303	0111101110 0111111111
-2.56724	0111101110 1000
-2.161475	0111101110 10010
-3.608633	0111101110 100110
-3.131512	0111101110 1001110
-2.529452	0111101110 1001111
-2.751794	0111101110 10100
-2.307603	0111101110 101010
-2.49469	0111101110 1010110
-2.307603	0111101110 1010111
-2.705543	0111101110 10110
-2.56724	0111101110 1011100
-3.131512	0111101110 1011101
-3.131512	0111101110 1011111
-1.418301	0111101110 1100
-2.329879	0111101110 11010
-0.980244	0111101110 1101100
-1.56331	0111101110 11011010
-1.294766	0111101110 110110110
-0.9853837	0111101110 110110111
-2.028849	0111101110 11011100
-3.307603	0111101110 11011101
-2.49469	0111101110 110111100
-2.064565	0111101110 110111101
-0.8086036	0111101110 110111110
-2.307603	0111101110 110111111
-2.462505	0111101110 1110000
-2.830482	0111101110 1110001
-2.751794	0111101110 1110010
-2.654391	0111101110 11100110
-1.830482	0111101110 111001110
-2.378184	0111101110 111001111
-1.909663	0111101110 1110110
-3.307603	0111101110 1110111110
-3.608633	0111101110 1110111111
-2.705543	0111101110 111100
-2.830482	0111101110 1111010
-2.909663	0111101110 11110110
-3.131512	0111101110 11110111
-3.307603	0111101110 11111000
-2.909663	0111101110 11111001
-2.909663	0111101110 11111010
-3.131512	0111101110 111110110
-2.830482	0111101110 1111110
-3.608633	0111101110 111111110
-3.006573	0111101110 1111111110
-2.909663	0111101110 1111111111
-1.246905	0111101110 </s>
-1.600299	0111101111 000
-0.8411705	0111101111 0010
-2.922518	0111101111 0100000
-2.15909	0111101111 0100010
-2.922518	0111101111 01000110
-2.366215	0111101111 01000111
-2.15909	0111101111 0100100
-3.320458	0111101111 0100101
-2.223548	0111101111 0100110
-2.053286	0111101111 0100111
-3.320458	0111101111 0101000
-3.320458	0111101111 0101001
-3.019428	0111101111 0101100
-3.019428	0111101111 0101110
-2.843337	0111101111 01011110
-2.843337	0111101111 01011111
-2.279065	0111101111 01100
-2.417368	0111101111 0110100
-2.102974	0111101111 0110101
-1.758165	0111101111 0110110
-3.621488	0111101111 0110111
-3.320458	0111101111 011101
-2.843337	0111101111 0111100
-2.764649	0111101111 01111010
-3.144367	0111101111 0111101110
-3.144367	0111101111 0111101111
-2.019428	0111101111 011111000
-1.85806	0111101111 011111001
-2.07742	0111101111 0111110100
-3.144367	0111101111 0111110101
-1.988019	0111101111 0111110110
-2.47536	0111101111 0111110111
-3.144367	0111101111 0111111000
-2.843337	0111101111 011111110
-2.445397	0111101111 0111111110
-2.206515	0111101111 0111111111
-1.442511	0111101111 1000
-1.15462	0111101111 10010
-2.320458	0111101111 100110
-2.053286	0111101111 1001110
-1.542307	0111101111 1001111
-2.507545	0111101111 10100
-2.17433	0111101111 101010
-2.391039	0111101111 1010110
-2.718398	0111101111 1010111
-2.417368	0111101111 10110
-2.843337	0111101111 1011100
-2.718398	0111101111 1011101
-2.718398	0111101111 1011110
-2.764649	0111101111 1011111
-1.254132	0111101111 1100
-2.667245	0111101111 11010
-1.617167	0111101111 1101100
-0.8347365	0111101111 11011010
-1.686989	0111101111 110110110
-1.608651	0111101111 110110111
-2.008704	0111101111 11011100
-3.320458	0111101111 11011101
-2.542307	0111101111 110111100
-0.9839981	0111101111 110111101
-2.07742	0111101111 110111110
-1.968275	0111101111 110111111
-2.718398	0111101111 1110000
-2.507545	0111101111 1110001
-2.445397	0111101111 1110010
-2.342734	0111101111 11100110
-2.542307	0111101111 111001110
-2.391039	0111101111 111001111
-3.621488	0111101111 111010
-1.713003	0111101111 1110110
-3.320458	0111101111 111011110
-2.445397	0111101111 111100
-2.718398	0111101111 1111010
-2.843337	0111101111 11110110
-3.144367	0111101111 11110111
-3.621488	0111101111 11111000
-3.144367	0111101111 11111001
-3.144367	0111101111 11111010
-3.621488	0111101111 111110111
-3.144367	0111101111 1111110
-2.580095	0111101111 1111111110
-3.019428	0111101111 1111111111
-1.279065	0111101111 </s>
-2.968483	011111000 000
-2.52915	011111000 0010
-3.014734	011111000 0100000
-3.871573	011111000 01000010
-3.871573	011111000 01000011
-2.269513	011111000 0100010
-3.269513	011111000 01000110
-2.208815	011111000 01000111
-1.82625	011111000 0100100
-2.52915	011111000 0100101
-2.592819	011111000 0100110
-2.440209	011111000 0100111
-3.394452	011111000 0101000
-3.093422	011111000 0101001
-3.871573	011111000 0101010
-2.409175	011111000 0101100
-3.394452	011111000 0101101
-2.641124	011111000 0101110
-2.340094	011111000 01011110
-2.968483	011111000 01011111
-1.952495	011111000 01100
-2.258789	011111000 0110100
-1.850384	011111000 0110101
-1.242163	011111000 0110110
-2.917331	011111000 0110111
-2.473633	011111000 011100
-1.648857	011111000 011101
-1.846267	011111000 0111100
-1.509845	011111000 01111010
-3.172603	011111000 011110110
-2.52915	011111000 0111101110
-2.917331	011111000 0111101111
-1.638577	011111000 011111000
-1.91733	011111000 011111001
-1.212608	011111000 0111110100
-2.792392	011111000 0111110101
-1.61872	011111000 0111110110
-1.533116	011111000 0111110111
-3.093422	011111000 0111111000
-3.570543	011111000 0111111010
-3.093422	011111000 0111111011
-2.039064	011111000 011111110
-2.258789	011111000 0111111110
-2.002341	011111000 0111111111
-1.684052	011111000 1000
-1.164855	011111000 10010
-2.473633	011111000 100110
-1.973946	011111000 1001110
-2.108145	011111000 1001111
-2.181377	011111000 10100
-1.62606	011111000 101010
-2.238105	011111000 1010110
-2.248324	011111000 1010111
-2.792392	011111000 10110
-2.968483	011111000 1011100
-2.424415	011111000 1011101
-2.968483	011111000 1011110
-2.871573	011111000 1011111
-1.489556	011111000 1100
-2.291789	011111000 11010
-1.62606	011111000 1101100
-1.889302	011111000 11011010
-2.108145	011111000 110110110
-1.82625	011111000 110110111
-1.957759	011111000 11011100
-2.968483	011111000 11011101
-2.917331	011111000 110111100
-3.093422	011111000 110111101
-2.072232	011111000 110111110
-2.100721	011111000 110111111
-2.456599	011111000 1110000
-2.108145	011111000 1110001
-1.381614	011111000 1110010
-2.164003	011111000 11100110
-2.641124	011111000 111001110
-1.401751	011111000 111001111
-2.75763	011111000 111010
-1.92709	011111000 1110110
-3.172603	011111000 1110111110
-3.014734	011111000 1110111111
-1.413691	011111000 111100
-1.771202	011111000 1111010
-1.701311	011111000 11110110
-2.22812	011111000 11110111
-2.258789	011111000 11111000
-1.728558	011111000 11111001
-2.291789	011111000 11111010
-2.21836	011111000 111110110
-2.238105	011111000 111110111
-1.889302	011111000 1111110
-2.83018	011111000 111111110
-2.291789	011111000 1111111110
-3.014734	011111000 1111111111
-1.2706	011111000 </s>
-1.848409	011111001 000
-1.391122	011111001 0010
-3.897627	011111001 00110
-2.783684	011111001 0100000
-3.596597	011111001 01000011
-1.929144	011111001 0100010
-2.435229	011111001 01000110
-1.994537	011111001 01000111
-1.654589	011111001 0100100
-3.119476	011111001 0100101
-2.034304	011111001 0100110
-1.69623	011111001 0100111
-2.943385	011111001 0101000
-3.198657	011111001 0101001
-3.897627	011111001 0101010
-2.254174	011111001 0101100
-2.667178	011111001 0101101
-2.517416	011111001 0101110
-2.126775	011111001 01011110
-1.915356	011111001 01011111
-2.435229	011111001 01100
-2.065118	011111001 0110100
-1.688112	011111001 0110101
-1.309916	011111001 0110110
-2.994537	011111001 0110111
-2.450469	011111001 011100
-1.73031	011111001 011101
-1.968208	011111001 0111100
-1.486007	011111001 01111010
-2.818446	011111001 011110110
-2.084714	011111001 0111101110
-1.736259	011111001 0111101111
-1.757748	011111001 011111000
-1.989142	011111001 011111001
-2.105235	011111001 0111110100
-2.751499	011111001 0111110101
-1.836929	011111001 0111110110
-1.893306	011111001 0111110111
-3.420506	011111001 0111111000
-3.596597	011111001 0111111001
-2.994537	011111001 0111111010
-2.856234	011111001 0111111011
-2.119476	011111001 011111110
-1.876438	011111001 0111111110
-1.804205	011111001 0111111111
-1.154902	011111001 1000
-1.107342	011111001 10010
-2.071552	011111001 100110
-1.777053	011111001 1001110
-1.549322	011111001 1001111
-2.071552	011111001 10100
-1.721536	011111001 101010
-2.112297	011111001 1010110
-2.420506	011111001 1010111
-1.938586	011111001 10110
-2.596597	011111001 1011100
-2.555204	011111001 1011101
-2.406265	011111001 1011110
-2.897627	011111001 1011111
-1.569247	011111001 1100
-2.284843	011111001 11010
-1.748408	011111001 1101100
-1.682783	011111001 11011010
-1.742291	011111001 110110110
-1.579564	011111001 110110111
-1.929144	011111001 11011100
-3.897627	011111001 11011101
-2.618874	011111001 110111100
-2.535899	011111001 110111101
-2.225529	011111001 110111110
-1.559171	011111001 110111111
-2.818446	011111001 1110000
-2.535899	011111001 1110001
-1.642355	011111001 1110010
-2.575408	011111001 11100110
-2.535899	011111001 111001110
-2.071552	011111001 111001111
-2.058778	011111001 1110110
-3.420506	011111001 11101110
-3.596597	011111001 111011110
-3.897627	011111001 1110111111
-2.596597	011111001 111100
-2.693507	011111001 1111010
-2.119476	011111001 11110110
-3.420506	011111001 11110111
-2.618874	011111001 11111000
-2.406265	011111001 11111001
-2.751499	011111001 11111010
-2.392477	011111001 111110110
-2.499687	011111001 111110111
-2.721536	011111001 1111110
-2.126775	011111001 111111110
-2.420506	011111001 1111111110
-3.040788	011111001 1111111111
-1.508461	011111001 </s>
-3.56632	0111110100 000
-2.487138	0111110100 0010
-2.96426	0111110100 0100000
-3.26529	0111110100 01000010
-1.932851	0111110100 0100010
-2.335871	0111110100 01000110
-2.047806	0111110100 01000111
-1.148018	0111110100 0100100
-1.795468	0111110100 0100101
-2.335871	0111110100 0100110
-1.727471	0111110100 0100111
-2.151346	0111110100 0101000
-2.96426	0111110100 0101001
-2.16838	0111110100 0101100
-3.56632	0111110100 0101101
-2.3622	0111110100 0101110
-2.186108	0111110100 01011110
-2.26529	0111110100 01011111
-2.390228	0111110100 01100
-2.524927	0111110100 0110100
-2.223897	0111110100 0110101
-1.381628	0111110100 0110110
-3.56632	0111110100 0110111
-2.524927	0111110100 011100
-1.94307	0111110100 011101
-1.94307	0111110100 0111100
-1.802892	0111110100 01111010
-2.788168	0111110100 011110110
-2.709481	0111110100 0111101110
-2.223897	0111110100 0111101111
-2.134956	0111110100 011111000
-2.26529	0111110100 011111001
-2.788168	0111110100 0111110100
-3.26529	0111110100 0111110101
-0.9992933	0111110100 0111110110
-2.335871	0111110100 0111110111
-3.26529	0111110100 0111111000
-3.56632	0111110100 0111111001
-3.089198	0111110100 0111111010
-3.26529	0111110100 0111111011
-2.151346	0111110100 011111110
-2.487138	0111110100 0111111110
-2.3622	0111110100 0111111111
-2.390228	0111110100 1000
-1.885078	0111110100 10010
-3.56632	0111110100 100110
-2.86735	0111110100 1001110
-2.788168	0111110100 1001111
-1.96426	0111110100 10100
-1.691258	0111110100 101010
-1.788168	0111110100 1010110
-1.953536	0111110100 1010111
-3.089198	0111110100 10110
-3.26529	0111110100 1011100
-2.089198	0111110100 1011101
-2.66323	0111110100 1011110
-3.089198	0111110100 1011111
-1.697088	0111110100 1100
-1.136567	0111110100 11010
-1.621837	0111110100 1101100
-1.740245	0111110100 11011010
-2.010017	0111110100 110110110
-1.54513	0111110100 110110111
-0.8158112	0111110100 11011100
-3.26529	0111110100 11011101
-2.66323	0111110100 110111100
-1.922867	0111110100 110111101
-2.487138	0111110100 110111110
-1.850316	0111110100 110111111
-2.524927	0111110100 1110000
-2.56632	0111110100 1110001
-2.186108	0111110100 1110010
-2.420192	0111110100 11100110
-2.452376	0111110100 111001110
-2.103922	0111110100 111001111
-3.56632	0111110100 111010
-1.922867	0111110100 1110110
-2.96426	0111110100 111011110
-3.26529	0111110100 1110111111
-2.3622	0111110100 111100
-2.311047	0111110100 1111010
-2.335871	0111110100 11110110
-2.86735	0111110100 11110111
-2.390228	0111110100 11111000
-2.452376	0111110100 11111001
-2.311047	0111110100 11111010
-2.335871	0111110100 111110110
-3.56632	0111110100 111110111
-2.487138	0111110100 1111110
-3.26529	0111110100 111111110
-2.788168	0111110100 1111111110
-2.96426	0111110100 1111111111
-1.260968	0111110100 </s>
-0.934086	0111110101 0100010
-2.527372	0111110101 01000110
-2.369503	0111110101 01000111
-0.9958932	0111110101 0100100
-2.323252	0111110101 0100101
-2.272099	0111110101 0100110
-1.253214	0111110101 0100111
-2.624282	0111110101 0101001
-3.226342	0111110101 0101011
-2.323252	0111110101 0101100
-2.925312	0111110101 0101101
-2.527372	0111110101 0101110
-1.904123	0111110101 01011110
-2.624282	0111110101 01011111
-2.749221	0111110101 0110101
-1.291844	0111110101 0110110
-3.226342	0111110101 0110111
-1.947588	0111110101 0111100
-1.995893	0111110101 01111010
-2.448191	0111110101 011110110
-2.624282	0111110101 0111101110
-2.749221	0111110101 011111000
-3.226342	0111110101 011111001
-2.624282	0111110101 0111110101
-2.272099	0111110101 0111110111
-3.226342	0111110101 0111111000
-2.369503	0111110101 0111111001
-2.749221	0111110101 0111111010
-2.226342	0111110101 011111110
-2.448191	0111110101 0111111111
-1.096008	0111110101 1000
-2.624282	0111110101 10010
-1.694863	0111110101 100110
-3.226342	0111110101 1001111
-2.080214	0111110101 10100
-1.43395	0111110101 101010
-1.122538	0111110101 1010110
-2.749221	0111110101 1010111
-2.925312	0111110101 1011110
-2.925312	0111110101 11010
-2.925312	0111110101 1101100
-2.925312	0111110101 11011010
-2.925312	0111110101 110110110
-3.226342	0111110101 110110111
-0.6569682	0111110101 11011100
-2.624282	0111110101 110111100
-2.749221	0111110101 110111111
-2.184949	0111110101 1110000
-2.369503	0111110101 1110001
-2.624282	0111110101 1110010
-2.022222	0111110101 111010
-2.323252	0111110101 1110110
-2.749221	0111110101 11101110
-1.257859	0111110101 111011110
-2.624282	0111110101 1110111110
-2.925312	0111110101 1110111111
-3.226342	0111110101 11110110
-2.226342	0111110101 11111000
-2.080214	0111110101 11111001
-2.749221	0111110101 111110111
-2.925312	0111110101 1111110
-3.226342	0111110101 1111111110
-1.904123	0111110101 </s>
-3.247482	0111110110 000
-2.683211	0111110110 0010
-2.770361	0111110110 0100000
-3.247482	0111110110 01000010
-1.660146	0111110110 0100010
-2.645422	0111110110 01000110
-1.39015	0111110110 01000111
-1.494155	0111110110 0100100
-2.821513	0111110110 0100101
-1.333668	0111110110 0100110
-1.349855	0111110110 0100111
-2.683211	0111110110 0101000
-2.30963	0111110110 0101001
-2.0086	0111110110 0101100
-2.61066	0111110110 0101101
-2.247482	0111110110 0101110
-1.826976	0111110110 01011110
-1.742332	0111110110 01011111
-2.645422	0111110110 01100
-2.61066	0111110110 0110100
-2.11182	0111110110 0110101
-1.133539	0111110110 0110110
-2.645422	0111110110 0110111
-2.821513	0111110110 011100
-2.122544	0111110110 011101
-1.663906	0111110110 0111100
-1.939274	0111110110 01111010
-3.025634	0111110110 011110110
-2.382181	0111110110 0111101110
-2.578475	0111110110 0111101111
-2.0086	0111110110 011111000
-2.423573	0111110110 011111001
-2.683211	0111110110 0111110100
-3.247482	0111110110 0111110101
-2.520483	0111110110 0111110110
-1.816118	0111110110 0111110111
-3.724603	0111110110 0111111000
-3.247482	0111110110 0111111001
-2.14482	0111110110 0111111010
-2.645422	0111110110 0111111011
-1.879506	0111110110 011111110
-2.362876	0111110110 0111111110
-1.805525	0111110110 0111111111
-2.30963	0111110110 1000
-2.133539	0111110110 10010
-2.946452	0111110110 100110
-2.867765	0111110110 1001110
-2.821513	0111110110 1001111
-2.000328	0111110110 10100
-1.384159	0111110110 101010
-1.838113	0111110110 1010110
-3.025634	0111110110 1010111
-3.724603	0111110110 10110
-3.122544	0111110110 1011100
-2.867765	0111110110 1011101
-3.122544	0111110110 1011110
-2.193125	0111110110 1011111
-1.939274	0111110110 1100
-1.932212	0111110110 11010
-1.569268	0111110110 1101100
-2.193125	0111110110 11011010
-2.168301	0111110110 110110110
-1.961176	0111110110 110110111
-2.362876	0111110110 11011100
-0.6414593	0111110110 11011101
-2.578475	0111110110 110111100
-2.277446	0111110110 110111101
-2.043362	0111110110 110111110
-2.520483	0111110110 110111111
-2.724603	0111110110 1110000
-2.548512	0111110110 1110001
-3.423573	0111110110 1110010
-2.29324	0111110110 11100110
-2.520483	0111110110 111001110
-2.091135	0111110110 111001111
-1.800324	0111110110 1110110
-3.247482	0111110110 1110111110
-2.520483	0111110110 111100
-2.402384	0111110110 1111010
-2.724603	0111110110 11110110
-3.247482	0111110110 11110111
-2.946452	0111110110 11111000
-3.122544	0111110110 11111001
-3.423573	0111110110 11111010
-2.548512	0111110110 111110110
-3.724603	0111110110 111110111
-2.867765	0111110110 1111110
-2.101354	0111110110 1111111110
-3.025634	0111110110 1111111111
-1.304648	0111110110 </s>
-2.318759	0111110111 000
-2.356547	0111110111 0010
-3.875061	0111110111 00110
-2.833668	0111110111 0100000
-2.619789	0111110111 01000010
-2.79588	0111110111 01000011
-1.858028	0111110111 0100010
-2.552842	0111110111 01000110
-1.761118	0111110111 01000111
-1.528708	0111110111 0100100
-3.176091	0111110111 0100101
-1.940563	0111110111 0100110
-1.31158	0111110111 0100111
-2.728933	0111110111 0101000
-3.176091	0111110111 0101001
-3.09691	0111110111 0101010
-1.7048	0111110111 0101100
-2.670941	0111110111 0101101
-1.596308	0111110111 0101110
-1.414163	0111110111 01011110
-1.432582	0111110111 01011111
-2.412663	0111110111 01100
-2.644612	0111110111 0110100
-2.412663	0111110111 0110101
-0.9785351	0111110111 0110110
-2.552842	0111110111 0110111
-3.574031	0111110111 011100
-2.126873	0111110111 011101
-1.637015	0111110111 0111100
-1.135489	0111110111 01111010
-3.39794	0111110111 011110110
-2.273001	0111110111 0111101110
-3.09691	0111110111 0111101111
-1.935542	0111110111 011111000
-1.911273	0111110111 011111001
-1.829738	0111110111 0111110100
-2.920819	0111110111 0111110101
-1.500313	0111110111 0111110110
-1.696084	0111110111 0111110111
-2.728933	0111110111 0111111000
-2.79588	0111110111 0111111001
-2.69897	0111110111 0111111010
-2.231609	0111110111 0111111011
-1.707744	0111110111 011111110
-1.792276	0111110111 0111111110
-1.681937	0111110111 0111111111
-2.075721	0111110111 1000
-2.017729	0111110111 10010
-2.875061	0111110111 100110
-2.971971	0111110111 1001110
-2.552842	0111110111 1001111
-1.897338	0111110111 10100
-1.206675	0111110111 101010
-1.940563	0111110111 1010110
-2.532639	0111110111 1010111
-3.09691	0111110111 10110
-3.018223	0111110111 1011100
-2.920819	0111110111 1011101
-2.79588	0111110111 1011110
-2.427903	0111110111 1011111
-1.317554	0111110111 1100
-2.69897	0111110111 11010
-1.91602	0111110111 1101100
-1.833669	0111110111 11011010
-1.901933	0111110111 110110110
-2.111633	0111110111 110110111
-1.950782	0111110111 11011100
-3.39794	0111110111 11011101
-2.412663	0111110111 110111100
-2.875061	0111110111 110111101
-2.39794	0111110111 110111110
-3.018223	0111110111 110111111
-2.644612	0111110111 1110000
-2.412663	0111110111 1110001
-2.048986	0111110111 1110010
-2.251812	0111110111 11100110
-2.513333	0111110111 111001110
-2.306859	0111110111 111001111
-1.833669	0111110111 1110110
-3.018223	0111110111 11101110
-3.574031	0111110111 111011110
-3.875061	0111110111 1110111110
-2.644612	0111110111 111100
-2.69897	0111110111 1111010
-2.644612	0111110111 11110110
-3.176091	0111110111 11110111
-3.176091	0111110111 11111000
-2.79588	0111110111 11111001
-2.728933	0111110111 111110110
-3.176091	0111110111 111110111
-3.09691	0111110111 1111110
-2.644612	0111110111 111111110
-2.356547	0111110111 1111111110
-3.176091	0111110111 1111111111
-1.374002	0111110111 </s>
-1.273317	0111111000 000
-2.168582	0111111000 0010
-3.01368	0111111000 0100000
-3.31471	0111111000 01000010
-2.273317	0111111000 01000011
-2.360467	0111111000 0100010
-3.31471	0111111000 01000110
-2.71265	0111111000 01000111
-1.899736	0111111000 0100100
-2.536558	0111111000 0100101
-1.734926	0111111000 0100110
-2.059437	0111111000 0100111
-2.536558	0111111000 0101000
-3.01368	0111111000 0101001
-3.01368	0111111000 0101011
-1.972287	0111111000 0101100
-3.31471	0111111000 0101101
-2.41162	0111111000 0101110
-1.71265	0111111000 01011110
-2.168582	0111111000 01011111
-1.883346	0111111000 01100
-1.457377	0111111000 0110100
-1.582316	0111111000 0110101
-1.551282	0111111000 0110110
-2.61574	0111111000 0110111
-3.01368	0111111000 011100
-3.01368	0111111000 011101
