\data\
ngram 1=3455
ngram 2=12801
ngram 3=16379

\1-grams:
-1.3280515026537547 <unk>
-3.5417298752685924 banknote -0.1361428
-3.6123668457428653 berlitz -0.1361428
-3.683505656233243 calloway -0.1361428
-3.7641086135479496 centrust -0.1361428
-4.182731081705707 cluett -0.1361428
-4.187215750174181 fromstein -0.1361428
-4.475692598417399 gitano -0.1361428
-4.380788102189158 guterman -0.1361428
-4.614039497411051 hydro-quebec -0.1361428
-4.466670454129529 ipo -0.1361428
-4.341374509740003 kia -0.1361428
-4.328727216040986 memotec -0.1361428
-4.239072365169661 mlx -0.1361428
-4.178634629088487 nahb -0.1361428
-4.33489024130042 punts -0.1361428
-4.448159134488006 rake -0.1361428
-4.267313065218645 regatta -0.1361428
-4.164537395989326 rubens -0.1361428
-4.30641957913004 sim -0.1361428
-4.275350454170014 snack-food -0.1361428
-4.189471989870312 ssangyong -0.1361428
-4.2413913758960025 swapo -0.1361428
-4.278647482031769 wachter -0.1361428
-1.6061361268157 N -0.5381406999999999
-2.763768343633825 years -0.44217039999999996
-3.458660592260877 old -0.1670626
-2.5014217266433323 will -0.6305386
-3.79456158096532 join -0.21909259999999997
-1.3280444834029115 the -0.6608698
-3.118877992374817 board -0.31067369999999994
-2.4044450376292494 as -0.5558227
-1.7225359030019334 a -0.5965614
-3.6680215448702427 nonexecutive -0.1361428
-3.2766915179443377 director -0.5100598999999999
-3.8495496182092577 nov. -1.6889359999999998
-2.4999184817690656 mr. -0.5977061
-2.347637729799349 is -0.6152862
-3.141343784339734 chairman -0.47987199999999997
-1.4079532631061495 of -0.5620663
-3.9058335693784048 n.v. -0.15438289999999996
-4.166654991032155 dutch -0.1361428
-3.609260023979149 publishing -0.228436
-3.3711275451306455 group -0.48822459999999995
-4.097986263617129 rudolph -0.4336638
-1.6550514413289799 and -0.5105456
-3.771663810442668 former -0.2351849
-4.0523106099638895 consolidated -0.1828108
-3.909637948260977 gold -0.3058242
-3.3490503171502963 fields -0.235211
-3.8935172519664194 plc -0.38570279999999996
-2.315825114032728 was -0.4917573
-3.4059289411979914 named -0.23103889999999996
-2.681375353679794 this -0.4485032999999999
-3.9244789817856294 british -0.30042279999999993
-3.7795055788604803 industrial -0.24471019999999993
-3.9657493453612616 conglomerate -0.19317059999999997
-3.7190298900243963 form -0.3264718999999999
-3.374246452685691 asbestos -0.18319789999999994
-3.7602091649197544 once -0.33032559999999994
-3.537184857827638 used -0.5437165999999999
-1.4854266911121237 to -0.7395636
-3.1387419415140245 make -0.3232905
-3.566405156811555 kent -0.19312929999999995
-3.6242617402910366 cigarette -0.18117159999999993
-3.318492863765075 filters -0.22205080000000002
-2.4754900939665543 has -0.6003408
-3.8640712394143484 caused -0.5222389
-2.858090291868629 high -0.32452309999999995
-3.664576811851946 percentage -0.33524389999999993
-3.3239217694132503 cancer -0.2652589
-3.567654150908469 deaths -0.22833080000000003
-3.5155982520621625 among -0.3706315
-3.361850063131996 workers -0.39480389999999993
-3.8904856576002995 exposed -0.36928939999999993
-2.262123206648971 it -0.597709
-2.6918814234823483 more -0.4211449
-2.663042823803444 than -0.43489969999999994
-3.4791579873278957 ago -0.23842899999999997
-3.4319123626362034 researchers -0.28333469999999994
-3.4334120372978676 reported -0.5257437
-3.717914689117408 fiber -0.1361428
-4.049943856468314 unusually -0.1517298
-3.866509142025761 enters -0.29708369999999995
-2.197949778437384 with -0.48733819999999994
-2.926683944888663 even -0.42400009999999994
-3.9498235240467676 brief -0.16160749999999996
-3.911095599150509 exposures -0.18127879999999996
-4.111610663185427 causing -0.2604764
-4.052062241415694 symptoms -0.24867919999999993
-1.89549134604673 that -0.5696336999999999
-3.4738629422761185 show -0.3124295999999999
-2.8112793111066465 up -0.6039479999999999
-3.847257783365911 decades -0.27936419999999995
-3.4913103056496717 later -0.3707359
-2.264049971229177 said -0.6847661999999999
-3.0159098118026524 inc. -0.5418797999999999
-3.2279871294283176 unit -0.4825088999999999
-2.3387682378909056 new -0.33393349999999994
-3.872037365549276 york-based -0.1361428
-3.1537852139551625 corp. -0.548521
-3.640114541352237 makes -0.3127227
-3.502666464231274 cigarettes -0.19647759999999997
-3.7933654761943205 stopped -0.19459669999999998
-3.6005272881839376 using -0.321881
-1.5823782866883005 in -0.7302237999999999
-2.2385333674073844 its -0.3503371
-3.735855688087917 although -0.3014184
-3.784352537478483 preliminary -0.1698034
-3.6472782779897432 findings -0.24575269999999994
-2.819775055737045 were -0.38811379999999995
-2.5412966089449265 year -0.3548537
-3.4583996589592814 latest -0.1671558
-4.146713218178671 results -0.4379115
-4.388347870298947 appear -0.3723424
-3.9593566206857127 today -0.5049422
-1.9729480188129096 's -0.4260269999999999
-3.5234801153225233 england -0.16434069999999998
-3.971038635429911 journal -0.20822579999999993
-3.9103255571151116 medicine -0.1560797
-4.45903481726565 forum -0.1361428
-4.173436709714866 likely -0.3762614
-3.5429892596311467 bring -0.2378487
-3.7748820089792123 attention -0.3719572
-4.225143667405785 problem -0.36942469999999994
-2.262151760925867 an -0.5236567999999999
-3.730526594203643 story -0.3090977999999999
-3.504169063231634 we -0.5638548
-3.745510662552768 're -0.1858149
-3.770028994557058 talking -0.42577079999999995
-2.3696430773318546 about -0.5925801
-3.039470218349837 before -0.4620926999999999
-4.037968780036343 anyone -0.28878679999999995
-4.007692887443251 heard -0.20022199999999996
-3.981669569764784 having -0.28726969999999996
-2.865896671959484 any -0.2611759
-3.8488988270056392 questionable -0.15438289999999996
-4.012235093737509 properties -0.2882644999999999
-3.247865144290057 there -0.7346169999999999
-2.8691477638276823 no -0.30235769999999995
-3.670222529256305 our -0.2089607
-3.4260091956805137 products -0.4617811
-3.136489400993711 now -0.35159809999999997
-4.369025949575413 neither -0.20720899999999995
-3.6337388508319717 nor -0.2669731
-2.4645097767957713 who -0.46733299999999994
-3.584457751128883 studied -0.2355293
-3.8024420066607187 aware -0.6566789999999999
-2.6537747534639196 research -0.34628039999999993
-2.129816295113928 on -0.5796112
-3.946208988271968 smokers -0.1361428
-2.5098777206324945 have -0.5043123999999999
-3.909216585981499 useful -0.1606373
-3.3966337145903034 information -0.40523439999999994
-3.5648742788373156 whether -0.44166009999999994
-4.187512297861817 users -0.3346025999999999
-2.303267919461882 are -0.4704007
-2.296205462197988 at -0.6663230999999998
-3.67781866563568 risk -0.3416776
-3.4128393548819296 james -0.27815829999999997
-3.6147382033003432 a. -0.1402846
-3.6144808475485877 boston -0.23837209999999995
-3.6679422466693707 institute -0.3471228
-3.296060566492666 dr. -0.39484839999999993
-3.6514396896255668 led -0.673153
-3.7574530804486534 team -0.26136329999999997
-2.3392912163426924 from -0.49372859999999996
-3.3789778323466035 national -0.2641988
-3.600390673712927 medical -0.22480209999999998
-3.336484102014187 schools -0.2649904
-3.9196727561730604 harvard -0.14757339999999997
-3.2568655062703837 university -0.32717399999999996
-3.8595037691637564 spokeswoman -0.4998231
-3.3969490694367246 very -0.2923242999999999
-3.9199184778252416 modest -0.19256719999999997
-3.7713428397545696 amounts -0.4250264999999999
-3.7796630419632318 making -0.34615509999999994
-3.7594274942193273 paper -0.32222839999999997
-1.9153145474912106 for -0.5728254
-3.305053338610062 early -0.39937449999999997
-3.7537286867811614 1950s -0.1361428
-3.9637115767450797 replaced -0.22762549999999995
-3.505308587211717 different -0.21818649999999995
-3.5541700266944716 type -0.47960339999999996
-2.559828779367862 billion -0.15134239999999993
-3.292747991879958 sold -0.45444599999999996
-2.675217237182066 company -0.41344819999999993
-3.890358115873565 men -0.36615739999999997
-3.8412793882047427 worked -0.3959279
-3.5810456133488495 closely -0.35447969999999995
-4.0822703872783626 substance -0.1361428
-4.02327273829119 died -0.2599248
-3.267984222860373 three -0.3765261999999999
-3.462033152805552 times -0.3121607
-3.3620690723216864 expected -0.3606342
-3.058030808207473 number -0.45098599999999994
-3.349186127222897 four -0.3382832
-3.292140248865884 five -0.4003528
-4.360936905715387 surviving -0.19312929999999995
-3.6353375922603104 diseases -0.1704387
-3.4464066758870096 including -0.3525721
-3.502287000392075 recently -0.2895518000000001
-3.2709790038098303 total -0.2637224
-4.340549235350988 malignant -0.17342280000000002
-3.947608668080088 lung -0.3939938
-3.2939576330448563 far -0.35460289999999994
-3.271778166846608 higher -0.3950625
-2.970562880876072 rate -0.4683454
-4.30618022307954 striking -0.15931309999999999
-3.8533841226835484 finding -0.26029459999999993
-3.031014221968457 those -0.2809463
-3.6006999598811356 us -0.3005748999999999
-3.5154625804379767 study -0.2737725
-4.37901416302756 west -0.4543743999999999
-4.0533127189842935 mass. -0.1724452
-3.4445763019523925 factory -0.2011151
-4.198958169432705 appears -0.5413025999999999
-2.3536518293553206 be -0.3242404
-3.9755079505879074 highest -0.16494090000000003
-3.588061610704399 western -0.26295139999999995
-3.909221491365407 industrialized -0.2312948
-3.3574507852840916 countries -0.34187709999999993
-2.458847008539282 he -0.6291690999999999
-3.3054538484748384 plant -0.3631771999999999
-2.6083985142478987 which -0.5111719
-4.426349032581724 owned -0.49865829999999994
-2.210861554343943 by -0.47923589999999994
-3.0056798063501926 & -0.3383361999999999
-3.0358093996867663 co. -0.44525229999999993
-2.7160670703658614 under -0.5782946
-4.032650838528228 contract -0.3672445999999999
-3.65417521513027 probably -0.3418472
-3.8644216868915775 support -0.5091183999999999
-3.8270811025766998 argue -0.5657258
-2.374028943169088 u.s. -0.2890720999999999
-3.465455609862485 should -0.45230279999999995
-4.143429497339626 regulate -0.1560797
-3.2700473738194895 class -0.39071
-3.0779477756763853 common -0.48163169999999994
-3.5451434781708198 kind -0.5245996
-3.5594744704842567 found -0.47044409999999987
-3.310176515228292 most -0.309359
-2.970884115022414 other -0.27897349999999993
-3.7995671010505823 buildings -0.2889382
-2.9307202414029345 one -0.4012252
-3.500661200035747 few -0.21992769999999998
-3.3686938736011354 nations -0.28334889999999996
-3.216806666164001 does -0.6596878999999999
-2.452755480599429 n't -0.2815659999999999
-4.070030157291043 standard -0.3391668
-4.053497767300315 regulation -0.3592427999999999
-4.087074998852295 smooth -0.1361428
-3.8215448461293877 fibers -0.17329130000000004
-2.799290261043276 such -0.44740769999999996
-3.9478233216517866 classified -0.2599087
-3.085041241991817 according -1.980962
-3.8872508167831588 t. -0.3469823
-3.754832858252968 professor -0.40857219999999994
-4.028225660423435 vermont -0.2320004
-3.4909543608092894 college -0.23923509999999998
-3.9373285725836453 easily -0.18894089999999994
-3.8451210723973204 rejected -0.39569219999999994
-4.06251084271298 body -0.16160749999999996
-3.928652281597778 explained -0.22888399999999998
-3.7143536589511363 july -0.3134507999999999
-4.232683591924838 environmental -0.21347219999999995
-4.325128334039137 protection -0.3340988999999999
-3.9221473609045314 agency -0.3092231
-4.216416354837264 imposed -0.3422095
-4.047624758734811 gradual -0.1361428
-3.3870438016922475 ban -0.26453649999999995
-3.890662986214096 virtually -0.2870119
-2.688547146452402 all -0.4060107
-3.836036219723485 uses -0.3021065
-3.493298097199407 almost -0.40564269999999997
-3.9325394689967785 remaining -0.152318
-4.492179337005074 outlawed -0.1361428
-3.1230976577936804 made -0.5103215999999999
-4.3492000579296395 areas -0.3088845
-4.029540827159332 particularly -0.27098479999999997
-4.453208549921418 dusty -0.1361428
-3.7716407739961477 where -0.40840719999999997
-3.5691690671758685 dumped -0.14757339999999997
-3.648419869424658 large -0.21045620000000004
-4.242116090470718 imported -0.16911899999999996
-4.1469806885152485 material -0.19336139999999996
-3.034721137526253 into -0.44649229999999995
-4.540185287528944 huge -0.18868879999999996
-4.526837551146097 poured -0.19333589999999995
-4.48470165826437 cotton -0.2180059
-4.583754278346892 mixed -0.2755736
-3.9076736518591644 dry -0.17342280000000002
-4.158723365310544 process -0.33388879999999993
-3.5608547294264303 described -0.4033823999999999
-3.6326746202696865 clouds -0.1361428
-3.9823717166714343 blue -0.33260969999999995
-4.2237107767370885 dust -0.1678971
-4.305982370957767 hung -0.19333580000000003
-3.0519803866900803 over -0.5798253
-4.0670396273125 parts -0.41764
-3.5117383658525694 though -0.3718734
-3.991165137374194 fans -0.2475888
-3.9251895698210992 area -0.306752
-4.089670607876878 question -0.3286249
-3.1227902350122165 some -0.34451089999999995
-3.19261394409968 managers -0.31561819999999996
-3.8011616905002854 contracted -0.19877679999999998
-3.9781911902210596 phillips -0.22342109999999996
-3.1776410747877524 vice -1.076468
-2.859209287504466 president -0.4686135
-3.4721326867071767 human -0.2438311
-4.0482962479786115 resources -0.28497429999999996
-2.485626579774528 but -0.48439309999999997
-3.353030312312456 you -0.4676777
-4.24885804363445 recognize -0.22729110000000002
-3.199392445592568 these -0.2713521
-4.18257192953306 events -0.2713275
-3.5598201376621437 took -0.4662901
-3.638503714920286 place -0.3419607
-4.058503662462088 bearing -0.24327869999999996
-3.514111095394267 work -0.44273339999999994
-3.382772452861769 force -0.27002439999999994
-3.7356944052622403 yields -0.38976799999999995
-3.697498388310595 money-market -0.3217175
-3.6710572681574662 mutual -0.6575731999999999
-2.7196328923468895 funds -0.44396769999999997
-3.6209600498031445 continued -0.40201349999999997
-4.569999630068615 slide -0.2559298
-4.560718574396831 amid -0.2984282
-4.457869617778391 signs -0.644366
-3.962175554936485 portfolio -0.3229905
-3.7941370216570434 expect -0.32593179999999994
-3.5751045013025915 further -0.2301157
-3.804588736747726 declines -0.44885649999999994
-3.069178445073488 interest -0.5808971999999999
-3.054423242775181 rates -0.40346189999999993
-3.307060741328871 average -0.24143389999999995
-3.7406814674307403 seven-day -0.2312948
-3.834632127394331 compound -0.20215769999999994
-3.737083722655788 yield -0.3015719
-4.177788367484064 taxable -0.21391709999999994
-4.434162619431453 tracked -0.2312948
-3.220168178146069 money -0.47624
-3.2701795610449182 fund -0.35092689999999993
-3.268713433753846 report -0.33143319999999993
-4.45182850095409 eased -0.43649430000000006
-4.117617037729725 fraction -0.21420599999999998
-3.5000460074379864 point -0.4216289999999999
-3.064452094422014 week -0.31940909999999995
-4.098292709435304 ended -0.41125439999999996
-3.620032974644 tuesday -0.4710912
-3.651951720003766 assume -0.29965899999999995
-3.848179458566887 reinvestment -0.2588992
-4.333017776123805 dividends -0.28527479999999994
-3.7227399180499927 current -0.2089757
-4.114960657391837 continues -0.5964260999999998
-3.6634715551524573 maturity -0.28880839999999997
-3.308002977950032 ' -0.205445
-3.960291801896016 investments -0.368126
-3.5790341169094697 day -0.3194737
-3.319651075254181 days -0.4162431999999999
-3.858754987298793 longest -0.1678971
-3.1891562262970434 since -0.5877147999999999
-3.0948179967920044 august -0.252477
-4.002349581903801 donoghue -0.35564909999999994
-3.6918796192974956 longer -0.18772859999999997
-3.6460206003035887 maturities -0.21453719999999996
-3.922031999493693 thought -0.40869939999999993
-4.076847251536418 indicate -0.3254975
-4.054308161719208 declining -0.2034517
-2.939133765500605 because -0.7210759999999999
-2.5852375078811853 they -0.5456702
-4.301718377826301 permit -0.18563679999999996
-4.198646415923312 retain -0.278404
-3.7577021676524693 relatively -0.2393754
-3.4436736993564363 period -0.3850462
-3.494361522508257 considered -0.24889489999999997
-4.158970153193245 sign -0.2974485
-3.527500770430692 rising -0.26362869999999994
-3.0610523809586176 can -0.4208404
-3.820706521446267 capture -0.1361428
-4.6136979668565345 sooner -0.2895765
-4.063329614530026 open -0.3105972
-2.946575201075492 only -0.4656017
-3.8458140176300177 institutions -0.3281704999999999
-3.7106451131752225 stronger -0.17429610000000004
-3.9143296784490293 indicator -0.3027728
-3.4854615924355374 watch -0.2558519
-3.070665210025851 market -0.44353149999999997
-3.30101502185838 reached -0.33974779999999993
-3.907285347164816 editor -0.43548689999999995
-3.193841537155037 may -0.504938
-3.7155388878034623 again -0.3861434
-3.240263190235035 down -0.5272561
-3.421545206705731 recent -0.18494569999999996
-4.2996369984954415 rises -0.29772219999999994
-3.7381381835548364 short-term -0.25193279999999996
-4.28558972480899 six-month -0.23304509999999998
-3.7115854560464037 treasury -0.394953
-4.563205982362229 bills -0.3386711
-4.092522339347264 monday -0.46755379999999996
-4.152686091211715 auction -0.3139065999999999
-3.232023318065588 example -0.2076509
-3.522319009425401 rose -0.7606579999999998
-3.9766353524775595 despite -0.3731925
-3.2858147932186337 investors -0.43202119999999994
-3.71002014158416 continue -0.3743908
-4.4071454323403465 pour -0.1361428
-4.228175004539748 cash -0.3814254
-3.8248106045439734 assets -0.4446823999999999
-3.931242495473946 grew -0.40520709999999993
-2.133970451035966 $ -2.225179
-3.5200009194904713 during -0.7086329
-4.230026835832542 typically -0.15925939999999997
-3.542021681586346 money-fund -0.19333580000000003
-3.8346638890630356 beat -0.21721699999999994
-3.8651146737075086 comparable -0.1605805
-4.54120535838271 vary -0.2194582
-3.6607329161269306 go -0.35391759999999994
-3.052972623576981 after -0.4829321999999999
-3.841711984656177 top -0.24511519999999998
-3.6084439147068434 currently -0.27581399999999995
-3.9602879310195753 yielding -0.25068099999999993
-3.510843531681051 well -0.3497021
-3.8760763300734786 world-wide -0.2443027
-3.6362820841463823 dollar -0.20855229999999997
-2.6110246058727267 had -0.4953352
-3.0748147387433526 earlier -0.4332309999999999
-3.5889972837229154 invests -0.18127879999999996
-3.786945046867133 heavily -0.383039
-4.56240834032609 dollar-denominated -0.1678971
-3.3411548253556824 securities -0.40903829999999997
-4.312991627884838 overseas -0.2530195
-3.5423914886043346 management -0.3375159999999999
-4.235348367725343 fees -0.3783418
-4.019371782269591 boosts -0.18853309999999998
-3.6484758920938676 simple -0.1733702
-3.8087487033283294 30-day -0.19333589999999995
-3.519520241156035 fell -0.6716931999999999
-4.624770931167038 slid -0.5930225999999998
-3.6844934927118884 grace -0.20998689999999998
-3.6569356007679676 holds -0.42475549999999995
-4.033055517171954 elected -0.2823583
-3.5622241879994414 succeeds -0.20128190000000004
-3.727451429651963 d. -0.23737799999999998
-4.267405325176014 formerly -0.21430389999999996
-3.7233544658631166 resigned -0.4124009
-3.863295191241204 energy -0.2889562
-3.8612862483880406 seven -0.2878265
-3.862643564396465 seats -0.35312589999999994
-3.57146460213121 pacific -0.2612574
-2.9558415620679988 first -0.27421219999999996
-3.648681663782643 financial -0.36064139999999995
-4.463303007801485 shareholders -0.3483280999999999
-3.528597863903828 approved -0.4357315
-3.9237252991676854 acquisition -0.31430099999999994
-4.480254510439884 royal -0.22796019999999995
-3.5364176293424228 ltd. -0.3926510999999999
-4.016272656877049 toronto -0.1953576
-3.177138824239332 share -0.3669441
-2.431045036552078 or -0.3470729
-2.3890622254451523 million -0.1820262
-3.9460448896572298 thrift -0.22840339999999998
-3.6077679207113866 holding -0.42324049999999996
-3.761824108196836 expects -0.3985084
-4.013268258192006 obtain -0.15067309999999998
-3.9611987196969762 regulatory -0.22261289999999997
-4.002859730242498 approval -0.5503146
-3.5341522493720965 complete -0.23115679999999997
-3.944550072352442 transaction -0.27271389999999995
-4.1238927221526005 year-end -0.19312929999999995
-3.435895451376866 international -0.28870429999999997
-3.78668569052132 completed -0.3743052
-3.5499191173063864 sale -0.40780649999999996
-3.750051692005083 controls -0.3004801999999999
-3.7786402640419925 operations -0.46336159999999993
-4.082659691532673 s.p -0.25873909999999994
-4.164231958988706 italian -0.15931309999999999
-4.458568161182023 state-owned -0.1678971
-4.352833989800345 interests -0.3960196
-4.486952494935813 mechanical -0.18127879999999996
-4.353249554476556 engineering -0.3268738
-3.6179231456018606 industry -0.43490619999999997
-3.454399959677932 based -1.071545
-4.616772770553262 ohio -0.2094932
-4.590936649990264 computerized -0.1678971
-3.9206110752269305 systems -0.3567889
-3.7601915126130088 employs -0.43541479999999994
-3.4243701166574283 people -0.45264209999999994
-3.5182745065019034 annual -0.36148299999999994
-3.6682220260742926 revenue -0.4515798
-3.158503425258427 federal -0.39488509999999993
-2.945588673074269 government -0.33362129999999995
-3.9731051543817886 suspended -0.22482129999999997
-3.4753948454210084 sales -0.5215588999999999
-3.6046100049525025 savings -0.4401475
-3.61576610127463 bonds -0.4488454
-3.6232579588953944 congress -0.36498519999999995
-3.958528465419088 lifted -0.1621221
-3.872220170074886 ceiling -0.23056310000000002
-3.1128898066522726 debt -0.4094937
-3.3126899476695524 until -0.4971067
-3.673017953552013 acts -0.2549044999999999
-3.855207754970699 authority -0.35878669999999996
-3.2265028265600133 issue -0.37431139999999996
-4.158180941880669 obligations -0.20878659999999996
-4.235328896428258 borrowing -0.1777106
-4.008002283645322 dropped -0.5964897
-4.514756773883144 midnight -0.1606373
-4.308547045201765 trillion -0.15804849999999998
-3.432984330722514 legislation -0.3625986
-3.8216697287536925 lift -0.19774899999999998
-4.37758665378783 fight -0.2515764999999999
-3.991363761036275 cutting -0.28341579999999994
-4.3327757062054895 capital-gains -0.2871754999999999
-3.6854861699502868 taxes -0.3796246
-3.4574658408436023 house -0.2803284999999999
-4.137125386611324 voted -0.474104
-4.045796388986412 raise -0.26289199999999996
-3.9160094476234946 senate -0.2313142
-3.3820180003105382 act -0.3890141999999999
-3.016570374009525 next -0.5991228999999999
-4.385312440850253 earliest -0.1361428
-4.256389263137611 default -0.2809794
-3.1075536489087683 if -0.5675187
-3.5835836472549603 then -0.2580061
-3.814712753609094 j. -0.19092639999999997
-3.6610178982702712 senior -0.33810039999999997
-3.3840167809620136 general -0.3587391
-3.6356559663772794 manager -0.4392423
-3.522760513455668 marketing -0.2732294999999999
-4.068811755078815 arm -0.45372879999999993
-2.856211468623953 japanese -0.3260584999999999
-3.8189873867062856 auto -0.427312
-3.493620070986929 maker -0.4475663
-4.164467316173426 mazda -0.27356559999999996
-3.827332900792538 motor -0.23521779999999998
-3.5275974380191704 corp -0.8495642
-4.049685222121764 position -0.5054442
-3.9800021403694488 oversee -0.1361428
-3.874272993481132 service -0.3398748999999999
-3.63668278776237 previously -0.2774104999999999
-3.8263196304207874 chrysler -0.2977974
-3.830897095619969 division -0.45994859999999993
-2.772410662908951 been -0.23760629999999996
-3.168593944968174 executive -0.37690809999999997
-2.9596252387241826 when -0.5039917
-2.931903498353165 time -0.43586759999999997
-2.645880871477744 their -0.2862477
-3.5310869950318127 nation -0.2209021
-3.804098353111974 manufacturing -0.24561710000000003
-4.026412040912305 jet -0.15295229999999999
-3.2164849432219755 off -0.44603859999999995
-4.086564364625498 resort -0.22220049999999994
-4.139884974116033 towns -0.1606373
-3.2943667091748265 like -0.37025479999999994
-4.090457200917043 hot -0.17621219999999999
-3.9220847313421254 springs -0.1361428
-2.881580978488982 not -0.3616348999999999
-3.526293340409394 association -0.3835567
-4.083807017185358 manufacturers -0.37851189999999996
-3.820093611133306 settled -0.27657839999999995
-3.545177321751213 capital -0.4003025999999999
-3.589706024694396 indianapolis -0.1361428
-4.3439234802814175 fall -0.3446438
-3.6089403987429476 meeting -0.41471289999999994
-3.39456501142693 city -0.26170259999999995
-3.5850243180850017 decided -0.5296127
-4.302637166472711 treat -0.1361428
-3.8596140247846953 guests -0.17329130000000004
-4.356305526215534 royalty -0.20215769999999994
-4.591650946117283 rock -0.2063096
-3.873605447601159 stars -0.18111809999999998
-3.6930424705693103 owners -0.2893495
-3.8446321203247007 idea -0.2629002999999999
-3.8065091942412574 course -0.22434020000000002
-4.189231005407097 prove -0.25995689999999994
-4.116352243959323 corporate -0.3065944
-3.898366359885834 decision -0.3800011
-4.342460170842549 makers -0.28770999999999997
-4.277886520784542 buckle -0.21420599999999998
-4.105996624824464 belt -0.1678971
-3.0262590678804364 so -0.4036269
-3.484217338419442 good -0.2627187999999999
-4.020158756812694 expand -0.1953576
-3.738825423684106 receiving -0.1581247
-3.503878723438963 end -0.32660439999999996
-3.885386598250107 message -0.2089399
-3.315879573572605 officials -0.5303763
-4.061879276730609 giants -0.20536649999999998
-4.3305337434008875 du -1.03689
-4.397499078289205 pont -0.1361428
-4.325521898907983 along -0.6066650999999998
-4.407898393334233 lesser -0.1361428
-4.275745004108884 steel -0.2764306
-3.982395698236147 valley -0.2941512
-4.587529847822736 queen -0.17342280000000002
-3.8121040978863086 executives -0.3830936999999999
-4.029654384755852 joined -0.3090118
-3.7429097641735463 mayor -0.21610899999999997
-3.640691541691886 william -0.23566159999999994
-3.9158879859321254 h. -0.1361428
-3.8992650914096623 iii -0.19317059999999997
-3.969843724691496 evening -0.19065849999999998
-3.8897723369491666 guest -0.1361428
-3.9243342331547164 victor -0.19333589999999995
-3.9999889056067652 followed -0.4239145999999999
-3.7927610812966677 morning -0.23678669999999996
-4.101444574105505 police -0.20754499999999998
-4.406469650394433 wives -0.1637985
-4.506583559252763 traffic -0.1946689
-4.45169884227324 red -0.34270209999999995
-3.808770940574869 lights -0.20573719999999998
-3.802732876725578 governor -0.24124029999999994
-2.8883179022485566 could -0.4714981
-4.0278873669695265 welcomed -0.27356559999999996
-3.3286877437214075 special -0.1918795
-3.574984700078451 buffet -0.1361428
-3.682412689433832 breakfast -0.1606373
-3.6627182817044326 held -0.3553976999999999
-4.372031332296888 museum -0.21438559999999995
-3.9231425988563737 food -0.2741091
-4.440110527364536 drinks -0.17342280000000002
-4.384320580270832 banned -0.18650579999999997
-4.522161389825539 everyday -0.1864154
-4.705258518705419 visitors -0.1910858
-3.9071177073139984 honor -0.18117159999999993
-2.849293702440727 out -0.5921514999999999
-3.5501212662659825 drivers -0.17571869999999998
-3.9233534069660676 crews -0.19312929999999995
-3.5459751648871003 official -0.31146099999999993
-3.6657942131840136 announcer -0.1606372
-3.9941555846814674 exhibition -0.1768314
-3.7080379511029036 race -0.23215059999999996
-4.091597966240556 fortune -0.1361428
-3.6030377975942254 cars -0.3443843
-4.579349810736935 pointed -0.4134894
-3.2362570727752504 still -0.2521651999999999
-4.004198604701336 space -0.2650614
-4.326258284816798 machines -0.32466809999999996
-3.164655463346596 another -0.225391
-4.827146007261029 sponsor -0.23217290000000002
-3.620195594783762 name -0.32274309999999995
-2.8735853807555385 two -0.3744752
-3.831488302721177 back -0.5107160999999999
-3.5614054794688452 downtown -0.1935726
-4.221352653230639 squeezed -0.23500849999999998
-3.6728537939574215 meetings -0.2996175
-3.85728470600442 hotel -0.25178559999999994
-4.15585802883945 buses -0.1581247
-4.20093806915708 dinner -0.1637985
-3.4599313482045466 block -0.19878889999999996
-3.549081975211398 away -0.496653
-4.415562082806133 indiana -0.1361428
-3.782898966678558 nine -0.3252478999999999
-4.1801365431179365 hottest -0.1361428
-4.322740273373023 chefs -0.1361428
-4.294865133915958 town -0.29386750000000006
-4.3921663819991 fed -0.19414379999999995
-3.071939442875823 them -0.4703077
-3.89199054267471 free -0.29304579999999997
-4.5362145453785665 eat -0.15438289999999996
-3.725640618902988 gave -0.3594512
-3.983209683839549 standing -0.22883549999999997
-3.0297657866468213 say -0.49631649999999994
-3.5802899243199 treatment -0.26014429999999994
-3.850717019254707 return -0.4259340999999999
-3.781136499214458 future -0.20923329999999998
-3.963881779604571 looking -0.6524528
-4.393255671779773 forward -0.2808639
-4.555612965313374 winter -0.17329130000000004
-4.157477862231106 february -0.2683903
-2.92062554131553 south -0.6240909999999998
-3.2557831309859377 korea -0.19517429999999997
-3.6919586887636138 registered -0.21721699999999994
-2.805387792808368 trade -0.3506546
-4.033844905136669 deficit -0.2694253999999999
-3.023487463543419 october -0.2666433
-4.031618187908935 reflecting -0.3549919999999999
-2.878990990812463 country -0.3152132
-3.074864133002617 economic -0.3561832999999999
-3.5205338726734046 figures -0.32815469999999997
-3.735021649227352 released -0.29413959999999995
-4.0625564284855855 wednesday -0.3722531
-3.8436255608540177 ministry -0.2861228
-3.7911992949827162 showed -0.3914252999999999
-3.605066203141754 fifth -0.21824049999999995
-3.704093123277208 monthly -0.18122519999999998
-4.195894559903831 setback -0.24144189999999996
-4.099808321540808 casting -0.22796019999999995
-4.100361637155977 cloud -0.1678971
-3.5339645469231318 economy -0.33328679999999994
-3.4204626509087803 exports -0.35024149999999993
-3.957630907866263 stood -0.3765402
-4.088274900621002 mere -0.1361428
-3.398571905307608 increase -0.3758297
-3.6889197199647406 while -0.29786569999999996
-3.4636988260171924 imports -0.3696111
-3.7013261002701845 increased -0.4225889
-3.9504279635123867 sharply -0.3429398
-2.839603689862894 last -0.7795550999999998
-4.2291302417419265 boom -0.2683903
-3.3846093886659183 began -0.34599929999999995
-4.127475751743778 prolonged -0.1581247
-3.793749461660912 labor -0.27574799999999994
-3.9472467570976084 disputes -0.15295229999999999
-3.8826894130978062 conflicts -0.21406149999999996
-3.8892436444601035 sluggish -0.2228941
-2.6110404802153506 would -0.5649655999999998
-3.5948287203054514 remain -0.23623279999999997
-4.179258914706595 target -0.27147549999999987
-3.6859948174366326 gloomy -0.1361428
-4.114536087306144 forecast -0.32631039999999994
-4.127025338235084 recorded -0.22721630000000004
-4.7321331018431785 surplus -0.22796019999999995
-3.652607214085266 january -0.25958349999999997
-4.486513790022698 accumulated -0.1361428
-3.349684371459587 same -0.1404224
-3.4715875411539114 newsweek -0.18111809999999998
-3.616791334165753 trying -0.9301427999999998
-3.8323337243484916 keep -0.202994
-4.515795474293032 pace -0.2502735
-4.09592477230379 rival -0.1705538
-3.552197658919543 magazine -0.2904386999999999
-3.3971362093034525 announced -0.4996034
-3.6189271060303847 advertising -0.3020498
-3.8781327218381074 introduce -0.21435989999999994
-3.9379510702495124 incentive -0.27330689999999996
-3.1955529328274253 plan -0.4541764
-3.6503875767654166 advertisers -0.2708364
-2.993911691990638 ad -0.3321247
-3.4496849675853065 washington -0.2850240999999999
-4.332726971585339 post -0.21450699999999998
-3.961732519826736 second -0.212509
-3.5908616664731845 offered -0.4782342
-4.058931979273243 plans -0.6111440999999999
-3.4054034080111077 give -0.2672037
-4.34339557280173 discounts -0.18650579999999997
-3.760483702201136 maintaining -0.1606373
-3.8512688205376837 increasing -0.2807756
-3.2762625015945703 spending -0.38005479999999997
-3.5731368057380224 become -0.29333590000000004
-3.9204687469986688 permanent -0.2431828
-3.3368716925729256 news -0.4026682999999999
-3.9044023091105697 underscore -0.21391699999999994
-3.9190850340413936 fierce -0.1637985
-3.7515892318823085 competition -0.46642269999999997
-3.2521955538056555 between -0.425126
-3.891864013811965 warner -0.30197809999999997
-3.8633482106899644 b. -0.20009530000000003
-3.0022891901460693 world -0.2861815999999999
-3.825174887041718 full -0.20632209999999995
-3.9755443304372093 page -0.1605521
-3.787056601106729 cost -0.3973259
-3.5657005687164234 mid-october -0.16570639999999998
-4.464855881131166 lowered -0.31691829999999993
-4.327076944556934 guaranteed -0.2649214
-3.409397204624358 circulation -0.22283509999999995
-4.2594379470228 base -0.28215869999999993
-4.148123752846629 lower -0.36624739999999995
-3.9892458780088083 effectively -0.18563679999999996
-3.9813810610336073 per -0.2597841000000001
-4.739263630617334 subscriber -0.18127879999999996
-3.776746678616678 costs -0.5178404
-3.920220205205676 yet -0.26334409999999997
-4.2259615405497675 announce -0.1760987
-4.10806379263743 credit -0.3413574999999999
-4.102765351478566 credits -0.28100829999999993
-4.217936208555268 renewal -0.1361428
-4.180701519288754 reward -0.21462
-3.790374880214728 bonuses -0.21401339999999996
-3.7225740212178424 meet -0.20824029999999993
-4.236690782816788 exceed -0.32803009999999994
-3.511587423788914 long -0.22661379999999998
-3.783448083319532 spent -0.3263389
-4.156848297682512 attempt -0.5311358999999999
-4.054522619128737 shore -0.17342280000000002
-3.4270968517649707 decline -0.41373489999999996
-3.687743221815492 pages -0.2656972
-3.324285032328698 months -0.3514303999999999
-4.079985209849707 totaled -0.8061318999999999
-4.062039134685675 drop -0.3626119
-4.241966265072075 publishers -0.1713789
-3.8782810525876075 bureau -0.3091441
-3.303061149524439 what -0.5067838
-3.693072975426588 matters -0.2673957
-3.7668839313529405 paying -0.29065469999999993
-3.10077226626189 department -0.38600759999999995
-3.755541623751611 doing -0.34030599999999994
-3.7367671873905204 fine -0.3053829
-3.3324105732681475 both -0.2742969
-4.000892495201277 gaining -0.16778579999999996
-3.0899814765750975 without -0.30071739999999997
-3.5210931985765868 heavy -0.21597879999999994
-3.2789817494203457 use -0.4081913999999999
-3.830599527161478 electronic -0.2531295
-3.9566076782911908 subscribers -0.20733149999999997
-3.9078435832178564 telephones -0.1361428
-3.4818703825371426 watches -0.1361428
-3.8924734467378603 however -0.32023769999999996
-3.804949284775023 none -0.4036926
-3.521159959185999 big -0.2530211
-3.738451594676188 gains -0.4722492999999999
-3.6837912295560526 audit -0.18859589999999996
-3.4475246653844134 largest -0.17845959999999997
-4.0800383345337705 decrease -0.2688947999999999
-3.99738256544465 six -0.40222189999999997
-4.108967040929635 flat -0.24171559999999992
-3.7049446078026933 electric -0.2580276
-3.5111974916103144 system -0.4501597
-4.1271040459836446 bowed -0.28824089999999997
-4.069468077074278 bidding -0.3112841
-3.419044943109717 public -0.27383469999999993
-3.3272513528824934 hampshire -0.1361428
-3.7041113161884374 saying -0.4329863
-3.8024561608532843 risks -0.282676
-3.35242165697094 too -0.42027869999999995
-3.6051818497886496 potential -0.23731789999999992
-4.2914564786227976 justify -0.1361428
-3.4226706543410597 offer -0.38438479999999997
-3.816698614282968 move -0.3150667
-3.8239750310796436 leaves -0.26005899999999993
-3.973662327936381 united -0.37029989999999996
-3.751474477007807 illuminating -0.1361428
-3.464670170906238 northeast -0.23973029999999995
-3.9956572960785035 utilities -0.2053731
-3.7001508094355913 outside -0.3095319999999999
-3.799139985811505 bidders -0.22251080000000004
-3.525911663723065 ps -0.8028070999999999
-2.922558399653011 also -0.38115999999999994
-3.4605700320527406 proposed -0.2273209
-3.4889979078162723 internal -0.191104
-3.957951438049568 reorganization -0.35126289999999993
-3.9015625495946273 chapter -0.5150432999999999
-3.6294821105002755 bankruptcy -0.3229846
-3.587028304913881 proceedings -0.2600532
-3.964871178002033 independent -0.2245404
-4.252545521538944 acquire -0.1664226
-3.6910301092407254 below -0.4634074
-3.8349623846665915 value -0.42746839999999997
-3.8178501866216377 places -0.28354889999999994
-3.3541464443215614 bid -0.44988989999999995
-2.600317483760889 says -0.5535978
-3.8170969396277323 worth -0.33460249999999997
-4.208401067509095 haven -0.19892899999999994
-3.788268316222587 conn. -0.1646449
-4.0884448594077325 hartford -0.23656539999999998
-4.0109849108292375 conn -0.2808639
-4.481849179873005 n.h. -0.1361428
-4.507486150671362 values -0.27311069999999993
-3.5564930440646605 john -0.2876274
-3.5714205214549386 rowe -0.1361428
-3.274897131377457 chief -0.4247252
-3.376473063030173 officer -0.3009909
-4.188938094207554 equity -0.2994706
-3.8387676466860405 suffer -0.29784760000000005
-4.520274105190458 forecasts -0.332736
-3.6411969266809376 related -0.49205869999999996
-3.503722749212135 growth -0.4621422999999999
-4.021049646260173 electricity -0.1750497
-3.683425448170957 demand -0.5098323999999999
-3.788264177074 improved -0.2252631
-3.8454449455418636 operating -0.4224492
-3.2021988164612902 did -0.605144
-3.6997522302082446 come -0.45944889999999994
-3.6586349536677862 true -0.26014620000000005
-3.600230149152632 raising -0.2736614
-4.099273920883829 seemed -0.47228689999999995
-4.3818052966759575 substantial -0.15575269999999997
-4.212148043435448 persistent -0.18865880000000002
-4.235066748884036 rewards -0.18865880000000002
-3.396461152879858 way -0.40522189999999997
-3.741714223992218 got -0.3179855999999999
-3.3687003885863747 hard -0.328282
-3.4967541509287066 take -0.3674628999999999
-3.5565680253948444 added -0.45446029999999993
-3.6149284933856447 noted -0.5372282999999999
-3.0134598335407383 political -0.22270799999999996
-3.589906211567986 concerns -0.4480044999999999
-4.176680397491446 worried -0.490592
-3.749949551612304 matter -0.22056489999999998
-3.568767619063628 owns -0.42668429999999996
-4.264407938958588 emerges -0.22480739999999996
-3.5737386672912472 attracts -0.1361428
-3.5395377481615165 just -0.4111002999999999
-3.7573129965010135 factors -0.29443659999999994
-4.031100760167151 withdraw -0.20556719999999995
-3.5798800825170747 ross -0.16131389999999998
-3.850280909812016 jr. -0.2620678
-4.042570615563384 rothschild -0.18650579999999997
-4.494386016803044 adviser -0.3207982
-3.8366867437075 troubled -0.16111299999999998
-4.606709949438833 holders -0.4123833
-4.429444061723258 withdrawal -0.289439
-3.966238133446181 might -0.39822749999999996
-4.529988843584672 speed -0.24575269999999994
-3.7500003453227206 fact -0.19841350000000002
-3.645041077349932 increases -0.3789642
-3.2643921088562444 against -0.40685109999999997
-3.5042504029184225 around -0.4913629
-3.9451758659578804 complicated -0.17571869999999998
-4.093922929608264 negotiations -0.36694229999999994
-2.8198858521755454 state -0.3191463
-3.741805426862355 asserted -0.3516952
-3.7710950884132237 field -0.24627239999999995
-3.885981353834049 less -0.34521349999999995
-3.2998943490083943 commission -0.2702127
-3.94214628182818 turned -0.41340669999999996
-3.765481211412341 request -0.2561960999999999
-3.614923870442215 seeking -0.3852999
-3.419773691277694 possible -0.22468069999999998
-3.6608878707308827 purchase -0.2922437999999999
-4.1086884805415185 hopes -0.5646999999999999
-3.439011761192706 review -0.29366089999999995
-4.010972150952734 ferc -0.1361428
-3.876346119184282 summer -0.25423049999999997
-3.31631274965634 court -0.31706629999999997
-2.931682916610395 shares -0.5375856999999999
-3.8047848066376533 closed -0.5835889999999999
-3.376293829506118 yesterday -0.46817609999999993
-3.744247702184477 cents -0.27753869999999997
-2.998424166509908 york -0.13786100000000004
-3.0723885536012743 stock -0.4576447
-3.673647641862208 exchange -0.30380419999999997
-3.8598964911477567 composite -0.22912629999999998
-3.4372317603191065 trading -0.39633579999999996
-4.475202930220891 norman -0.1581247
-4.60666513861359 toys -0.1361428
-4.387740345593237 r -0.1361428
-4.659826322788238 frederick -0.1678971
-3.6541127796148523 banking -0.2840271999999999
-3.915439092145461 directors -0.31534559999999995
-3.720356873966029 consumer -0.31026519999999996
-3.822053685760913 electronics -0.24245779999999992
-4.169457570240934 appliances -0.19333589999999995
-4.711843456497531 retailing -0.18123289999999997
-4.470210466177678 chain -0.26812559999999996
-3.8381999741711117 succeed -0.25541919999999996
-3.686334088843733 daniel -0.22123329999999997
-3.651672665595763 m. -0.1459969
-4.320303395315322 retired -0.17211809999999997
-4.51258018094644 circuit -0.435518
-3.8403129147923396 robert -0.27919229999999995
-3.664584127336223 r. -0.1503195
-4.026463390005956 undersecretary -0.17342280000000002
-3.419182037099408 commonwealth -0.34750309999999995
-3.1096812110793284 edison -0.23966459999999995
-3.6595399247380396 ordered -0.3873906999999999
-3.3196620912135817 refund -0.1361428
-3.6336603312055065 illegal -0.20335159999999997
-4.209383394644962 collected -0.2312948
-3.9932816982287385 overruns -0.1361428
-3.768391783933018 nuclear -0.3235197
-3.6307080725768515 power -0.39354189999999994
-3.8005943100224986 illinois -0.1492866
-3.4252701962377055 commerce -0.23591909999999996
-3.6079755464238166 groups -0.3450254
-3.95636114922276 ever -0.19824429999999996
-4.129514842933299 required -0.34245889999999996
-3.616673592447457 local -0.1931169
-3.7161773368064392 utility -0.19786709999999993
-3.3181348469192518 judge -0.2744474
-3.884772170683527 richard -0.2557738
-3.5214955353596102 curry -0.18659619999999996
-4.031968490214758 refunds -0.21406149999999996
-3.2145550666675717 each -0.30682719999999997
-3.618407520864751 customers -0.3637247
-3.9638862829206625 received -0.3639497
-4.042206759103572 april -0.42893279999999995
-4.10291819520937 moved -0.3122453
-3.690769854560397 begin -0.21157039999999996
-4.028540756698843 feb. -1.0076949999999998
-3.679992093778411 appeals -0.21469229999999997
-4.032186953922448 attempts -0.6790379999999999
-2.9128322553921504 his -0.3051782
-3.3987464397790053 order -0.3324043
-3.797764626049963 pool -0.1753159
-3.508119864585998 through -0.41489479999999995
-3.946461745497144 round -0.41419229999999996
-3.5908746569895422 already -0.32821839999999997
-4.064910317257071 appealing -0.29708379999999995
-3.9080948040328614 underlying -0.14757339999999997
-4.114953553527209 considering -0.2305567
-3.759108095860446 exact -0.1756253
-3.775620557934303 amount -0.4361451
-4.192670273426813 determined -0.32036
-4.286385152582578 actual -0.15252409999999997
-4.256554980518214 dec. -1.422668
-3.6947787960311356 ruling -0.2509538
-4.178614023476529 slash -0.1637985
-3.7357364227032024 earnings -0.4665685
-3.867365470967453 spokesman -0.6158121999999999
-4.447708309111543 tracking -0.18853309999999998
-4.124158777149645 whose -0.17079909999999998
-4.385997909614597 addresses -0.1361428
-3.6680419507326274 changed -0.34016339999999995
-3.4804864091303918 past -0.1800849
-3.966443766509304 administrative -0.2258
-4.366068653132759 nightmare -0.21420599999999998
-4.01841405424773 near -0.3160731
-4.2721527202897045 ill. -0.1455638
-3.80798705012614 disputed -0.17342280000000002
-3.2986004183676156 pay -0.3118581
-3.889163925086675 courts -0.2884912
-3.785235035721454 upheld -0.22251080000000004
-4.181934054994144 challenge -0.32976059999999996
-3.9838007088622973 supreme -0.7203999
-3.1954537953807725 construction -0.3102672
-3.80700511790777 expenses -0.3909458
-4.426138823050999 collecting -0.1581247
-4.115017112650698 subject -0.6214985999999999
-3.9293020137268146 ruled -0.4217167
-4.322152181780115 plus -0.2685583999999999
-3.5911209677191835 additional -0.2059128
-4.0346393260776425 calculations -0.23833559999999995
-3.1230975228123192 month -0.2983907
-3.596185171886648 set -0.5260437
-4.03356123957333 faces -0.265669
-4.394157909993243 appellate -0.39728199999999997
-4.06547981021772 estimated -0.42373649999999996
-3.7262325565448964 hope -0.4683987
-4.317829075931709 precedent -0.2019168
-3.2959480376548256 case -0.3554153
-3.671225689838412 involving -0.22378690000000004
-3.8932989504942097 rule -0.2702275
-3.8982403620456543 poor -0.170525
-4.118325458620009 performance -0.37903429999999994
-3.304127423326737 i -0.49461639999999996
-3.1948583766659797 japan -0.3668056
-3.748604212649188 domestic -0.23977269999999998
-4.628634932979849 trucks -0.28231509999999993
-3.7725437376116466 units -0.378317
-3.660011288098785 record -0.28077319999999995
-4.626220457703421 automobile -0.18150899999999998
-3.5988180454468153 dealers -0.3499007
-3.4970462140607177 strong -0.2770489
-4.202675841771985 year-to-year -0.1361428
-2.8295641456517044 september -0.2638157
-4.430243591492548 setting -0.3207467
-3.991193942620162 records -0.3111093999999999
-3.9578155697740383 every -0.2586298
-3.800095734979779 march -0.3874871999999999
-4.016460304710277 compared -1.160966
-3.551811847962995 previous -0.17160559999999997
-3.8964984845255524 inched -0.27488099999999993
-3.687579404687384 passenger -0.1837044
-3.6983855349453654 medium-sized -0.1361428
-4.283343695060709 benefited -0.5150432999999999
-3.4262876378329477 price -0.41462819999999995
-3.901359706495068 reductions -0.28466339999999996
-3.9935475489174532 arising -0.28824089999999997
-3.7882651862861643 introduction -0.22796019999999995
-4.2816716610187795 consumption -0.23381489999999996
-3.676649904375616 tax -0.33855459999999993
-3.8095030264569028 doubled -0.19793529999999998
-3.6731746396251204 texas -0.30113969999999995
-3.6878373042314445 instruments -0.2717703
-3.61067220002247 opened -0.37049109999999996
-4.508683253544869 manufacture -0.1361428
-3.5855594786131686 control -0.47516829999999993
-3.828982492596833 devices -0.20179049999999998
-3.9908088610528565 located -0.31651909999999994
-3.6907613069522642 miles -0.23057129999999992
-3.8085711911003313 seoul -0.19999519999999998
-3.303435653210938 help -0.25659709999999997
-4.483837491133896 diversifying -0.2019168
-4.038144251365456 produce -0.2294036
-4.303933971352904 vehicles -0.26522109999999993
-4.343276091287577 household -0.204788
-3.594924039253989 survival -0.23656539999999998
-3.454584268086035 spinoff -0.17342280000000002
-2.8858886277028715 cray -0.47198149999999994
-3.351032285670069 computer -0.31249039999999995
-4.441869178464457 fledgling -0.1361428
-3.7669494899512355 supercomputer -0.17342280000000002
-3.4012749651762624 business -0.4192598
-4.215768209090331 depend -0.43541479999999994
-3.8360958705617922 creativity -0.18127879999999996
-3.9422116800929956 designer -0.1704387
-3.9917920789217014 seymour -0.18127879999999996
-3.5005822856888487 development -0.32644769999999995
-4.238283750288176 initial -0.22471199999999997
-3.9378476074844855 machine -0.34081819999999996
-4.16392650991843 tied -0.524053
-4.369533217847827 directly -0.3494191
-3.782030314229077 balance -0.3429068
-4.448073231350214 sheet -0.1958573
-3.637937807731346 documents -0.287571
-3.7792107898586775 filed -0.5691810999999999
-3.755708108739188 pending -0.2782391
-3.7985559630548305 disclosed -0.35860159999999996
-3.6921487180888253 financing -0.30983569999999994
-4.001343074704674 providing -0.2932427
-3.492184513985948 firm -0.39852889999999996
-3.4587502209855288 project -0.23974440000000002
-4.023494342025207 heads -0.1910858
-4.097116833121465 scrapped -0.1606373
-3.793963928616738 working -0.39414799999999994
-3.2813775226589317 cray-3 -0.1361428
-3.8699649394730473 least -0.15310409999999997
-3.7201367274293893 fully -0.2421032999999999
-4.536205471632661 operational -0.14893819999999997
-4.325968865364497 prototype -0.1361428
-3.112814953498978 orders -0.4487748999999999
-3.620868442114201 several -0.2975194
-4.126826367432691 prospects -0.3858134
-3.3525613777267353 many -0.33851659999999995
-4.148147623109973 anticipated -0.24943030000000002
-3.924120263366325 attached -0.5745956
-3.2432532634625173 much -0.40457049999999994
-4.493849353067231 choice -0.3603889
-4.318214940614204 gregory -0.1361428
-4.5474188221002825 interview -0.23660340000000002
-3.611010343772904 theory -0.18407309999999993
-3.5604792017043687 him -0.44399669999999997
-3.5369270395796044 want -0.4361117
-3.5953303697169643 include -0.2781326
-4.383406998113533 anticipates -0.15295229999999999
-4.043361868151714 perhaps -0.2518062999999999
-3.8469615809008326 beginning -0.3533414
-3.6307898194966355 called -0.41511839999999994
-4.108341973879055 scenario -0.22802909999999998
-3.621390540731778 filing -0.2617041
-3.853586016735334 details -0.5053424
-4.410492544268008 jump -0.31114149999999996
-4.4112009560355165 close -0.40890789999999994
-3.7178300505597237 analysts -0.5262624999999999
-4.209063018564995 link -0.2525742999999999
-3.808677699378867 note -0.37809409999999993
-3.9314978000167153 presence -0.3547721999999999
-4.267766569819932 complicate -0.2312948
-4.409780814732377 valuation -0.1637985
-4.308188115799457 investor -0.3034607999999999
-4.236467170106888 gary -0.1361428
-3.78872639440003 p. -0.1361428
-4.259106304941842 minneapolis -0.19346419999999995
-4.468562397140868 concept -0.1880263
-3.7304748095313474 either -0.2537399
-3.641233656669497 believe -0.41417319999999996
-3.0417880524656313 do -0.589615
-3.5238900738961907 age -0.366461
-3.966419879007016 tricky -0.17342280000000002
-3.9173977014872317 chip -0.19648359999999995
-3.644540856078275 technology -0.35601789999999994
-3.6263591527020833 sec -0.1807521
-4.01284425331153 describe -0.1581247
-4.202185428293939 chips -0.24725669999999997
-3.239038857507423 being -0.25522769999999995
-4.032325462636523 fragile -0.18111809999999998
-4.02233993196002 minute -0.17031809999999997
-3.909303350534556 require -0.21824999999999997
-3.945900688839348 handling -0.26014489999999996
-3.9866029533647898 equipment -0.33014679999999996
-3.529474728262642 addition -0.1907509
-3.93837616568724 contain -0.19720799999999994
-3.8568998502885155 processors -0.1361428
-4.527812814850291 twice -0.39961139999999995
-3.5178197835043856 face -0.30098949999999997
-4.586543250089245 intense -0.18908210000000003
-4.280044727641406 roll -0.19326699999999997
-4.104196557945601 direct -0.26584689999999994
-4.553925291454621 competitor -0.19065849999999998
-4.596602371424886 compete -0.26618
-4.162755325191383 hitachi -0.24256589999999995
-4.22831494077473 nec -0.2648018
-4.229708308945634 fujitsu -0.23966449999999997
-3.9553138396387117 ltd -0.7841154999999999
-4.110984943577683 believes -0.33923229999999993
-3.77920972967754 fewer -0.2852839
-4.103798991028058 priced -0.42268039999999996
-3.694782773735677 presumably -0.17342280000000002
-3.741770843302789 range -0.4580443
-3.687306895306358 terms -0.39527739999999995
-4.261694231794453 stockholders -0.2604853
-4.367214698314277 receive -0.25312299999999993
-3.0839384874666123 own -0.1997398
-4.164731859193591 distribution -0.209092
-4.279178675035455 occur -0.2542941
-3.77976446270487 weeks -0.35293899999999995
-3.2943624848371496 companies -0.49666250000000006
-4.324104778290767 leave -0.23568639999999993
-4.438645870522695 marketplace -0.16633169999999997
-4.278323134461662 decide -0.3006154
-3.6963168151525068 applied -0.39821139999999994
-3.5278420631983725 nasdaq -0.2958971
-3.564923478425595 calculate -0.1361428
-4.412539819104474 book -0.24970830000000002
-4.18717182111103 primarily -0.29751839999999996
-4.505558738064122 drain -0.24867909999999996
-3.70838113070776 sheets -0.16778579999999996
-3.8356575678953533 clearly -0.21323539999999996
-3.710349477685794 why -0.32502359999999997
-4.551833143808477 favored -0.1733351
-4.148111252129784 able -0.8110782999999999
-4.119654116324481 profit -0.4800218
-4.315322501071873 half -0.40654999999999997
-4.63161768354123 rather -0.7312531
-3.8792387774096757 posted -0.44641529999999996
-4.005347984238011 hand -0.24163719999999997
-4.3144905861547445 existed -0.1361428
-4.274105938837143 incurred -0.2355293
-4.494433938390562 loss -0.4404968999999999
-3.8439225228983025 comment -0.3752540999999999
-4.561018444585603 colorado -0.23217290000000002
-4.354298785495103 colo. -0.1361428
-4.604579807383475 contractor -0.23796309999999996
-4.392504543597413 arrangement -0.18122519999999998
-3.854019955996971 father -0.1747126
-3.362997462963742 paid -0.40214539999999993
-3.7522082553853644 messrs. -0.23011999999999994
-3.8105786130252146 includes -0.30336959999999996
-4.4181782149832385 neil -0.1361428
-3.9294880137184967 joseph -0.18407309999999993
-4.472042906369765 malcolm -0.16954749999999996
-4.029228092573259 software -0.2956227
-3.8106686657215545 douglas -0.15363839999999995
-4.706709989079823 hardware -0.3384673999999999
-3.594825025723507 came -0.5488359
-3.6370856957115354 stevens -0.1361428
-4.206041453722294 positions -0.3607697
-3.966095774009318 donald -0.19681619999999994
-3.7351283603803958 hatch -0.1361428
-3.5837834107462685 eastern -0.3035635
-3.8020418150420947 claiming -0.3166372
-4.489986643547783 success -0.30208519999999994
-3.9307014813101304 removed -0.21453719999999996
-3.798321617937952 taiwan -0.255224
-4.075530139826343 saudi -0.4096872
-3.8247115233817572 arabia -0.1361428
-3.325282068046788 list -0.30139779999999994
-4.512131599045648 watching -0.31904609999999994
-4.418799516053785 allegedly -0.15697989999999998
-4.199955054268129 failing -0.6118570999999999
-4.3979206453098305 patents -0.16570639999999998
-3.360122208149672 rights -0.39719249999999995
-4.052708344210755 china -0.33372289999999993
-3.717126502254735 thailand -0.1361428
-4.215764595926351 india -0.317871
-4.133117597866284 brazil -0.22041209999999997
-3.72265100797078 mexico -0.27038999999999996
-3.537711776613348 so-called -0.15956629999999997
-3.7038470952603166 priority -0.20679609999999998
-3.698487771579298 result -0.2557648
-4.019897348695553 interim -0.1637985
-3.8857563168804967 representative -0.15705229999999998
-3.8313340777115883 carla -0.1361428
-3.5364498505792694 hills -0.1678971
-3.2506549396001176 law -0.3957786999999999
-3.8159957156417024 accelerated -0.2019168
-4.5305761478301845 investigations -0.18650579999999997
-4.597016937834391 stiff -0.23656539999999998
-4.215894323697531 sanctions -0.3110050999999999
-4.3593946987892185 improve -0.22507440000000004
-3.9885635214294397 intellectual -0.1560797
-3.519805481644842 property -0.3074407
-3.6350911867133275 spring -0.21030749999999998
-2.9034181301446447 mrs. -0.5892466999999999
-2.7699597175517865 she -0.4645734999999999
-3.841999500953814 placed -0.2166792
-4.478819441609681 degrees -0.1637985
-4.303796002147581 scrutiny -0.26892389999999994
-4.525263209365134 genuine -0.1361428
-3.95062121172465 progress -0.30788799999999994
-4.396061838612413 touchy -0.17342280000000002
-3.3202443845643494 growing -0.18923329999999997
-4.14670520968803 citizens -0.2759599
-3.6506956113257254 negotiators -0.16570639999999998
-4.223903482790646 inadequate -0.2074142
-3.9491246158202165 hurting -0.15438289999999996
-3.6031441574521184 themselves -0.33577629999999997
-3.9866298910210514 discouraging -0.1560797
-3.81866557856872 scientists -0.23602119999999993
-3.6727679219469818 authors -0.16778579999999996
-3.93948829997429 high-technology -0.1361428
-3.712628520811697 firms -0.38910359999999994
-3.9178137653513065 investing -0.3481197999999999
-3.7007878307054125 best -0.1866555
-4.264291550693529 creating -0.34420189999999995
-4.1948053636515645 task -0.2812027
-3.868875843848887 enforcement -0.2057861
-3.8710443471210016 teams -0.22651700000000002
-4.379644403345485 officers -0.25541919999999996
-4.0081967611482945 prosecutors -0.25737459999999995
-4.493044108698679 trained -0.1678971
-4.105399995522615 pursue -0.16259619999999997
-3.5094903208511767 movie -0.22694769999999995
-3.8761689044212644 instituted -0.24348480000000003
-4.267670577670464 effective -0.27063589999999993
-3.7075118615974967 procedures -0.3040139
-3.9413393138948143 aid -0.3254911
-3.706331123194038 copyright -0.2194582
-3.3720554768293534 agreement -0.42001789999999994
-4.165849470723333 trademark -0.1361428
-4.215956463665354 introducing -0.1361428
-3.8040247130181384 protect -0.17654429999999996
-2.9364659360649052 foreign -0.3608229
-3.6679203827628752 producers -0.3118837
-4.070157846821872 unauthorized -0.1361428
-3.737538540127916 films -0.18117159999999993
-3.772524246723085 measure -0.2678455
-4.3417298761819065 taipei -0.2590594
-3.4010797342679027 small -0.2983525
-3.8088678949054486 showing -0.30008769999999996
-3.308334333742388 part -0.5766144999999999
-4.436961142052572 vowed -0.6462680999999999
-4.605256445699918 enact -0.1361428
-4.540934540400348 compatible -0.43541479999999994
-4.233762780288258 standards -0.37952339999999996
-4.3129837526617605 apply -0.41753319999999994
-4.623840450177095 literary -0.1678971
-4.372632068715742 works -0.2642188999999999
-4.428775705837753 completely -0.17129609999999998
-4.625697887734434 hook -0.21391709999999994
-4.159459786057237 italy -0.33430979999999993
-3.84668886539226 canada -0.3045077
-4.285888985540478 greece -0.2469599
-3.881322733320113 spain -0.23223319999999997
-3.497344363896966 concern -0.5287258
-3.7781923615511817 deemed -0.18127879999999996
-3.910017423982726 pose -0.25873909999999994
-3.4800149088623 problems -0.4444482
-3.1853622443810554 american -0.3142175
-3.852196103499413 patent -0.2411554
-3.5578095538515013 hoffman -0.18865880000000002
-3.8805124031513576 lawyer -0.25985259999999993
-4.157568232523519 specializing -0.6097549999999999
-3.4223600730860606 cases -0.33953339999999993
-3.9096510150520287 threat -0.3673100999999999
-3.7937604832429788 combined -0.23733779999999996
-3.79294651611952 recognition -0.2105922
-4.1889544347823096 protecting -0.331432
-3.7003488996611655 prompted -0.36490579999999995
-4.317612522598313 improvements -0.3315352999999999
-3.7025592699236927 tells -0.2774077
-3.67655519056324 efforts -0.5961376999999999
-4.232540818649449 craft -0.1361428
-4.6068027168160715 concerned -0.4755323
-3.7792587511530913 disturbing -0.1361428
-4.704832475161611 developments -0.21462
-4.573953482714859 turkey -0.1958573
-4.021654655655397 continuing -0.2063258
-4.09721588534246 slow -0.2543668
-3.6860959889613354 malaysia -0.25236499999999995
-4.05814371352603 elaborate -0.18650579999999997
-3.8909487310456594 reports -0.37514679999999995
-4.10688382042717 complained -0.46278339999999996
-4.2244415659371795 videocassette -0.18127879999999996
-4.2678120203947465 pharmaceutical -0.28572139999999996
-4.032370391930075 requires -0.2192606
-3.8684898516498443 bad -0.24654299999999996
-4.070283733304695 enough -0.39695469999999994
-4.034256801895702 merit -0.1361428
-3.7330435726785627 investigation -0.3293995
-3.988691176784285 provision -0.3018667
-4.173796916681802 ask -0.23422859999999993
-4.17776371407982 creditor -0.18457389999999999
-3.488200410884043 banks -0.41452739999999993
-3.682752713410422 developing -0.23535559999999997
-3.594115203329895 declaration -0.18127879999999996
-3.4979760317572826 minister -0.19050749999999997
-4.307453943441978 believed -0.3792329
-3.544603831837897 action -0.374292
-3.605212985782773 latin -0.5100483
-3.594680501928826 little -0.24807889999999994
-3.8693909685905714 reach -0.23893689999999998
-4.139386561022215 reduction -0.3502868
-4.620316550702688 external -0.15607979999999996
-3.851035736886236 met -0.28071329999999994
-3.629847116572902 assistant -0.3285144
-3.7488737461382184 secretary -0.3228142
-3.628130581585732 david -0.251386
-4.186484042138335 mulford -0.1361428
-3.6055494505608765 negotiator -0.1361428
-3.7193217729668793 carlos -0.1361428
-3.3462549899206686 office -0.37559099999999995
-4.71968532665055 feels -0.1768314
-3.641351519812954 significant -0.1798935
-3.686773211753479 principal -0.2456403
-4.5332253933335185 solved -0.1361428
-3.4135305530018067 wants -0.4800219
-3.643141620369326 centennial -0.21420599999999998
-3.7697608588847356 wall -0.625589
-3.6776836447608128 street -0.17029550000000002
-4.342607671239491 century -0.21295769999999994
-4.283183420247581 stand -0.30469559999999996
-4.507124423179613 milestones -0.1361428
-3.3977111756448832 history -0.40101
-3.652687904831098 computers -0.3448783999999999
-3.9049521345446827 personal -0.3345446999999999
-4.334575329533531 computing -0.1606373
-3.798169568852017 launched -0.3503701
-3.9292483098461015 apple -0.2954494999999999
-3.4371325155597017 ii -0.22122269999999994
-4.284452833493318 commodore -0.20203719999999997
-4.373678982239241 pet -0.20556719999999995
-4.218795080243155 tandy -0.2086796
-4.082455007542587 crude -0.3355639
-3.55108585056444 television -0.2951408
-3.8700142073929524 sets -0.244628
-4.190999769384136 screens -0.1768314
-3.619288996433144 data -0.3415005
-3.4339629324916436 major -0.22231649999999994
-3.751120603400935 advance -0.23857439999999996
-3.482428591912902 built -0.3753314
-4.140701870376173 garage -0.1361428
-4.4126330352959195 stephen -0.1832652
-4.253904859574468 steven -0.18127879999999996
-3.8166821026704643 jobs -0.28873019999999994
-3.774616000533293 club -0.21855170000000002
-4.297178574128271 affordable -0.1361428
-3.565000278302368 pcs -0.17831609999999998
-4.330382142890985 triggered -0.3547017
-4.380516734875614 explosive -0.1361428
-4.449971307878682 product -0.3327551
-4.397129950297133 desktop -0.3011636
-4.062124267720766 models -0.23901499999999992
-3.532460325929998 home -0.3225334999999999
-3.574431872199591 mainframe -0.18676880000000004
-3.828264499979087 unlike -0.23916590000000001
-3.7152005233724776 types -0.7530811999999999
-4.311957737653652 store -0.2088365
-4.338262623772727 memories -0.23656539999999998
-4.488490281762103 faster -0.3885902
-4.666413189056316 memory -0.29733719999999997
-4.328037836333603 capacity -0.33991669999999996
-4.498768723972154 greater -0.22830459999999997
-4.288674429658311 counterparts -0.25019549999999996
-3.9854310079214934 pioneer -0.17129609999999998
-3.8058909850638205 pc -0.1756253
-3.737650869257638 gates -0.165603
-3.8877025171675976 paul -0.2205378
-4.192782853965661 allen -0.18121449999999995
-4.208569534360248 developed -0.37746969999999996
-3.327669659449208 became -0.30993289999999996
-4.3085537106363905 billionaire -0.1637985
-4.251192385067765 ibm -0.3092752
-4.370143824302896 adapted -0.18127879999999996
-4.213197024601403 versions -0.3658876999999999
-3.547098319561825 f. -0.1361428
-4.493204970768025 seagate -0.33885579999999993
-4.2720200610886065 disk -0.37371409999999994
-4.485826383066588 drives -0.22356959999999998
-3.8715933612081903 dale -0.1361428
-4.1980576879722715 atlanta -0.20606199999999994
-4.219478543698489 engineers -0.2225642999999999
-4.006997940127941 allow -0.23124569999999994
-4.27157053034061 via -0.30060769999999987
-4.169231322013778 telephone -0.30866089999999996
-3.9480237331684416 leader -0.283488
-4.177706662992281 entered -0.3655196
-3.5798622515656278 shipments -0.33712439999999994
-3.701477373819842 annually -0.25977089999999997
-3.7214111674914956 australian -0.17867209999999994
-3.872747347137212 pharmaceuticals -0.1605521
-4.224960354042326 affiliate -0.3108271
-3.6899097162119436 acquired -0.32135779999999997
-4.460003259060794 sells -0.2242555
-4.300430058133709 label -0.331432
-3.9182924423084358 voting -0.23200050000000003
-3.680766294181608 stake -0.4493908999999999
-3.677762964385331 together -0.3387536
-4.073856447034994 convertible -0.4159224999999999
-4.0221076126530555 preferred -0.4506506
-4.200542767227524 holdings -0.32334809999999997
-3.6504256632854846 gives -0.3625999
-3.4560403977941125 right -0.39462879999999995
-3.95633992109966 oil -0.41146549999999993
-3.3920439108242633 production -0.3700413
-3.628979899285799 australia -0.2670931999999999
-3.9327290542711015 bass -0.17342280000000002
-3.731671205054661 raised -0.41111169999999997
-3.505714304554768 barrels -0.2095475
-3.966040537556771 launch -0.22948499999999997
-4.3964979615829 scheduled -0.4423137999999999
-3.8515768255325247 brought -0.31564139999999996
-4.240049832233411 exxon -0.2534525999999999
-3.9378653908741756 broken -0.19083179999999997
-3.9846511641245237 hill -0.201535
-4.2581437363810615 operate -0.2139996
-3.8371794528014065 joint -0.3217549
-3.7757614988495654 venture -0.30541299999999993
-4.0508397220040475 started -0.3101202
-3.8097553876532464 gradually -0.1361428
-4.14890503115199 reaches -0.20416000000000004
-3.6519709511300404 reserves -0.37829949999999996
-4.280218977493772 start -0.24864469999999994
-4.322081075469892 producing -0.22779210000000003
-3.954932151058521 southern -0.2910097
-4.0645418715253365 optical -0.19731919999999997
-4.200966296106195 subsidiary -0.48526319999999995
-4.025378968763908 thomas -0.22979829999999998
-4.2593850113268985 sloan -0.1361428
-4.052292067568831 following -0.39488119999999993
-4.017962385304138 buy-out -0.2872643
-4.452584718543655 shearson -0.39380599999999993
-4.583783915358872 lehman -0.22796019999999995
-4.31941132547171 hutton -0.1361428
-4.094556430528385 itself -0.3268738
-3.965318081700678 certain -0.1939127
-4.450624603782663 businesses -0.4198175
-3.222416685638159 program -0.5010129999999999
-3.750746705463816 white -0.28772739999999997
-4.003846430671849 bush -0.2691138
-3.8766843255311048 duty-free -0.2808639
-3.7627085620998337 produced -0.45822919999999995
-3.9779073143848844 quantities -0.33820859999999997
-3.9005152383614208 virgin -0.2312948
-3.947894000252199 islands -0.15295229999999999
-4.446706490907203 response -0.2805716
-4.234309505673875 petition -0.17342280000000002
-4.059819967729869 changes -0.4283033999999999
-3.9914748490273912 preferences -0.31106129999999993
-4.395685686571245 denied -0.30139779999999994
-4.002781657832949 requested -0.2109958
-3.9694803116951296 covered -0.3365746
-3.9462195536746383 tariff -0.3304288
-3.833924769187176 grant -0.1664023
-4.0667355354839225 status -0.22041209999999997
-4.38970060339186 categories -0.19638989999999998
-4.492973235286067 injury -0.20556719999999995
-4.325521017841247 producer -0.36233219999999994
-4.486299655829213 seller -0.24575269999999994
-3.967468341642229 assembled -0.18111809999999998
-3.727105402525126 philippines -0.1361428
-3.7932247065377442 main -0.1580866
-4.232790400232596 beneficiaries -0.33885579999999993
-4.438804899919563 eligible -0.3564284999999999
-4.205140016688639 aide -0.25963319999999995
-3.9483165125842223 magna -0.1637985
-3.881382453426705 mcalpine -0.17342280000000002
-4.295952108235887 frank -0.21741000000000002
-4.067105497889757 stepping -0.27356559999999996
-4.128936560308422 turn -0.25293839999999995
-4.5404216475982135 manufacturer -0.3135354
-4.282653615512683 effort -0.4896995
-4.542193875013722 reduce -0.28211819999999993
-4.124821675875302 overhead -0.35564909999999994
-4.8422416662699455 curb -0.1469947
-4.402330676806852 satisfactory -0.1361428
-3.6937024625636443 level -0.41111659999999994
-4.435420980807534 achieved -0.18653590000000003
-4.448397911060328 maintained -0.26626499999999986
-3.519978491210909 finance -0.28445129999999996
-3.576142074875686 ambitious -0.1361428
-3.6743808517915237 expansion -0.3785335
-4.446056278674384 left -0.2991062
-4.562727665583991 excess -0.315238
-3.966264707753776 load -0.19319819999999996
-4.719538439024959 automotive -0.284215
-3.9015534989936054 downturn -0.3421758
-4.330860864591443 steady -0.187558
-3.839391408185912 cut -0.3417954999999999
-4.277051170760172 quarterly -0.3320525
-4.670418737239268 dividend -0.32230229999999993
-4.567924946429183 52-week -0.1678971
-4.379523023251228 canadian -0.22260729999999995
-3.5067406120822717 dollars -0.3129626
-4.533459928867359 us$ -1.1326339999999997
-4.204530316125268 c$ -1.1103569999999998
-3.654485517922003 founder -0.31491519999999995
-4.559162113653852 controlling -0.18650579999999997
-3.922624787524662 shareholder -0.31952269999999994
-3.650108027056524 seek -0.260449
-4.273564431570251 unsuccessfully -0.17342280000000002
-3.725442776252546 seat -0.2067584
-3.940352299277678 parliament -0.20346539999999996
-4.1916812509423105 resume -0.17567199999999997
-3.928283963457522 influential -0.1517298
-3.612519424244529 role -0.48567309999999997
-3.9742067195452475 running -0.2898398999999999
-4.421623395552557 throughout -0.5698795
-3.357551690984006 organization -0.2661438
-4.489581627986417 personally -0.1581247
-4.4310932640369325 restructuring -0.3595437
-4.377527736101494 consulting -0.3010866
-4.344968840226395 career -0.2002687
-3.6152213000935887 clients -0.35713029999999996
-4.415019919232472 english -0.2183759
-3.723164478786093 chemical -0.3007292
-3.6277118427678676 nearly -0.5575324
-4.291208650606285 bought -0.3235197
-3.8048953959080976 mortgage -0.28151289999999995
-4.3496955940287 totaling -0.4744074999999999
-3.7168764355452812 purchases -0.3662874
-3.7363979208343814 fannie -1.1326339999999997
-3.79536154599469 mae -0.15438289999999996
-3.986636577244921 o. -0.1361428
-3.8118560562927084 maxwell -0.31458449999999993
-3.535452867955551 conference -0.27308030000000005
-4.307115164612861 institutional -0.42237519999999995
-3.57015036380586 rest -0.1596836
-3.742306811737967 went -0.45474029999999993
-3.9994220257289803 france -0.32363519999999996
-4.230229610156379 hong -1.547607
-4.278374087627496 kong -0.1361428
-4.535170820424668 snapped -0.30351209999999995
-3.8142023125621694 similar -0.22609029999999994
-3.691019590876148 mortgage-backed -0.4678455
-3.4454850698706543 put -0.40963229999999995
-4.455834175171023 blackstone -0.33885579999999993
-3.1836197804670814 investment -0.40546209999999994
-3.068498521099805 bank -0.44629529999999995
-4.4123879469193446 jointly -0.23221810000000004
-3.7932955616554223 goldman -0.6992413999999999
-3.695231193341724 sachs -0.1361428
-4.171146269201022 daiwa -0.21808199999999997
-4.311260838752945 co -0.7244095999999999
-3.737527582743789 seven-year -0.1361428
-4.266951150369463 offering -0.33092279999999996
-4.102651903698727 fixed-rate -0.17342280000000002
-4.327036059776058 floating-rate -0.2588992
-4.202999034200412 linked -0.42047629999999997
-3.842199613536825 london -0.2646031999999999
-4.166765059482767 interbank -0.25873909999999994
-3.8016140111864467 key -0.17919529999999995
-4.583062662658116 advantages -0.21406149999999996
-3.52797494601758 designed -0.5980481999999999
-4.478681570718585 eliminate -0.1913954
-4.251944059865612 prepayment -0.17342280000000002
-3.9838207900290135 forces -0.2640376
-3.6275642926133753 channel -0.2841877
-4.313670392089849 payments -0.4250341
-4.421380565192954 semiannual -0.33745329999999996
-4.4537721219180755 reducing -0.264131
-4.075127133089173 burden -0.2177121
-3.5846097037177986 addressing -0.24428179999999997
-4.561865609643618 extremely -0.1974995
-4.446553483414973 attractive -0.26014600000000004
-3.799031827382405 boosted -0.393025
-3.614573594031966 outstanding -0.26345129999999994
-4.091453289473651 rapid -0.18676880000000004
-4.028371427596954 purchasers -0.27596
-4.165601584694109 buying -0.3583780999999999
-3.7009903748604454 issued -0.3500329999999999
-3.571368946535297 l. -0.15438289999999996
-4.446475859130689 expanding -0.2036217
-3.5221561577005955 members -0.43126919999999996
-4.183151327098792 agreed -0.8650293999999998
-4.1696932744611095 extend -0.217633
-4.05903538795839 aerospace -0.22805199999999998
-4.581371107180384 exclusive -0.18485540000000003
-3.963593393879417 file -0.20139889999999994
-4.378834607553884 code -0.17465800000000004
-3.756509969739633 giving -0.3001414
-4.510253523247555 creditors -0.3202896
-4.493654175820053 lawsuits -0.23208869999999998
-3.580169275536483 debts -0.24687479999999995
-3.803172933072124 giant -0.19187099999999999
-3.884402565328902 montedison -0.18659619999999996
-4.375519904042532 indirect -0.1361428
-3.718625531951153 tender -0.5385244
-4.102211263993109 erbamont -0.1361428
-4.43842226678179 incorporated -0.37742279999999995
-4.50565653324135 netherlands -0.15067309999999998
-3.794643013497348 advertised -0.17342280000000002
-4.711810131881388 editions -0.17342280000000002
-3.9902784100492625 expire -0.2479684
-3.6065980959782826 november -0.28737219999999997
-4.2752432756590775 currencies -0.20899340000000002
-4.132829264650426 drawing -0.1517298
-3.9937538815293974 hefty -0.14647169999999998
-3.8136137630140152 marks -0.3006097
-3.9151254249825764 sixth -0.1361428
-3.7536772498823647 consecutive -0.25553149999999997
-4.303860605842357 reflects -0.46860079999999993
-4.252881282714377 intensity -0.1361428
-4.450509214428484 intervention -0.1837043
-4.465719290339101 june -0.389583
-3.867593103296745 currency -0.2587171
-4.622159573946639 temporarily -0.15438289999999996
-3.8261930874600294 surged -0.4753412999999999
-4.213106122193653 above -0.3833307
-4.356748001069296 yen -0.2822946
-3.6599695299948194 announcement -0.29715869999999994
-3.7602460443516823 follows -0.3447291
-4.159606912304679 sharper -0.1361428
-4.328595126576939 pick -0.40078769999999997
-4.100071217940136 craze -0.1361428
-4.04568387900565 sweeping -0.1464718
-4.063722819088158 rash -0.1361428
-3.607205178366119 closed-end -0.2250296
-3.7121597001041065 publicly -0.2863346
-3.648530439102205 traded -0.3102831999999999
-3.5291082811113688 portfolios -0.23359589999999997
-3.9313360732037985 invest -0.23770859999999996
-3.132681998295689 stocks -0.45877929999999995
-3.8950826034840014 single -0.15315539999999997
-4.102825748082228 regulators -0.27746029999999994
-4.0042352222420465 triple -0.31106129999999993
-3.6396252327924317 charles -0.21638079999999998
-3.696674963372858 e. -0.1517298
-4.09303113119041 simon -0.2312948
-4.092920176979492 washington-based -0.1361428
-3.607561883942312 turf -0.16789719999999994
-4.566260367370692 ranged -0.43541479999999994
-4.321509989891089 chile -0.1361428
-4.154188420981452 portugal -0.17342280000000002
-3.9323413222674595 philippine -0.1704387
-4.276059207238783 capped -0.23909179999999994
-4.223825676247492 visit -0.3315008
-4.165535161032253 aquino -0.1361428
-3.7628348972068553 head -0.4410356999999999
-4.07146948159333 kicked -0.2597708
-3.9440480116419367 here -0.41136
-3.8824581549486914 province -0.2320004
-3.7429799512487794 anything -0.30518999999999996
-3.527241300854848 how -0.45050439999999997
-4.224263303158645 guinea -0.22480739999999996
-4.16533295328913 george -0.3693352999999999
-3.74039230104197 foot -0.19035639999999998
-4.257836632509302 managing -0.4175250999999999
-3.742406893149647 partner -0.3309989
-3.886652845990201 associates -0.27168149999999996
-4.084943042496144 mass -0.2004489
-3.818628215814843 explosion -0.21420599999999998
-4.2820266408599705 mania -0.19333589999999995
-4.356613621220794 1920s -0.1361428
-4.330136301137257 narrowly -0.1560797
-4.342734760764738 focused -0.6439367999999999
-4.308305655957863 wildly -0.1361428
-3.8543589606055995 popular -0.1651544
-4.306665816176826 crash -0.2682339
-3.555957435313081 traditional -0.15260069999999995
-3.8878343806020865 issuing -0.1704387
-3.8773008750794915 fixed -0.21009039999999998
-3.7266659465789393 surge -0.3594206999999999
-3.7708248437833967 brings -0.1517298
-3.79689513549926 soon -0.3488834
-3.6505381253828895 listed -0.25236499999999995
-3.965158231045248 account -0.40031
-4.37592532767008 billions -0.5090833999999999
-3.7791860123490184 claims -0.3898667
-4.05457107549435 available -0.44303319999999996
-4.090245775358049 runs -0.2629337
-3.901368930010128 michael -0.19673150000000003
-3.4972817771127223 porter -0.1361428
-4.028490779785913 analyst -0.46351119999999996
-3.889750861613681 smith -0.2522692999999999
-3.8940710770246882 barney -0.21391709999999994
-4.026737159583716 harris -0.1581247
-4.010503557866315 upham -0.1361428
-4.530034952116369 behind -0.3235319
-3.8167820173477156 individual -0.30588379999999993
-4.450204038712442 scrambled -0.5597689999999999
-3.9748785551694352 find -0.2784404
-4.554778883930904 brokers -0.27171159999999994
-3.7794975461500866 easy -0.3112565
-4.563221060095729 sell -0.2903121
-4.410517145908954 stretching -0.1637985
-4.264026043845913 wide -0.1597382
-3.5597023806664425 planners -0.17206739999999998
-3.311462453787836 often -0.20531989999999994
-3.93361798335104 urge -0.18468969999999998
-4.348766318345352 diversify -0.1637985
-4.057240963867623 hold -0.3012889999999999
-3.7808895274973184 emerging -0.2723518999999999
-3.7644532538677558 markets -0.3859079999999999
-4.385533081347921 mature -0.1832652
-3.474604380656662 get -0.3160796
-4.103598349567387 taste -0.21406149999999996
-4.013333481552063 burned -0.1560797
-3.8296122260329413 gyrations -0.19793529999999998
-3.514015045904654 prices -0.47751899999999997
-3.9712613947761923 tend -1.148041
-4.336298290560704 swing -0.21406149999999996
-3.7427176723986477 broader -0.19780469999999994
-4.2047272634860295 oct. -1.8316039999999998
-4.244304402605995 instance -0.1361428
-4.286160479463437 plunged -0.49722449999999996
-4.427654652167545 clobbered -0.1361428
-3.586638160239825 wild -0.23496519999999996
-4.296118302429187 frenzy -0.15438289999999996
-4.32554089514154 historically -0.19774899999999998
-4.481081618094062 fat -0.20556719999999995
-3.865611623780694 premiums -0.19799949999999994
-4.519803245758885 discount -0.225548
-4.097822474712915 late -0.465584
-3.7987445633984547 premium -0.26455569999999995
-3.7348369635924197 reason -0.435931
-4.296430874966588 climbed -0.7371143999999998
-4.441089226142211 partially -0.21391699999999994
-4.507000577933286 specialists -0.19770979999999996
-3.759619232258107 european -0.2640817
-4.344019179723454 skyrocketed -0.1361428
-4.578877735999294 startling -0.1361428
-4.11014788677862 targeted -0.1896584
-4.449127115624042 long-term -0.24918509999999994
-4.343890408662846 play -0.26842269999999996
-3.698682688365569 integration -0.2074142
-4.205806187903969 invested -0.4858381
-4.0287685891086635 jumped -0.6399435
-3.85974598904747 'm -0.1361428
-3.9047868395995873 alarmed -0.1678971
-3.723284487993573 see -0.327145
-4.248304675542629 rich -0.1902108
-3.6206371624234532 newly -0.2348552999999999
-4.269669870399713 reflect -0.35544719999999996
-4.094597972925226 increasingly -0.15845529999999997
-3.9162038707473172 global -0.248212
-3.9054972976605784 suggests -0.435664
-3.266051569614151 asia -0.26029929999999996
-4.266137228320889 europe -0.30412719999999993
-4.48806723799538 exposure -0.4607546999999999
-4.437334921245169 viewpoint -0.18127879999999996
-4.307212817323325 cast -0.24882359999999998
-3.5436111465779536 plenty -0.7367957999999999
-4.140482012187023 levels -0.4803974999999999
-3.5074052573880845 buy -0.2846918
-4.2422580393519835 depositary -0.2312948
-4.050984868992758 receipts -0.1459969
-3.737272710464349 adrs -0.1361428
-4.073587452229015 represent -0.3109547999999999
-4.4727701577788945 essentially -0.21956149999999997
-3.8938175588192823 insist -0.41953299999999993
-4.443358078369593 jumping -0.22480739999999996
-4.350926544496773 advice -0.24200359999999999
-4.369934025454685 folks -0.15438289999999996
-4.4881700901452355 party -0.2669886
-3.535504086915463 better -0.29819579999999996
-4.395809225101971 ready -0.48744539999999986
-3.9342121495650693 quickly -0.26908239999999994
-3.817900935422597 soviet -0.20913809999999997
-3.5053024516728577 union -0.3036715
-3.966943840231588 technical -0.2275386
-3.660447696935977 talks -0.34948209999999996
-4.087857369487016 repayment -0.1678971
-3.7063677598951896 moscow -0.22035450000000004
-3.965474560942599 russian -0.15067309999999998
-3.9976323450155835 owed -0.2777178
-4.2615219952459 repaid -0.15438289999999996
-4.241299515300181 clear -0.27810289999999993
-3.9563822980441654 soviets -0.14647169999999998
-4.472287527058927 happen -0.33869039999999995
-3.807112852207049 permitted -0.19035639999999998
-3.852725313959579 branch -0.23363329999999993
-3.7682510261424196 affairs -0.3222770999999999
-4.105296491011698 unless -0.43617809999999996
-3.710949048154783 settle -0.1935331
-3.9888687690380267 lent -0.18659619999999996
-4.223178776592174 short-lived -0.19333589999999995
-3.9506024721620387 democratic -0.23085599999999992
-4.047086375948477 communists -0.1361428
-4.104205591052042 seized -0.3186845
-3.793033499565621 johnson -0.23394009999999996
-4.466186316674182 amended -0.2249185
-4.52158753441069 americans -0.302157
-4.016679124903377 monetary -0.4461122999999999
-3.6079604082518784 u.s.s.r. -0.1361428
-3.684692106735681 belongs -0.31106129999999993
-4.182830939837776 stressed -0.39704179999999994
-4.257510610084444 satisfying -0.17342280000000002
-3.754791890114802 legal -0.2356577
-4.126009978317627 obstacles -0.19877679999999998
-3.9308064792465744 hundreds -0.9850584
-3.840351444820046 millions -0.6370317999999999
-3.618685889511647 war -0.2922893
-3.7212467123817197 reflection -0.1678971
-4.305726957925803 manufactured -0.21391709999999994
-3.3328772673752507 goods -0.2945817
-3.7387821667066476 failed -0.5584451999999999
-3.59270986651336 rise -0.39922359999999996
-4.4541986228097095 meanwhile -0.16942159999999998
-3.574273322071867 purchasing -0.2601912
-3.662294433318397 survey -0.24854979999999993
-3.6700256100378197 indicated -0.4508986
-3.6369882295811653 index -0.4354209
-3.575367743339996 reading -0.2115764
-3.5825185549063514 sector -0.3045245999999999
-3.946776518936396 generally -0.1862189
-3.5440525331588595 booked -0.1361428
-3.298145642012831 defense -0.3034675
-4.339234610282743 contractors -0.1902783
-3.968143796331246 fallen -0.21424439999999997
-3.7981473952230043 separate -0.151903
-3.9147131317539143 ran -0.35863519999999993
-4.437491145235997 significantly -0.23525349999999998
-3.5730429985196692 private -0.2239101
-3.552692143922036 building -0.3105048999999999
-4.52052076962342 activity -0.32629529999999995
-3.969220575698343 adjusted -0.31125069999999994
-4.262920568391226 remove -0.18563679999999996
-4.2667205473445415 effects -0.46085319999999996
-4.30211028682761 usual -0.15248639999999994
-4.2014505138002844 seasonal -0.2594188
-4.219694238840084 patterns -0.16778579999999996
-3.665520174448047 inflation -0.34687969999999996
-3.6491095658189736 economist -0.4461294
-3.7859675374904014 society -0.3090977
-4.586719579755927 cleveland -0.2549044999999999
-4.281101362629621 revive -0.23656539999999998
-4.08381537338987 residential -0.19892899999999994
-4.370584407556971 slack -0.17342280000000002
-3.719017383587777 asked -0.36724139999999994
-3.7404230828629164 draw -0.1637985
-3.8530835118341944 blank -0.20215769999999994
-3.733900415806504 measures -0.3605632
-3.9045130874314036 slowly -0.18361929999999999
-4.41958938611736 reserve -0.24189429999999998
-3.6683154983880897 economists -0.28619279999999997
-4.583918936263874 predicting -0.3601029
-4.381878841459128 slip -0.1678971
-3.5225857742401576 recession -0.2518635000000001
-3.58225437089069 cite -0.1637985
-4.080367640266709 lack -0.4920499999999999
-4.648584921280636 imbalances -0.1581247
-3.641585715398617 provide -0.23148729999999995
-4.525426577199081 warning -0.18123289999999997
-4.707067751112706 signals -0.17831609999999998
-4.049550094675069 inventories -0.3226678
-3.8562937873366665 watched -0.218376
-4.414973235811201 clues -0.19333589999999995
-3.850611362157847 buildup -0.24327869999999996
-3.980728391587733 cutbacks -0.331432
-3.5899455631605544 lead -0.31387829999999994
-3.982953581203001 front -0.1744912
-3.797776429577243 soft -0.2324211
-3.818230171893945 landing -0.19323259999999995
-4.212325311572842 elliott -0.19333580000000003
-4.153979626489667 donaldson -0.7364448
-4.050523176180811 lufkin -0.1361428
-4.140931562614347 jenrette -0.1361428
-4.459266271504601 excessive -0.17571869999999998
-4.146521545254422 slowdown -0.24271500000000001
-3.5213035697486363 leading -0.21647319999999998
-4.076770187481225 intended -0.5797396999999999
-4.607816062952793 climbing -0.2140133
-3.7296109981731886 durable -0.6784528
-3.6593507496284112 backlogs -0.20215769999999994
-4.125283831950063 unfilled -0.3087250999999999
-3.7137532673841576 helped -0.27046629999999994
-3.852781756115157 strength -0.35527859999999994
-3.511893749986319 declined -0.6799934999999999
-3.984232710902082 accounts -0.3597122
-4.6513357781676286 bankers -0.3513859999999999
-4.590876458703669 predicted -0.37021239999999994
-4.545061680539822 eventually -0.1922442
-3.7247772049775474 boost -0.23952540000000003
-4.609878364220872 single-family -0.23909179999999994
-4.413958484504456 homes -0.3023745
-3.570892174859758 adjusting -0.1678971
-3.8772403849152517 change -0.4074394
-4.442703428336343 contrast -0.16886719999999997
-3.5486071588048556 mcgraw-hill -0.18127879999999996
-3.8110125858848494 dodge -0.1361428
-3.8484255145027326 contracts -0.34078089999999994
-3.76229871318692 awarded -0.27511899999999995
-3.6510708514379617 counts -0.18111809999999998
-4.010890049175188 slowing -0.2339424
-4.63401876503373 imminent -0.1361428
-3.629016846851321 committee -0.3567115
-3.2819576072788283 materials -0.28618589999999994
-4.581950043643507 pitney -0.5305738
-4.580924973189844 bowes -0.1361428
-3.845865893554328 stamford -0.2808638
-3.578070136773426 low -0.2674929
-3.6776128139733033 evidence -0.47521149999999995
-3.699691186949127 export -0.20452559999999997
-3.9346788059284625 purchased -0.29319459999999997
-4.36002957157974 vendors -0.1361428
-4.257303066001104 delivering -0.1361428
-3.887905602478411 consider -0.2503233999999999
-3.98066240543149 pressures -0.2780358
-4.280863172130518 suppliers -0.24575269999999994
-4.1387602443741 handle -0.19602
-4.248828180072557 delivery -0.23868409999999998
-3.8945336409876905 provided -0.39667009999999997
-4.4381680808174835 indicators -0.15705229999999998
-3.8925738752510695 difference -0.30334529999999993
-4.009029064815271 reporting -0.23457729999999996
-3.649913587791822 improvement -0.3270238
-4.301494519435913 particular -0.15064809999999995
-4.339758919493642 worsening -0.1361428
-4.304293936955 polled -0.1361428
-4.198919026726346 import -0.22256439999999994
-3.5595718723418592 acknowledging -0.17342280000000002
-3.799225092732786 trend -0.2865654
-4.412259903214409 suspect -0.21476179999999997
-3.749005336847813 going -0.5133342
-4.060112922711807 items -0.3444081
-3.690479558876899 short -0.3923963999999999
-4.2151345586576845 supply -0.31581259999999994
-4.075800552503521 numbered -0.21391699999999994
-3.94469246162692 dozen -0.1486886
-3.9741674373937426 included -0.3731736
-4.01815085742608 milk -0.2104817
-4.288284378219479 odd -0.1517298
-3.6171611673424957 thing -0.31924299999999994
-3.995935115744931 row -0.17571869999999998
-4.2721306231915275 shortage -0.26002919999999996
-3.6914235064879932 blamed -0.35705299999999995
-4.213136280311712 dairy -0.21391699999999994
-4.142919973545364 exceptionally -0.17342280000000002
-4.167739091565697 coupled -0.8316038
-4.054411639300545 quotas -0.22010659999999993
-4.03469762857628 contributed -0.7139740999999998
-3.881013915857927 article -0.27628309999999995
-4.340400098144128 seasonally -0.5818938
-3.520788568900745 sheep -0.1361428
-3.6085190926140718 chase -0.24751139999999996
-4.248828564061804 baby -0.2765005
-4.260094413372624 boomers -0.1361428
-4.094133464125592 sides -0.18718399999999996
-3.7198025114123823 lot -0.18360439999999997
-3.846273589792716 novel -0.1361428
-4.029583918138347 entirely -0.19613659999999997
-4.292899082811224 especially -0.2816991999999999
-4.145117126892439 characters -0.18536409999999998
-3.8173062127884485 drink -0.16570639999999998
-3.8690408426611165 dogs -0.1361428
-4.340757058638064 bugs -0.17831609999999998
-4.21734900164362 bunny -0.1361428
-4.246669891629483 reruns -0.1361428
-3.8429181616203327 read -0.2577381
-3.8216459080482297 talk -0.415352
-3.6898439488242167 worry -0.4118252
-4.447169241466689 careers -0.24428179999999997
-4.244001216584659 reader -0.20805340000000003
-4.473644281701611 engaging -0.37742279999999995
-4.646672822236855 recognizing -0.21420599999999998
-4.322905962038973 contemporary -0.1361428
-4.3471196397167855 author -0.2868237
-4.656077256822295 belong -0.3900082999999999
-2.9125621883508583 school -0.2980398
-3.7890897628377753 writers -0.19323259999999995
-4.3525553608802925 notion -0.2759599
-4.276304421241407 unique -0.18111809999999998
-4.592514464807376 outsiders -0.331432
-4.457067196362553 carries -0.22802909999999998
-4.333213954224775 implicit -0.17342280000000002
-4.058202617856669 relations -0.27660660000000004
-4.497076947898185 think -0.3808225
-4.063979839781489 plot -0.1768314
-4.00101180717553 rooted -0.35564909999999994
-4.1188442691428495 reality -0.19317059999999997
-4.237522436017518 funny -0.20767689999999994
-4.139015794709371 hero -0.1606373
-4.567383647147408 snow -0.1361428
-4.5327584625224855 search -0.22071769999999996
-4.111801791065824 star -0.24690319999999996
-3.979356408803863 stanford -0.16379859999999996
-4.52933496264103 degree -0.2355293
-4.636964592033141 girlfriend -0.1361428
-4.440559593222987 sassy -0.1560797
-3.709833805395555 mark -0.16841139999999996
-2.7427964362280552 her -0.23515159999999993
-4.545377356146975 meets -0.19333589999999995
-4.49660242457398 christian -0.18468969999999998
-4.3803933112551485 offers -0.2601955
-4.399902030945232 god -0.1637985
-4.575067313110339 phone -0.33057819999999993
-3.525728093060601 man -0.26296849999999994
-4.551162771880514 sweet -0.1361428
-3.7617718703621854 figure -0.24642019999999995
-4.463885584452288 wears -0.17342280000000002
-4.4954222492448705 else -0.2850767
-3.5953627928697056 40-year-old -0.1361428
-4.48670407264016 norwegian -0.17342280000000002
-4.470464734035659 wood -0.1650418
-4.520085247832142 seems -0.42239899999999997
-4.129590658735381 copies -0.47574469999999996
-4.423851859690386 published -0.3272783
-3.4501541606734185 tokyo -0.23694459999999995
-4.374685286134496 pack -0.19877679999999998
-4.369328625531058 charts -0.1361428
-3.732339250852459 books -0.2831105
-3.9166498032736965 written -0.2761759999999999
-3.7776914510251665 language -0.21909259999999997
-4.149731893228152 usually -0.17818660000000003
-4.404615406531445 carry -0.265457
-4.351667766138568 macmillan -0.18659619999999996
-4.2607719873668515 baseball -0.2109613
-4.36870006938745 version -0.5529461999999999
-4.459152830091369 call -0.3198349999999999
-4.360399529965748 game -0.2692997
-4.090459775160112 describes -0.18853309999999998
-4.2332638038459045 mirror -0.19877679999999998
-4.2471391697526 harmony -0.1361428
-3.860666428472423 spirit -0.20920039999999998
-3.5819647304934743 player -0.28128739999999997
-3.752225153120386 commitment -0.49426259999999994
-3.816327080176834 practice -0.3026702
-4.174750000228471 image -0.2920584
-3.690166076825009 important -0.22035919999999998
-4.332862582061589 soul -0.1361428
-3.971385030431999 male -0.15295229999999999
-4.343370987179756 symbol -0.1768314
-4.181542211608649 played -0.28734079999999995
-4.519722797905733 ball -0.15067309999999998
-4.395140415969724 bat -0.1361428
-4.279495167069495 balls -0.1361428
-4.227149614234571 stadium -0.17718329999999996
-4.280524456410141 strike -0.26499809999999996
-3.802103035697461 zone -0.1361428
-4.377949195270074 depending -0.9119516
-4.303377166229136 size -0.3527322
-3.783460454982051 ties -0.37340209999999996
-3.894626515212264 shame -0.2588992
-4.321221361042685 defeat -0.18853309999999998
-4.152450832416469 players -0.2899064
-3.785431100781395 must -0.37086829999999993
-4.327236877803808 strict -0.15295229999999999
-4.385950274331358 rules -0.3430561999999999
-4.129615439771516 conduct -0.17945319999999998
-3.6332895074774956 lives -0.3322592
-3.6107122679654498 always -0.18137569999999997
-4.386226680367855 wear -0.1560797
-4.4313617333361695 road -0.204788
-3.8214798897751185 amusing -0.1361428
-4.296097652296026 fare -0.19638989999999998
-3.7007792787585516 enormous -0.15387969999999998
-3.8891270932908237 sums -0.18659619999999996
-4.792928488088123 plate -0.1768314
-4.334635608752774 run -0.34854469999999993
-3.938948952194658 complaint -0.18319789999999994
-3.6568411799619494 whom -0.21631070000000002
-3.4533884633235155 sony -0.30695249999999996
-4.130310647925203 regret -0.1637985
-4.016230200913127 parties -0.3057274
-3.8845757968952013 sometimes -0.15460279999999996
-4.529340484828394 vicious -0.1361428
-4.537094654510584 mundane -0.18127879999999996
-4.551995303255383 aspects -0.5687928999999999
-4.303124987344003 employees -0.40620949999999995
-4.505512542436654 assigned -0.3444658
-4.302663161956256 lunch -0.1837895
-4.4935686463155395 partners -0.3238058
-4.427285143918273 style -0.25969869999999995
-4.141397308592153 overtime -0.15438289999999996
-4.203611165393589 solidarity -0.20008849999999997
-3.958960362571352 letting -0.14893819999999997
-3.783871584072273 young -0.2572015
-4.024142189749665 employee -0.21612299999999998
-3.844382927076375 responsibility -0.5635652999999999
-4.541538207139743 frustrating -0.1361428
-4.246714303994479 science -0.1747126
-3.817680304244815 ultimately -0.15387969999999998
-4.477412447984691 lesson -0.17342280000000002
-3.8640349347520497 fired -0.19548279999999998
-4.2665160319704265 committed -0.4228739
-3.9663169339467643 social -0.3183177
-3.5820627233853477 crime -0.2496427
-4.360385991908733 appointment -0.2598321
-4.482850779136103 venerable -0.1361428
-3.3458590778494854 never -0.23190139999999995
-3.8785239278885006 certainly -0.2172362
-3.9858180058776487 learned -0.3467276
-3.639875116592521 something -0.33894539999999995
-3.8699955946851197 deputy -0.3438425
-4.282858911029601 editorial -0.1934321
-4.678433009968306 features -0.2215058
-3.9590784835840185 corners -0.1361428
-4.492740613386119 globe -0.1517298
-3.7743160928886175 becoming -0.2825714999999999
-4.591112986397294 tobacco -0.24011379999999996
-4.309187993505586 smoke -0.18865880000000002
-3.790278125730933 singapore -0.2427674
-4.048191388426548 entering -0.3631101
-3.7719815742149456 restaurants -0.2698815
-3.9444913972761495 stores -0.35762639999999996
-4.007010651474844 sports -0.21933389999999997
-4.086926144259758 centers -0.26492889999999997
-4.0261963030059045 clubs -0.1560797
-4.094694878064075 exempt -0.331432
-3.9681313219233925 smoking -0.18111809999999998
-4.306906115358333 bars -0.1637985
-3.8171219495765545 except -0.39766549999999995
-3.67273191177314 hours -0.3426508999999999
-3.622559938524665 bans -0.18659619999999996
-4.5183205400099995 theaters -0.19312929999999995
-4.4115540812485845 elevators -0.1361428
-4.3920997836542925 hospitals -0.33885579999999993
-3.734883095979607 fast-food -0.3008514
-3.688751196358907 prime -0.4950779999999999
-4.397003418021721 kuala -0.4336638
-4.410326112630803 lumpur -0.1361428
-4.351216450112447 urged -0.22067590000000004
-4.371442433244998 visiting -0.1678971
-4.077333585230945 restricts -0.17342280000000002
-4.343484783108003 designated -0.2217299
-4.053804188528201 indicates -0.42305109999999996
-4.18532620787602 consumers -0.2716894
-3.848787769832675 carried -0.3311662
-4.398367044984416 backer -0.6980718
-4.238562069096518 spielvogel -0.1517298
-4.4519165174682875 bates -0.1361428
-4.509613969747888 colony -0.1704387
-4.471193041874587 feel -0.2705429
-4.383274176045069 pressured -0.24938210000000002
-4.3844881955692925 surveyed -0.18529359999999995
-4.4519517384995675 identified -0.21441289999999996
-4.4197315613117505 one-third -0.3688603
-3.6700260359261647 great -0.21408659999999996
-3.441175574693862 deal -0.3444845999999999
-4.63552674085767 stress -0.25465709999999997
-3.9175943866439544 cabinet -0.1704387
-4.303805321651518 endorsed -0.2890362
-3.6206758239166055 proposal -0.34426719999999994
-3.7427582786199682 build -0.2811199
-3.736375119855427 center -0.3729839
-3.9998005320920815 central -0.2549125
-4.164763012542837 plaza -0.18111809999999998
-4.102898902106377 balked -0.37742279999999995
-3.890548085894974 conditions -0.3068814
-3.9738150613843275 undertaking -0.1637985
-4.297603897771197 necessary -0.38235889999999995
-3.615200750516483 arafat -0.17329130000000004
-4.124225526992181 olympic -0.19333580000000003
-4.142402654925195 asking -0.2693625
-4.239092308301395 palestinian -0.1361428
-4.2127884941147675 liberation -0.1361428
-3.6629216915004963 membership -0.24418559999999995
-3.888097661276667 renewed -0.15118289999999998
-3.921097147707171 application -0.18975479999999997
-3.5910400725159786 plo -0.1361428
-3.9447706401697245 organizations -0.1931809
-3.5045074101219855 win -0.23572649999999998
-3.361702592539944 health -0.36357339999999994
-4.081015521172087 tourism -0.20920039999999998
-3.579880900398497 beijing -0.2119411
-4.008498839706623 chinese -0.19125210000000004
-3.8194048428300147 aids -0.24438509999999997
-3.852640257187655 sex -0.2991209
-3.608278112556086 daily -0.22547259999999994
-3.7090453940911354 disease -0.2534525999999999
-4.386990527066835 hospital -0.23014119999999996
-3.310122466515572 tests -0.33127829999999997
-4.0673394784779875 confirmed -0.36757979999999996
-4.537923844002286 family -0.283234
-3.9634613812209643 tested -0.14975060000000004
-4.123568842336772 newspaper -0.2363127
-4.451442466771075 chaotic -0.1361428
-3.554072992070124 life -0.4037788
-3.768196124605949 polish -0.17342280000000002
-3.495363144991198 charges -0.43842829999999994
-4.400457546458955 gas -0.23875199999999994
-3.7204045410171487 line -0.35359669999999993
-4.238487360286894 compensate -0.22480739999999996
-4.191395792279717 coal -0.179915
-4.207780136959742 establishing -0.28100829999999993
-4.091373487017713 diplomatic -0.1864154
-4.054756415264457 poland -0.34048949999999994
-3.913142617511432 loans -0.43140719999999994
-3.7758047919166797 financially -0.21434069999999994
-3.9561919053749124 strapped -0.24428179999999997
-4.03776308617671 warsaw -0.1517298
-3.740663136806805 victory -0.2600760999999999
-4.462626580483927 environmentalists -0.1864154
-3.916479385023153 hungary -0.20674439999999997
-4.731392373989261 terminated -0.23656529999999995
-4.750649603547561 multibillion-dollar -0.1361428
-4.51549798522244 river -0.196603
-3.5327826814817174 dam -0.1361428
-3.752469416863852 czechoslovakia -0.19892899999999994
-3.593757098351446 ending -0.2692845
-4.06261202267551 authorized -0.18659619999999996
-3.607445217395793 modify -0.17342280000000002
-3.9186545482646644 damage -0.43277439999999995
-3.652257396409018 planned -0.2926918
-4.220388415363341 ca -1.6109219999999997
-4.126113462787037 operated -0.20416000000000004
-3.9780453972452148 solely -0.2500699
-4.0749357843590515 peak -0.2511364
-3.9325169975111804 periods -0.2045453
-3.582151014804577 painting -0.18111809999999998
-4.447950622140157 stockholm -0.19333589999999995
-4.069857863341343 painted -0.1637985
-4.5957800381601555 oils -0.20556719999999995
-4.37870171576628 playwright -0.19333589999999995
-4.141161975750356 couples -0.16570639999999998
-4.133388098374104 statistics -0.3011154
-4.366547105301899 debentures -0.24101669999999997
-4.6784819808490035 due -0.5435627
-4.181642555844724 bond -0.4276791
-3.8178957556961453 warrants -0.2228941
-3.781741162514679 toronto-based -0.15438289999999996
-3.548892360054815 real -0.3900615
-4.09366223990442 estate -0.1559001
-4.437573383764136 warrant -0.20203719999999997
-4.4121503966197615 holder -0.26561909999999994
-4.520709208864594 par -0.18468969999999998
-4.5909934075610535 accrued -0.23656539999999998
-4.343202413943339 date -0.30302369999999995
-3.5544933386853192 underwriters -0.229434
-4.374419794769512 dominion -0.20215769999999994
-3.6649108383206643 actor -0.20215769999999994
-3.5037517658368666 lane -0.15295229999999999
-4.516879810046761 charlie -0.35564909999999994
-3.5534592623670105 martin -0.1637985
-4.019940487286104 laid -0.19319809999999998
-3.8087118462997074 claim -0.3577759999999999
-4.611593502761526 writer -0.22355099999999997
-3.527611001411055 tramp -0.1361428
-3.7796613104810777 film -0.18694529999999998
-3.5168278508658557 student -0.1485673
-4.516460667954256 campus -0.1361428
-3.927289340416336 shot -0.332736
-4.639000331950861 black-and-white -0.1361428
-3.5436619903714766 artist -0.162122
-4.122430438227598 streets -0.22940689999999997
-4.566705867054784 revived -0.15438289999999996
-3.7681053535326328 sidewalk -0.2808639
-3.8775023688434818 stories -0.2335225
-4.406078184933707 piece -0.3936313
