
\data\
ngram 1=502
ngram 2=90107

\1-grams:
-2.075195	0000	-4.537442
-3.051311	0001000	-0.9359123
-2.674928	0001001	-1.532218
-3.274564	00010100	-1.242426
-3.272809	00010101	-1.29238
-3.144817	00010110	-1.059258
-3.208623	00010111	-1.337575
-3.084062	0001100	-0.6235834
-2.876624	00011010	-0.9377533
-3.089769	00011011	-0.716005
-2.937691	0001110	-2.95395
-3.204863	00011110	-1.450168
-3.202622	00011111	-1.016424
-1.456662	0010	-1.033167
-2.9924	00110	-1.433732
-2.654213	001110	-0.9245449
-2.302429	001111	-1.129266
-2.438348	01000	-1.318769
-2.727243	010010	-1.043653
-2.373457	010011	-1.250993
-2.75717	010100000	-0.9649359
-2.965693	0101000010	-0.7438601
-2.926109	01010000110	-0.6327493
-2.911767	01010000111	-0.6459951
-3.031777	0101000100	-0.5892954
-2.978396	01010001010	-0.5069089
-2.976622	01010001011	-0.5685183
-3.073975	0101000110	-0.8249027
-3.096718	01010001110	-0.5984937
-3.108552	01010001111	-0.6981841
-2.798617	010100100	-0.8712916
-3.164151	0101001010	-1.166416
-2.953351	01010010110	-0.6459459
-3.077311	01010010111	-0.6895181
-2.908349	0101001100	-0.9706238
-3.026283	01010011010	-0.7437237
-3.037342	01010011011	-0.8109656
-2.987833	01010011100	-0.8594157
-3.029271	01010011101	-0.7525157
-3.045566	01010011110	-0.9416655
-3.046604	010100111110	-0.8099534
-3.051311	010100111111	-0.701694
-2.824964	0101010000	-1.09427
-3.075084	0101010001	-1.320311
-3.16964	01010100100	-0.7161242
-3.135144	010101001010	-0.8070549
-3.07787	010101001011	-0.8093345
-2.806025	010101001100	-0.7921992
-2.961397	010101001101	-0.8270277
-2.959691	010101001110	-1.045905
-3.190864	0101010011110	-0.6847267
-3.192317	0101010011111	-0.9199742
-2.707028	0101010100	-0.9126772
-2.999808	01010101010	-0.9503706
-3.166887	01010101011	-0.6354839
-2.7836	0101010110	-0.6441804
-2.752653	01010101110	-0.7483361
-3.113985	010101011110	-0.7194982
-2.878739	010101011111	-0.8464067
-2.508748	0101011000	-0.6445279
-2.716409	01010110010	-0.5373258
-3.083496	01010110011	-0.6190181
-3.031275	01010110100	-0.8386875
-3.112167	01010110101	-0.8235959
-2.981967	01010110110	-0.4968251
-2.869301	010101101110	-0.5900348
-3.095552	010101101111	-0.5115854
-2.934867	0101011100	-0.5920405
-2.652111	0101011101	-0.8421276
-2.910625	01010111100	-0.7915183
-2.937287	010101111010	-0.6338692
-2.873122	010101111011	-0.5851821
-2.720563	01010111110	-0.4785877
-2.730245	0101011111100	-0.6583225
-2.713743	0101011111101	-0.5867295
-2.941349	0101011111110	-0.6800098
-2.771838	0101011111111	-0.5977267
-2.966557	0101100000	-0.5887951
-2.947515	01011000010	-0.6534609
-2.848046	01011000011	-0.7210172
-2.814781	01011000100	-0.6127937
-3.067924	01011000101	-0.7930034
-3.017926	01011000110	-0.8373206
-2.909486	010110001110	-0.8401691
-2.95084	010110001111	-0.7690129
-2.803047	0101100100	-0.9061419
-2.937287	0101100101	-0.8476061
-2.937691	0101100110	-0.6159172
-2.873471	0101100111	-0.8668712
-2.723025	010110100	-0.851454
-2.930068	0101101010	-0.8396119
-2.96699	0101101011	-0.7730125
-3.108552	0101101100	-0.6093151
-2.898623	01011011010	-0.6352118
-2.765258	01011011011	-0.7739053
-2.837636	01011011100	-0.6776764
-2.616302	01011011101	-0.6983384
-2.84151	01011011110	-0.7399538
-2.707981	010110111110	-0.7457062
-2.767714	010110111111	-0.6796933
-2.871381	0101110000	-0.9802731
-2.918298	01011100010	-0.9327576
-2.974855	01011100011	-1.269772
-2.784736	0101110010	-0.8185346
-2.886224	0101110011	-0.8802451
-3.029771	0101110100	-0.936828
-3.158731	01011101010	-0.5658244
-3.367318	01011101011	-0.7443769
-2.888386	01011101100	-1.134893
-3.236702	010111011010	-1.937745
-3.139631	010111011011	-0.9074464
-3.003089	01011101110	-1.042122
-2.831887	01011101111	-0.8440785
-2.584835	010111100	-0.8084325
-2.575243	01011110100	-0.8280182
-2.754242	010111101010	-0.7589983
-2.784452	010111101011	-0.6921463
-2.755039	010111101100	-0.7542825
-2.85368	010111101101	-0.7256308
-2.845747	010111101110	-0.731941
-2.754508	010111101111	-0.8553571
-2.812955	0101111100	-0.8644082
-2.639096	0101111101	-0.8021441
-2.701589	0101111110	-0.9259232
-2.598519	01011111110	-0.6686583
-3.121336	010111111110	-0.9980155
-3.070664	010111111111	-0.6497267
-2.99011	01100000	-0.9680483
-3.108552	011000010	-0.8276935
-2.766621	011000011	-0.9860545
-3.072316	0110001000	-0.7242137
-3.119486	01100010010	-0.895075
-2.892744	01100010011	-0.8991524
-3.228719	01100010100	-1.055389
-3.107953	01100010101	-0.8075374
-3.033288	01100010110	-0.8978152
-3.147433	01100010111	-0.7406412
-2.755039	011000110	-1.123434
-2.863122	0110001110	-1.019404
-2.909486	0110001111	-1.165516
-2.80275	01100100	-0.8741909
-2.572965	01100101	-0.9573913
-2.879447	01100110	-0.6116868
-3.298045	0110011100	-0.7749317
-3.144817	0110011101	-0.925869
-3.298974	0110011110	-0.7786618
-3.419288	01100111110	-0.5075017
-3.432997	01100111111	-0.6626511
-2.786162	0110100000	-0.8004841
-2.884788	0110100001	-0.8766059
-2.726744	0110100010	-0.8363249
-2.942985	01101000110	-0.8242351
-3.057667	01101000111	-0.8264501
-2.766894	0110100100	-0.8444942
-2.856357	0110100101	-0.9580616
-2.694364	011010011000	-0.7874222
-2.59281	011010011001	-0.8137764
-2.794522	011010011010	-0.794037
-2.716653	011010011011	-0.9271287
-2.834114	011010011100	-0.801349
-2.851683	011010011101	-0.8335291
-2.967857	011010011110	-0.6565966
-2.967857	011010011111	-0.7670971
-3.09323	0110101000	-1.111021
-3.060343	0110101001	-0.8659236
-2.842484	0110101010	-0.8583316
-3.075084	0110101011	-0.9290235
-2.827155	0110101100	-0.7676945
-2.593359	01101011010	-0.9066631
-2.957567	01101011011	-0.6079594
-2.876624	01101011100	-0.7543012
-3.006396	01101011101	-0.6727681
-2.960117	01101011110	-0.7941414
-2.889472	01101011111	-0.753041
-2.88443	0110110000	-1.267235
-2.858375	01101100010	-0.8681867
-2.771838	01101100011	-0.9421228
-2.896041	011011001000	-0.8963003
-2.849365	011011001001	-0.9760845
-2.930068	011011001010	-0.7540402
-2.844766	011011001011	-0.6374868
-2.999808	011011001100	-0.7617237
-2.925322	0110110011010	-0.8940565
-2.903459	0110110011011	-0.9055308
-2.987833	0110110011100	-0.7403443
-3.0818	0110110011101	-0.9285053
-2.955454	0110110011110	-0.7927132
-2.872425	0110110011111	-0.7853714
-2.75107	01101101000	-0.7108942
-3.016953	011011010010	-0.7146037
-2.911386	011011010011	-0.733534
-2.83284	01101101010	-0.8784992
-2.854682	0110110101100	-0.8112016
-2.749493	0110110101101	-0.7909033
-2.753977	0110110101110	-0.9193848
-2.716166	01101101011110	-0.6517382
-2.818149	01101101011111	-0.7869604
-3.013084	011011011000	-0.7329333
-3.024302	0110110110010	-0.8139979
-3.001211	0110110110011	-0.689391
-3.07955	0110110110100	-0.6695654
-2.927689	0110110110101	-0.8635123
-2.871034	0110110110110	-0.7646714
-2.849035	0110110110111	-0.8142918
-2.941349	011011011100	-0.703925
-3.055007	0110110111010	-0.6510304
-2.86244	0110110111011	-0.8440197
-2.836352	0110110111100	-0.8586283
-2.810834	0110110111101	-0.7172936
-2.757972	0110110111110	-0.738089
-2.562945	0110110111111	-0.8793765
-3.173106	0110111000	-1.238647
-3.338881	01101110010	-2.132441
-3.185818	01101110011	-1.125387
-3.005922	01101110100	-0.9597778
-3.24648	01101110101	-1.353937
-2.858712	011011101100	-1.146712
-2.911386	011011101101	-1.247774
-3.408384	011011101110	-1.04978
-2.914061	011011101111	-1.122737
-2.929274	011011110000	-0.7629244
-2.830304	011011110001	-0.7983271
-2.784168	011011110010	-0.6608717
-2.85268	0110111100110	-0.7480712
-3.100823	0110111100111	-0.8698171
-3.103187	011011110100	-0.7526858
-2.950423	011011110101	-0.7044616
-2.956298	011011110110	-0.7522872
-3.010205	0110111101110	-0.672829
-3.08293	0110111101111	-0.6877406
-2.926898	0110111110000	-0.7253036
-2.930466	0110111110001	-0.6672691
-2.83157	0110111110010	-0.6712075
-2.93527	0110111110011	-0.5452741
-2.66251	011011111010	-0.7516937
-3.078989	0110111110110	-0.7190819
-3.067378	01101111101110	-0.7422959
-3.116421	01101111101111	-0.5927767
-2.96397	0110111111000	-0.7789635
-3.002149	0110111111001	-0.7910323
-2.915213	0110111111010	-0.8381629
-2.898993	01101111110110	-0.7910779
-2.987833	01101111110111	-0.9037976
-2.76553	0110111111100	-0.7182469
-3.06847	01101111111010	-0.7041622
-3.066288	01101111111011	-0.7182077
-3.078429	01101111111100	-0.87015
-3.140276	01101111111101	-0.6730373
-3.00782	01101111111110	-0.6462083
-3.0818	01101111111111	-0.6089565
-2.171855	011100	-0.8886117
-1.310824	0111010	-1.127405
-2.914828	01110110000	-0.6788042
-2.778239	01110110001	-0.5830561
-3.034804	01110110010	-0.4516526
-2.738098	01110110011	-0.6638528
-3.120102	01110110100	-1.957764
-3.350243	011101101010	-1.05435
-3.193774	011101101011	-0.8710648
-2.96916	01110110110	-1.065507
-3.03531	01110110111	-0.9400806
-2.892744	01110111000	-1.039443
-3.09497	01110111001	-0.852105
-2.911005	011101110100	-0.7518511
-2.726247	011101110101	-0.7262557
-3.051837	011101110110	-0.6612378
-2.854682	011101110111	-0.6800137
-3.053948	01110111100	-0.9582105
-3.076196	01110111101	-0.8432391
-2.566718	01110111110	-0.8701179
-2.55802	011101111110	-0.9143449
-2.685216	011101111111	-0.7772408
-2.52222	011110000	-1.133039
-2.698545	01111000100	-0.5670726
-2.932061	011110001010	-0.6931813
-2.954191	0111100010110	-0.8086828
-2.970905	0111100010111	-0.802253
-2.986472	01111000110	-1.123276
-3.26414	011110001110	-0.7961087
-3.27019	011110001111	-1.086783
-2.798029	011110010000	-1.015626
-3.045047	0111100100010	-0.9776658
-2.836031	0111100100011	-0.7800846
-2.951675	0111100100100	-0.9989882
-2.930466	0111100100101	-0.898482
-2.936882	0111100100110	-0.700798
-3.00168	0111100100111	-0.6720293
-2.982416	011110010100	-0.5603751
-3.137702	011110010101	-0.817362
-3.081237	011110010110	-1.002596
-3.128813	011110010111	-0.8223316
-2.957144	011110011000	-0.5887502
-3.206363	011110011001	-0.423026
-2.987379	0111100110100	-0.6150444
-3.02233	0111100110101	-0.5810065
-3.123814	01111001101100	-0.6868694
-2.999808	01111001101101	-0.7282838
-2.924143	01111001101110	-0.4795338
-2.851351	01111001101111	-0.5474348
-2.636864	011110011100	-0.8627695
-3.099059	0111100111010	-0.7713604
-2.874169	0111100111011	-0.7008607
-3.175899	0111100111100	-0.8183907
-3.225566	0111100111101	-0.7859628
-2.826528	0111100111110	-0.6089467
-2.929671	01111001111110	-0.6351722
-3.089195	01111001111111	-0.787099
-2.581257	011110100	-0.8161908
-3.134507	0111101010	-1.301611
-2.869647	0111101011	-1.413429
-3.173803	01111011000	-1.125913
-2.79715	01111011001	-1.040253
-2.890197	01111011010	-0.8663784
-3.263283	01111011011	-0.8572773
-2.96397	01111011100	-1.026328
-3.092073	011110111010	-0.8075413
-3.146777	011110111011	-0.7698349
-2.738609	01111011110	-0.8180708
-2.96097	011110111110	-0.8754385
-2.742723	0111101111110	-0.7979243
-2.995625	0111101111111	-0.8079883
-3.294349	011111000000	-1.032349
-3.142216	011111000001	-0.8045319
-3.39195	011111000010	-1.523508
-3.121954	011111000011	-0.8121202
-3.033792	01111100010	-0.8150126
-2.89165	01111100011	-0.7791119
-3.045566	011111001000	-1.204101
-3.112167	011111001001	-0.9208529
-3.208623	011111001010	-1.106343
-3.123193	011111001011	-0.8876992
-2.736567	01111100110	-1.006451
-3.276326	0111110011100	-0.8409789
-3.06088	0111110011101	-0.8460007
-3.259021	0111110011110	-0.9535527
-3.221657	0111110011111	-0.8108808
-3.27721	011111010000	-0.9510156
-3.239937	011111010001	-0.7093507
-3.069018	011111010010	-0.6329308
-3.206363	011111010011	-0.6861231
-3.056069	011111010100	-0.9301337
-3.092651	011111010101	-0.7377006
-3.221657	011111010110	-0.5604912
-3.138344	011111010111	-0.8121462
-3.153378	011111011000	-1.017034
-2.914444	011111011001	-0.8453612
-3.046604	011111011010	-0.7863187
-3.276326	0111110110110	-0.9731491
-3.180123	0111110110111	-0.8760453
-3.28705	011111011100	-0.9411099
-3.112772	011111011101	-1.275179
-3.147433	011111011110	-1.311351
-3.228719	0111110111110	-0.9556645
-3.102004	0111110111111	-0.8898308
-2.978841	011111100000	-0.791306
-2.902338	011111100001	-0.6236838
-2.830304	011111100010	-0.5487331
-3.033288	0111111000110	-0.6174085
-2.999808	0111111000111	-0.7002732
-3.000275	011111100100	-0.7829541
-2.95884	011111100101	-0.7853945
-3.192317	0111111001100	-0.7158527
-3.213179	0111111001101	-0.474945
-3.092073	0111111001110	-0.838423
-3.146777	0111111001111	-0.7865295
-2.966125	0111111010000	-0.7258285
-3.018413	01111110100010	-0.6043546
-2.974855	01111110100011	-0.6958052
-2.931662	01111110100100	-0.6485622
-2.870687	01111110100101	-0.5983905
-2.852015	011111101001100	-0.6298199
-2.888748	0111111010011010	-0.5694481
-2.915982	0111111010011011	-0.6425228
-2.709414	011111101001110	-0.6664518
-2.933662	011111101001111	-0.6818354
-2.995625	01111110101000	-0.6838064
-3.011642	01111110101001	-0.6088535
-3.048168	01111110101010	-0.7331696
-2.991025	01111110101011	-0.7604598
-3.175199	01111110101100	-0.6342077
-3.062495	01111110101101	-0.649519
-3.050786	01111110101110	-0.7087076
-3.057133	01111110101111	-0.6952909
-2.913678	0111111011000	-0.9079992
-2.801565	0111111011001	-0.7952952
-3.071214	01111110110100	-0.7609602
-2.959691	01111110110101	-0.7367065
-2.716166	01111110110110	-0.7684548
-2.86244	01111110110111	-0.7707152
-3.014049	0111111011100	-0.9250559
-3.1326	0111111011101	-0.6647456
-3.010205	01111110111100	-0.6900668
-3.031777	01111110111101	-0.7017422
-2.997944	01111110111110	-0.7940348
-3.110356	01111110111111	-0.8554959
-3.026283	01111111000	-0.9847191
-3.127558	01111111001	-0.9699634
-2.883715	01111111010	-0.6592709
-3.237509	011111110110	-0.847427
-3.112167	011111110111	-0.5839779
-2.539023	0111111110	-1.019686
-2.9924	011111111100	-0.6936958
-2.966557	011111111101	-0.7880179
-2.857028	011111111110	-0.6265457
-2.828097	011111111111	-0.6471393
-1.262684	1000	-2.554976
-2.382379	10010	-1.281397
-2.697379	1001100	-0.8870237
-2.962253	1001101	-0.6573892
-2.701824	1001110	-0.9551485
-3.074529	1001111	-0.7436655
-1.642037	1010	-1.975427
-2.427086	10110	-1.544199
-3.033288	1011100	-0.840959
-3.040408	1011101	-0.7078982
-2.718848	1011110	-0.649009
-3.148089	10111110	-0.7298962
-3.178006	10111111	-0.5000625
-1.59468	1100	-1.518694
-1.580901	11010	-1.649408
-2.536284	11011000	-0.635476
-2.293981	11011001	-1.075696
-2.727243	11011010	-0.8354397
-2.278627	110110110	-1.344712
-2.621351	110110111	-1.098699
-2.276767	11011100	-1.087551
-2.284074	11011101	-0.8825319
-1.713018	11011110	-1.514885
-2.216243	1101111100	-1.003739
-3.070664	1101111101000	-0.5988906
-3.173106	1101111101001	-0.833388
-3.144165	11011111010100	-0.7670817
-3.216243	11011111010101	-0.8274896
-3.096718	11011111010110	-0.9896572
-3.089195	11011111010111	-0.7942123
-2.972656	1101111101100	-0.7877659
-3.152713	1101111101101	-0.7775692
-3.223998	11011111011100	-0.878871
-3.139631	11011111011101	-0.8689344
-2.974414	11011111011110	-0.831171
-2.988288	11011111011111	-1.062474
-2.017586	1101111110	-1.214136
-2.306952	1101111111	-1.026426
-2.988743	1110000	-1.109738
-2.883715	1110001	-1.129941
-2.453743	1110010	-1.550423
-2.604303	11100110	-1.542185
-2.912913	111001110	-1.280959
-2.924143	111001111	-1.227669
-2.457076	1110100	-1.159318
-2.424968	11101010	-1.297543
-2.698078	11101011	-1.071114
-2.098356	11101100	-1.228793
-2.357099	11101101	-1.231852
-2.96354	111011100	-1.128977
-2.938907	1110111010	-1.274342
-3.237509	1110111011	-1.107317
-3.230304	1110111100	-1.03189
-3.385092	1110111101	-0.8766958
-2.37567	1110111110	-1.136078
-2.665311	1110111111	-1.102604
-1.977775	1111000	-0.8710048
-2.772115	1111001000	-0.8453762
-2.812651	1111001001	-0.8482138
-3.088049	1111001010	-1.600673
-2.893109	1111001011	-0.775334
-2.869993	111100110	-1.571211
-2.973534	1111001110	-0.8895013
-3.198176	11110011110	-0.6291988
-3.269321	11110011111	-0.8427547
-1.725899	11110100	-1.23173
-3.15471	111101010	-0.6893046
-3.06088	1111010110	-0.6045613
-3.294349	1111010111	-0.6626582
-2.185389	111101100	-0.9853659
-2.598148	111101101	-1.04096
-2.017391	111101110	-0.525839
-2.41794	11110111100	-0.7970676
-3.071214	111101111010	-0.5635947
-3.121954	111101111011	-0.720833
-3.193774	1111011111000	-1.074349
-3.314114	1111011111001	-0.8301725
-2.909486	1111011111010	-1.003475
-3.153378	1111011111011	-0.8003578
-3.180123	1111011111100	-0.6836834
-2.849696	1111011111101	-1.042594
-2.863804	1111011111110	-0.8264312
-3.041949	11110111111110	-0.6212405
-3.109754	11110111111111	-0.5382907
-2.265086	1111100	-2.067095
-2.189055	1111101	-1.440046
-2.595011	11111100	-0.8838533
-2.736567	11111101	-1.258878
-2.867232	111111100	-1.345417
-2.559712	1111111010	-1.506797
-2.823095	11111110110	-1.542364
-3.066833	11111110111	-1.023023
-2.344525	111111110	-1.748402
-2.934867	1111111110	-1.3286
-2.17478	1111111111	-1.351645
-1.344339	</s>
-99	<s>	-1.6374

\2-grams:
-0.003906054	0000 0010
-3.993848	0000 001110
-2.152733	0000 0111010
-2.746968	0000 0111100110100
-1.686531	0001000 0000
-0.3594728	0001000 0010
-1.875587	0001000 0101001010
-2.770284	0001000 01010010110
-3.017733	0001000 01010011011
-1.770852	0001000 01010011101
-3.017733	0001000 010100111110
-3.017733	0001000 010101001011
-3.017733	0001000 01010101110
-2.770284	0001000 010101011110
-2.434319	0001000 010101011111
-3.017733	0001000 0101011000
-3.017733	0001000 0101011100
-2.22746	0001000 0101011101
-3.017733	0001000 010101111010
-3.017733	0001000 01010111110
-3.017733	0001000 0101011111100
-3.017733	0001000 0101011111101
-3.017733	0001000 01011000101
-3.017733	0001000 01011000110
-3.017733	0001000 010111011011
-2.555508	0001000 01011101110
-3.017733	0001000 010111111111
-3.017733	0001000 01100010010
-2.770284	0001000 01100010110
-3.017733	0001000 011000110
-3.017733	0001000 0110001111
-2.770284	0001000 0110100000
-2.123293	0001000 0110100001
-3.017733	0001000 0110100010
-3.017733	0001000 0110100100
-3.017733	0001000 011010011001
-3.017733	0001000 011010011010
-2.770284	0001000 011010011011
-3.017733	0001000 01101011010
-3.017733	0001000 0110110000
-2.770284	0001000 01101100011
-2.770284	0001000 011011001001
-2.555508	0001000 011011001011
-2.770284	0001000 01101101010
-3.017733	0001000 0110110110010
-2.22746	0001000 0110110110011
-2.770284	0001000 0110110110100
-3.017733	0001000 0110110110101
-3.017733	0001000 0110110110111
-2.770284	0001000 0110110111010
-2.770284	0001000 0110110111100
-3.017733	0001000 0110110111101
-2.555508	0001000 011011110001
-2.434319	0001000 011011110110
-2.22746	0001000 0110111101110
-2.555508	0001000 011011111010
-1.770852	0001000 0111010
-2.770284	0001000 011101101011
-2.770284	0001000 01110111000
-3.017733	0001000 01110111001
-2.770284	0001000 011101111111
-3.017733	0001000 011110000
-3.017733	0001000 0111100010110
-3.017733	0001000 011110010000
-1.91698	0001000 0111100100011
-3.017733	0001000 0111100100111
-3.017733	0001000 011110010111
-3.017733	0001000 0111100111011
-2.555508	0001000 0111101011
-3.017733	0001000 01111011000
-2.770284	0001000 0111101111110
-3.017733	0001000 011111000000
-2.770284	0001000 011111001011
-2.770284	0001000 011111011000
-2.434319	0001000 011111011001
-3.017733	0001000 011111011010
-3.017733	0001000 0111110110110
-2.555508	0001000 0111110110111
-2.770284	0001000 011111011100
-3.017733	0001000 011111011101
-2.770284	0001000 0111110111111
-3.017733	0001000 011111100000
-3.017733	0001000 011111100001
-3.017733	0001000 0111111000110
-3.017733	0001000 0111111001100
-3.017733	0001000 0111111001110
-2.123293	0001000 0111111010000
-3.017733	0001000 01111110100010
-3.017733	0001000 01111110100011
-2.770284	0001000 011111101001100
-2.22746	0001000 0111111010011010
-3.017733	0001000 011111101001111
-2.770284	0001000 01111110101000
-2.770284	0001000 01111110101001
-3.017733	0001000 01111110101010
-2.434319	0001000 01111110101110
-3.017733	0001000 0111111011000
-2.770284	0001000 0111111011001
-2.555508	0001000 01111110110110
-3.017733	0001000 01111110110111
-2.555508	0001000 01111110111111
-3.017733	0001000 011111111101
-1.594761	0001000 1000
-1.555252	0001000 10010
-2.123293	0001000 1001100
-2.301029	0001000 1001110
-2.770284	0001000 1001111
-1.962738	0001000 1010
-2.770284	0001000 10110
-3.017733	0001000 1011101
-1.273527	0001000 1100
-3.017733	0001000 11011000
-1.770852	0001000 11011001
-2.770284	0001000 110110110
-1.875587	0001000 110110111
-1.574557	0001000 11011100
-3.017733	0001000 11011101
-1.91698	0001000 11011110
-2.770284	0001000 1101111100
-3.017733	0001000 11011111010100
-2.123293	0001000 11011111011101
-3.017733	0001000 11011111011111
-2.555508	0001000 1101111110
-2.555508	0001000 11110100
-2.770284	0001000 1111010110
-3.017733	0001000 111101101
-3.017733	0001000 111101110
-3.017733	0001000 1111011111001
-3.017733	0001000 1111011111101
-3.017733	0001000 1111100
-3.017733	0001000 1111111110
-2.770284	0001000 1111111111
-1.574557	0001000 </s>
-1.276329	0001001 0000
-3.394115	0001001 00010100
-0.2639788	0001001 0010
-3.394115	0001001 01010000110
-3.394115	0001001 01010000111
-3.394115	0001001 0101000110
-3.146666	0001001 01010001111
-2.089242	0001001 0101001010
-2.147234	0001001 01010010110
-3.146666	0001001 01010010111
-2.93189	0001001 01010011010
-2.93189	0001001 01010011011
-2.93189	0001001 01010011100
-1.553	0001001 01010011101
-2.93189	0001001 010100111110
-3.146666	0001001 0101010000
-3.146666	0001001 0101010001
-2.93189	0001001 010101001010
-3.394115	0001001 010101001011
-3.394115	0001001 0101010011110
-2.677412	0001001 0101010100
-3.146666	0001001 01010101010
-2.93189	0001001 01010101011
-3.394115	0001001 01010101110
-2.33912	0001001 010101011110
-2.810702	0001001 010101011111
-3.146666	0001001 0101011000
-2.93189	0001001 0101011100
-1.95094	0001001 0101011101
-3.146666	0001001 01010111100
-3.394115	0001001 01010111110
-3.146666	0001001 01011101010
-3.394115	0001001 01011111110
-3.394115	0001001 0110011101
-3.394115	0001001 011010011010
-3.394115	0001001 011010011101
-3.394115	0001001 0110110011101
-3.394115	0001001 011011110000
-2.117271	0001001 0111010
-3.146666	0001001 01110111000
-2.810702	0001001 01110111001
-2.93189	0001001 01111001101100
-3.394115	0001001 01111001101111
-3.146666	0001001 011110100
-3.146666	0001001 0111101011
-3.394115	0001001 01111011000
-2.499676	0001001 01111011001
-3.394115	0001001 0111101111110
-3.394115	0001001 011111000001
-3.394115	0001001 011111010011
-3.394115	0001001 011111010111
-3.146666	0001001 011111100010
-3.394115	0001001 0111111010000
-3.394115	0001001 01111110100011
-2.677412	0001001 1000
-3.394115	0001001 10010
-1.830965	0001001 1010
-2.33912	0001001 10110
-3.394115	0001001 1011100
-3.394115	0001001 1011110
-0.8868224	0001001 1100
-2.499676	0001001 11011001
-2.117271	0001001 110110110
-1.95094	0001001 110110111
-1.95094	0001001 11011100
-2.089242	0001001 11011101
-1.761884	0001001 11011110
-2.014609	0001001 1101111100
-3.146666	0001001 1101111101001
-2.603843	0001001 11011111010100
-3.394115	0001001 11011111010110
-2.25197	0001001 11011111010111
-2.603843	0001001 1101111101100
-2.293363	0001001 1101111101101
-3.146666	0001001 11011111011100
-2.390273	0001001 11011111011101
-3.146666	0001001 11011111011110
-2.677412	0001001 11011111011111
-2.33912	0001001 1101111110
-3.146666	0001001 11101100
-3.394115	0001001 1111000
-2.25197	0001001 11110100
-3.394115	0001001 1111010110
-2.93189	0001001 11110111100
-3.394115	0001001 111101111010
-2.499676	0001001 1111011111010
-3.394115	0001001 1111011111110
-3.146666	0001001 11110111111110
-3.394115	0001001 1111100
-3.394115	0001001 11111101
-3.394115	0001001 1111111111
-1.691303	0001001 </s>
-1.90004	00010100 00010111
-0.9155757	00010100 00011010
-2.794479	00010100 00011011
-0.6406485	00010100 0001110
-2.794479	00010100 00011110
-1.547599	00010100 0010
-2.794479	00010100 01010001110
-2.794479	00010100 01010001111
-2.794479	00010100 0101001010
-2.794479	00010100 0101001100
-1.614546	00010100 01010011101
-1.149659	00010100 0101010100
-1.90004	00010100 01010101010
-2.54703	00010100 01010101011
-2.794479	00010100 0101010110
-2.794479	00010100 0101011100
-1.579784	00010100 01010111100
-2.794479	00010100 010101111010
-2.004207	00010100 0101011111100
-2.794479	00010100 01011101110
-2.794479	00010100 011010011001
-2.794479	00010100 011010011111
-2.794479	00010100 0110110101110
-2.794479	00010100 01101111111011
-1.652334	00010100 0111010
-2.794479	00010100 01110110000
-1.313516	00010100 01110111000
-2.004207	00010100 01110111001
-2.332255	00010100 011101110100
-2.54703	00010100 011101110110
-2.794479	00010100 01110111110
-2.794479	00010100 01111001101100
-2.794479	00010100 01111001101110
-2.794479	00010100 01111001101111
-1.739484	00010100 0111101010
-2.077776	00010100 0111101011
-2.794479	00010100 0111101111111
-2.794479	00010100 011111100010
-2.794479	00010100 01111110101011
-1.547599	00010100 1000
-2.54703	00010100 10010
-2.794479	00010100 1001100
-2.794479	00010100 1001110
-1.693727	00010100 1010
-2.794479	00010100 10110
-2.794479	00010100 1011101
-2.794479	00010100 1100
-2.332255	00010100 11010
-2.794479	00010100 11011000
-1.246569	00010100 110110110
-2.211066	00010100 110110111
-1.331999	00010100 11011110
-1.790637	00010100 1101111100
-2.794479	00010100 11011111011101
-2.794479	00010100 11011111011110
-1.790637	00010100 1101111111
-2.794479	00010100 1110111111
-2.54703	00010100 11110100
-2.794479	00010100 111101100
-2.332255	00010100 1111011111010
-2.794479	00010100 11111100
-2.794479	00010100 111111110
-1.278754	00010100 </s>
-1.104417	00010101 00011010
-2.796234	00010101 00011011
-0.5462626	00010101 0001110
-0.6998465	00010101 0010
-2.796234	00010101 01010000111
-2.796234	00010101 01010010110
-2.005962	00010101 01010011100
-2.796234	00010101 01010101110
-1.31527	00010101 010101011111
-2.796234	00010101 010110001111
-2.796234	00010101 0101101011
-2.796234	00010101 0110110011110
-2.548785	00010101 011011010010
-1.901795	00010101 01101101011110
-2.796234	00010101 011011011000
-2.796234	00010101 0110111110010
-2.796234	00010101 0110111110110
-2.796234	00010101 01101111111110
-2.005962	00010101 0111010
-2.796234	00010101 01110111000
-2.796234	00010101 01110111001
-2.548785	00010101 011101110110
-2.796234	00010101 0111100010110
-2.796234	00010101 011110001110
-2.796234	00010101 0111100100100
-2.796234	00010101 01111001101110
-2.212821	00010101 011110100
-2.33401	00010101 0111101010
-2.33401	00010101 0111101011
-2.079531	00010101 0111110011100
-2.796234	00010101 01111110100101
-2.796234	00010101 1000
-0.7978546	00010101 1100
-2.796234	00010101 11011010
-2.548785	00010101 110110110
-2.548785	00010101 11011100
-1.373262	00010101 11011110
-2.005962	00010101 1101111100
-2.796234	00010101 11011111011110
-2.796234	00010101 11011111011111
-2.079531	00010101 1101111110
-2.796234	00010101 1110000
-2.079531	00010101 11110100
-2.796234	00010101 11110111100
-2.796234	00010101 1111011111110
-2.796234	00010101 1111100
-2.796234	00010101 1111111010
-1.792392	00010101 </s>
-1.677346	00010110 00010111
-1.544721	00010110 0010
-2.924227	00010110 01010000110
-2.676778	00010110 0101000110
-2.462002	00010110 0101001010
-2.676778	00010110 01010011100
-1.522444	00010110 01010011101
-2.924227	00010110 010100111110
-2.340814	00010110 0101010000
-2.924227	00010110 010101001011
-1.869232	00010110 0101010100
-1.481052	00010110 01010101010
-2.207524	00010110 01010101011
-2.462002	00010110 010101011111
-2.924227	00010110 01010110010
-2.924227	00010110 010101101110
-2.924227	00010110 010101101111
-2.924227	00010110 0101011100
-1.180022	00010110 01010111100
-2.924227	00010110 01010111110
-2.924227	00010110 01011011101
-2.924227	00010110 010111011010
-2.676778	00010110 01011101110
-2.924227	00010110 010111101011
-2.924227	00010110 011010011000
-2.924227	00010110 011010011110
-2.676778	00010110 011011001001
-2.924227	00010110 011011011000
-2.924227	00010110 011011110010
-2.924227	00010110 0110111100110
-2.924227	00010110 011011110110
-2.924227	00010110 01101111111111
-2.340814	00010110 0111010
-1.619354	00010110 01110111000
-1.160716	00010110 01110111001
-2.924227	00010110 01110111100
-2.924227	00010110 0111100100011
-2.924227	00010110 011110100
-2.924227	00010110 0111101010
-2.462002	00010110 0111101011
-2.924227	00010110 01111011000
-2.924227	00010110 01111011001
-2.924227	00010110 01111011010
-2.676778	00010110 011110111110
-2.462002	00010110 0111101111110
-2.924227	00010110 0111101111111
-2.924227	00010110 01111100011
-2.924227	00010110 011111001000
-2.676778	00010110 011111010011
-2.924227	00010110 011111010101
-2.676778	00010110 011111010111
-2.924227	00010110 0111110110111
-2.924227	00010110 0111111000110
-2.924227	00010110 0111111000111
-2.676778	00010110 0111111010011011
-2.924227	00010110 01111110111100
-2.924227	00010110 01111111000
-1.823474	00010110 1000
-2.207524	00010110 10010
-2.676778	00010110 1001100
-2.924227	00010110 1010
-2.924227	00010110 10110
-1.709531	00010110 1100
-2.924227	00010110 11011000
-2.340814	00010110 11011001
-0.4203537	00010110 110110110
-2.462002	00010110 110110111
-2.207524	00010110 11011100
-2.462002	00010110 11011101
-1.593025	00010110 11011110
-2.133955	00010110 1101111100
-2.924227	00010110 1101111101101
-2.924227	00010110 11011111011110
-1.593025	00010110 1101111110
-2.340814	00010110 1101111111
-2.924227	00010110 11101010
-2.924227	00010110 1110111111
-2.207524	00010110 11110100
-2.924227	00010110 1111010110
-2.676778	00010110 111101100
-2.340814	00010110 111101101
-2.924227	00010110 111101110
-2.462002	00010110 11110111100
-2.924227	00010110 1111011111001
-2.676778	00010110 1111011111011
-2.924227	00010110 1111011111110
-2.924227	00010110 11110111111110
-2.676778	00010110 1111100
-2.924227	00010110 1111101
-2.924227	00010110 111111110
-2.676778	00010110 1111111111
-1.425534	00010110 </s>
-2.398196	00010111 0000
-1.379457	00010111 00010111
-2.86042	00010111 01010000111
-2.86042	00010111 01010001110
-2.86042	00010111 01010001111
-2.86042	00010111 010100100
-2.398196	00010111 01010011100
-2.86042	00010111 010101001010
-2.86042	00010111 01010101110
-2.86042	00010111 010101011111
-2.86042	00010111 0101011101
-2.86042	00010111 01011000011
-2.398196	00010111 0101110000
-2.398196	00010111 01011101100
-2.86042	00010111 0101111101
-2.86042	00010111 0110011101
-2.86042	00010111 011010011001
-2.86042	00010111 011010011011
-2.86042	00010111 01101011011
-2.612972	00010111 01101011100
-2.86042	00010111 011011001010
-2.398196	00010111 011011001100
-2.86042	00010111 0110111100110
-2.86042	00010111 0110111110011
-2.277007	00010111 0111010
-2.277007	00010111 01110111000
-2.277007	00010111 01110111001
-2.86042	00010111 011101110110
-1.680487	00010111 011111000000
-2.86042	00010111 011111011010
-2.86042	00010111 0111110110111
-2.86042	00010111 0111111001100
-2.86042	00010111 01111110101101
-2.612972	00010111 1000
-2.398196	00010111 1010
-0.933593	00010111 1100
-1.61354	00010111 11011001
-0.2854516	00010111 110110110
-1.480914	00010111 11011100
-1.805425	00010111 11011101
-1.555548	00010111 11011110
-2.277007	00010111 1101111100
-2.86042	00010111 11011111010111
-2.398196	00010111 1101111101101
-2.86042	00010111 11011111011100
-2.86042	00010111 11011111011101
-2.86042	00010111 11011111011111
-2.612972	00010111 1101111111
-2.86042	00010111 1110111111
-2.86042	00010111 11110100
-2.86042	00010111 111101100
-2.86042	00010111 111101111010
-2.86042	00010111 111101111011
-2.86042	00010111 1111011111010
-2.86042	00010111 11110111111110
-2.86042	00010111 1111100
-1.168603	00010111 </s>
-2.984981	0001100 0001001
-2.984981	0001100 0001100
-2.984981	0001100 0010
-2.737532	0001100 01010000111
-2.984981	0001100 01010001010
-2.737532	0001100 01010010110
-2.984981	0001100 01010011010
-2.984981	0001100 01010011101
-2.984981	0001100 010100111110
-2.984981	0001100 0101010000
-2.984981	0001100 010101001011
-2.984981	0001100 010101001100
-2.984981	0001100 0101010110
-2.984981	0001100 0101011000
-2.984981	0001100 010101101111
-2.984981	0001100 01010111100
-2.984981	0001100 010101111010
-2.984981	0001100 01010111110
-2.984981	0001100 0101011111101
-2.984981	0001100 01011000010
-2.984981	0001100 01011000100
-2.984981	0001100 010110001111
-2.984981	0001100 0101101010
-2.737532	0001100 01011011101
-2.984981	0001100 0101110000
-2.522757	0001100 01011100010
-2.984981	0001100 01011101011
-2.984981	0001100 01011101100
-2.984981	0001100 010111011010
-2.522757	0001100 01011101111
-2.984981	0001100 010111101111
-2.984981	0001100 0101111110
-2.984981	0001100 01011111110
-2.984981	0001100 010111111110
-2.984981	0001100 010111111111
-2.984981	0001100 01100010110
-2.984981	0001100 01100010111
-2.984981	0001100 0110100001
-2.522757	0001100 0110100010
-2.984981	0001100 0110100101
-2.737532	0001100 011010011000
-2.984981	0001100 011010011001
-2.268278	0001100 011010011010
-2.984981	0001100 011010011011
-2.984981	0001100 011010011101
-2.737532	0001100 0110101000
-2.984981	0001100 0110101001
-2.522757	0001100 0110101010
-2.984981	0001100 0110101011
-2.984981	0001100 0110101100
-2.984981	0001100 01101011010
-2.984981	0001100 01101011100
-2.984981	0001100 01101011101
-2.984981	0001100 01101011110
-2.984981	0001100 01101011111
-2.737532	0001100 01101100011
-2.984981	0001100 011011001010
-2.737532	0001100 011011001011
-2.522757	0001100 011011001100
-2.401568	0001100 0110110011010
-2.737532	0001100 0110110011011
-2.737532	0001100 0110110011110
-2.522757	0001100 0110110101110
-2.401568	0001100 01101101011110
-2.737532	0001100 0110110110011
-2.984981	0001100 0110110110110
-2.984981	0001100 0110110110111
-2.522757	0001100 0110110111101
-2.984981	0001100 0110110111110
-2.737532	0001100 0110110111111
-2.984981	0001100 01101110011
-2.984981	0001100 011011101100
-2.984981	0001100 011011101111
-2.737532	0001100 011011110001
-2.737532	0001100 011011110010
-2.737532	0001100 011011110100
-2.268278	0001100 0110111110000
-2.737532	0001100 0110111110011
-2.984981	0001100 0110111111001
-2.522757	0001100 0110111111010
-2.984981	0001100 01101111110110
-2.984981	0001100 01101111111110
-1.770285	0001100 0111010
-2.984981	0001100 01110110010
-2.737532	0001100 01110110011
-2.737532	0001100 01110111001
-2.194709	0001100 011101110101
-2.522757	0001100 01110111100
-1.842836	0001100 01110111110
-1.929986	0001100 011101111110
-2.522757	0001100 011101111111
-2.737532	0001100 011110000
-2.737532	0001100 0111100010110
-2.984981	0001100 0111100010111
-2.984981	0001100 011110010000
-2.984981	0001100 0111100100100
-2.737532	0001100 0111100100110
-2.984981	0001100 011110010110
-2.194709	0001100 011110011100
-2.984981	0001100 0111100111011
-2.984981	0001100 0111100111100
-2.268278	0001100 011110100
-2.984981	0001100 0111101011
-2.984981	0001100 01111011000
-2.984981	0001100 01111011011
-2.984981	0001100 011110111010
-2.737532	0001100 0111101111110
-2.984981	0001100 0111101111111
-2.737532	0001100 011111000011
-2.984981	0001100 011111001001
-2.737532	0001100 011111010001
-2.737532	0001100 011111010011
-2.984981	0001100 011111010110
-2.984981	0001100 011111011000
-2.984981	0001100 011111011100
-2.737532	0001100 0111110111111
-2.737532	0001100 011111100001
-2.984981	0001100 011111100010
-2.737532	0001100 0111111001100
-2.984981	0001100 0111111001111
-2.984981	0001100 0111111010000
-2.984981	0001100 01111110100011
-2.984981	0001100 0111111010011010
-2.984981	0001100 01111110101001
-2.984981	0001100 01111110101111
-2.984981	0001100 0111111011001
-2.984981	0001100 0111111011100
-2.984981	0001100 0111111110
-2.984981	0001100 011111111100
-1.078049	0001100 1000
-2.737532	0001100 10010
-1.680109	0001100 1010
-2.194709	0001100 10110
-2.984981	0001100 1011100
-2.984981	0001100 10111110
-2.984981	0001100 10111111
-0.6512327	0001100 1100
-1.65378	0001100 11010
-2.984981	0001100 11011000
-2.984981	0001100 11011001
-2.737532	0001100 11011010
-2.984981	0001100 110110110
-2.737532	0001100 11011100
-2.401568	0001100 11011101
-2.194709	0001100 11011110
-2.737532	0001100 1101111100
-2.737532	0001100 1101111101000
-2.737532	0001100 11011111010110
-2.984981	0001100 11011111010111
-2.984981	0001100 11011111011100
-2.401568	0001100 11011111011111
-1.981139	0001100 1101111110
-1.929986	0001100 1101111111
-2.737532	0001100 1110000
-2.984981	0001100 1110001
-2.737532	0001100 1110010
-2.522757	0001100 11101010
-2.090542	0001100 11101100
-2.401568	0001100 11101101
-2.984981	0001100 1110111010
-2.737532	0001100 1110111110
-2.984981	0001100 1110111111
-2.401568	0001100 1111001001
-2.401568	0001100 11110100
-2.737532	0001100 111101100
-2.984981	0001100 111101101
-1.03297	0001100 111101110
-2.737532	0001100 11110111100
-2.268278	0001100 111101111010
-2.737532	0001100 111101111011
-2.984981	0001100 1111011111001
-2.984981	0001100 1111011111100
-2.984981	0001100 11110111111111
-2.194709	0001100 1111100
-2.194709	0001100 1111101
-2.737532	0001100 111111100
-1.842836	0001100 1111111010
-2.737532	0001100 11111110110
-1.842836	0001100 111111110
-2.737532	0001100 1111111110
-1.929986	0001100 1111111111
-1.271445	0001100 </s>
-2.730195	00011010 0001001
-3.19242	00011010 00010100
-2.944971	00011010 00010110
-2.944971	00011010 00011010
-3.19242	00011010 00011110
-0.424214	00011010 0010
-2.730195	00011010 0101000010
-2.730195	00011010 01010011010
-2.944971	00011010 010100111111
-2.475716	00011010 0101010000
-3.19242	00011010 0101010001
-3.19242	00011010 010101001110
-3.19242	00011010 0101010011111
-2.944971	00011010 0101010100
-2.944971	00011010 01010101010
-3.19242	00011010 0101011000
-3.19242	00011010 01010110010
-3.19242	00011010 01010110100
-3.19242	00011010 010101101111
-3.19242	00011010 0101011101
-2.730195	00011010 0101100000
-2.730195	00011010 01011000011
-3.19242	00011010 01011000101
-3.19242	00011010 01011011101
-2.402147	00011010 010111011010
-3.19242	00011010 010111011011
-3.19242	00011010 01011101111
-3.19242	00011010 010111100
-2.609006	00011010 010111101110
-3.19242	00011010 010111101111
-2.944971	00011010 0101111101
-3.19242	00011010 010111111111
-3.19242	00011010 0110001000
-2.475716	00011010 01100010010
-3.19242	00011010 0110011110
-3.19242	00011010 0110100010
-2.944971	00011010 01101000111
-3.19242	00011010 0110100101
-3.19242	00011010 011010011000
-3.19242	00011010 01101011010
-3.19242	00011010 01101101000
-2.730195	00011010 01101101010
-2.402147	00011010 0110110101110
-3.19242	00011010 01101101011110
-2.730195	00011010 0110110110010
-3.19242	00011010 0110110111101
-3.19242	00011010 0110111000
-2.475716	00011010 0110111110000
-2.944971	00011010 01101111111010
-1.729939	00011010 01101111111011
-1.945539	00011010 0111010
-3.19242	00011010 01110110011
-3.19242	00011010 011101101011
-3.19242	00011010 011101110111
-3.19242	00011010 01110111100
-2.609006	00011010 01110111110
-2.944971	00011010 011101111110
-2.475716	00011010 011101111111
-3.19242	00011010 011110000
-3.19242	00011010 011110001010
-2.944971	00011010 0111100100011
-3.19242	00011010 0111100100100
-2.944971	00011010 01111001101100
-2.944971	00011010 0111100111011
-3.19242	00011010 0111100111110
-3.19242	00011010 011110100
-2.944971	00011010 01111011000
-2.944971	00011010 01111011010
-3.19242	00011010 011110111010
-3.19242	00011010 011110111110
-2.730195	00011010 011111001000
-2.944971	00011010 0111110011111
-2.944971	00011010 011111010000
-2.944971	00011010 011111010010
-3.19242	00011010 011111010011
-3.19242	00011010 011111010100
-1.586517	00011010 011111010110
-2.944971	00011010 011111011001
-3.19242	00011010 011111011101
-2.944971	00011010 011111011110
-3.19242	00011010 0111110111110
-1.812913	00011010 0111111010000
-2.475716	00011010 01111110101011
-2.609006	00011010 01111110101100
-3.19242	00011010 0111111011000
-3.19242	00011010 01111110110110
-3.19242	00011010 01111110110111
-3.19242	00011010 01111110111101
-2.402147	00011010 01111110111110
-3.19242	00011010 011111110111
-3.19242	00011010 011111111100
-1.547599	00011010 1000
-2.944971	00011010 1001100
-2.091667	00011010 1010
-3.19242	00011010 10110
-3.19242	00011010 10111111
-1.790637	00011010 1100
-2.050274	00011010 11010
-2.609006	00011010 11011000
-2.012486	00011010 11011001
-2.944971	00011010 11011010
-2.944971	00011010 110110110
-2.402147	00011010 11011100
-2.402147	00011010 11011101
-2.402147	00011010 11011110
-2.402147	00011010 1101111100
-3.19242	00011010 1101111101001
-3.19242	00011010 11011111010111
-2.475716	00011010 1101111101101
-3.19242	00011010 11011111011100
-2.944971	00011010 11011111011111
-2.188577	00011010 1101111110
-2.29798	00011010 1101111111
-3.19242	00011010 1110000
-2.29798	00011010 1110010
-2.944971	00011010 11100110
-3.19242	00011010 111001110
-3.19242	00011010 1110100
-2.609006	00011010 11101010
-3.19242	00011010 11101011
-2.091667	00011010 11101100
-2.609006	00011010 11101101
-3.19242	00011010 1110111011
-3.19242	00011010 1110111110
-3.19242	00011010 1110111111
-1.945539	00011010 1111000
-1.419569	00011010 11110100
-3.19242	00011010 1111010110
-2.475716	00011010 111101100
-2.609006	00011010 111101101
-1.945539	00011010 111101110
-2.137424	00011010 11110111100
-3.19242	00011010 111101111010
-3.19242	00011010 111101111011
-2.137424	00011010 1111011111010
-2.730195	00011010 1111011111011
-3.19242	00011010 1111011111100
-3.19242	00011010 1111011111101
-1.769448	00011010 1111011111110
-2.475716	00011010 11110111111110
-3.19242	00011010 11110111111111
-2.402147	00011010 1111100
-2.402147	00011010 11111100
-3.19242	00011010 1111111010
-2.730195	00011010 111111110
-2.402147	00011010 1111111111
-0.8486289	00011010 </s>
-2.979274	00011011 0000
-2.731825	00011011 0001000
-1.799341	00011011 0001001
-2.51705	00011011 00010101
-2.979274	00011011 00010110
-1.276462	00011011 0010
-2.979274	00011011 010100000
-2.979274	00011011 0101000100
-2.979274	00011011 0101000110
-2.979274	00011011 010100100
-2.979274	00011011 0101001010
-2.979274	00011011 01010010110
-2.979274	00011011 01010010111
-2.979274	00011011 01010011011
-2.395861	00011011 01010011100
-2.731825	00011011 0101010000
-1.924279	00011011 0101010001
-2.979274	00011011 010101001101
-2.395861	00011011 0101010100
-2.731825	00011011 01010101010
-2.731825	00011011 010101011110
-2.731825	00011011 01010110010
-2.262571	00011011 01010110101
-2.979274	00011011 01010111100
-2.979274	00011011 010101111011
-2.979274	00011011 0101100000
-2.979274	00011011 01011000011
-2.731825	00011011 01011000100
-2.979274	00011011 01011011011
-2.979274	00011011 01011011110
-2.979274	00011011 0101110000
-2.979274	00011011 01011101100
-2.189002	00011011 010111011010
-2.189002	00011011 010111100
-2.731825	00011011 01011110100
-2.51705	00011011 010111101101
-2.979274	00011011 010111101110
-2.979274	00011011 010111101111
-2.979274	00011011 0101111110
-2.979274	00011011 01011111110
-2.731825	00011011 0110001000
-2.084835	00011011 01100010011
-2.979274	00011011 01100010100
-2.979274	00011011 01100010110
-2.979274	00011011 01100010111
-2.731825	00011011 0110100000
-2.51705	00011011 01101000111
-2.979274	00011011 0110100100
-2.189002	00011011 0110100101
-2.979274	00011011 011010011010
-2.979274	00011011 011010011011
-2.262571	00011011 011010011100
-2.979274	00011011 011010011101
-2.979274	00011011 011010011110
-2.979274	00011011 0110101001
-2.979274	00011011 011011001100
-2.979274	00011011 011011010010
-2.979274	00011011 0110110110101
-2.979274	00011011 0110110111111
-2.979274	00011011 011011101111
-2.979274	00011011 011011110001
-2.979274	00011011 011011110010
-2.979274	00011011 0110111110000
-2.731825	00011011 011011111010
-2.979274	00011011 0110111111000
-2.731825	00011011 01101111111010
-2.395861	00011011 0111010
-2.979274	00011011 011101110101
-2.979274	00011011 011101110110
-2.51705	00011011 01110111110
-2.979274	00011011 011101111110
-2.979274	00011011 01111000100
-2.51705	00011011 0111100100011
-2.979274	00011011 0111100100100
-2.395861	00011011 0111100100101
-2.979274	00011011 011110010101
-2.979274	00011011 0111100110101
-2.731825	00011011 01111001101101
-2.51705	00011011 01111001101111
-2.395861	00011011 011110100
-2.979274	00011011 01111011001
-2.51705	00011011 011111000011
-2.51705	00011011 011111010000
-2.51705	00011011 011111010011
-2.262571	00011011 011111010100
-2.395861	00011011 011111011001
-2.731825	00011011 0111111001101
-2.731825	00011011 0111111010000
-2.395861	00011011 01111110100011
-2.979274	00011011 011111101001100
-2.189002	00011011 0111111010011011
-2.731825	00011011 011111101001111
-2.189002	00011011 01111110101001
-2.731825	00011011 01111110101010
-2.262571	00011011 01111110101011
-2.979274	00011011 01111110101101
-2.395861	00011011 0111111011000
-2.979274	00011011 01111110110111
-2.979274	00011011 01111111010
-2.979274	00011011 011111111110
-1.322219	00011011 1000
-2.51705	00011011 10010
-1.799341	00011011 1010
-2.731825	00011011 10110
-1.373372	00011011 1100
-2.189002	00011011 11010
-2.51705	00011011 11011000
-1.245053	00011011 11011001
-2.262571	00011011 110110110
-2.979274	00011011 110110111
-2.084835	00011011 11011100
-2.395861	00011011 11011101
-1.799341	00011011 11011110
-2.979274	00011011 1101111101000
-2.51705	00011011 11011111010100
-2.979274	00011011 11011111010101
-2.979274	00011011 1101111101101
-2.979274	00011011 11011111011101
-2.979274	00011011 11011111011110
-2.979274	00011011 11011111011111
-1.924279	00011011 1101111110
-2.51705	00011011 1101111111
-2.979274	00011011 1110010
-2.979274	00011011 11100110
-2.262571	00011011 11101100
-1.878522	00011011 11101101
-2.51705	00011011 1110111110
-1.975432	00011011 1110111111
-1.447158	00011011 1111000
-1.206424	00011011 11110100
-2.731825	00011011 1111010110
-2.731825	00011011 111101100
-1.837129	00011011 111101110
-1.924279	00011011 11110111100
-2.731825	00011011 111101111010
-2.262571	00011011 1111011111010
-2.731825	00011011 1111011111011
-1.924279	00011011 1111011111110
-2.51705	00011011 11110111111110
-2.51705	00011011 11110111111111
-2.51705	00011011 1111100
-2.979274	00011011 11111100
-2.979274	00011011 1111111010
-2.51705	00011011 111111110
-2.395861	00011011 1111111111
-0.7201593	00011011 </s>
-3.131352	0001110 00011110
-0.002028469	0001110 0010
-3.131352	0001110 01101000110
-3.131352	0001110 0110110110111
-3.131352	0001110 0111010
-3.131352	0001110 </s>
-0.2848615	00011110 0010
-2.864181	00011110 010100000
-2.616732	00011110 010101001110
-2.280767	00011110 010111011010
-2.864181	00011110 010111101110
-2.864181	00011110 01011111110
-2.147477	00011110 011000011
-0.8043866	00011110 01100101
-1.860338	00011110 0110100010
-2.864181	00011110 01101000111
-2.864181	00011110 011010011110
-2.864181	00011110 011010011111
-2.864181	00011110 0110110011010
-2.864181	00011110 0110110011100
-2.616732	00011110 01101101010
-2.401956	00011110 0110110111101
-2.864181	00011110 0110110111110
-2.864181	00011110 011011110000
-2.864181	00011110 011011110010
-2.864181	00011110 011011111010
-2.616732	00011110 01101111111011
-2.616732	00011110 01101111111111
-2.073908	00011110 0111010
-2.864181	00011110 01110110011
-2.864181	00011110 01110111100
-2.864181	00011110 011110100
-2.864181	00011110 01111011000
-1.809186	00011110 0111110011111
-2.401956	00011110 011111010000
-2.616732	00011110 011111010100
-1.6173	00011110 011111011101
-1.441209	00011110 01111111000
-1.195226	00011110 01111111010
-1.649485	00011110 1000
-2.864181	00011110 11010
-2.864181	00011110 11011110
-2.864181	00011110 1101111111
-2.864181	00011110 11101100
-2.073908	00011110 1110111111
-2.864181	00011110 1111000
-2.401956	00011110 11110100
-2.864181	00011110 111101100
-2.864181	00011110 11111100
-1.4017	00011110 </s>
-2.404197	00011111 0000
-2.866421	00011111 0001000
-1.686487	00011111 0001001
-2.866421	00011111 00010111
-0.4232459	00011111 0010
-2.404197	00011111 0101001010
-2.866421	00011111 01010010110
-2.866421	00011111 01010010111
-2.866421	00011111 0101010001
-2.866421	00011111 0101010100
-2.866421	00011111 0101011101
-2.866421	00011111 01010111100
-2.618972	00011111 01010111110
-2.618972	00011111 010110001111
-2.618972	00011111 01011011011
-2.866421	00011111 0101110010
-2.866421	00011111 0101110011
-2.866421	00011111 0101110100
-2.866421	00011111 01011101111
-2.866421	00011111 010111101011
-2.866421	00011111 010111101111
-2.866421	00011111 0101111100
-2.866421	00011111 0101111110
-2.866421	00011111 01011111110
-2.866421	00011111 01100010011
-2.866421	00011111 01100010101
-2.866421	00011111 01101000111
-2.283008	00011111 01101100010
-2.866421	00011111 0110110011011
-2.283008	00011111 0110110011101
-2.866421	00011111 0110110011111
-2.149718	00011111 01101101010
-2.866421	00011111 0110110110101
-2.866421	00011111 0110110111010
-2.866421	00011111 011011110110
-2.866421	00011111 011011111010
-2.866421	00011111 01101111101111
-2.866421	00011111 0111010
-2.866421	00011111 0111100100100
-2.866421	00011111 011110100
-2.404197	00011111 0111101010
-2.866421	00011111 011111001010
-2.866421	00011111 0111110011110
-2.866421	00011111 011111011000
-2.866421	00011111 011111101001110
-2.866421	00011111 1000
-2.618972	00011111 1010
-2.404197	00011111 10110
-1.423246	00011111 1100
-1.066699	00011111 11010
-2.618972	00011111 11011000
-1.033275	00011111 11011001
-2.866421	00011111 11011010
-2.149718	00011111 110110110
-2.149718	00011111 110110111
-2.283008	00011111 11011100
-2.866421	00011111 11011101
-2.618972	00011111 11011110
-1.1322	00011111 1101111100
-2.618972	00011111 11011111011100
-2.866421	00011111 11011111011101
-2.618972	00011111 11011111011111
-2.283008	00011111 1101111110
-2.866421	00011111 1101111111
-2.618972	00011111 1110001
-2.866421	00011111 111001110
-2.866421	00011111 1110100
-2.866421	00011111 11101010
-2.076149	00011111 11101100
-2.149718	00011111 11101101
-2.149718	00011111 11110100
-2.866421	00011111 1111010110
-2.866421	00011111 111101100
-2.866421	00011111 111101101
-2.618972	00011111 111101110
-2.866421	00011111 11110111100
-2.866421	00011111 111101111010
-2.866421	00011111 1111011111101
-2.866421	00011111 11110111111110
-2.618972	00011111 11111100
-2.618972	00011111 111111110
-2.866421	00011111 1111111110
-1.075472	00011111 </s>
-3.307509	0010 0000
-3.717943	0010 0001000
-2.787354	0010 0001001
-3.397686	0010 00010100
-3.557387	0010 00010101
-4.028969	0010 00010110
-2.57211	0010 00010111
-4.364933	0010 00011010
-4.612382	0010 00011011
-3.895679	0010 0001110
-3.82211	0010 00011110
-3.717943	0010 00011111
-0.6553235	0010 0010
-1.594124	0010 00110
-1.205204	0010 001110
-0.8585134	0010 001111
-3.397686	0010 010100000
-4.150157	0010 0101000010
-4.150157	0010 01010000110
-3.432448	0010 01010000111
-4.150157	0010 0101000100
-3.717943	0010 01010001010
-4.028969	0010 01010001011
-3.717943	0010 0101000110
-4.364933	0010 01010001110
-4.612382	0010 01010001111
-3.717943	0010 0101001010
-3.895679	0010 01010010110
-3.895679	0010 01010010111
-3.895679	0010 01010011010
-3.256357	0010 01010011100
-4.150157	0010 01010011101
-4.612382	0010 01010011110
-3.82211	0010 010100111110
-3.608539	0010 010100111111
-3.210599	0010 0101010000
-2.848871	0010 0101010001
-4.150157	0010 01010100100
-4.150157	0010 010101001010
-4.612382	0010 010101001011
-3.717943	0010 010101001100
-3.511629	0010 010101001101
-3.82211	0010 010101001110
-4.150157	0010 0101010011110
-3.82211	0010 0101010011111
-2.37175	0010 0101010100
-2.562239	0010 01010101010
-2.821433	0010 01010101011
-4.150157	0010 0101010110
-3.895679	0010 010101011111
-3.432448	0010 0101011000
-3.82211	0010 01010110010
-3.895679	0010 01010110011
-4.612382	0010 01010110100
-4.612382	0010 01010110101
-4.028969	0010 010101101110
-3.335538	0010 010101101111
-2.993115	0010 0101011100
-2.90957	0010 0101011101
-2.90957	0010 01010111100
-3.557387	0010 010101111010
-3.895679	0010 010101111011
-4.028969	0010 01010111110
-3.432448	0010 0101011111100
-3.064471	0010 0101011111110
-3.470237	0010 0101011111111
-4.028969	0010 0101100000
-3.82211	0010 01011000010
-3.82211	0010 01011000011
-3.511629	0010 01011000100
-3.397686	0010 010110001110
-4.028969	0010 010110001111
-4.612382	0010 0101100100
-4.612382	0010 0101100101
-3.895679	0010 0101100110
-3.557387	0010 0101100111
-4.028969	0010 010110100
-3.895679	0010 0101101010
-4.612382	0010 0101101011
-4.028969	0010 0101101100
-4.364933	0010 01011011010
-3.717943	0010 01011011011
-3.82211	0010 01011011100
-4.150157	0010 01011011101
-3.895679	0010 01011011110
-4.364933	0010 010110111110
-3.82211	0010 010110111111
-4.612382	0010 0101110000
-4.364933	0010 01011100010
-4.364933	0010 01011100011
-4.364933	0010 0101110010
-4.028969	0010 0101110011
-4.364933	0010 01011101010
-4.364933	0010 01011101011
-4.028969	0010 01011101100
-3.034508	0010 010111011010
-3.608539	0010 010111011011
-4.028969	0010 01011101111
-3.131418	0010 010111100
-3.895679	0010 01011110100
-3.717943	0010 010111101010
-3.335538	0010 010111101011
-4.028969	0010 010111101100
-3.131418	0010 010111101101
-4.028969	0010 010111101110
-3.511629	0010 010111101111
-3.470237	0010 0101111100
-3.307509	0010 0101111101
-3.432448	0010 0101111110
-3.307509	0010 01011111110
-4.028969	0010 010111111110
-3.82211	0010 010111111111
-1.859383	0010 01100000
-2.7263	0010 011000010
-1.903103	0010 011000011
-2.592551	0010 0110001000
-2.187347	0010 01100010010
-2.335538	0010 01100010011
-2.151794	0010 01100010100
-2.450932	0010 01100010101
-2.804059	0010 01100010110
-4.612382	0010 01100010111
-3.064471	0010 011000110
-2.253951	0010 0110001110
-1.863269	0010 0110001111
-3.895679	0010 01100100
-3.307509	0010 01100101
-3.895679	0010 0110011101
-3.82211	0010 0110100000
-3.82211	0010 0110100001
-3.511629	0010 0110100010
-4.612382	0010 01101000110
-3.397686	0010 01101000111
-3.020268	0010 0110100100
-3.717943	0010 0110100101
-2.931846	0010 011010011000
-2.498792	0010 011010011001
-3.113689	0010 011010011010
-3.608539	0010 011010011011
-3.365501	0010 011010011100
-3.256357	0010 011010011101
-2.450932	0010 011010011110
-3.020268	0010 011010011111
-3.511629	0010 0110101000
-3.717943	0010 0110101001
-3.511629	0010 0110101010
-2.642398	0010 0110101100
-2.432448	0010 01101011010
-3.18941	0010 01101011011
-3.149902	0010 01101011100
-3.064471	0010 01101011101
-3.557387	0010 01101011110
-3.365501	0010 01101011111
-4.150157	0010 0110110000
-3.470237	0010 01101100010
-3.82211	0010 01101100011
-3.511629	0010 011011001000
-3.895679	0010 011011001001
-3.511629	0010 011011001010
-3.335538	0010 011011001011
-3.18941	0010 011011001100
-3.470237	0010 0110110011010
-2.98015	0010 0110110011011
-3.020268	0010 0110110011100
-4.150157	0010 0110110011101
-4.364933	0010 0110110011110
-2.858417	0010 0110110011111
-4.150157	0010 01101101000
-4.364933	0010 011011010010
-3.895679	0010 011011010011
-4.150157	0010 01101101010
-3.82211	0010 0110110101100
-3.397686	0010 0110110101101
-3.557387	0010 0110110101110
-3.470237	0010 01101101011110
-4.028969	0010 01101101011111
-3.895679	0010 011011011000
-3.470237	0010 0110110110010
-4.364933	0010 0110110110011
-4.028969	0010 0110110110100
-3.82211	0010 0110110110101
-3.82211	0010 0110110110110
-4.028969	0010 0110110110111
-4.364933	0010 011011011100
-3.717943	0010 0110110111010
-4.150157	0010 0110110111011
-3.557387	0010 0110110111100
-4.150157	0010 0110110111101
-4.364933	0010 0110110111110
-3.335538	0010 0110110111111
-3.608539	0010 01101110010
-4.028969	0010 01101110011
-4.612382	0010 01101110100
-4.612382	0010 01101110101
-3.895679	0010 011011101100
-3.307509	0010 011011101101
-4.612382	0010 011011110000
-3.307509	0010 011011110001
-3.895679	0010 011011110010
-3.28118	0010 0110111100110
-4.612382	0010 0110111100111
-4.612382	0010 011011110100
-3.608539	0010 011011110101
-4.028969	0010 011011110110
-3.82211	0010 0110111101110
-4.028969	0010 0110111101111
-2.7263	0010 0110111110000
-4.364933	0010 0110111110001
-3.307509	0010 0110111110010
-3.511629	0010 0110111110011
-3.608539	0010 011011111010
-4.364933	0010 0110111110110
-3.895679	0010 01101111101110
-4.364933	0010 01101111101111
-4.364933	0010 0110111111000
-4.612382	0010 0110111111010
-4.364933	0010 01101111110110
-4.612382	0010 01101111110111
-4.364933	0010 0110111111100
-3.470237	0010 01101111111010
-3.511629	0010 01101111111011
-4.612382	0010 01101111111100
-4.612382	0010 01101111111101
-3.511629	0010 01101111111110
-4.364933	0010 01101111111111
-3.82211	0010 011100
-2.013319	0010 0111010
-3.608539	0010 01110110000
-3.82211	0010 01110110001
-3.432448	0010 01110110010
-3.511629	0010 01110110011
-3.895679	0010 01110110100
-4.028969	0010 011101101010
-4.612382	0010 011101101011
-3.511629	0010 01110110110
-4.150157	0010 01110110111
-3.020268	0010 01110111000
-3.432448	0010 01110111001
-2.878161	0010 011101110101
-3.717943	0010 011101110110
-3.82211	0010 011101110111
-4.150157	0010 01110111100
-2.821433	0010 01110111101
-3.210599	0010 01110111110
-2.868177	0010 011101111110
-3.232876	0010 011101111111
-3.365501	0010 011110000
-3.335538	0010 01111000100
-2.858417	0010 011110001010
-3.307509	0010 0111100010110
-3.511629	0010 0111100010111
-3.365501	0010 01111000110
-4.028969	0010 011110001111
-3.82211	0010 011110010000
-4.364933	0010 0111100100010
-3.470237	0010 0111100100011
-3.82211	0010 0111100100100
-3.470237	0010 0111100100101
-3.113689	0010 0111100100110
-3.557387	0010 0111100100111
-3.470237	0010 011110010100
-2.931846	0010 011110010101
-3.169207	0010 011110010110
-3.365501	0010 011110010111
-3.256357	0010 011110011000
-4.612382	0010 011110011001
-4.028969	0010 0111100110101
-2.967561	0010 01111001101100
-3.335538	0010 01111001101101
-4.150157	0010 01111001101111
-3.365501	0010 011110011100
-2.90957	0010 0111100111010
-3.28118	0010 0111100111011
-4.612382	0010 0111100111101
-3.557387	0010 0111100111110
-3.470237	0010 01111001111110
-4.028969	0010 01111001111111
-3.00648	0010 011110100
-3.717943	0010 0111101010
-3.149902	0010 0111101011
-2.848871	0010 01111011000
-2.603144	0010 01111011001
-3.113689	0010 01111011010
-3.717943	0010 01111011100
-3.470237	0010 011110111010
-3.210599	0010 01111011110
-4.150157	0010 011110111110
-3.895679	0010 0111101111110
-4.612382	0010 0111101111111
-3.365501	0010 011111000000
-4.150157	0010 011111000001
-4.150157	0010 011111000011
-4.364933	0010 01111100010
-4.364933	0010 01111100011
-2.868177	0010 011111001000
-4.028969	0010 011111001001
-3.020268	0010 011111001010
-4.612382	0010 011111001011
-3.064471	0010 01111100110
-3.080266	0010 0111110011100
-2.705449	0010 0111110011101
-2.943428	0010 0111110011110
-3.608539	0010 0111110011111
-3.28118	0010 011111010000
-4.028969	0010 011111010001
-3.717943	0010 011111010010
-3.470237	0010 011111010011
-3.432448	0010 011111010100
-2.955327	0010 011111010101
-3.608539	0010 011111010110
-3.307509	0010 011111011000
-2.967561	0010 011111011001
-4.612382	0010 011111011010
-3.717943	0010 0111110110111
-3.717943	0010 011111011100
-3.307509	0010 011111011101
-3.717943	0010 011111011110
-3.511629	0010 0111110111110
-3.18941	0010 0111110111111
-4.150157	0010 011111100000
-4.364933	0010 011111100001
-3.511629	0010 011111100010
-4.150157	0010 0111111000110
-3.895679	0010 0111111000111
-3.169207	0010 011111100100
-4.028969	0010 011111100101
-4.028969	0010 0111111001100
-2.848871	0010 0111111001110
-4.612382	0010 0111111001111
-4.364933	0010 0111111010000
-4.028969	0010 01111110100010
-4.612382	0010 01111110100011
-3.511629	0010 01111110100100
-3.608539	0010 01111110100101
-3.608539	0010 011111101001100
-3.717943	0010 0111111010011010
-3.608539	0010 0111111010011011
-3.895679	0010 011111101001110
-3.335538	0010 011111101001111
-3.210599	0010 01111110101000
-3.895679	0010 01111110101001
-3.307509	0010 01111110101010
-3.895679	0010 01111110101011
-3.895679	0010 01111110101100
-3.895679	0010 01111110101101
-4.028969	0010 01111110101110
-4.028969	0010 01111110101111
-3.18941	0010 0111111011000
-3.365501	0010 0111111011001
-4.612382	0010 01111110110100
-4.364933	0010 01111110110101
-3.511629	0010 01111110110110
-4.028969	0010 01111110110111
-3.397686	0010 0111111011100
-3.895679	0010 0111111011101
-3.557387	0010 01111110111100
-3.895679	0010 01111110111101
-3.232876	0010 01111110111110
-4.150157	0010 01111110111111
-3.307509	0010 01111111000
-3.717943	0010 01111111001
-3.608539	0010 01111111010
-4.028969	0010 011111110110
-4.364933	0010 011111110111
-4.028969	0010 011111111100
-4.150157	0010 011111111101
-4.612382	0010 011111111110
-4.150157	0010 011111111111
-2.187347	0010 1000
-3.432448	0010 10010
-4.612382	0010 1001100
-4.612382	0010 1001110
-4.150157	0010 1001111
-1.567641	0010 1010
-2.648307	0010 10110
-4.612382	0010 1011100
-2.685555	0010 1011110
-2.858417	0010 10111110
-4.028969	0010 10111111
-1.199875	0010 1100
-1.564686	0010 11010
-2.335538	0010 11011000
-1.963855	0010 11011001
-3.717943	0010 11011010
-2.391055	0010 110110110
-3.895679	0010 110110111
-2.779236	0010 11011100
-2.705449	0010 11011101
-1.693403	0010 11011110
-2.18941	0010 1101111100
-3.511629	0010 1101111101000
-4.364933	0010 1101111101001
-3.895679	0010 11011111010100
-4.150157	0010 11011111010101
-3.557387	0010 11011111010110
-3.131418	0010 11011111010111
-4.364933	0010 1101111101100
-2.878161	0010 1101111101101
-3.895679	0010 11011111011100
-3.049231	0010 11011111011101
-3.131418	0010 11011111011110
-3.096656	0010 11011111011111
-2.226072	0010 1101111110
-2.692086	0010 1101111111
-3.82211	0010 1110000
-4.150157	0010 1110001
-2.804059	0010 1110010
-3.080266	0010 11100110
-3.557387	0010 111001110
-4.028969	0010 111001111
-3.256357	0010 1110100
-3.232876	0010 11101010
-3.397686	0010 11101011
-2.679121	0010 11101100
-2.608539	0010 11101101
-4.364933	0010 111011100
-3.82211	0010 1110111010
-4.612382	0010 1110111011
-3.034508	0010 1110111110
-3.113689	0010 1110111111
-3.096656	0010 1111000
-4.612382	0010 1111001011
-4.612382	0010 11110011110
-1.672151	0010 11110100
-3.00648	0010 1111010110
-2.821433	0010 1111010111
-2.931846	0010 111101100
-3.210599	0010 111101101
-2.858417	0010 111101110
-2.755754	0010 11110111100
-3.232876	0010 111101111010
-3.82211	0010 111101111011
-3.717943	0010 1111011111000
-4.150157	0010 1111011111001
-2.603144	0010 1111011111010
-3.28118	0010 1111011111011
-3.895679	0010 1111011111100
-3.397686	0010 1111011111101
-2.49044	0010 1111011111110
-2.839531	0010 11110111111110
-3.256357	0010 11110111111111
-2.830388	0010 1111100
-3.256357	0010 1111101
-3.113689	0010 11111100
-2.98015	0010 11111101
-3.608539	0010 111111100
-3.397686	0010 1111111010
-4.028969	0010 11111110110
-4.364933	0010 11111110111
-2.771267	0010 111111110
-3.82211	0010 1111111110
-2.88838	0010 1111111111
-1.109196	0010 </s>
-1.614163	00110 0000
-3.076644	00110 0001001
-2.493231	00110 00010101
-2.021649	00110 0010
-2.493231	00110 0101010001
-2.829195	00110 010101001010
-2.35994	00110 0101010100
-2.614419	00110 01010101010
-3.076644	00110 01010101011
-3.076644	00110 0101011000
-3.076644	00110 0101011101
-2.493231	00110 01010111100
-3.076644	00110 01011000011
-2.829195	00110 010111011010
-3.076644	00110 01100010011
-2.829195	00110 01100010110
-2.614419	00110 011000110
-3.076644	00110 0110110011111
-3.076644	00110 01101101010
-2.829195	00110 0110110111110
-2.829195	00110 0110110111111
-3.076644	00110 01101111111011
-3.076644	00110 0111010
-3.076644	00110 01110110011
-2.829195	00110 01110111000
-3.076644	00110 01110111110
-3.076644	00110 011110010101
-3.076644	00110 01111001101101
-2.829195	00110 01111011000
-3.076644	00110 011111010001
-3.076644	00110 011111010010
-3.076644	00110 011111010101
-1.89671	00110 01111110100100
-3.076644	00110 01111110101011
-2.829195	00110 1000
-0.2590534	00110 1010
-2.072801	00110 10110
-1.041393	00110 1100
-2.829195	00110 11010
-2.829195	00110 11011000
-1.975891	00110 11011001
-2.614419	00110 110110110
-1.49877	00110 11011110
-1.7998	00110 1101111100
-2.614419	00110 11011111011111
-1.934498	00110 1101111110
-3.076644	00110 1101111111
-3.076644	00110 11100110
-1.861948	00110 11110100
-2.829195	00110 1111010110
-2.493231	00110 1111010111
-2.829195	00110 11110111100
-3.076644	00110 111101111010
-3.076644	00110 1111011111010
-2.829195	00110 1111011111011
-2.829195	00110 11110111111110
-3.076644	00110 11111100
-3.076644	00110 1111111010
-0.885986	00110 </s>
-2.058805	001110 0000
-3.41483	001110 00011011
-3.41483	001110 0001110
-2.624558	001110 00011110
-3.41483	001110 0010
-3.41483	001110 0101000010
-3.167382	001110 01010000111
-3.41483	001110 0101000100
-3.41483	001110 01010001111
-3.167382	001110 010100100
-2.952606	001110 01010010111
-3.41483	001110 01010011010
-3.41483	001110 01010011011
-2.952606	001110 01010011100
-3.41483	001110 0101010000
-2.359835	001110 0101010001
-3.167382	001110 01010100100
-3.41483	001110 010101001110
-2.952606	001110 0101010011110
-3.41483	001110 0101010011111
-2.035324	001110 0101010100
-2.520391	001110 01010101010
-3.41483	001110 01010101011
-3.41483	001110 010101011111
-3.167382	001110 0101011000
-3.41483	001110 01010110010
-2.698127	001110 0101011101
-2.831417	001110 010101111010
-3.41483	001110 01010111110
-3.41483	001110 0101011111110
-3.167382	001110 01011000100
-3.41483	001110 0101100111
-3.167382	001110 0101110000
-2.831417	001110 010111011010
-3.41483	001110 01011101110
-3.41483	001110 01011110100
-2.831417	001110 010111101010
-3.41483	001110 010111101011
-3.41483	001110 010111101100
-3.167382	001110 010111101101
-3.41483	001110 010111101110
-2.952606	001110 010111101111
-3.167382	001110 0101111110
-3.41483	001110 01011111110
-3.167382	001110 010111111110
-3.167382	001110 011000011
-2.952606	001110 0110001000
-3.167382	001110 01100010011
-3.167382	001110 01100010110
-2.698127	001110 0110001110
-0.8130187	001110 0110001111
-3.41483	001110 01100111111
-3.41483	001110 0110100101
-3.41483	001110 011010011001
-3.41483	001110 011010011110
-3.41483	001110 01101011100
-2.624558	001110 011011001000
-3.41483	001110 011011001001
-1.991859	001110 011011001010
-2.698127	001110 011011001011
-2.952606	001110 0110110011011
-3.41483	001110 0110110011100
-2.831417	001110 0110110011101
-2.520391	001110 0110110011110
-2.109958	001110 0110110011111
-3.167382	001110 01101101010
-3.167382	001110 0110110101100
-2.314078	001110 0110110101101
-3.41483	001110 01101101011110
-3.41483	001110 01101101011111
-2.410988	001110 011011011000
-2.624558	001110 0110110110100
-3.41483	001110 0110110110111
-3.41483	001110 0110110111010
-3.41483	001110 0110110111111
-1.991859	001110 01101110101
-3.41483	001110 011011110100
-3.41483	001110 0110111110000
-3.167382	001110 0110111110001
-3.167382	001110 0110111110010
-3.41483	001110 0110111110011
-2.831417	001110 011011111010
-3.41483	001110 0110111110110
-3.41483	001110 0110111111000
-2.272685	001110 01101111111010
-2.952606	001110 01101111111011
-3.41483	001110 011100
-1.899105	001110 0111010
-2.698127	001110 01110110000
-3.167382	001110 01110110001
-2.952606	001110 01110110011
-3.41483	001110 01110110110
-3.41483	001110 01110111000
-2.698127	001110 01110111001
-3.41483	001110 011101110110
-3.41483	001110 011101110111
-3.41483	001110 011101111111
-3.41483	001110 011110000
-3.41483	001110 01111000100
-2.234897	001110 011110001010
-2.952606	001110 0111100010110
-3.167382	001110 011110010000
-3.167382	001110 0111100100011
-2.698127	001110 0111100100100
-2.359835	001110 0111100100110
-3.167382	001110 0111100100111
-3.41483	001110 011110010100
-2.698127	001110 011110010101
-3.167382	001110 0111100110101
-3.41483	001110 01111001101100
-2.831417	001110 01111001101101
-3.41483	001110 01111001101111
-2.520391	001110 0111100111010
-3.41483	001110 0111100111011
-3.41483	001110 0111100111110
-3.41483	001110 01111001111110
-2.952606	001110 011110100
-2.234897	001110 0111101011
-3.41483	001110 01111011001
-3.41483	001110 01111011011
-3.41483	001110 011110111110
-3.167382	001110 0111101111110
-3.41483	001110 01111100011
-2.698127	001110 011111001000
-3.167382	001110 011111001001
-3.167382	001110 011111001011
-2.698127	001110 0111110011110
-2.698127	001110 011111010010
-3.167382	001110 011111010011
-3.41483	001110 011111010101
-3.41483	001110 011111011000
-3.41483	001110 011111011100
-2.952606	001110 011111011101
-3.167382	001110 011111100000
-2.831417	001110 011111100010
-3.41483	001110 011111100101
-3.41483	001110 0111111001100
-3.167382	001110 0111111001101
-3.41483	001110 01111110100010
-3.41483	001110 01111110100011
-3.41483	001110 01111110100101
-2.952606	001110 0111111010011010
-2.624558	001110 011111101001111
-2.952606	001110 01111110101000
-2.952606	001110 01111110101001
-2.520391	001110 01111110101010
-3.167382	001110 01111110101011
-3.167382	001110 01111110101110
-2.698127	001110 0111111011000
-3.41483	001110 01111110110101
-3.41483	001110 0111111011101
-3.41483	001110 01111110111100
-3.41483	001110 01111110111101
-3.41483	001110 01111110111111
-3.41483	001110 011111111100
-3.41483	001110 011111111111
-1.991859	001110 1000
-2.952606	001110 1001111
-1.606508	001110 1010
-3.41483	001110 10110
-3.167382	001110 1011100
-1.712018	001110 1100
-1.272685	001110 11010
-1.822716	001110 11011000
-1.096594	001110 11011001
-3.41483	001110 11011010
-2.272685	001110 110110110
-3.41483	001110 110110111
-2.831417	001110 11011100
-2.410988	001110 11011101
-0.9736339	001110 11011110
-2.272685	001110 1101111100
-3.41483	001110 1101111101000
-3.167382	001110 11011111010100
-2.952606	001110 11011111010111
-2.952606	001110 1101111101100
-3.41483	001110 1101111101101
-2.952606	001110 11011111011100
-3.41483	001110 11011111011101
-2.359835	001110 11011111011110
-2.520391	001110 11011111011111
-2.035324	001110 1101111110
-2.831417	001110 1101111111
-3.41483	001110 1110010
-2.952606	001110 11100110
-3.167382	001110 111001110
-3.167382	001110 11101010
-2.831417	001110 11101011
-2.234897	001110 11101100
-2.831417	001110 11101101
-3.41483	001110 1110111011
-1.690829	001110 11110100
-2.410988	001110 1111010110
-3.167382	001110 111101100
-3.41483	001110 111101101
-2.698127	001110 111101110
-2.831417	001110 11110111100
-3.167382	001110 111101111011
-2.272685	001110 1111011111000
-3.41483	001110 1111011111001
-2.520391	001110 1111011111010
-3.167382	001110 1111011111101
-3.41483	001110 1111011111110
-2.624558	001110 11110111111110
-3.41483	001110 11110111111111
-3.167382	001110 1111100
-2.831417	001110 11111100
-3.41483	001110 111111100
-3.41483	001110 1111111010
-3.167382	001110 111111110
-2.831417	001110 1111111111
-0.7388902	001110 </s>
-2.218704	001111 0000
-3.519166	001111 00010101
-3.183202	001111 0001100
-3.766615	001111 00011010
-3.519166	001111 0001110
-2.586681	001111 0010
-3.766615	001111 001110
-3.766615	001111 0101000010
-3.766615	001111 01010000110
-3.766615	001111 01010001111
-3.049911	001111 0101001010
-3.766615	001111 0101001100
-3.766615	001111 01010011010
-2.872176	001111 01010011100
-3.519166	001111 01010011101
-3.183202	001111 010100111110
-2.872176	001111 0101010000
-2.435413	001111 0101010001
-3.766615	001111 010101001011
-3.766615	001111 010101001100
-3.519166	001111 010101001101
-3.049911	001111 010101001110
-3.30439	001111 0101010011110
-2.872176	001111 0101010011111
-2.32344	001111 0101010100
-2.71162	001111 01010101010
-3.519166	001111 01010101110
-3.766615	001111 010101011110
-3.766615	001111 010101011111
-3.519166	001111 0101011000
-3.049911	001111 01010110010
-3.766615	001111 01010110011
-3.519166	001111 010101101111
-2.872176	001111 0101011100
-2.665862	001111 0101011101
-3.049911	001111 01010111100
-3.766615	001111 010101111010
-3.766615	001111 0101011111111
-3.766615	001111 01011000010
-3.519166	001111 01011000011
-3.766615	001111 01011000100
-3.183202	001111 01011000110
-3.766615	001111 0101100111
-3.766615	001111 0101101100
-3.519166	001111 01011011010
-3.766615	001111 01011011100
-2.71162	001111 01011100010
-3.766615	001111 0101110010
-3.519166	001111 0101110011
-2.976343	001111 010111011010
-3.766615	001111 010111011011
-3.30439	001111 010111101010
-2.71162	001111 010111101101
-3.766615	001111 010111101111
-3.519166	001111 0101111110
-3.766615	001111 01011111110
-3.766615	001111 01100000
-3.766615	001111 011000011
-3.183202	001111 0110001000
-3.30439	001111 01100010011
-3.049911	001111 01100010110
-3.519166	001111 011000110
-1.23611	001111 0110001110
-1.59398	001111 0110001111
-3.766615	001111 01101000111
-3.30439	001111 0110100100
-3.30439	001111 011010011000
-2.364832	001111 011010011001
-3.519166	001111 011010011010
-2.762772	001111 011010011110
-3.30439	001111 0110101000
-3.766615	001111 0110101011
-2.364832	001111 0110101100
-3.049911	001111 01101011010
-3.766615	001111 01101011011
-3.766615	001111 01101011110
-3.766615	001111 0110110000
-3.30439	001111 01101100010
-3.766615	001111 01101100011
-2.872176	001111 011011001000
-2.762772	001111 011011001010
-2.364832	001111 011011001011
-3.766615	001111 0110110011010
-2.976343	001111 0110110011011
-2.01265	001111 0110110011100
-1.958292	001111 0110110011101
-2.976343	001111 0110110011110
-3.049911	001111 0110110011111
-3.766615	001111 01101101010
-3.30439	001111 0110110101100
-3.766615	001111 0110110101101
-2.387109	001111 011011011000
-2.872176	001111 0110110110100
-3.183202	001111 0110110110110
-2.762772	001111 0110110110111
-3.766615	001111 011011011100
-3.519166	001111 0110110111110
-2.976343	001111 0110110111111
-2.71162	001111 01101110101
-3.766615	001111 011011110010
-2.519734	001111 0110111110000
-3.30439	001111 0110111110010
-3.30439	001111 0110111110011
-3.519166	001111 01101111101111
-3.519166	001111 01101111111010
-2.551919	001111 01101111111011
-3.766615	001111 01101111111110
-3.519166	001111 01101111111111
-3.766615	001111 011100
-1.941586	001111 0111010
-2.62447	001111 01110110000
-3.519166	001111 01110110010
-3.519166	001111 01110110011
-3.766615	001111 01110110100
-3.519166	001111 011101101011
-3.519166	001111 01110110111
-2.41059	001111 01110111000
-3.30439	001111 011101110110
-3.766615	001111 011101110111
-2.762772	001111 01110111101
-3.766615	001111 01110111110
-2.762772	001111 011101111110
-3.519166	001111 011101111111
-3.183202	001111 011110000
-3.30439	001111 01111000100
-2.053078	001111 011110001010
-3.766615	001111 0111100010110
-3.30439	001111 0111100010111
-3.30439	001111 01111000110
-3.183202	001111 011110001110
-3.519166	001111 011110001111
-3.766615	001111 011110010000
-3.766615	001111 0111100100010
-3.766615	001111 0111100100011
-3.766615	001111 0111100100100
-3.519166	001111 0111100100110
-3.766615	001111 0111100100111
-2.872176	001111 011110010100
-2.461742	001111 011110010101
-3.519166	001111 011110010110
-3.766615	001111 011110010111
-3.766615	001111 01111001101100
-3.183202	001111 01111001101101
-3.766615	001111 01111001101111
-3.766615	001111 011110011100
-2.02241	001111 0111100111010
-3.049911	001111 0111100111011
-3.766615	001111 01111001111110
-2.665862	001111 011110100
-3.766615	001111 0111101010
-2.250889	001111 0111101011
-3.519166	001111 01111011001
-3.30439	001111 01111011010
-3.766615	001111 01111011011
-2.762772	001111 011110111010
-3.766615	001111 011110111110
-3.766615	001111 011111000001
-2.71162	001111 011111001000
-3.766615	001111 011111001001
-1.866522	001111 011111001010
-3.766615	001111 01111100110
-2.762772	001111 0111110011110
-3.30439	001111 011111010010
-2.435413	001111 011111011101
-2.665862	001111 011111011110
-3.183202	001111 0111110111110
-3.30439	001111 0111110111111
-3.766615	001111 011111100000
-3.519166	001111 011111100010
-3.049911	001111 0111111001100
-3.519166	001111 0111111001101
-3.519166	001111 0111111010000
-3.183202	001111 01111110100011
-2.976343	001111 0111111010011010
-3.30439	001111 0111111010011011
-3.183202	001111 011111101001111
-3.766615	001111 01111110101001
-3.519166	001111 01111110101010
-3.766615	001111 01111110101011
-3.766615	001111 01111110101101
-3.30439	001111 01111110101110
-3.519166	001111 0111111011000
-2.976343	001111 0111111011001
-3.766615	001111 01111110110101
-3.766615	001111 01111110110110
-3.519166	001111 0111111011100
-2.872176	001111 0111111011101
-3.766615	001111 01111110111100
-2.461742	001111 01111110111101
-3.766615	001111 01111110111110
-3.766615	001111 01111110111111
-3.766615	001111 01111111001
-3.766615	001111 01111111010
-3.766615	001111 011111111101
-2.489771	001111 011111111110
-3.519166	001111 011111111111
-2.160712	001111 1000
-3.519166	001111 10010
-3.766615	001111 1001110
-1.597676	001111 1010
-3.183202	001111 10110
-2.665862	001111 10111110
-1.522848	001111 1100
-1.130568	001111 11010
-0.8282738	001111 11011000
-1.20647	001111 11011001
-2.665862	001111 110110110
-3.30439	001111 110110111
-2.586681	001111 11011100
-2.762772	001111 11011101
-1.067072	001111 11011110
-1.833353	001111 1101111100
-3.766615	001111 1101111101000
-2.665862	001111 11011111010100
-3.519166	001111 11011111010110
-3.183202	001111 11011111010111
-2.762772	001111 1101111101100
-2.976343	001111 1101111101101
-3.766615	001111 11011111011101
-2.519734	001111 11011111011110
-2.762772	001111 11011111011111
-1.579502	001111 1101111110
-3.183202	001111 1101111111
-3.519166	001111 1110001
-2.762772	001111 1110010
-2.872176	001111 11100110
-3.519166	001111 111001111
-2.872176	001111 11101010
-3.30439	001111 11101011
-2.665862	001111 11101100
-2.665862	001111 11101101
-3.766615	001111 1110111011
-3.766615	001111 1110111110
-2.551919	001111 1110111111
-1.706821	001111 11110100
-2.387109	001111 1111010110
-3.30439	001111 1111010111
-3.183202	001111 111101100
-3.766615	001111 111101101
-2.762772	001111 111101110
-2.586681	001111 11110111100
-3.519166	001111 111101111010
-3.766615	001111 111101111011
-3.049911	001111 1111011111000
-3.30439	001111 1111011111001
-2.665862	001111 1111011111010
-2.762772	001111 1111011111011
-3.519166	001111 1111011111101
-3.766615	001111 1111011111110
-2.872176	001111 11110111111110
-3.766615	001111 11110111111111
-2.976343	001111 1111100
-3.766615	001111 1111101
-3.049911	001111 11111100
-3.766615	001111 11111101
-3.519166	001111 1111111010
-3.766615	001111 11111110111
-3.30439	001111 111111110
-3.30439	001111 1111111111
-0.9069504	001111 </s>
-3.630696	01000 0001000
-3.383247	01000 0001001
-3.630696	01000 00010100
-3.383247	01000 00010111
-3.630696	01000 00011011
-1.66662	01000 010010
-1.189499	01000 010011
-3.383247	01000 010100000
-1.848702	01000 0101000010
-2.299495	01000 01010000110
-2.575701	01000 01010000111
-2.913993	01000 0101000100
-2.024793	01000 0101000110
-3.383247	01000 01010001110
-3.383247	01000 0101001010
-2.168216	01000 01010010111
-2.529943	01000 0101001100
-2.626853	01000 01010011010
-2.575701	01000 01010011011
-2.299495	01000 01010011100
-2.736257	01000 01010011101
-2.325823	01000 01010011110
-3.630696	01000 010100111110
-3.168471	01000 010100111111
-3.047283	01000 0101010001
-3.630696	01000 010101001010
-2.736257	01000 010101001011
-1.637849	01000 010101001100
-2.149732	01000 010101001101
-2.575701	01000 010101001110
-3.047283	01000 0101010011110
-2.840424	01000 0101010011111
-3.630696	01000 0101010100
-3.630696	01000 010101011111
-2.149732	01000 0101011000
-2.11497	01000 01010110010
-3.383247	01000 01010110011
-3.630696	01000 01010110100
-2.575701	01000 01010110110
-2.626853	01000 010101101110
-3.630696	01000 010101101111
-3.630696	01000 0101011101
-3.047283	01000 010101111010
-2.840424	01000 010101111011
-2.450762	01000 01010111110
-2.840424	01000 0101011111101
-2.840424	01000 0101011111110
-2.840424	01000 0101011111111
-3.168471	01000 0101100000
-2.082785	01000 01011000010
-2.132003	01000 01011000011
-1.95016	01000 01011000100
-2.736257	01000 01011000101
-1.839747	01000 01011000110
-2.168216	01000 010110001110
-1.927883	01000 010110001111
-1.660712	01000 0101100100
-2.168216	01000 0101100101
-2.353852	01000 0101100110
-2.353852	01000 0101100111
-1.151546	01000 010110100
-1.368575	01000 0101101010
-1.998464	01000 0101101011
-1.998464	01000 0101101100
-1.973641	01000 01011011010
-1.566156	01000 01011011011
-2.082785	01000 01011011100
-1.81394	01000 01011011101
-1.927883	01000 01011011110
-1.730603	01000 010110111110
-1.723763	01000 010110111111
-1.79755	01000 0101110000
-2.187521	01000 01011100010
-2.187521	01000 01011100011
-1.95016	01000 0101110010
-2.736257	01000 0101110011
-1.443584	01000 0101110100
-1.547672	01000 01011101010
-3.630696	01000 01011101011
-2.09858	01000 01011101100
-3.630696	01000 010111011011
-2.038582	01000 010111100
-1.643453	01000 01011110100
-2.024793	01000 010111101010
-2.383815	01000 010111101011
-2.299495	01000 010111101100
-2.274671	01000 010111101101
-1.697435	01000 010111101110
-2.353852	01000 010111101111
-3.168471	01000 0101111100
-2.626853	01000 0101111101
-3.168471	01000 0101111110
-2.913993	01000 010111111110
-3.047283	01000 010111111111
-2.626853	01000 0110001000
-3.047283	01000 01100010011
-3.630696	01000 0110100010
-3.630696	01000 0110100100
-3.630696	01000 011010011011
-3.630696	01000 0110101010
-2.416	01000 0110110000
-3.383247	01000 01101100010
-2.736257	01000 011011001001
-3.630696	01000 011011001010
-3.168471	01000 011011001011
-3.630696	01000 011011001100
-3.630696	01000 0110110011010
-3.047283	01000 0110110011100
-2.529943	01000 0110110011110
-3.047283	01000 0110110011111
-3.630696	01000 011011010011
-3.383247	01000 01101101010
-2.575701	01000 0110110101100
-3.047283	01000 0110110101101
-2.626853	01000 01101101011111
-3.168471	01000 0110110110011
-2.736257	01000 011011011100
-2.299495	01000 0110110111010
-2.575701	01000 0110110111011
-3.630696	01000 0110110111110
-3.047283	01000 0110110111111
-3.383247	01000 011011110100
-3.630696	01000 0110111110000
-3.630696	01000 01101111101111
-1.422733	01000 0111010
-3.630696	01000 011101101011
-3.630696	01000 01110110111
-3.630696	01000 011101110100
-3.630696	01000 011101110111
-3.630696	01000 01110111101
-3.630696	01000 01110111110
-3.383247	01000 011110000
-3.630696	01000 011110001010
-3.168471	01000 0111100010111
-3.630696	01000 0111100100110
-3.630696	01000 011110010100
-2.529943	01000 011110011001
-3.630696	01000 0111100110100
-3.630696	01000 01111001101100
-3.383247	01000 01111001101110
-3.630696	01000 01111001101111
-3.630696	01000 0111100111011
-3.630696	01000 0111100111110
-3.630696	01000 01111001111111
-3.630696	01000 011110100
-3.383247	01000 0111101011
-3.383247	01000 01111011100
-3.383247	01000 0111101111110
-3.630696	01000 011111001000
-3.630696	01000 011111001010
-3.630696	01000 011111010010
-3.630696	01000 011111010011
-3.630696	01000 0111110111110
-3.630696	01000 011111100010
-3.630696	01000 011111100100
-3.383247	01000 0111111010000
-3.168471	01000 01111110100010
-3.383247	01000 01111110100100
-3.630696	01000 0111111010011010
-3.630696	01000 011111101001110
-3.630696	01000 011111101001111
-3.047283	01000 01111110101001
-3.047283	01000 01111110101011
-3.047283	01000 0111111011000
-3.630696	01000 01111110111110
-3.630696	01000 011111111111
-1.896475	01000 1000
-3.383247	01000 1001101
-3.630696	01000 1001110
-1.876731	01000 1010
-3.047283	01000 10110
-2.187521	01000 1011101
-3.047283	01000 1011110
-3.630696	01000 10111110
-3.630696	01000 10111111
-2.913993	01000 1100
-3.047283	01000 11010
-3.630696	01000 11011000
-3.383247	01000 110110110
-3.047283	01000 110110111
-3.630696	01000 11011100
-2.207724	01000 11011101
-2.383815	01000 11011110
-3.168471	01000 1101111100
-2.416	01000 1101111101001
-3.630696	01000 11011111010100
-3.383247	01000 11011111010110
-3.630696	01000 11011111011100
-3.630696	01000 11011111011110
-2.913993	01000 1101111110
-3.630696	01000 1101111111
-1.374607	01000 1110100
-2.488551	01000 11101011
-2.187521	01000 111011100
-3.168471	01000 11110100
-3.168471	01000 111101100
-3.047283	01000 111101110
-2.913993	01000 111101111010
-3.168471	01000 1111011111001
-3.383247	01000 1111011111100
-3.630696	01000 1111100
-3.383247	01000 1111101
-3.630696	01000 1111111010
-3.168471	01000 11111110110
-2.626853	01000 11111110111
-3.630696	01000 111111110
-3.383247	01000 1111111110
-2.913993	01000 1111111111
-2.067545	01000 </s>
-2.551528	010010 0000
-2.879576	010010 0001000
-2.758388	010010 00010101
-2.758388	010010 00010110
-2.879576	010010 00010111
-3.341801	010010 0001110
-2.241048	010010 0010
-3.341801	010010 0101000010
-2.551528	010010 01010000110
-2.551528	010010 0101000100
-3.094352	010010 01010001011
-3.341801	010010 0101000110
-3.341801	010010 010100100
-2.758388	010010 0101001010
-2.337958	010010 01010010110
-2.879576	010010 01010010111
-1.843108	010010 0101001100
-2.161867	010010 01010011010
-2.199656	010010 01010011011
-2.09492	010010 01010011100
-2.199656	010010 01010011101
-2.286806	010010 01010011110
-2.337958	010010 010100111111
-2.879576	010010 0101010001
-2.337958	010010 01010100100
-2.879576	010010 010101001010
-2.337958	010010 010101001011
-2.09492	010010 010101001100
-1.709569	010010 010101001101
-2.010599	010010 010101001110
-2.337958	010010 0101010011110
-3.341801	010010 0101010011111
-3.341801	010010 0101010100
-2.758388	010010 01010101010
-2.625098	010010 01010101011
-3.094352	010010 0101010110
-3.094352	010010 010101011110
-2.551528	010010 010101011111
-1.408539	010010 0101011000
-1.587836	010010 01010110010
-2.551528	010010 01010110011
-3.094352	010010 01010110110
-2.127105	010010 0101011100
-2.286806	010010 0101011101
-2.758388	010010 01010111100
-1.672846	010010 010101111010
-1.735898	010010 010101111011
-2.337958	010010 01010111110
-3.094352	010010 0101011111100
-1.918829	010010 0101011111101
-2.758388	010010 0101011111110
-2.241048	010010 0101011111111
-3.094352	010010 01011000101
-2.241048	010010 0101100110
-2.010599	010010 0101100111
-1.898625	010010 0101110000
-1.365987	010010 01011100010
-1.843108	010010 01011100011
-1.763927	010010 0101110010
-2.337958	010010 0101110011
-2.551528	010010 01011101010
-2.447361	010010 01011101100
-3.341801	010010 01011101110
-1.408539	010010 010111100
-1.332563	010010 01011110100
-1.985776	010010 010111101010
-1.722534	010010 010111101011
-1.434868	010010 010111101100
-1.962295	010010 010111101101
-1.722534	010010 010111101110
-1.735898	010010 010111101111
-2.758388	010010 0101111100
-1.918829	010010 0101111101
-2.879576	010010 0101111110
-2.758388	010010 010111111110
-3.341801	010010 010111111111
-3.341801	010010 01100010010
-3.341801	010010 01100010011
-3.341801	010010 0110100010
-2.879576	010010 011010011101
-3.341801	010010 0110101010
-3.341801	010010 0110101011
-3.094352	010010 01101011010
-3.341801	010010 01101011101
-2.758388	010010 0110110000
-3.341801	010010 01101100010
-2.879576	010010 011011001010
-3.341801	010010 011011001100
-3.341801	010010 0110110101110
-3.341801	010010 01101101011110
-3.341801	010010 011011011000
-3.341801	010010 0110110110111
-3.341801	010010 0110110111011
-2.625098	010010 01101110010
-2.337958	010010 01101110011
-2.199656	010010 011011101100
-3.341801	010010 011011101101
-3.094352	010010 011011101111
-3.341801	010010 011011110010
-3.341801	010010 0110111100110
-3.341801	010010 0110111100111
-3.341801	010010 0110111111010
-1.010599	010010 0111010
-3.341801	010010 01110110000
-3.341801	010010 01110111110
-3.341801	010010 0111100010110
-3.341801	010010 0111100010111
-3.094352	010010 0111100100101
-3.341801	010010 0111100100111
-2.879576	010010 0111100110100
-3.341801	010010 01111001101100
-3.094352	010010 01111001101110
-2.337958	010010 01111001101111
-2.879576	010010 011110011100
-2.879576	010010 0111100111010
-3.094352	010010 0111100111110
-3.341801	010010 01111001111110
-2.879576	010010 011110100
-3.341801	010010 01111011000
-2.758388	010010 01111011001
-3.341801	010010 01111011010
-3.341801	010010 01111011011
-3.341801	010010 011110111010
-3.341801	010010 011110111011
-3.094352	010010 011110111110
-2.758388	010010 0111101111110
-2.447361	010010 01111100011
-3.341801	010010 011111001000
-3.341801	010010 011111001001
-3.094352	010010 011111010010
-3.094352	010010 011111010011
-3.341801	010010 011111011001
-2.758388	010010 011111011100
-3.341801	010010 011111011101
-3.094352	010010 011111011110
-3.341801	010010 011111100000
-3.341801	010010 011111100001
-3.341801	010010 01111110100011
-2.625098	010010 01111110100100
-3.341801	010010 01111110110110
-3.341801	010010 01111110111101
-3.341801	010010 01111110111110
-1.542078	010010 1000
-3.341801	010010 1001100
-1.337958	010010 1010
-2.447361	010010 10110
-2.286806	010010 1011100
-3.094352	010010 1011101
-2.286806	010010 1011110
-2.09492	010010 1100
-3.341801	010010 11010
-3.341801	010010 11011000
-2.551528	010010 110110110
-3.341801	010010 110110111
-2.625098	010010 11011100
-2.879576	010010 11011101
-1.735898	010010 11011110
-1.985776	010010 1101111100
-3.341801	010010 1101111101001
-2.879576	010010 11011111010101
-2.09492	010010 11011111010110
-3.094352	010010 1101111101100
-3.094352	010010 1101111101101
-3.341801	010010 11011111011100
-2.036928	010010 11011111011101
-3.094352	010010 11011111011110
-3.094352	010010 11011111011111
-2.758388	010010 1101111110
-2.758388	010010 1101111111
-3.341801	010010 11101011
-3.341801	010010 1110111111
-3.094352	010010 11110100
-2.879576	010010 111101110
-3.094352	010010 111101111010
-2.758388	010010 111101111011
-2.879576	010010 1111011111000
-3.341801	010010 1111011111011
-2.879576	010010 1111100
-3.341801	010010 1111101
-3.341801	010010 1111111010
-3.341801	010010 111111110
-2.879576	010010 1111111110
-2.551528	010010 </s>
-2.515653	010011 0000
-2.691744	010011 0001000
-3.695587	010011 00010100
-2.553442	010011 00010101
-2.339562	010011 00010110
-2.448706	010011 00010111
-3.695587	010011 00011110
-2.448706	010011 0010
-3.695587	010011 01010000110
-3.233362	010011 01010000111
-2.480891	010011 0101000100
-3.448138	010011 0101000110
-2.978884	010011 01010001110
-3.695587	010011 01010001111
-3.448138	010011 010100100
-3.112174	010011 0101001010
-3.233362	010011 01010010110
-3.112174	010011 01010010111
-1.795494	010011 0101001100
-2.480891	010011 01010011010
-2.233107	010011 01010011011
-2.103473	010011 01010011100
-2.364385	010011 01010011101
-2.594834	010011 01010011110
-3.112174	010011 010100111111
-3.233362	010011 0101010000
-2.515653	010011 0101010001
-2.594834	010011 01010100100
-2.594834	010011 010101001010
-2.480891	010011 010101001011
-1.823982	010011 010101001100
-2.103473	010011 010101001101
-2.050766	010011 010101001110
-2.339562	010011 0101010011110
-2.553442	010011 0101010011111
-3.233362	010011 0101010100
-2.691744	010011 01010101010
-3.448138	010011 01010101011
-3.695587	010011 0101010110
-2.691744	010011 010101011110
-2.515653	010011 010101011111
-1.749736	010011 0101011000
-2.117713	010011 01010110010
-3.448138	010011 01010110100
-3.233362	010011 01010110101
-2.978884	010011 01010110110
-3.233362	010011 010101101110
-2.07632	010011 0101011100
-2.00377	010011 0101011101
-2.179861	010011 01010111100
-2.196894	010011 010101111010
-2.364385	010011 010101111011
-1.904638	010011 01010111110
-2.272615	010011 0101011111100
-1.854472	010011 0101011111101
-2.553442	010011 0101011111110
-1.887264	010011 0101011111111
-3.695587	010011 01011000100
-3.233362	010011 01011000101
-2.038532	010011 0101100110
-2.272615	010011 0101100111
-3.448138	010011 010110100
-3.695587	010011 0101101010
-3.695587	010011 01011011100
-3.695587	010011 010110111110
-2.594834	010011 0101110000
-1.309277	010011 01011100010
-2.214623	010011 01011100011
-1.196894	010011 0101110010
-1.831406	010011 0101110011
-2.339562	010011 01011101010
-3.448138	010011 01011101011
-3.112174	010011 01011101100
-2.801148	010011 010111011011
-3.695587	010011 01011101110
-1.526649	010011 010111100
-1.198635	010011 01011110100
-1.76876	010011 010111101010
-1.895864	010011 010111101011
-1.262396	010011 010111101100
-1.522952	010011 010111101101
-1.992774	010011 010111101110
-1.327663	010011 010111101111
-2.293804	010011 0101111100
-1.982051	010011 0101111101
-2.905315	010011 0101111110
-3.112174	010011 010111111110
-2.553442	010011 010111111111
-3.448138	010011 011000011
-3.695587	010011 01100010101
-3.112174	010011 0110100010
-3.695587	010011 01101000110
-3.448138	010011 011010011000
-3.695587	010011 011010011011
-3.695587	010011 0110101010
-3.448138	010011 0110101100
-3.448138	010011 01101011010
-3.695587	010011 01101011011
-2.480891	010011 0110110000
-3.233362	010011 01101100010
-3.695587	010011 01101100011
-3.695587	010011 011011001010
-3.233362	010011 0110110011111
-3.695587	010011 011011010010
-3.233362	010011 01101101011110
-3.695587	010011 0110110110110
-3.448138	010011 0110111000
-2.978884	010011 011011101101
-3.695587	010011 011011110000
-3.695587	010011 011011110100
-3.448138	010011 0110111111100
-3.695587	010011 01101111111111
-1.122078	010011 0111010
-3.695587	010011 01110110100
-3.448138	010011 01110110110
-3.695587	010011 01110110111
-3.695587	010011 011101110100
-3.448138	010011 011101110101
-3.695587	010011 011101110110
-3.695587	010011 011101110111
-3.695587	010011 01110111101
-3.233362	010011 01110111110
-3.695587	010011 011101111111
-3.695587	010011 0111100010110
-3.695587	010011 011110001110
-3.233362	010011 011110010000
-3.695587	010011 0111100100010
-3.233362	010011 0111100100011
-3.695587	010011 0111100100100
-3.112174	010011 0111100100110
-2.905315	010011 0111100110100
-3.448138	010011 0111100110101
-3.695587	010011 01111001101100
-3.448138	010011 01111001101110
-2.390714	010011 01111001101111
-3.233362	010011 011110011100
-2.905315	010011 0111100111010
-2.905315	010011 0111100111011
-3.695587	010011 0111100111101
-3.695587	010011 0111100111110
-2.364385	010011 01111001111110
-3.112174	010011 01111001111111
-3.448138	010011 011110100
-3.695587	010011 0111101010
-3.695587	010011 01111011001
-3.695587	010011 01111011010
-3.695587	010011 01111011100
-3.112174	010011 011110111011
-3.695587	010011 01111011110
-3.112174	010011 011110111110
-2.691744	010011 0111101111110
-3.695587	010011 011111000000
-3.448138	010011 011111000001
-3.695587	010011 01111100010
-3.233362	010011 01111100011
-2.978884	010011 011111001000
-3.112174	010011 011111001001
-2.978884	010011 011111010010
-3.233362	010011 011111010111
-3.695587	010011 0111110110111
-3.233362	010011 011111011100
-3.448138	010011 011111100010
-3.448138	010011 0111111000111
-3.695587	010011 0111111001111
-3.112174	010011 0111111010000
-3.695587	010011 01111110100010
-3.233362	010011 01111110100011
-3.112174	010011 01111110100100
-3.695587	010011 0111111010011010
-3.448138	010011 01111110101000
-3.695587	010011 01111110101001
-3.695587	010011 01111110101100
-3.695587	010011 0111111011001
-3.448138	010011 01111110110110
-3.448138	010011 01111110111100
-3.695587	010011 01111110111110
-3.448138	010011 01111111000
-3.695587	010011 011111110111
-1.494464	010011 1000
-3.448138	010011 10010
-3.233362	010011 1001100
-3.112174	010011 1001101
-3.695587	010011 1001110
-3.448138	010011 1001111
-1.233106	010011 1010
-2.147676	010011 10110
-2.448706	010011 1011100
-2.801148	010011 1011101
-2.480891	010011 1011110
-3.233362	010011 10111111
-2.214623	010011 1100
-2.978884	010011 11010
-2.418743	010011 110110110
-2.553442	010011 110110111
-2.252412	010011 11011101
-1.904638	010011 11011110
-2.103473	010011 1101111100
-3.233362	010011 1101111101000
-2.801148	010011 1101111101001
-3.448138	010011 11011111010100
-2.691744	010011 11011111010101
-2.978884	010011 11011111010110
-3.695587	010011 1101111101100
-3.233362	010011 11011111011100
-2.691744	010011 11011111011101
-3.695587	010011 11011111011110
-2.801148	010011 1101111110
-3.233362	010011 1101111111
-3.448138	010011 11101011
-3.448138	010011 11101100
-3.233362	010011 11110100
-2.801148	010011 111101100
-3.695587	010011 111101101
-2.594834	010011 111101110
-3.448138	010011 11110111100
-3.695587	010011 111101111010
-3.695587	010011 111101111011
-3.448138	010011 1111011111001
-3.448138	010011 1111011111101
-3.448138	010011 1111101
-3.695587	010011 11111100
-3.695587	010011 111111100
-3.695587	010011 1111111010
-3.695587	010011 11111110111
-3.695587	010011 111111110
-2.905315	010011 1111111110
-3.448138	010011 1111111111
-2.553442	010011 </s>
-3.064424	010100000 0000
-3.064424	010100000 0001000
-1.868698	010100000 0001001
-2.849648	010100000 00010100
-3.311873	010100000 00010101
-2.308031	010100000 00010110
-3.064424	010100000 00010111
-3.311873	010100000 00011110
-2.131939	010100000 010010
-1.955848	010100000 010011
-3.311873	010100000 01010000110
-2.521601	010100000 01010000111
-2.849648	010100000 0101000100
-3.311873	010100000 01010001011
-3.311873	010100000 0101001010
-3.064424	010100000 0101001100
-3.311873	010100000 01010011011
-2.169728	010100000 01010011100
-2.59517	010100000 01010011101
-2.72846	010100000 01010011110
-3.311873	010100000 010100111110
-3.064424	010100000 010100111111
-3.064424	010100000 0101010000
-3.311873	010100000 0101010001
-3.311873	010100000 01010100100
-3.064424	010100000 010101001010
-3.311873	010100000 010101001011
-1.910091	010100000 010101001100
-2.417434	010100000 010101001101
-2.131939	010100000 010101001110
-2.849648	010100000 0101010011110
-2.417434	010100000 0101010011111
-3.064424	010100000 0101010100
-3.064424	010100000 01010101010
-2.035029	010100000 0101011000
-2.308031	010100000 01010110010
-2.59517	010100000 01010110011
-2.59517	010100000 0101011101
-2.417434	010100000 01010111100
-3.064424	010100000 010101111010
-3.064424	010100000 010101111011
-2.72846	010100000 01010111110
-3.064424	010100000 0101011111100
-3.064424	010100000 0101011111101
-3.064424	010100000 0101011111110
-2.849648	010100000 0101011111111
-2.256878	010100000 01011000010
-3.064424	010100000 01011000011
-3.311873	010100000 01011000100
-3.311873	010100000 01011000101
-3.311873	010100000 010110001110
-3.311873	010100000 010110001111
-2.72846	010100000 0101100100
-3.311873	010100000 0101100101
-2.849648	010100000 0101100110
-2.211121	010100000 0101100111
-2.256878	010100000 010110100
-2.417434	010100000 0101101010
-2.169728	010100000 0101101011
-2.521601	010100000 0101101100
-2.849648	010100000 01011011010
-2.007	010100000 01011011011
-3.311873	010100000 01011011100
-2.169728	010100000 01011011101
-2.211121	010100000 01011011110
-3.311873	010100000 010110111110
-2.007	010100000 010110111111
-2.211121	010100000 0101110000
-2.849648	010100000 01011100010
-2.59517	010100000 01011100011
-2.72846	010100000 0101110010
-2.72846	010100000 0101110011
-2.211121	010100000 0101110100
-3.064424	010100000 01011101011
-1.719759	010100000 01011101100
-2.169728	010100000 010111011011
-2.131939	010100000 01011101110
-1.796147	010100000 01011101111
-1.667053	010100000 010111100
-1.796147	010100000 01011110100
-1.888901	010100000 010111101010
-2.035029	010100000 010111101011
-1.910091	010100000 010111101100
-2.521601	010100000 010111101101
-1.705971	010100000 010111101110
-1.932367	010100000 010111101111
-1.567668	010100000 0101111100
-1.667053	010100000 0101111101
-2.035029	010100000 0101111110
-1.378612	010100000 01011111110
-1.888901	010100000 010111111110
-1.849393	010100000 010111111111
-2.521601	010100000 0110001000
-3.064424	010100000 01100010100
-3.311873	010100000 011000110
-3.064424	010100000 0110001111
-3.064424	010100000 0110100001
-2.849648	010100000 0110100010
-3.064424	010100000 01101000110
-3.311873	010100000 01101000111
-3.311873	010100000 0110100101
-3.311873	010100000 011010011000
-3.311873	010100000 011010011011
-2.849648	010100000 011010011100
-2.72846	010100000 011010011101
-3.311873	010100000 01101011010
-3.311873	010100000 01101011111
-3.064424	010100000 0110110000
-3.064424	010100000 01101100010
-3.311873	010100000 01101100011
-2.849648	010100000 011011001011
-3.311873	010100000 0110110011010
-3.311873	010100000 0110110011011
-2.849648	010100000 0110110011110
-3.311873	010100000 0110110011111
-2.59517	010100000 011011010011
-3.311873	010100000 01101101011111
-3.311873	010100000 0110110110100
-3.311873	010100000 0110110110101
-2.849648	010100000 0110110110110
-3.311873	010100000 0110110111011
-3.311873	010100000 0110111000
-3.064424	010100000 011011101100
-3.311873	010100000 011011101101
-3.064424	010100000 0110111100110
-3.311873	010100000 011011110101
-3.311873	010100000 01101111111011
-3.311873	010100000 01101111111110
-1.353788	010100000 0111010
-3.311873	010100000 01110111001
-3.064424	010100000 011101111110
-3.311873	010100000 011101111111
-3.311873	010100000 0111100100010
-3.311873	010100000 011110010110
-2.849648	010100000 0111100110100
-3.311873	010100000 01111001101100
-3.311873	010100000 01111001101110
-3.064424	010100000 01111001111111
-3.311873	010100000 0111101011
-3.064424	010100000 01111011011
-3.064424	010100000 01111011110
-3.064424	010100000 011110111110
-3.064424	010100000 0111101111110
-3.311873	010100000 011111000000
-3.311873	010100000 01111100010
-3.311873	010100000 011111001000
-2.849648	010100000 0111110011100
-3.064424	010100000 0111110111110
-3.311873	010100000 011111100000
-3.064424	010100000 011111100010
-3.311873	010100000 011111101001110
-3.311873	010100000 0111111011001
-3.311873	010100000 01111110110100
-3.311873	010100000 01111110110101
-3.311873	010100000 01111110111110
-1.779757	010100000 1000
-3.311873	010100000 10010
-3.311873	010100000 1001110
-1.796147	010100000 1010
-3.064424	010100000 10110
-2.72846	010100000 1100
-2.59517	010100000 11010
-3.311873	010100000 11011001
-3.064424	010100000 110110110
-2.849648	010100000 110110111
-3.064424	010100000 11011100
-2.849648	010100000 11011101
-2.308031	010100000 11011110
-2.59517	010100000 1101111100
-2.521601	010100000 1101111101000
-3.311873	010100000 1101111101001
-3.064424	010100000 11011111010100
-2.849648	010100000 11011111010110
