\data\
ngram 1=3455
ngram 2=12801
ngram 3=16379

\1-grams:
-1.5102509964510955 <unk>
-3.576901293105085 banknote -0.1361428
-3.702188116542956 berlitz -0.1361428
-4.191799076805115 calloway -0.1361428
-4.2671480446044265 centrust -0.1361428
-4.165324610165415 cluett -0.1361428
-4.389993639346992 fromstein -0.1361428
-4.575002809661178 gitano -0.1361428
-4.428974209061967 guterman -0.1361428
-4.344198144725753 hydro-quebec -0.1361428
-4.360329806202681 ipo -0.1361428
-4.5842891466605264 kia -0.1361428
-4.308685258594335 memotec -0.1361428
-4.22318050483241 mlx -0.1361428
-4.329143660824716 nahb -0.1361428
-4.236565556548406 punts -0.1361428
-4.6018462356125145 rake -0.1361428
-4.239577471268411 regatta -0.1361428
-4.272646106365557 rubens -0.1361428
-4.212345498311649 sim -0.1361428
-4.336602581648413 snack-food -0.1361428
-4.216331763138558 ssangyong -0.1361428
-4.397780347736156 swapo -0.1361428
-4.475494694902961 wachter -0.1361428
-1.5039868660986153 N -0.5381406999999999
-2.601770341571561 years -0.44217039999999996
-3.378872492106017 old -0.1670626
-2.4627407658283507 will -0.6305386
-3.686029923909265 join -0.21909259999999997
-1.1908762693061434 the -0.6608698
-3.090380038920508 board -0.31067369999999994
-2.258942591072133 as -0.5558227
-1.6411595431928805 a -0.5965614
-3.7897937197615086 nonexecutive -0.1361428
-3.1490046837789816 director -0.5100598999999999
-3.8349186937761357 nov. -1.6889359999999998
-2.5024678590861607 mr. -0.5977061
-2.284235119052228 is -0.6152862
-3.298919482608397 chairman -0.47987199999999997
-1.4501915751967036 of -0.5620663
-4.720776313884975 n.v. -0.15438289999999996
-4.413448342566853 dutch -0.1361428
-3.7379962518139043 publishing -0.228436
-3.149702232136895 group -0.48822459999999995
-4.599717967124053 rudolph -0.4336638
-1.6285525375990118 and -0.5105456
-3.640146105992043 former -0.2351849
-4.353284642171343 consolidated -0.1828108
-3.9705621709495986 gold -0.3058242
-3.4060251333003806 fields -0.235211
-4.087699119835161 plc -0.38570279999999996
-2.3410389044142725 was -0.4917573
-3.5006690638162588 named -0.23103889999999996
-2.6918033627324087 this -0.4485032999999999
-3.685323451428112 british -0.30042279999999993
-4.066619387884659 industrial -0.24471019999999993
-4.304890170268819 conglomerate -0.19317059999999997
-3.6115904283530043 form -0.3264718999999999
-3.3190227811755997 asbestos -0.18319789999999994
-3.859064823335905 once -0.33032559999999994
-3.203611412828292 used -0.5437165999999999
-1.5108915287024103 to -0.7395636
-3.1907919891170318 make -0.3232905
-3.587017583111483 kent -0.19312929999999995
-3.6428070525478677 cigarette -0.18117159999999993
-3.420880203584458 filters -0.22205080000000002
-2.4772435948922085 has -0.6003408
-3.925814870020903 caused -0.5222389
-2.789246324834507 high -0.32452309999999995
-3.8096764596574553 percentage -0.33524389999999993
-3.443281696441864 cancer -0.2652589
-3.962397881830543 deaths -0.22833080000000003
-3.5746174019325134 among -0.3706315
-3.469758462061881 workers -0.39480389999999993
-4.240173158900236 exposed -0.36928939999999993
-2.2502596763791005 it -0.597709
-2.7334627371219713 more -0.4211449
-2.675867371098692 than -0.43489969999999994
-3.427537330475767 ago -0.23842899999999997
-3.4776840277112253 researchers -0.28333469999999994
-3.492067053539261 reported -0.5257437
-3.7779111984606923 fiber -0.1361428
-4.662151677070865 unusually -0.1517298
-4.00861214623034 enters -0.29708369999999995
-2.221978364022587 with -0.48733819999999994
-3.1140077120872522 even -0.42400009999999994
-4.343697953448862 brief -0.16160749999999996
-4.2192805756130145 exposures -0.18127879999999996
-4.363163966041071 causing -0.2604764
-4.660246363856247 symptoms -0.24867919999999993
-1.982053158089959 that -0.5696336999999999
-3.490413367661822 show -0.3124295999999999
-2.6568010785156155 up -0.6039479999999999
-4.284217688105444 decades -0.27936419999999995
-3.9781543188649016 later -0.3707359
-2.251906640179528 said -0.6847661999999999
-2.9634550183236676 inc. -0.5418797999999999
-3.0980660604381685 unit -0.4825088999999999
-2.448595635986557 new -0.33393349999999994
-3.9102474397680242 york-based -0.1361428
-3.053109674266816 corp. -0.548521
-4.1587557263669375 makes -0.3127227
-3.7166429959961875 cigarettes -0.19647759999999997
-3.8763586385524245 stopped -0.19459669999999998
-3.5752063309071005 using -0.321881
-1.6044465483142338 in -0.7302237999999999
-2.1288323488223244 its -0.3503371
-3.480151809275578 although -0.3014184
-3.830312113201787 preliminary -0.1698034
-3.9839580911330654 findings -0.24575269999999994
-2.573599456954984 were -0.38811379999999995
-2.3434066146140182 year -0.3548537
-3.4321376738526412 latest -0.1671558
-3.8917608157767907 results -0.4379115
-4.1147959332722515 appear -0.3723424
-3.8097285215773655 today -0.5049422
-1.9447798036691113 's -0.4260269999999999
-3.3651817890629876 england -0.16434069999999998
-3.679803376292185 journal -0.20822579999999993
-3.7331669071149167 medicine -0.1560797
-3.8760938882673552 forum -0.1361428
-3.797264646155812 likely -0.3762614
-3.5071730637265404 bring -0.2378487
-3.731657911120692 attention -0.3719572
-3.763154569223995 problem -0.36942469999999994
-2.363884549193888 an -0.5236567999999999
-3.680303865222612 story -0.3090977999999999
-3.3903987726711455 we -0.5638548
-3.598642474491169 're -0.1858149
-3.7239467085597404 talking -0.42577079999999995
-2.4295382336459506 about -0.5925801
-3.0349818057759768 before -0.4620926999999999
-4.122241298674418 anyone -0.28878679999999995
-3.9766930317194187 heard -0.20022199999999996
-4.183599945430032 having -0.28726969999999996
-3.060089500596942 any -0.2611759
-4.00319895698963 questionable -0.15438289999999996
-4.182348248361319 properties -0.2882644999999999
-3.3852847775345642 there -0.7346169999999999
-2.978372092239138 no -0.30235769999999995
-4.009565915922447 our -0.2089607
-3.508711945610721 products -0.4617811
-3.1858369728168543 now -0.35159809999999997
-4.674996332154851 neither -0.20720899999999995
-3.8582763950189154 nor -0.2669731
-2.5606681458690854 who -0.46733299999999994
-3.7289389864257236 studied -0.2355293
-4.3194811114671845 aware -0.6566789999999999
-2.905229373836584 research -0.34628039999999993
-2.2418142328679154 on -0.5796112
-4.4124936512779005 smokers -0.1361428
-2.436501515930944 have -0.5043123999999999
-3.978185689146288 useful -0.1606373
-3.228132931334214 information -0.40523439999999994
-3.458304596299487 whether -0.44166009999999994
-3.981928814958749 users -0.3346025999999999
-2.4567269591980754 are -0.4704007
-2.210190444152218 at -0.6663230999999998
-3.469391404840856 risk -0.3416776
-3.4939880416911047 james -0.27815829999999997
-3.6408038480539244 a. -0.1402846
-3.644585922155912 boston -0.23837209999999995
-3.4393028048790875 institute -0.3471228
-3.404872695399971 dr. -0.39484839999999993
-3.4342594215578215 led -0.673153
-3.716355080995813 team -0.26136329999999997
-2.399855166279982 from -0.49372859999999996
-3.25829852587746 national -0.2641988
-3.9478497406050947 medical -0.22480209999999998
-3.1786741374368637 schools -0.2649904
-4.058760573117652 harvard -0.14757339999999997
-3.1641210842228333 university -0.32717399999999996
-3.7391780766372142 spokeswoman -0.4998231
-3.6676805142282958 very -0.2923242999999999
-4.508280953699482 modest -0.19256719999999997
-3.9691997024361303 amounts -0.4250264999999999
-3.7462676025129937 making -0.34615509999999994
-3.7689215809022163 paper -0.32222839999999997
-1.7883699400433601 for -0.5728254
-3.168281679515462 early -0.39937449999999997
-4.069443845740433 1950s -0.1361428
-4.459680172882336 replaced -0.22762549999999995
-3.523864805813513 different -0.21818649999999995
-3.7069780496478772 type -0.47960339999999996
-2.6190335412562584 billion -0.15134239999999993
-3.477862340059582 sold -0.45444599999999996
-2.6736845874061004 company -0.41344819999999993
-3.6631689724943852 men -0.36615739999999997
-3.7313640459344803 worked -0.3959279
-3.696978921328097 closely -0.35447969999999995
-4.05361819823205 substance -0.1361428
-3.9545185725153043 died -0.2599248
-3.129253695157492 three -0.3765261999999999
-3.4950044503985778 times -0.3121607
-3.169617499449573 expected -0.3606342
-3.2291379041500567 number -0.45098599999999994
-3.284248435216519 four -0.3382832
-3.2959337651105884 five -0.4003528
-4.420071294678836 surviving -0.19312929999999995
-3.611120467420507 diseases -0.1704387
-3.2578470981598278 including -0.3525721
-3.646309206908768 recently -0.2895518000000001
-3.8016759353870118 total -0.2637224
-4.80974013475283 malignant -0.17342280000000002
-4.403891907481867 lung -0.3939938
-3.0889327708529803 far -0.35460289999999994
-3.1747644622980165 higher -0.3950625
-3.0643546374257484 rate -0.4683454
-4.1129536690822945 striking -0.15931309999999999
-3.836794107340695 finding -0.26029459999999993
-3.0210615861191594 those -0.2809463
-3.7985939886789626 us -0.3005748999999999
-3.6265795425454166 study -0.2737725
-4.065694455774268 west -0.4543743999999999
-3.8868590007787804 mass. -0.1724452
-3.3802298873573386 factory -0.2011151
-3.7153044737046583 appears -0.5413025999999999
-2.356040365864555 be -0.3242404
-3.6929969285151025 highest -0.16494090000000003
-3.512192925663017 western -0.26295139999999995
-3.693563494220694 industrialized -0.2312948
-3.230055762233833 countries -0.34187709999999993
-2.617134283175882 he -0.6291690999999999
-3.2282566046154155 plant -0.3631771999999999
-2.745306425022313 which -0.5111719
-4.40450905760938 owned -0.49865829999999994
-2.138670013567969 by -0.47923589999999994
-3.1123351686533174 & -0.3383361999999999
-3.069776959400045 co. -0.44525229999999993
-2.8159449027475443 under -0.5782946
-3.946035325169289 contract -0.3672445999999999
-3.564257210009982 probably -0.3418472
-3.809719936629509 support -0.5091183999999999
-3.7576053806383416 argue -0.5657258
-2.3598021209587148 u.s. -0.2890720999999999
-3.1878956232588824 should -0.45230279999999995
-3.8289994519701485 regulate -0.1560797
-3.27580575121883 class -0.39071
-3.0701045740169297 common -0.48163169999999994
-3.5451307191062953 kind -0.5245996
-3.321068732042547 found -0.47044409999999987
-3.191994174609775 most -0.309359
-2.7457081264404173 other -0.27897349999999993
-3.7870040195594568 buildings -0.2889382
-3.0098410147122685 one -0.4012252
-3.707793667989491 few -0.21992769999999998
-3.327055860825748 nations -0.28334889999999996
-3.1795319271094966 does -0.6596878999999999
-2.346096076075203 n't -0.2815659999999999
-4.194144889696454 standard -0.3391668
-4.092397246436946 regulation -0.3592427999999999
-4.198570690170041 smooth -0.1361428
-3.8321700540410757 fibers -0.17329130000000004
-2.7541418234868975 such -0.44740769999999996
-4.18228784616809 classified -0.2599087
-3.2044729373811043 according -1.980962
-4.126639642252075 t. -0.3469823
-3.6394131356074846 professor -0.40857219999999994
-4.128285098053281 vermont -0.2320004
-3.8456614450769635 college -0.23923509999999998
-4.613043178297944 easily -0.18894089999999994
-4.3926423636377265 rejected -0.39569219999999994
-4.161409085571705 body -0.16160749999999996
-4.630521018629118 explained -0.22888399999999998
-3.6570897743963275 july -0.3134507999999999
-3.8448400406946477 environmental -0.21347219999999995
-4.25450490350048 protection -0.3340988999999999
-3.983949113573104 agency -0.3092231
-4.398508888830887 imposed -0.3422095
-4.235385892817857 gradual -0.1361428
-3.6495092617678866 ban -0.26453649999999995
-4.0469898544339005 virtually -0.2870119
-2.970197197131215 all -0.4060107
-3.9726289266723964 uses -0.3021065
-3.5013291369339954 almost -0.40564269999999997
-4.2046521176524685 remaining -0.152318
-3.99162306356197 outlawed -0.1361428
-3.132886655712165 made -0.5103215999999999
-4.469788638229796 areas -0.3088845
-4.205035800788787 particularly -0.27098479999999997
-4.2760674143868656 dusty -0.1361428
-3.381325006838499 where -0.40840719999999997
-3.7302930373630385 dumped -0.14757339999999997
-3.7625763791018714 large -0.21045620000000004
-3.8872891958255997 imported -0.16911899999999996
-3.9600759071133877 material -0.19336139999999996
-2.9145724262299293 into -0.44649229999999995
-4.588957096411526 huge -0.18868879999999996
-4.632762508017393 poured -0.19333589999999995
-4.490663377940845 cotton -0.2180059
-4.478739137716952 mixed -0.2755736
-4.122969098190905 dry -0.17342280000000002
-4.06277844740982 process -0.33388879999999993
-3.6149710607252956 described -0.4033823999999999
-3.950272107718258 clouds -0.1361428
-4.642514635199102 blue -0.33260969999999995
-4.615462552355875 dust -0.1678971
-4.64653265837507 hung -0.19333580000000003
-3.2857864367491105 over -0.5798253
-4.272289933582866 parts -0.41764
-3.5378655130947703 though -0.3718734
-3.9196860008636505 fans -0.2475888
-4.118430272284682 area -0.306752
-4.133440504351854 question -0.3286249
-3.125071038309677 some -0.34451089999999995
-3.1289950507868256 managers -0.31561819999999996
-3.8603134362689984 contracted -0.19877679999999998
-4.137573851411427 phillips -0.22342109999999996
-3.1627069335246882 vice -1.076468
-2.9643703384474334 president -0.4686135
-3.792285561625717 human -0.2438311
-4.053122687557548 resources -0.28497429999999996
-2.5420162327728986 but -0.48439309999999997
-3.4120949753486025 you -0.4676777
-4.09851633381405 recognize -0.22729110000000002
-3.0809581832831308 these -0.2713521
-3.900574567613319 events -0.2713275
-3.604949075458245 took -0.4662901
-3.71619432817739 place -0.3419607
-4.169999404546968 bearing -0.24327869999999996
-3.325211465010952 work -0.44273339999999994
-3.461298845767634 force -0.27002439999999994
-3.67440744725047 yields -0.38976799999999995
-3.9006684072468727 money-market -0.3217175
-3.5859742403233867 mutual -0.6575731999999999
-2.4877134478083347 funds -0.44396769999999997
-3.7974097908279316 continued -0.40201349999999997
-4.096506832928394 slide -0.2559298
-3.9884785854289424 amid -0.2984282
-3.9296857792191577 signs -0.644366
-3.566373835540383 portfolio -0.3229905
-3.6903265191867187 expect -0.32593179999999994
-3.607174967600386 further -0.2301157
-3.595010231888132 declines -0.44885649999999994
-2.9761289937147346 interest -0.5808971999999999
-2.8411425050968377 rates -0.40346189999999993
-3.4244744337575086 average -0.24143389999999995
-3.6902156517959033 seven-day -0.2312948
-3.7693449881487044 compound -0.20215769999999994
-3.6979201902190715 yield -0.3015719
-3.958424571279596 taxable -0.21391709999999994
-4.007123288879783 tracked -0.2312948
-3.181885885399708 money -0.47624
-3.092105112491471 fund -0.35092689999999993
-3.1802967741791957 report -0.33143319999999993
-3.9652595146495466 eased -0.43649430000000006
-4.145499322733111 fraction -0.21420599999999998
-3.7118030498585997 point -0.4216289999999999
-3.0512323725507846 week -0.31940909999999995
-3.966594021993688 ended -0.41125439999999996
-3.5105701993411347 tuesday -0.4710912
-3.9537467870943446 assume -0.29965899999999995
-4.187083384888011 reinvestment -0.2588992
-4.19054968568661 dividends -0.28527479999999994
-3.6794733830548365 current -0.2089757
-3.959181810252156 continues -0.5964260999999998
-3.6619661291554957 maturity -0.28880839999999997
-3.035014162590274 ' -0.205445
-3.8436376903286087 investments -0.368126
-3.4938825554750883 day -0.3194737
-3.2254652129465553 days -0.4162431999999999
-4.028465297688884 longest -0.1678971
-2.9545957407728087 since -0.5877147999999999
-3.230800495112723 august -0.252477
-4.130347112827203 donoghue -0.35564909999999994
-3.658696727975268 longer -0.18772859999999997
-3.648726384668093 maturities -0.21453719999999996
-4.25828289965225 thought -0.40869939999999993
-4.236051165017594 indicate -0.3254975
-4.521408257834572 declining -0.2034517
-2.8480333130249336 because -0.7210759999999999
-2.6938129126212402 they -0.5456702
-3.916139104047674 permit -0.18563679999999996
-4.39038389382817 retain -0.278404
-3.6897587005739414 relatively -0.2393754
-3.839974946882657 period -0.3850462
-3.6845435888436673 considered -0.24889489999999997
-4.218345574776833 sign -0.2974485
-4.1241355939144 rising -0.26362869999999994
-3.121974586354674 can -0.4208404
-3.774952086212528 capture -0.1361428
-4.546632498727375 sooner -0.2895765
-3.951716377141516 open -0.3105972
-3.186709414664259 only -0.4656017
-3.9733895979861997 institutions -0.3281704999999999
-3.8525849768690916 stronger -0.17429610000000004
-4.117309943582106 indicator -0.3027728
-3.372979572425308 watch -0.2558519
-3.095975595740721 market -0.44353149999999997
-3.539619496235473 reached -0.33974779999999993
-3.842169492674929 editor -0.43548689999999995
-3.084835601846966 may -0.504938
-3.5762662780594034 again -0.3861434
-3.044460680308185 down -0.5272561
-3.412240804507032 recent -0.18494569999999996
-3.974388166203603 rises -0.29772219999999994
-3.690274979003999 short-term -0.25193279999999996
-4.003010689884757 six-month -0.23304509999999998
-3.5716265783534786 treasury -0.394953
-4.369056006235395 bills -0.3386711
-4.0012844412087 monday -0.46755379999999996
-3.838091424392605 auction -0.3139065999999999
-3.2647653224150486 example -0.2076509
-3.4334272371330425 rose -0.7606579999999998
-4.052051836995791 despite -0.3731925
-2.9736845414462487 investors -0.43202119999999994
-3.516119098661951 continue -0.3743908
-4.335566206693594 pour -0.1361428
-3.6942730005969366 cash -0.3814254
-3.8048131530862386 assets -0.4446823999999999
-3.974141492235133 grew -0.40520709999999993
-2.129522240533792 $ -2.225179
-3.3610174154742416 during -0.7086329
-3.999389838187353 typically -0.15925939999999997
-3.646656567080631 money-fund -0.19333580000000003
-3.8818732072956843 beat -0.21721699999999994
-4.358855831383867 comparable -0.1605805
-4.1876977870050505 vary -0.2194582
-3.6990766345577133 go -0.35391759999999994
-3.0275974013155538 after -0.4829321999999999
-3.6829317813010167 top -0.24511519999999998
-3.58019693007266 currently -0.27581399999999995
-4.115651568428602 yielding -0.25068099999999993
-3.224543115720857 well -0.3497021
-3.851721461094913 world-wide -0.2443027
-3.894526757273022 dollar -0.20855229999999997
-2.7766016614038804 had -0.4953352
-3.142846571947438 earlier -0.4332309999999999
-3.5650650105971082 invests -0.18127879999999996
-3.818442205874836 heavily -0.383039
-4.045024719439138 dollar-denominated -0.1678971
-3.2498270644311558 securities -0.40903829999999997
-4.09721391108629 overseas -0.2530195
-3.642599984059009 management -0.3375159999999999
-4.089141702899026 fees -0.3783418
-4.131356816961737 boosts -0.18853309999999998
-3.7442721508945507 simple -0.1733702
-3.7838484441731963 30-day -0.19333589999999995
-3.311365523933517 fell -0.6716931999999999
-4.371502055947663 slid -0.5930225999999998
-3.922557479919394 grace -0.20998689999999998
-3.8927093504201724 holds -0.42475549999999995
-4.060855291157422 elected -0.2823583
-3.5786679692652488 succeeds -0.20128190000000004
-3.718285160415809 d. -0.23737799999999998
-4.533529541781928 formerly -0.21430389999999996
-3.6841639985513086 resigned -0.4124009
-4.188945235222971 energy -0.2889562
-3.82942054435693 seven -0.2878265
-3.8865220654496855 seats -0.35312589999999994
-4.166445638867538 pacific -0.2612574
-2.99207668225516 first -0.27421219999999996
-3.2070961992581943 financial -0.36064139999999995
-4.4038967224350705 shareholders -0.3483280999999999
-3.5528145134234133 approved -0.4357315
-4.1351245360894096 acquisition -0.31430099999999994
-4.655024210701121 royal -0.22796019999999995
-3.494116758975439 ltd. -0.3926510999999999
-3.887880453258816 toronto -0.1953576
-3.092391458870736 share -0.3669441
-2.6391363597387905 or -0.3470729
-2.4366496638646917 million -0.1820262
-3.7611478160351735 thrift -0.22840339999999998
-3.595384866841025 holding -0.42324049999999996
-3.477807006563775 expects -0.3985084
-3.9007818133651306 obtain -0.15067309999999998
-4.00210041575385 regulatory -0.22261289999999997
-3.9564297583313004 approval -0.5503146
-3.529946131634941 complete -0.23115679999999997
-3.9005076899210214 transaction -0.27271389999999995
-3.9689094149029254 year-end -0.19312929999999995
-3.287651676931827 international -0.28870429999999997
-3.5831796769675712 completed -0.3743052
-3.609591252712479 sale -0.40780649999999996
-3.6480688803216204 controls -0.3004801999999999
-3.88339984894185 operations -0.46336159999999993
-4.11772618251053 s.p -0.25873909999999994
-4.221798534265106 italian -0.15931309999999999
-4.348065865907593 state-owned -0.1678971
-4.113272125178619 interests -0.3960196
-4.035388608264851 mechanical -0.18127879999999996
-4.022541474112261 engineering -0.3268738
-3.3694793655028654 industry -0.43490619999999997
-3.1469438206361247 based -1.071545
-4.420048104276909 ohio -0.2094932
-4.562043882045411 computerized -0.1678971
-3.8332419690174127 systems -0.3567889
-3.746279879139294 employs -0.43541479999999994
-3.5871226579911353 people -0.45264209999999994
-3.56758361205233 annual -0.36148299999999994
-3.704514997422408 revenue -0.4515798
-3.0750080769226176 federal -0.39488509999999993
-2.9708432016606583 government -0.33362129999999995
-4.342639557925452 suspended -0.22482129999999997
-3.3835138220845113 sales -0.5215588999999999
-3.6430207684043503 savings -0.4401475
-4.196072443961438 bonds -0.4488454
-3.484104207310986 congress -0.36498519999999995
-4.481717887671494 lifted -0.1621221
-3.859164338103101 ceiling -0.23056310000000002
-3.2945491177947175 debt -0.4094937
-3.048635599876294 until -0.4971067
-3.9048290920641966 acts -0.2549044999999999
-3.994271272586723 authority -0.35878669999999996
-3.1307604455237628 issue -0.37431139999999996
-4.126700944997672 obligations -0.20878659999999996
-4.362858276635077 borrowing -0.1777106
-4.046730544941611 dropped -0.5964897
-4.632719227828588 midnight -0.1606373
-3.892719160814576 trillion -0.15804849999999998
-3.639180887558932 legislation -0.3625986
-4.00699994005656 lift -0.19774899999999998
-4.0722110744847955 fight -0.2515764999999999
-3.9118251876245695 cutting -0.28341579999999994
-4.148328429120124 capital-gains -0.2871754999999999
-3.863787984609181 taxes -0.3796246
-3.5202984859568893 house -0.2803284999999999
-4.102546585278726 voted -0.474104
-3.703839434441361 raise -0.26289199999999996
-3.8873095205250556 senate -0.2313142
-3.3339158380755887 act -0.3890141999999999
-3.062090949506857 next -0.5991228999999999
-3.994629271819864 earliest -0.1361428
-4.411586894598861 default -0.2809794
-3.0187125106908734 if -0.5675187
-3.669449234312911 then -0.2580061
-3.7728676225540982 j. -0.19092639999999997
-3.607603649234231 senior -0.33810039999999997
-3.4272523285552463 general -0.3587391
-3.5764603173785807 manager -0.4392423
-3.430495244831774 marketing -0.2732294999999999
-3.9657580999284194 arm -0.45372879999999993
-2.6769748699221707 japanese -0.3260584999999999
-3.866626726876243 auto -0.427312
-3.3753363456619527 maker -0.4475663
-3.8520959698555903 mazda -0.27356559999999996
-3.67481789696199 motor -0.23521779999999998
-3.555329411862939 corp -0.8495642
-4.081149899511915 position -0.5054442
-4.583040122532855 oversee -0.1361428
-3.8835865719526153 service -0.3398748999999999
-3.5836459628750488 previously -0.2774104999999999
-3.718904713029482 chrysler -0.2977974
-3.920444558078875 division -0.45994859999999993
-2.7124067383982573 been -0.23760629999999996
-3.402010316344996 executive -0.37690809999999997
-2.870645569558472 when -0.5039917
-3.019746320466404 time -0.43586759999999997
-2.6625420294720703 their -0.2862477
-3.6606150671092608 nation -0.2209021
-3.5495992826739684 manufacturing -0.24561710000000003
-4.024328531117677 jet -0.15295229999999999
-3.180991420640435 off -0.44603859999999995
-3.992814501258618 resort -0.22220049999999994
-3.886552685134701 towns -0.1606373
-3.2433910981224097 like -0.37025479999999994
-3.9876365074158358 hot -0.17621219999999999
-3.929146088208436 springs -0.1361428
-2.8485509240626334 not -0.3616348999999999
-3.18637033095331 association -0.3835567
-3.681104575300276 manufacturers -0.37851189999999996
-3.902953976628176 settled -0.27657839999999995
-3.392579002802695 capital -0.4003025999999999
-3.8329085813555976 indianapolis -0.1361428
-3.9764449034472884 fall -0.3446438
-3.6869549692445025 meeting -0.41471289999999994
-3.355232396429061 city -0.26170259999999995
-3.436374995155285 decided -0.5296127
-3.7864043543555588 treat -0.1361428
-4.3543969634969795 guests -0.17329130000000004
-4.557980885179528 royalty -0.20215769999999994
-4.463001373485054 rock -0.2063096
-3.9779395895620207 stars -0.18111809999999998
-3.688919919152025 owners -0.2893495
-3.9364511546813707 idea -0.2629002999999999
-3.8662829729274875 course -0.22434020000000002
-4.3901812950493175 prove -0.25995689999999994
-4.5354401421150925 corporate -0.3065944
-3.8010049378986497 decision -0.3800011
-4.473495233257102 makers -0.28770999999999997
-4.329005646842418 buckle -0.21420599999999998
-4.438451478573507 belt -0.1678971
-2.8760017228725347 so -0.4036269
-3.2762201973128633 good -0.2627187999999999
-4.259217141149222 expand -0.1953576
-3.7095083607243975 receiving -0.1581247
-3.1740330918496507 end -0.32660439999999996
-3.8846096125026484 message -0.2089399
-3.384364506527045 officials -0.5303763
-3.869624520332774 giants -0.20536649999999998
-4.568075550301591 du -1.03689
-4.652195093294336 pont -0.1361428
-4.626417216385439 along -0.6066650999999998
-4.410338834471165 lesser -0.1361428
-4.370842493922764 steel -0.2764306
-4.299234209118886 valley -0.2941512
-4.3900860966478135 queen -0.17342280000000002
-3.8442885832006937 executives -0.3830936999999999
-4.6631662862059375 joined -0.3090118
-4.093321934068934 mayor -0.21610899999999997
-3.8689462726773116 william -0.23566159999999994
-4.5601215956867795 h. -0.1361428
-3.9381995116920803 iii -0.19317059999999997
-4.505730462333204 evening -0.19065849999999998
-4.652706604495938 guest -0.1361428
-4.660106189370607 victor -0.19333589999999995
-4.1130382551262255 followed -0.4239145999999999
-3.762871282346329 morning -0.23678669999999996
-4.077467961536909 police -0.20754499999999998
-4.011243737119545 wives -0.1637985
-4.215646877680372 traffic -0.1946689
-4.358088255210733 red -0.34270209999999995
-3.9812142512531596 lights -0.20573719999999998
-3.82400813704704 governor -0.24124029999999994
-2.8759120685417976 could -0.4714981
-3.8370728945997605 welcomed -0.27356559999999996
-3.5603678601770548 special -0.1918795
-3.560786898706589 buffet -0.1361428
-3.7022342536982267 breakfast -0.1606373
-3.9204954550850792 held -0.3553976999999999
-4.8336485427972065 museum -0.21438559999999995
-4.243731128629879 food -0.2741091
-4.50125452176142 drinks -0.17342280000000002
-4.63675783311685 banned -0.18650579999999997
-4.449027312747328 everyday -0.1864154
-4.469204706860161 visitors -0.1910858
-3.7013392655905046 honor -0.18117159999999993
-3.057253676438035 out -0.5921514999999999
-4.209162168154643 drivers -0.17571869999999998
-4.385875587805422 crews -0.19312929999999995
-3.806249710525219 official -0.31146099999999993
-3.5103409733115276 announcer -0.1606372
-4.350365240590196 exhibition -0.1768314
-3.864634755807522 race -0.23215059999999996
-4.308795857558937 fortune -0.1361428
-3.708343558778407 cars -0.3443843
-4.658335562614285 pointed -0.4134894
-3.316580098191271 still -0.2521651999999999
-3.870202009027874 space -0.2650614
-4.138629616248658 machines -0.32466809999999996
-3.111876237793524 another -0.225391
-4.463291933293577 sponsor -0.23217290000000002
-3.9816454155365584 name -0.32274309999999995
-3.1112571484632086 two -0.3744752
-3.6847463297162246 back -0.5107160999999999
-3.5945760677923446 downtown -0.1935726
-4.315804097007367 squeezed -0.23500849999999998
-4.187267869048375 meetings -0.2996175
-4.4610047205072565 hotel -0.25178559999999994
-3.9700090704311104 buses -0.1581247
-4.26332603242328 dinner -0.1637985
-3.696938497527925 block -0.19878889999999996
-4.049000421803942 away -0.496653
-4.158322957822146 indiana -0.1361428
-3.8164705872062896 nine -0.3252478999999999
-4.256379643758518 hottest -0.1361428
-4.404880704629435 chefs -0.1361428
-4.423411204988836 town -0.29386750000000006
-4.249511412878044 fed -0.19414379999999995
-2.8842487690907554 them -0.4703077
-3.6990586578277176 free -0.29304579999999997
-4.710260739184103 eat -0.15438289999999996
-3.656143011925547 gave -0.3594512
-3.815451657557411 standing -0.22883549999999997
-3.076733599188023 say -0.49631649999999994
-3.342697687808538 treatment -0.26014429999999994
-3.3944790005888956 return -0.4259340999999999
-3.8975614586173877 future -0.20923329999999998
-3.856829447459127 looking -0.6524528
-4.20486149088499 forward -0.2808639
-4.468502642054158 winter -0.17329130000000004
-4.1732947238512255 february -0.2683903
-2.8750634887544293 south -0.6240909999999998
-3.231484259023532 korea -0.19517429999999997
-3.9448560897068816 registered -0.21721699999999994
-2.943057744044437 trade -0.3506546
-4.573784762750892 deficit -0.2694253999999999
-3.118685179029661 october -0.2666433
-4.570232594561078 reflecting -0.3549919999999999
-2.9211974514199386 country -0.3152132
-3.224296045910771 economic -0.3561832999999999
-3.5961670177002256 figures -0.32815469999999997
-4.121457043869784 released -0.29413959999999995
-4.336883056193652 wednesday -0.3722531
-4.123954975815955 ministry -0.2861228
-3.6365944196292346 showed -0.3914252999999999
-3.7212492295356054 fifth -0.21824049999999995
-3.857214176611185 monthly -0.18122519999999998
-4.788536088846616 setback -0.24144189999999996
-4.850576387209716 casting -0.22796019999999995
-4.67454118562965 cloud -0.1678971
-3.5259497818545467 economy -0.33328679999999994
-3.7025643478159767 exports -0.35024149999999993
-4.3042738621414385 stood -0.3765402
-4.255633669653946 mere -0.1361428
-3.526166744167248 increase -0.3758297
-3.723468343740399 while -0.29786569999999996
-3.325346247079855 imports -0.3696111
-3.7141877178662406 increased -0.4225889
-3.883952866292074 sharply -0.3429398
-2.734948248763131 last -0.7795550999999998
-4.328249340073634 boom -0.2683903
-3.548396825611721 began -0.34599929999999995
-4.014841623056 prolonged -0.1581247
-3.8509587258192655 labor -0.27574799999999994
-3.820263109110268 disputes -0.15295229999999999
-3.933873066394486 conflicts -0.21406149999999996
-3.9660839240310324 sluggish -0.2228941
-2.806118889692416 would -0.5649655999999998
-3.9180164953886427 remain -0.23623279999999997
-4.188202134080681 target -0.27147549999999987
-3.9014057515485385 gloomy -0.1361428
-4.365148753231711 forecast -0.32631039999999994
-4.005518033081169 recorded -0.22721630000000004
-4.009184226100312 surplus -0.22796019999999995
-3.9491147392189014 january -0.25958349999999997
-4.2593415074343595 accumulated -0.1361428
-3.428879028500519 same -0.1404224
-3.747961709939443 newsweek -0.18111809999999998
-3.639210918527354 trying -0.9301427999999998
-3.790139256999691 keep -0.202994
-4.4174591070141105 pace -0.2502735
-4.021206428048235 rival -0.1705538
-3.799316736811943 magazine -0.2904386999999999
-3.6465451783656304 announced -0.4996034
-3.5545668561060086 advertising -0.3020498
-4.0923648128726855 introduce -0.21435989999999994
-3.890720430365512 incentive -0.27330689999999996
-3.1818801687527625 plan -0.4541764
-3.661124664007483 advertisers -0.2708364
-3.0079247837207155 ad -0.3321247
-3.522039309540994 washington -0.2850240999999999
-4.07235164495837 post -0.21450699999999998
-3.708643859652078 second -0.212509
-3.553404615311505 offered -0.4782342
-4.091416227526349 plans -0.6111440999999999
-3.751613383171197 give -0.2672037
-4.464714518813333 discounts -0.18650579999999997
-3.7871733098129496 maintaining -0.1606373
-3.826419200725105 increasing -0.2807756
-3.1874728213346457 spending -0.38005479999999997
-3.3194666485564874 become -0.29333590000000004
-4.424599754900233 permanent -0.2431828
-3.4475627751486444 news -0.4026682999999999
-4.418564609788526 underscore -0.21391699999999994
-4.479680533484452 fierce -0.1637985
-4.198976165854955 competition -0.46642269999999997
-3.4633418780786305 between -0.425126
-4.350477719047303 warner -0.30197809999999997
-4.375135486091982 b. -0.20009530000000003
-3.358464397920999 world -0.2861815999999999
-3.803444332883586 full -0.20632209999999995
-3.714291685820496 page -0.1605521
-3.4445241026193907 cost -0.3973259
-3.5809939771273944 mid-october -0.16570639999999998
-4.391179525289597 lowered -0.31691829999999993
-4.2459376158706545 guaranteed -0.2649214
-3.5904225505860032 circulation -0.22283509999999995
-4.239941494780572 base -0.28215869999999993
-3.9263412385258953 lower -0.36624739999999995
-4.310266903991204 effectively -0.18563679999999996
-3.9117072882654447 per -0.2597841000000001
-4.289210765152951 subscriber -0.18127879999999996
-4.132725669782259 costs -0.5178404
-4.109475573175062 yet -0.26334409999999997
-4.450139785983531 announce -0.1760987
-4.241765534512236 credit -0.3413574999999999
-4.1893327922734915 credits -0.28100829999999993
-4.05862578248447 renewal -0.1361428
-4.066736255537696 reward -0.21462
-4.4034561430262755 bonuses -0.21401339999999996
-4.277054328639633 meet -0.20824029999999993
-4.591172752428006 exceed -0.32803009999999994
-3.986288952668708 long -0.22661379999999998
-4.103108690586865 spent -0.3263389
-4.57427616737321 attempt -0.5311358999999999
-4.514356379539661 shore -0.17342280000000002
-3.431492073956707 decline -0.41373489999999996
-3.601959546705955 pages -0.2656972
-3.3798300089776787 months -0.3514303999999999
-3.8609762758543855 totaled -0.8061318999999999
-3.7936791762098805 drop -0.3626119
-4.2443350310592605 publishers -0.1713789
-4.074647054911746 bureau -0.3091441
-3.4283562570987747 what -0.5067838
-3.8411047446311315 matters -0.2673957
-3.522633991402341 paying -0.29065469999999993
-2.9467971832317077 department -0.38600759999999995
-3.53461380403867 doing -0.34030599999999994
-3.698848212366981 fine -0.3053829
-3.5064888846470894 both -0.2742969
-3.8247345725928943 gaining -0.16778579999999996
-3.241889946269229 without -0.30071739999999997
-3.5563340351002517 heavy -0.21597879999999994
-3.482035813863965 use -0.4081913999999999
-4.015773359243173 electronic -0.2531295
-4.413618316107297 subscribers -0.20733149999999997
-4.447412644073599 telephones -0.1361428
-3.4304916537837946 watches -0.1361428
-3.7760624815833594 however -0.32023769999999996
-3.720620051850222 none -0.4036926
-3.56753060320518 big -0.2530211
-3.7667474480732683 gains -0.4722492999999999
-4.101175646817006 audit -0.18859589999999996
-3.59397605233953 largest -0.17845959999999997
-4.513092361578139 decrease -0.2688947999999999
-4.0824194948075485 six -0.40222189999999997
-4.387545865814684 flat -0.24171559999999992
-3.61297335553596 electric -0.2580276
-3.6511138988292844 system -0.4501597
-4.519656365278181 bowed -0.28824089999999997
-4.043299661931324 bidding -0.3112841
-3.4329887808264146 public -0.27383469999999993
-3.3887625254356695 hampshire -0.1361428
-3.8744881338263686 saying -0.4329863
-3.8970805104490984 risks -0.282676
-3.305846541032368 too -0.42027869999999995
-3.6987152260331744 potential -0.23731789999999992
-4.589594438458181 justify -0.1361428
-3.4640702613620924 offer -0.38438479999999997
-3.7495879399451404 move -0.3150667
-3.682453831769405 leaves -0.26005899999999993
-3.9917520212822426 united -0.37029989999999996
-3.887935827035356 illuminating -0.1361428
-3.6434091382221085 northeast -0.23973029999999995
-4.343829462038581 utilities -0.2053731
-3.7545902756284613 outside -0.3095319999999999
-4.280232582392074 bidders -0.22251080000000004
-3.6457503516961656 ps -0.8028070999999999
-3.157106213130582 also -0.38115999999999994
-3.7904421209106784 proposed -0.2273209
-3.6499307906100125 internal -0.191104
-4.182482420984065 reorganization -0.35126289999999993
-4.549641675836229 chapter -0.5150432999999999
-3.57577836378511 bankruptcy -0.3229846
-3.885956874624831 proceedings -0.2600532
-4.499627169299682 independent -0.2245404
-4.243688776928758 acquire -0.1664226
-3.5712588145079485 below -0.4634074
-3.431082478298339 value -0.42746839999999997
-4.015582550946857 places -0.28354889999999994
-3.3789237805832033 bid -0.44988989999999995
-2.4740355573524577 says -0.5535978
-3.9443794534244123 worth -0.33460249999999997
-4.18705785065246 haven -0.19892899999999994
-3.779379966626185 conn. -0.1646449
-3.8880383412238806 hartford -0.23656539999999998
-3.8886848859578484 conn -0.2808639
-4.464617018492564 n.h. -0.1361428
-4.115772583667049 values -0.27311069999999993
-3.8646487028095473 john -0.2876274
-3.5939724130595128 rowe -0.1361428
-3.2391567826641845 chief -0.4247252
-3.3827229208106364 officer -0.3009909
-3.932135344280384 equity -0.2994706
-3.606012803669454 suffer -0.29784760000000005
-3.8482102836285033 forecasts -0.332736
-3.5525526997366703 related -0.49205869999999996
-3.5144488577499144 growth -0.4621422999999999
-3.7163423614077273 electricity -0.1750497
-3.4772997592920647 demand -0.5098323999999999
-3.606588003694419 improved -0.2252631
-3.725023323917421 operating -0.4224492
-3.102746747457617 did -0.605144
-3.475921239525849 come -0.45944889999999994
-3.521183098024938 true -0.26014620000000005
-3.6468621649710893 raising -0.2736614
-4.277750193525365 seemed -0.47228689999999995
-4.1266603432305216 substantial -0.15575269999999997
-4.322096668662477 persistent -0.18865880000000002
-4.263443205984823 rewards -0.18865880000000002
-3.293717213755526 way -0.40522189999999997
-3.66893058458222 got -0.3179855999999999
-3.5121864571416213 hard -0.328282
-3.3925413437762195 take -0.3674628999999999
-3.6115809150107374 added -0.45446029999999993
-3.536400683251513 noted -0.5372282999999999
-3.1175287566741403 political -0.22270799999999996
-3.6313644901421314 concerns -0.4480044999999999
-4.583214272595329 worried -0.490592
-3.633489171586243 matter -0.22056489999999998
-3.815493224903587 owns -0.42668429999999996
-4.327689148287709 emerges -0.22480739999999996
-3.5950628078385733 attracts -0.1361428
-3.6369589286401776 just -0.4111002999999999
-3.761164161520286 factors -0.29443659999999994
-3.690421074883683 withdraw -0.20556719999999995
-3.6445778316071022 ross -0.16131389999999998
-3.9803242416427387 jr. -0.2620678
-4.657647873952127 rothschild -0.18650579999999997
-4.525705867878969 adviser -0.3207982
-3.8547968241252786 troubled -0.16111299999999998
-4.4765460906078065 holders -0.4123833
-4.554956273676375 withdrawal -0.289439
-3.6695650840920764 might -0.39822749999999996
-4.416434700426302 speed -0.24575269999999994
-3.7318348943190656 fact -0.19841350000000002
-3.628476020760101 increases -0.3789642
-3.359722920248501 against -0.40685109999999997
-3.585511605122777 around -0.4913629
-4.286968046278871 complicated -0.17571869999999998
-4.2267271705820795 negotiations -0.36694229999999994
-2.709993194538758 state -0.3191463
-3.8280735729763187 asserted -0.3516952
-3.615481657642432 field -0.24627239999999995
-3.606811308194789 less -0.34521349999999995
-3.2594735445331353 commission -0.2702127
-3.6036331045559886 turned -0.41340669999999996
-3.8055017166920453 request -0.2561960999999999
-3.77349639821248 seeking -0.3852999
-3.385875033261839 possible -0.22468069999999998
-3.545762425375078 purchase -0.2922437999999999
-3.9541526011527686 hopes -0.5646999999999999
-3.3573319285318375 review -0.29366089999999995
-3.9248746402821855 ferc -0.1361428
-3.9467969655050217 summer -0.25423049999999997
-3.0992251601253478 court -0.31706629999999997
-2.978988639598505 shares -0.5375856999999999
-3.6939456689473427 closed -0.5835889999999999
-3.423258474823882 yesterday -0.46817609999999993
-3.6204390755518245 cents -0.27753869999999997
-3.0457102078363865 york -0.13786100000000004
-2.9936551828269944 stock -0.4576447
-3.5277921692574012 exchange -0.30380419999999997
-3.6134647937788 composite -0.22912629999999998
-3.300467100553107 trading -0.39633579999999996
-4.645191366620179 norman -0.1581247
-4.510000893063518 toys -0.1361428
-4.654575443504334 r -0.1361428
-4.379431014254704 frederick -0.1678971
-3.7498108720690837 banking -0.2840271999999999
-3.9950919372666873 directors -0.31534559999999995
-3.721465897480983 consumer -0.31026519999999996
-3.8100508271859743 electronics -0.24245779999999992
-4.023501593059118 appliances -0.19333589999999995
-4.4486156851963 retailing -0.18123289999999997
-4.369985089258112 chain -0.26812559999999996
-3.942655631826244 succeed -0.25541919999999996
-3.9189295543952145 daniel -0.22123329999999997
-3.81534835206964 m. -0.1459969
-4.256085376765523 retired -0.17211809999999997
-3.817694613714395 circuit -0.435518
-3.6072792787264087 robert -0.27919229999999995
-3.626921355454333 r. -0.1503195
-4.336589523062264 undersecretary -0.17342280000000002
-3.6182084526635454 commonwealth -0.34750309999999995
-3.405410795350202 edison -0.23966459999999995
-3.7453493241248417 ordered -0.3873906999999999
-3.4161195872142036 refund -0.1361428
-3.654609823177014 illegal -0.20335159999999997
-3.9305116063200902 collected -0.2312948
-4.019894802792642 overruns -0.1361428
-3.6730091259802666 nuclear -0.3235197
-3.8305951534206266 power -0.39354189999999994
-3.8471925123383253 illinois -0.1492866
-3.4326837895671005 commerce -0.23591909999999996
-3.4990918325768368 groups -0.3450254
-4.116440898944278 ever -0.19824429999999996
-4.1444555864105235 required -0.34245889999999996
-3.611283545169866 local -0.1931169
-3.753732294761025 utility -0.19786709999999993
-3.1829855762530737 judge -0.2744474
-4.451292965073362 richard -0.2557738
-3.6006867865985 curry -0.18659619999999996
-4.330223563484429 refunds -0.21406149999999996
-3.290324335578647 each -0.30682719999999997
-3.646558742957636 customers -0.3637247
-4.023141123901749 received -0.3639497
-4.066737800425913 april -0.42893279999999995
-4.588933586951127 moved -0.3122453
-3.862955279188425 begin -0.21157039999999996
-4.4905497686174325 feb. -1.0076949999999998
-3.5113185361235644 appeals -0.21469229999999997
-4.180445942175551 attempts -0.6790379999999999
-3.1221110925163034 his -0.3051782
-3.8746198088092108 order -0.3324043
-3.8470052812455946 pool -0.1753159
-3.387172233442074 through -0.41489479999999995
-3.920486643426148 round -0.41419229999999996
-4.017569646555208 already -0.32821839999999997
-4.4790101700456875 appealing -0.29708379999999995
-3.995974151608655 underlying -0.14757339999999997
-4.69861381877135 considering -0.2305567
-3.7402683580482594 exact -0.1756253
-3.790419410617591 amount -0.4361451
-3.753569736053765 determined -0.32036
-4.091945202199714 actual -0.15252409999999997
-3.8023284752413433 dec. -1.422668
-3.539459641455878 ruling -0.2509538
-4.519326904201494 slash -0.1637985
-3.7343608453996513 earnings -0.4665685
-3.578466371161877 spokesman -0.6158121999999999
-4.226827624715398 tracking -0.18853309999999998
-3.70918137464755 whose -0.17079909999999998
-4.013846654756234 addresses -0.1361428
-3.739293134482323 changed -0.34016339999999995
-3.654304927077156 past -0.1800849
-3.6380480525023047 administrative -0.2258
-3.9390010973623606 nightmare -0.21420599999999998
-3.6941131779006118 near -0.3160731
-4.188247914719441 ill. -0.1455638
-3.6921382378566396 disputed -0.17342280000000002
-3.3017370096321983 pay -0.3118581
-3.9335458357596225 courts -0.2884912
-3.8452598312995563 upheld -0.22251080000000004
-4.204185643352682 challenge -0.32976059999999996
-3.722639766264849 supreme -0.7203999
-3.1392152350165565 construction -0.3102672
-4.403695813897125 expenses -0.3909458
-4.4641651691108075 collecting -0.1581247
-3.7362878118675633 subject -0.6214985999999999
-3.884187918700693 ruled -0.4217167
-3.8915332157653144 plus -0.2685583999999999
-3.7852654581048917 additional -0.2059128
-4.036044079391605 calculations -0.23833559999999995
-3.0288028300447523 month -0.2983907
-3.479992944181753 set -0.5260437
-4.416647426346842 faces -0.265669
-4.294062618534274 appellate -0.39728199999999997
-4.073126839310943 estimated -0.42373649999999996
-3.8301919584285278 hope -0.4683987
-4.569100118915239 precedent -0.2019168
-3.224511431625732 case -0.3554153
-3.719647776434049 involving -0.22378690000000004
-3.687431236710969 rule -0.2702275
-4.300582958624518 poor -0.170525
-4.120009737281995 performance -0.37903429999999994
-3.27520002743986 i -0.49461639999999996
-2.8621745588256435 japan -0.3668056
-3.762247796098876 domestic -0.23977269999999998
-4.244703007406685 trucks -0.28231509999999993
-3.7656583257270064 units -0.378317
-3.6202886110434633 record -0.28077319999999995
-4.124627574532771 automobile -0.18150899999999998
-3.5944952376539714 dealers -0.3499007
-3.4882065368393733 strong -0.2770489
-4.224787261598345 year-to-year -0.1361428
-2.8674045508102575 september -0.2638157
-4.080279222647553 setting -0.3207467
-3.913979181768659 records -0.3111093999999999
-3.9240883944173692 every -0.2586298
-3.6847860666679604 march -0.3874871999999999
-3.7329893773702705 compared -1.160966
-3.555223291778694 previous -0.17160559999999997
-3.9912001530596974 inched -0.27488099999999993
-3.772895551304484 passenger -0.1837044
-3.7732309155648003 medium-sized -0.1361428
-4.695274414124467 benefited -0.5150432999999999
-3.6097911031149597 price -0.41462819999999995
-4.400299350674777 reductions -0.28466339999999996
-4.1870512366073305 arising -0.28824089999999997
-4.022073097539528 introduction -0.22796019999999995
-4.513419869834845 consumption -0.23381489999999996
-3.7883612711728194 tax -0.33855459999999993
-4.269161018464137 doubled -0.19793529999999998
-3.477626694608693 texas -0.30113969999999995
-3.7350475279113895 instruments -0.2717703
-3.612966386180718 opened -0.37049109999999996
-4.263495140425184 manufacture -0.1361428
-3.6361950131871916 control -0.47516829999999993
-3.7604383293177945 devices -0.20179049999999998
-4.006186664577594 located -0.31651909999999994
-4.106453462464748 miles -0.23057129999999992
-3.7763706060729723 seoul -0.19999519999999998
-3.1542831499933626 help -0.25659709999999997
-4.412287212746341 diversifying -0.2019168
-3.906484922215053 produce -0.2294036
-4.070255333930208 vehicles -0.26522109999999993
-4.144096062782613 household -0.204788
-3.572728223155191 survival -0.23656539999999998
-3.451048964623018 spinoff -0.17342280000000002
-2.8987822309181532 cray -0.47198149999999994
-3.243885943170572 computer -0.31249039999999995
-4.282766198094243 fledgling -0.1361428
-3.722175893923995 supercomputer -0.17342280000000002
-3.305980951845885 business -0.4192598
-4.246408102101086 depend -0.43541479999999994
-3.970710523232432 creativity -0.18127879999999996
-3.844567828426334 designer -0.1704387
-3.6836919636936596 seymour -0.18127879999999996
-3.646190594331804 development -0.32644769999999995
-4.033351193724285 initial -0.22471199999999997
-3.605627350002166 machine -0.34081819999999996
-3.7989719461866587 tied -0.524053
-4.142517694336286 directly -0.3494191
-3.790918058797011 balance -0.3429068
-4.07473593970281 sheet -0.1958573
-3.59728193381398 documents -0.287571
-3.7915631456724475 filed -0.5691810999999999
-3.597239675541579 pending -0.2782391
-3.8260477898580127 disclosed -0.35860159999999996
-3.454888807923984 financing -0.30983569999999994
-3.8504168077489256 providing -0.2932427
-3.6164715571719483 firm -0.39852889999999996
-3.6396726111521827 project -0.23974440000000002
-3.843079837645143 heads -0.1910858
-3.8883039820619127 scrapped -0.1606373
-3.692130888734297 working -0.39414799999999994
-3.4004666622437245 cray-3 -0.1361428
-3.8319498813040145 least -0.15310409999999997
-3.6812925886513472 fully -0.2421032999999999
-4.528870481690837 operational -0.14893819999999997
-4.59104961255683 prototype -0.1361428
-3.0492599768115185 orders -0.4487748999999999
-3.488395936569345 several -0.2975194
-4.082241300108475 prospects -0.3858134
-3.216381759977735 many -0.33851659999999995
-4.14466359365727 anticipated -0.24943030000000002
-4.060436909829581 attached -0.5745956
-3.1631928284611823 much -0.40457049999999994
-4.271599267678259 choice -0.3603889
-3.9957507854594385 gregory -0.1361428
-3.6993384607390394 interview -0.23660340000000002
-3.5907402627401908 theory -0.18407309999999993
-3.4942715920904717 him -0.44399669999999997
-3.998566630132945 want -0.4361117
-3.6866704938529904 include -0.2781326
-4.325320106661498 anticipates -0.15295229999999999
-4.085634156527323 perhaps -0.2518062999999999
-3.781262832694058 beginning -0.3533414
-3.582806396449702 called -0.41511839999999994
-4.32821069885598 scenario -0.22802909999999998
-3.599749523562436 filing -0.2617041
-3.861662547627924 details -0.5053424
-4.156685528850455 jump -0.31114149999999996
-3.8675396810192395 close -0.40890789999999994
-3.8583967390874476 analysts -0.5262624999999999
-4.383687563400886 link -0.2525742999999999
-4.12596857746052 note -0.37809409999999993
-3.7330572820163757 presence -0.3547721999999999
-4.216586328858215 complicate -0.2312948
-4.218700839569389 valuation -0.1637985
-4.063452527653873 investor -0.3034607999999999
-4.022640217102699 gary -0.1361428
-3.6829621283699323 p. -0.1361428
-3.9344000832124206 minneapolis -0.19346419999999995
-4.752753001821094 concept -0.1880263
-3.838738221617554 either -0.2537399
-3.6892052243315905 believe -0.41417319999999996
-3.0930666683164745 do -0.589615
-3.705330159997776 age -0.366461
-4.338686488102095 tricky -0.17342280000000002
-4.6674329530156555 chip -0.19648359999999995
-3.8562479382743566 technology -0.35601789999999994
-3.5836885520679402 sec -0.1807521
-4.114822198873128 describe -0.1581247
-4.167223005967936 chips -0.24725669999999997
-3.269373407959759 being -0.25522769999999995
-3.947400319710371 fragile -0.18111809999999998
-3.9517535669828368 minute -0.17031809999999997
-4.115511359089164 require -0.21824999999999997
-3.8464180487071182 handling -0.26014489999999996
-4.002198470641395 equipment -0.33014679999999996
-3.6268575627263115 addition -0.1907509
-4.265705518418752 contain -0.19720799999999994
-4.346641064289924 processors -0.1361428
-4.53323040519241 twice -0.39961139999999995
-3.6472665776257416 face -0.30098949999999997
-4.4193894705483725 intense -0.18908210000000003
-4.138291401442484 roll -0.19326699999999997
-4.012411246222845 direct -0.26584689999999994
-4.209463381095612 competitor -0.19065849999999998
-4.441383332801822 compete -0.26618
-4.071338909754727 hitachi -0.24256589999999995
-4.094006570511524 nec -0.2648018
-4.034081383478737 fujitsu -0.23966449999999997
-3.845461799729799 ltd -0.7841154999999999
-4.5137868441565985 believes -0.33923229999999993
-3.7341497204240848 fewer -0.2852839
-4.287220271349599 priced -0.42268039999999996
-4.17338955935795 presumably -0.17342280000000002
-4.082785752110722 range -0.4580443
-3.6938345518712823 terms -0.39527739999999995
-4.476109794531851 stockholders -0.2604853
-4.531865071540367 receive -0.25312299999999993
-3.2026458755246576 own -0.1997398
-4.4901446167197205 distribution -0.209092
-4.565281471830909 occur -0.2542941
-4.370447160721004 weeks -0.35293899999999995
-3.4189964426664874 companies -0.49666250000000006
-4.416581797200483 leave -0.23568639999999993
-4.2394727520034 marketplace -0.16633169999999997
-4.066265165603118 decide -0.3006154
-4.071254624930737 applied -0.39821139999999994
-3.5546146810618797 nasdaq -0.2958971
-3.6286613396228713 calculate -0.1361428
-3.7655504875710037 book -0.24970830000000002
-4.179966885362244 primarily -0.29751839999999996
-4.133586291705165 drain -0.24867909999999996
-3.9278085395347686 sheets -0.16778579999999996
-3.9027047693998447 clearly -0.21323539999999996
-3.915647202380347 why -0.32502359999999997
-4.361125240991441 favored -0.1733351
-4.242477957364848 able -0.8110782999999999
-3.72388486970041 profit -0.4800218
-3.577959497833255 half -0.40654999999999997
-4.213328072417503 rather -0.7312531
-4.164591712591994 posted -0.44641529999999996
-3.9826862287552065 hand -0.24163719999999997
-4.521807286877975 existed -0.1361428
-4.308989235927651 incurred -0.2355293
-3.9469161063839397 loss -0.4404968999999999
-3.7940003998821794 comment -0.3752540999999999
-4.557634370764521 colorado -0.23217290000000002
-4.679853327078713 colo. -0.1361428
-4.444316339393055 contractor -0.23796309999999996
-4.586798795644972 arrangement -0.18122519999999998
-4.041511251939674 father -0.1747126
-3.4984181118707807 paid -0.40214539999999993
-3.824515339491989 messrs. -0.23011999999999994
-3.926884777290513 includes -0.30336959999999996
-4.56854967286419 neil -0.1361428
-3.9682070862653696 joseph -0.18407309999999993
-4.602075953745161 malcolm -0.16954749999999996
-3.7052394707082756 software -0.2956227
-4.117123512486922 douglas -0.15363839999999995
-4.4162364182208815 hardware -0.3384673999999999
-3.6690970029049215 came -0.5488359
-3.6373624349850457 stevens -0.1361428
-4.685878808033113 positions -0.3607697
-4.2801036128868 donald -0.19681619999999994
-4.017275815979842 hatch -0.1361428
-3.9033248177886186 eastern -0.3035635
-3.711060274079062 claiming -0.3166372
-4.488012277877763 success -0.30208519999999994
-4.161208748597125 removed -0.21453719999999996
-3.756564929051543 taiwan -0.255224
-4.105610814331464 saudi -0.4096872
-3.8640308317922814 arabia -0.1361428
-3.423408990213986 list -0.30139779999999994
-4.296005619093199 watching -0.31904609999999994
-4.543662762331846 allegedly -0.15697989999999998
-3.774678352470916 failing -0.6118570999999999
-3.843928088801412 patents -0.16570639999999998
-3.331974130810945 rights -0.39719249999999995
-4.165922617670735 china -0.33372289999999993
-3.8034699985460154 thailand -0.1361428
-4.305137026096479 india -0.317871
-4.1570571626890995 brazil -0.22041209999999997
-3.7715988296133416 mexico -0.27038999999999996
-3.703987836946193 so-called -0.15956629999999997
-3.8587791924439627 priority -0.20679609999999998
-3.5357906364236156 result -0.2557648
-4.2865378959195235 interim -0.1637985
-3.7063624702438815 representative -0.15705229999999998
-3.821448261046342 carla -0.1361428
-3.52528173703689 hills -0.1678971
-3.094942603609871 law -0.3957786999999999
-3.847622883319887 accelerated -0.2019168
-4.555277763452417 investigations -0.18650579999999997
-4.492798594637587 stiff -0.23656539999999998
-3.8410023820369905 sanctions -0.3110050999999999
-4.267623652463497 improve -0.22507440000000004
-4.39548587389445 intellectual -0.1560797
-3.6791888500051484 property -0.3074407
-3.5732451616387055 spring -0.21030749999999998
-2.789831974969953 mrs. -0.5892466999999999
-2.65556298204174 she -0.4645734999999999
-3.747223522712939 placed -0.2166792
-4.57032980145024 degrees -0.1637985
-4.6812134926730335 scrutiny -0.26892389999999994
-4.279753714001954 genuine -0.1361428
-3.7653902514674282 progress -0.30788799999999994
-4.605213204174598 touchy -0.17342280000000002
-3.6972017620922863 growing -0.18923329999999997
-4.407360324823136 citizens -0.2759599
-3.833464301583787 negotiators -0.16570639999999998
-4.254852982613615 inadequate -0.2074142
-4.41977044170733 hurting -0.15438289999999996
-3.6752234051828236 themselves -0.33577629999999997
-4.386755679998807 discouraging -0.1560797
-4.147338469664129 scientists -0.23602119999999993
-3.661395746825578 authors -0.16778579999999996
-4.263081090844905 high-technology -0.1361428
-3.9038037523399187 firms -0.38910359999999994
-4.556384438803612 investing -0.3481197999999999
-3.7992546598366923 best -0.1866555
-4.1092011252497604 creating -0.34420189999999995
-3.843743918522724 task -0.2812027
-3.5516010196536443 enforcement -0.2057861
-3.7205730580974956 teams -0.22651700000000002
-3.924962285926086 officers -0.25541919999999996
-3.6903859459578543 prosecutors -0.25737459999999995
-3.9891341492021457 trained -0.1678971
-3.8592024071256734 pursue -0.16259619999999997
-3.3857052257329325 movie -0.22694769999999995
-4.377746060270398 instituted -0.24348480000000003
-4.400453778230436 effective -0.27063589999999993
-4.181327240745466 procedures -0.3040139
-4.1389498430462695 aid -0.3254911
-3.710405378610295 copyright -0.2194582
-3.354907242903084 agreement -0.42001789999999994
-4.535427520136256 trademark -0.1361428
-4.55643739521351 introducing -0.1361428
-4.194130601569597 protect -0.17654429999999996
-3.0787368466586114 foreign -0.3608229
-3.696588472895843 producers -0.3118837
-4.617939001539913 unauthorized -0.1361428
-4.1568578901010085 films -0.18117159999999993
-3.817972315470731 measure -0.2678455
-4.553420854792521 taipei -0.2590594
-3.46868102399175 small -0.2983525
-4.268692975164302 showing -0.30008769999999996
-3.4387423653659823 part -0.5766144999999999
-4.236614891354223 vowed -0.6462680999999999
-4.1022727154739345 enact -0.1361428
-3.9810687290602074 compatible -0.43541479999999994
-3.7397158355459776 standards -0.37952339999999996
-3.858625127073917 apply -0.41753319999999994
-4.039618579853785 literary -0.1678971
-4.082998858176453 works -0.2642188999999999
-4.277960741355249 completely -0.17129609999999998
-4.026580910253211 hook -0.21391709999999994
-4.3887511410506805 italy -0.33430979999999993
-3.7758651302806774 canada -0.3045077
-4.319604251760336 greece -0.2469599
-3.75874629149545 spain -0.23223319999999997
-3.4673082063768272 concern -0.5287258
-3.8967472821654017 deemed -0.18127879999999996
-4.056727369278506 pose -0.25873909999999994
-3.476113309896264 problems -0.4444482
-3.2501807274214864 american -0.3142175
-3.880190458570334 patent -0.2411554
-3.623661952190508 hoffman -0.18865880000000002
-3.781962535995853 lawyer -0.25985259999999993
-4.372630190185641 specializing -0.6097549999999999
-3.5619317256216565 cases -0.33953339999999993
-3.918358467375522 threat -0.3673100999999999
-3.9422396637541115 combined -0.23733779999999996
-4.026930015028681 recognition -0.2105922
-4.399205644384401 protecting -0.331432
-3.7242520783774444 prompted -0.36490579999999995
-4.4353925736361 improvements -0.3315352999999999
-3.9527709158892277 tells -0.2774077
-3.6943100692944677 efforts -0.5961376999999999
-4.440789766645621 craft -0.1361428
-4.346857998910025 concerned -0.4755323
-3.6331935182796893 disturbing -0.1361428
-4.40920932198142 developments -0.21462
-3.787582714479177 turkey -0.1958573
-4.0803867937544895 continuing -0.2063258
-3.958965929426021 slow -0.2543668
-3.3823692350238512 malaysia -0.25236499999999995
-4.12459961018668 elaborate -0.18650579999999997
-3.6925811316799932 reports -0.37514679999999995
-3.9347259867621793 complained -0.46278339999999996
-3.8323011946169188 videocassette -0.18127879999999996
-3.870337982937105 pharmaceutical -0.28572139999999996
-4.087580106011824 requires -0.2192606
-3.951779694228973 bad -0.24654299999999996
-4.106656106420792 enough -0.39695469999999994
-4.070644460427211 merit -0.1361428
-3.7990337281744 investigation -0.3293995
-4.362680812577092 provision -0.3018667
-3.9419913335596872 ask -0.23422859999999993
-4.697483905468211 creditor -0.18457389999999999
-3.5699630347465914 banks -0.41452739999999993
-4.031474904688926 developing -0.23535559999999997
-3.595951947918577 declaration -0.18127879999999996
-3.787288522346132 minister -0.19050749999999997
-4.006347177148209 believed -0.3792329
-3.565198651277669 action -0.374292
-3.5533855220341932 latin -0.5100483
-3.5836086911742013 little -0.24807889999999994
-4.036180250322041 reach -0.23893689999999998
-4.29928074612019 reduction -0.3502868
-4.509114320475109 external -0.15607979999999996
-3.9064105074841238 met -0.28071329999999994
-3.830137520101025 assistant -0.3285144
-3.8117209328648523 secretary -0.3228142
-3.6616715919493372 david -0.251386
-4.225510785401864 mulford -0.1361428
-3.626942636435057 negotiator -0.1361428
-3.751718933203232 carlos -0.1361428
-3.32691102694205 office -0.37559099999999995
-4.493165792669198 feels -0.1768314
-3.7105584000923204 significant -0.1798935
-3.555592559568179 principal -0.2456403
-4.25266094068489 solved -0.1361428
-3.791999962791123 wants -0.4800219
-3.926266103730915 centennial -0.21420599999999998
-3.9086585478244618 wall -0.625589
-3.8484860605542592 street -0.17029550000000002
-3.8825287507101027 century -0.21295769999999994
-4.2043101039974795 stand -0.30469559999999996
-4.300383724106354 milestones -0.1361428
-3.9554756459590843 history -0.40101
-3.638643928575543 computers -0.3448783999999999
-3.7130814983558182 personal -0.3345446999999999
-3.805320258986765 computing -0.1606373
-3.790098377675133 launched -0.3503701
-3.7029304188197507 apple -0.2954494999999999
-3.5880786926314716 ii -0.22122269999999994
-4.65256206566213 commodore -0.20203719999999997
-4.554283790828255 pet -0.20556719999999995
-4.89431350519739 tandy -0.2086796
-4.372911807171865 crude -0.3355639
-3.626190811407897 television -0.2951408
-3.7342602814036043 sets -0.244628
-4.321579783956782 screens -0.1768314
-3.5386021828834906 data -0.3415005
-3.408882222310168 major -0.22231649999999994
-3.7748315035678925 advance -0.23857439999999996
-3.566116712947805 built -0.3753314
-3.9877085567902735 garage -0.1361428
-3.9777099664334887 stephen -0.1832652
-4.033525309144711 steven -0.18127879999999996
-3.951706699954377 jobs -0.28873019999999994
-3.7808324569791583 club -0.21855170000000002
-4.489188204404013 affordable -0.1361428
-3.6579897372147268 pcs -0.17831609999999998
-4.61758297072986 triggered -0.3547017
-4.329770394787039 explosive -0.1361428
-4.565720058076217 product -0.3327551
-4.555507142730837 desktop -0.3011636
-4.500108575753583 models -0.23901499999999992
-3.6472684638816166 home -0.3225334999999999
-3.5819778974232537 mainframe -0.18676880000000004
-3.81676101434319 unlike -0.23916590000000001
-3.6226321513494533 types -0.7530811999999999
-4.012829998871047 store -0.2088365
-3.90061367051979 memories -0.23656539999999998
-4.365263619893188 faster -0.3885902
-4.476948991888259 memory -0.29733719999999997
-4.059896393472241 capacity -0.33991669999999996
-4.531420807579742 greater -0.22830459999999997
-4.4332755664833785 counterparts -0.25019549999999996
-4.011424761031706 pioneer -0.17129609999999998
-3.698303576969913 pc -0.1756253
-3.8311721075842375 gates -0.165603
-4.421902065697702 paul -0.2205378
-4.5885666228012765 allen -0.18121449999999995
-4.030866829905593 developed -0.37746969999999996
-3.388471534336218 became -0.30993289999999996
-4.217883830201984 billionaire -0.1637985
-4.6333388674255955 ibm -0.3092752
-4.541250365654853 adapted -0.18127879999999996
-3.86143230520474 versions -0.3658876999999999
-3.572326618056811 f. -0.1361428
-4.479779262112208 seagate -0.33885579999999993
-4.429822506659693 disk -0.37371409999999994
-4.188657044365397 drives -0.22356959999999998
-4.278854180509166 dale -0.1361428
-4.258469847116738 atlanta -0.20606199999999994
-4.208719623570798 engineers -0.2225642999999999
-3.8382805849951853 allow -0.23124569999999994
-3.8596567214121587 via -0.30060769999999987
-4.032132434333595 telephone -0.30866089999999996
-3.975091766255231 leader -0.283488
-3.925633518240272 entered -0.3655196
-3.7701357276834178 shipments -0.33712439999999994
-3.7500964867560573 annually -0.25977089999999997
-3.7346495215114834 australian -0.17867209999999994
-3.943309062183092 pharmaceuticals -0.1605521
-4.057561213577421 affiliate -0.3108271
-3.7884341070156964 acquired -0.32135779999999997
-4.071135687835326 sells -0.2242555
-4.037294981281185 label -0.331432
-3.956360529899581 voting -0.23200050000000003
-3.746347890006791 stake -0.4493908999999999
-3.566428795904778 together -0.3387536
-3.8202184272116773 convertible -0.4159224999999999
-3.9950163626777204 preferred -0.4506506
-4.056743738790185 holdings -0.32334809999999997
-3.7316085519917754 gives -0.3625999
-3.5715576469294668 right -0.39462879999999995
-4.090356554811958 oil -0.41146549999999993
-3.411206990694076 production -0.3700413
-3.900840586567846 australia -0.2670931999999999
-4.193567272831535 bass -0.17342280000000002
-3.893218468776709 raised -0.41111169999999997
-3.414982569535593 barrels -0.2095475
-3.73113718012934 launch -0.22948499999999997
-3.8521373366641645 scheduled -0.4423137999999999
-3.8072422504845456 brought -0.31564139999999996
-4.5521760507614335 exxon -0.2534525999999999
-4.1114723437180904 broken -0.19083179999999997
-4.195852710159775 hill -0.201535
-4.317394193012409 operate -0.2139996
-3.7687026616542316 joint -0.3217549
-3.9727842319580957 venture -0.30541299999999993
-3.911417250468265 started -0.3101202
-4.496763691974219 gradually -0.1361428
-4.340773758381656 reaches -0.20416000000000004
-3.85160722469622 reserves -0.37829949999999996
-4.589821782919523 start -0.24864469999999994
-4.402387423296436 producing -0.22779210000000003
-3.648877866310089 southern -0.2910097
-3.841744875250299 optical -0.19731919999999997
-3.8993016976303805 subsidiary -0.48526319999999995
-3.8839068417700484 thomas -0.22979829999999998
-3.9799340215498806 sloan -0.1361428
-4.149007193470051 following -0.39488119999999993
-3.8475148576211198 buy-out -0.2872643
-3.9012311942399327 shearson -0.39380599999999993
-4.013164520106483 lehman -0.22796019999999995
-3.87877681721992 hutton -0.1361428
-3.6679916668140784 itself -0.3268738
-3.5913792793904147 certain -0.1939127
-3.9183881017596747 businesses -0.4198175
-3.266974525557672 program -0.5010129999999999
-3.761640939047167 white -0.28772739999999997
-3.8736141069335432 bush -0.2691138
-3.41845919408285 duty-free -0.2808639
-3.60441998008582 produced -0.45822919999999995
-4.035207021626038 quantities -0.33820859999999997
-3.8948508379162847 virgin -0.2312948
-4.081807082442008 islands -0.15295229999999999
-4.15060323909936 response -0.2805716
-4.245597340023347 petition -0.17342280000000002
-4.211244050781408 changes -0.4283033999999999
-4.204300514472204 preferences -0.31106129999999993
-4.431208902534191 denied -0.30139779999999994
-3.657198288474618 requested -0.2109958
-3.7706859871336564 covered -0.3365746
-3.983099302435596 tariff -0.3304288
-3.825557101094827 grant -0.1664023
-3.906763903403882 status -0.22041209999999997
-4.203077247219086 categories -0.19638989999999998
-4.144299762490538 injury -0.20556719999999995
-3.817740153897543 producer -0.36233219999999994
-4.245024799559 seller -0.24575269999999994
-4.018480345637163 assembled -0.18111809999999998
-3.916137709615633 philippines -0.1361428
-4.005258937809936 main -0.1580866
-4.740938044011646 beneficiaries -0.33885579999999993
-4.015517625444629 eligible -0.3564284999999999
-3.9427090342058837 aide -0.25963319999999995
-3.512770986253889 magna -0.1637985
-3.7511836228031874 mcalpine -0.17342280000000002
-4.0951735022610105 frank -0.21741000000000002
-3.962172846076224 stepping -0.27356559999999996
-3.9148409388520737 turn -0.25293839999999995
-4.353526228005914 manufacturer -0.3135354
-3.8338403451978933 effort -0.4896995
-4.2113015155349 reduce -0.28211819999999993
-3.8603657747311177 overhead -0.35564909999999994
-4.047954085307357 curb -0.1469947
-3.9290290484374824 satisfactory -0.1361428
-3.6648224060366603 level -0.41111659999999994
-3.9659438149776243 achieved -0.18653590000000003
-3.8998636282658685 maintained -0.26626499999999986
-3.7755688009080224 finance -0.28445129999999996
-3.574589235139827 ambitious -0.1361428
-3.9419980602655307 expansion -0.3785335
-4.105312812106974 left -0.2991062
-3.9623763189380132 excess -0.315238
-3.7432516928612727 load -0.19319819999999996
-4.037845288142804 automotive -0.284215
-3.70067394368217 downturn -0.3421758
-4.239725509854507 steady -0.187558
-4.113278663023436 cut -0.3417954999999999
-4.347415597754183 quarterly -0.3320525
-4.270437453630674 dividend -0.32230229999999993
-3.997100472420515 52-week -0.1678971
-3.8832035763428023 canadian -0.22260729999999995
-3.4527076699100605 dollars -0.3129626
-3.861699923256816 us$ -1.1326339999999997
-3.883119720695661 c$ -1.1103569999999998
-3.7672110658351685 founder -0.31491519999999995
-4.346905040083232 controlling -0.18650579999999997
-3.8589216552476784 shareholder -0.31952269999999994
-3.65544840099687 seek -0.260449
-4.048476857700594 unsuccessfully -0.17342280000000002
-3.694184310691764 seat -0.2067584
-3.7475602925186635 parliament -0.20346539999999996
-4.329934477772831 resume -0.17567199999999997
-4.225953980006134 influential -0.1517298
-3.4706293267243677 role -0.48567309999999997
-4.348985495335648 running -0.2898398999999999
-4.5885265286277495 throughout -0.5698795
-3.4228951733116886 organization -0.2661438
-4.515199696818833 personally -0.1581247
-4.273309453859085 restructuring -0.3595437
-4.350186425466423 consulting -0.3010866
-3.9975238558535304 career -0.2002687
-3.468367152758689 clients -0.35713029999999996
-4.353483578808582 english -0.2183759
-3.7300738729548204 chemical -0.3007292
-3.480423139857863 nearly -0.5575324
-4.207696273350424 bought -0.3235197
-3.595821387401301 mortgage -0.28151289999999995
-4.033671617181677 totaling -0.4744074999999999
-3.837018339787721 purchases -0.3662874
-4.256179365608374 fannie -1.1326339999999997
-4.353685980327884 mae -0.15438289999999996
-4.402895959305216 o. -0.1361428
-3.661729021199721 maxwell -0.31458449999999993
-3.7625602376098786 conference -0.27308030000000005
-4.079719641284399 institutional -0.42237519999999995
-3.5827335992116036 rest -0.1596836
-3.8982199092861016 went -0.45474029999999993
-3.6382231053550056 france -0.32363519999999996
-3.7827909231060253 hong -1.547607
-3.747474488614945 kong -0.1361428
-4.412128046863599 snapped -0.30351209999999995
-3.869663476291495 similar -0.22609029999999994
-3.907278627197522 mortgage-backed -0.4678455
-3.6715098077993287 put -0.40963229999999995
-4.235165402240996 blackstone -0.33885579999999993
-3.177656451780206 investment -0.40546209999999994
-2.993098609032095 bank -0.44629529999999995
-4.048712994917357 jointly -0.23221810000000004
-3.648027431540693 goldman -0.6992413999999999
-3.6966101845805834 sachs -0.1361428
-4.053201453595928 daiwa -0.21808199999999997
-3.9424944227645073 co -0.7244095999999999
-3.8154290973299534 seven-year -0.1361428
-4.383558973502187 offering -0.33092279999999996
-4.025872781442694 fixed-rate -0.17342280000000002
-3.9680542062595094 floating-rate -0.2588992
-3.992789817002994 linked -0.42047629999999997
-3.7740933623939545 london -0.2646031999999999
-3.9513906324570165 interbank -0.25873909999999994
-3.6619426849201604 key -0.17919529999999995
-3.9577299484854893 advantages -0.21406149999999996
-3.479108257782637 designed -0.5980481999999999
-4.592875781845975 eliminate -0.1913954
-4.243219621219235 prepayment -0.17342280000000002
-3.8276122270068704 forces -0.2640376
-3.8103596960387875 channel -0.2841877
-4.203186637301962 payments -0.4250341
-4.181110541471924 semiannual -0.33745329999999996
-4.2384129513776365 reducing -0.264131
-4.114711091040075 burden -0.2177121
-3.5783348505058905 addressing -0.24428179999999997
-4.155653272363274 extremely -0.1974995
-4.180144627867295 attractive -0.26014600000000004
-3.880873636220261 boosted -0.393025
-3.9897458297135637 outstanding -0.26345129999999994
-4.530572822072997 rapid -0.18676880000000004
-4.5968882078420785 purchasers -0.27596
-4.638027377920576 buying -0.3583780999999999
-3.519003654180164 issued -0.3500329999999999
-3.5997301100645203 l. -0.15438289999999996
-4.320262821270533 expanding -0.2036217
-3.6195703943478783 members -0.43126919999999996
-3.951323930699107 agreed -0.8650293999999998
-4.005282406819749 extend -0.217633
-3.9322615508070013 aerospace -0.22805199999999998
-4.643767060678507 exclusive -0.18485540000000003
-4.065475811320715 file -0.20139889999999994
-3.8605111602208404 code -0.17465800000000004
-3.8222942013062213 giving -0.3001414
-4.528533367829711 creditors -0.3202896
-4.387998215604002 lawsuits -0.23208869999999998
-3.69025889773699 debts -0.24687479999999995
-4.0558576535580695 giant -0.19187099999999999
-4.482953565531962 montedison -0.18659619999999996
-4.4564287447691635 indirect -0.1361428
-4.536491812761906 tender -0.5385244
-4.283159041113213 erbamont -0.1361428
-4.499110480599661 incorporated -0.37742279999999995
-4.580094610483083 netherlands -0.15067309999999998
-3.7859300806646 advertised -0.17342280000000002
-4.724515116406164 editions -0.17342280000000002
-3.9148456575853383 expire -0.2479684
-3.6221181163179597 november -0.28737219999999997
-4.105995734533818 currencies -0.20899340000000002
-3.7625720639271316 drawing -0.1517298
-4.112864258816003 hefty -0.14647169999999998
-3.8099003422382687 marks -0.3006097
-3.7844046014576835 sixth -0.1361428
-3.6866261319274547 consecutive -0.25553149999999997
-4.099617837503974 reflects -0.46860079999999993
-4.295706032037318 intensity -0.1361428
-4.402148417103217 intervention -0.1837043
-3.874288681269791 june -0.389583
-3.8780531427997667 currency -0.2587171
-4.290853125388059 temporarily -0.15438289999999996
-3.8907397047246177 surged -0.4753412999999999
-3.999080007736178 above -0.3833307
-3.9761717868275057 yen -0.2822946
-3.7555364775706432 announcement -0.29715869999999994
-3.984763260435198 follows -0.3447291
-4.501085433734037 sharper -0.1361428
-3.8918536533800814 pick -0.40078769999999997
-4.445095732317398 craze -0.1361428
-4.226798182730163 sweeping -0.1464718
-4.4637828214723925 rash -0.1361428
-4.296657697132977 closed-end -0.2250296
-3.56617391479379 publicly -0.2863346
-3.9617510279577406 traded -0.3102831999999999
-3.8737076427717008 portfolios -0.23359589999999997
-3.7545614098210613 invest -0.23770859999999996
-3.1847288325848195 stocks -0.45877929999999995
-4.258922125622948 single -0.15315539999999997
-4.458485307531122 regulators -0.27746029999999994
-4.312135608058635 triple -0.31106129999999993
-3.707369888228284 charles -0.21638079999999998
-3.7173314490480456 e. -0.1517298
-4.34178589402206 simon -0.2312948
-4.551527228751903 washington-based -0.1361428
-3.5829630312634047 turf -0.16789719999999994
-4.453772087523552 ranged -0.43541479999999994
-4.555834793724116 chile -0.1361428
-4.577132182876493 portugal -0.17342280000000002
-3.88341021998267 philippine -0.1704387
-3.891463497525671 capped -0.23909179999999994
-4.088614855976487 visit -0.3315008
-3.9191627925871306 aquino -0.1361428
-3.5378058833164534 head -0.4410356999999999
-3.9149809474612267 kicked -0.2597708
-3.866491141870584 here -0.41136
-3.801065815210208 province -0.2320004
-4.010965267070631 anything -0.30518999999999996
-3.6218516884816685 how -0.45050439999999997
-4.439680135620192 guinea -0.22480739999999996
-4.37533318179906 george -0.3693352999999999
-4.23997042251029 foot -0.19035639999999998
-4.5212257167865175 managing -0.4175250999999999
-4.1426221597401565 partner -0.3309989
-3.9282051007325953 associates -0.27168149999999996
-4.35458450863918 mass -0.2004489
-3.715863936118729 explosion -0.21420599999999998
-4.328190084516286 mania -0.19333589999999995
-4.3964548647421235 1920s -0.1361428
-4.388022443750979 narrowly -0.1560797
-4.219590862222223 focused -0.6439367999999999
-4.286301418181072 wildly -0.1361428
-4.10462498231055 popular -0.1651544
-3.8355088847144434 crash -0.2682339
-3.6288202562386886 traditional -0.15260069999999995
-4.484243764355144 issuing -0.1704387
-4.524498189440967 fixed -0.21009039999999998
-3.8073377834312048 surge -0.3594206999999999
-3.799178167543437 brings -0.1517298
-3.8878064795203935 soon -0.3488834
-3.841448027917088 listed -0.25236499999999995
-4.3759464526078435 account -0.40031
-3.681063339541258 billions -0.5090833999999999
-3.833838852377807 claims -0.3898667
-4.53665535509898 available -0.44303319999999996
-4.434472380685161 runs -0.2629337
-4.22707322559074 michael -0.19673150000000003
-3.873930026982356 porter -0.1361428
-4.455776429585977 analyst -0.46351119999999996
-3.9540939597972873 smith -0.2522692999999999
-4.052237843900419 barney -0.21391709999999994
-4.38574460668398 harris -0.1581247
-4.505667350719189 upham -0.1361428
-4.6257090585327045 behind -0.3235319
-3.7035564480941776 individual -0.30588379999999993
-4.3564098528886435 scrambled -0.5597689999999999
-4.106000173112639 find -0.2784404
-4.452707606445634 brokers -0.27171159999999994
-4.381216325585224 easy -0.3112565
-4.283681501102781 sell -0.2903121
-4.620681697318808 stretching -0.1637985
-4.60977492670405 wide -0.1597382
-3.6623703892447352 planners -0.17206739999999998
-3.9051484390045546 often -0.20531989999999994
-4.375206764789621 urge -0.18468969999999998
-4.12699080016612 diversify -0.1637985
-3.8051517939260333 hold -0.3012889999999999
-3.800765053072878 emerging -0.2723518999999999
-3.605626824436792 markets -0.3859079999999999
-4.433693755216448 mature -0.1832652
-3.5917448208793163 get -0.3160796
-4.56353584314828 taste -0.21406149999999996
-4.323569609234949 burned -0.1560797
-4.278321945254122 gyrations -0.19793529999999998
-3.606549139966466 prices -0.47751899999999997
-4.27565034178095 tend -1.148041
-4.350413073983526 swing -0.21406149999999996
-3.799702275399119 broader -0.19780469999999994
-3.867722649842101 oct. -1.8316039999999998
-3.8779615855037632 instance -0.1361428
-4.170836933082134 plunged -0.49722449999999996
-4.388959337686596 clobbered -0.1361428
-3.878839923187518 wild -0.23496519999999996
-4.119054889428895 frenzy -0.15438289999999996
-4.009121049898923 historically -0.19774899999999998
-4.146593916435548 fat -0.20556719999999995
-3.6879163014603034 premiums -0.19799949999999994
-4.582886259816055 discount -0.225548
-3.921857099124189 late -0.465584
-3.7130471818168695 premium -0.26455569999999995
-3.7194099323791594 reason -0.435931
-4.25977261472372 climbed -0.7371143999999998
-3.9839890563058336 partially -0.21391699999999994
-3.9183506241304418 specialists -0.19770979999999996
-3.9765748566661565 european -0.2640817
-4.426837464251278 skyrocketed -0.1361428
-4.480474216030614 startling -0.1361428
-4.134765492200215 targeted -0.1896584
-4.573101807282447 long-term -0.24918509999999994
-3.9114510901618242 play -0.26842269999999996
-3.904758939668005 integration -0.2074142
-4.379381871737321 invested -0.4858381
-3.8179515836365256 jumped -0.6399435
-3.9085378891413476 'm -0.1361428
-3.868232991069912 alarmed -0.1678971
-3.616135724595579 see -0.327145
-4.200938141841006 rich -0.1902108
-3.573120072431296 newly -0.2348552999999999
-4.506529895262549 reflect -0.35544719999999996
-4.326055684208191 increasingly -0.15845529999999997
-4.637668155812816 global -0.248212
-4.52187795618904 suggests -0.435664
-3.346291267644498 asia -0.26029929999999996
-3.9603892190919416 europe -0.30412719999999993
-4.014830311230139 exposure -0.4607546999999999
-4.587294107368941 viewpoint -0.18127879999999996
-4.420007096682216 cast -0.24882359999999998
-3.659435684932216 plenty -0.7367957999999999
-3.787496705947172 levels -0.4803974999999999
-3.6056010881934597 buy -0.2846918
-4.09384663121704 depositary -0.2312948
-3.866564934606404 receipts -0.1459969
-3.897736871058497 adrs -0.1361428
-4.675029626888266 represent -0.3109547999999999
-4.313333613823367 essentially -0.21956149999999997
-4.211329505249806 insist -0.41953299999999993
-4.538489101381427 jumping -0.22480739999999996
-4.592840149574167 advice -0.24200359999999999
-4.708637836093114 folks -0.15438289999999996
-4.5605200748485 party -0.2669886
-3.8036892804881095 better -0.29819579999999996
-4.6044984758302645 ready -0.48744539999999986
-3.7668674238380064 quickly -0.26908239999999994
-3.9452070860813304 soviet -0.20913809999999997
-3.7057425713379186 union -0.3036715
-4.0587852619242755 technical -0.2275386
-3.5151960403188522 talks -0.34948209999999996
-4.057232791807996 repayment -0.1678971
-3.829216631124636 moscow -0.22035450000000004
-3.91862582997774 russian -0.15067309999999998
-3.9246913873945655 owed -0.2777178
-4.642290732714435 repaid -0.15438289999999996
-4.690116225983505 clear -0.27810289999999993
-3.714274336919325 soviets -0.14647169999999998
-3.9732493531479065 happen -0.33869039999999995
-3.7968737593804387 permitted -0.19035639999999998
-3.953096897615439 branch -0.23363329999999993
-3.729216292966984 affairs -0.3222770999999999
-3.820024286195185 unless -0.43617809999999996
-3.847463685407153 settle -0.1935331
-3.9849389988356974 lent -0.18659619999999996
-4.02912589827893 short-lived -0.19333589999999995
-3.8251166541707966 democratic -0.23085599999999992
-3.8789040533876196 communists -0.1361428
-4.038219122478287 seized -0.3186845
-4.1123035717846985 johnson -0.23394009999999996
-4.57537164902894 amended -0.2249185
-4.257876533370831 americans -0.302157
-4.115708040427122 monetary -0.4461122999999999
-3.597616981068252 u.s.s.r. -0.1361428
-3.8922054914309983 belongs -0.31106129999999993
-4.197481582141038 stressed -0.39704179999999994
-4.4683449035742235 satisfying -0.17342280000000002
-3.727310446105684 legal -0.2356577
-4.57839962322832 obstacles -0.19877679999999998
-4.431919914475218 hundreds -0.9850584
-4.630628004492379 millions -0.6370317999999999
-3.991681386520179 war -0.2922893
-3.80570528142325 reflection -0.1678971
-4.452834330974539 manufactured -0.21391709999999994
-3.3826482809757685 goods -0.2945817
-3.6303211957851795 failed -0.5584451999999999
-3.7182805551183122 rise -0.39922359999999996
-4.665840430067869 meanwhile -0.16942159999999998
-3.604261495959081 purchasing -0.2601912
-3.554133516508297 survey -0.24854979999999993
-3.7507542356574675 indicated -0.4508986
-3.592514957489366 index -0.4354209
-3.5986879887590097 reading -0.2115764
-3.7920962469955417 sector -0.3045245999999999
-3.917899719271716 generally -0.1862189
-3.6377107561738993 booked -0.1361428
-3.545322621941895 defense -0.3034675
-4.413120114027115 contractors -0.1902783
-4.380416954819568 fallen -0.21424439999999997
-3.7532919635609168 separate -0.151903
-4.002363413560082 ran -0.35863519999999993
-4.191207732755259 significantly -0.23525349999999998
-3.4682870690530225 private -0.2239101
-3.920611223582474 building -0.3105048999999999
-4.047859407813693 activity -0.32629529999999995
-3.6891375458943565 adjusted -0.31125069999999994
-4.069899009178 remove -0.18563679999999996
-4.342978469055044 effects -0.46085319999999996
-4.425655882737761 usual -0.15248639999999994
-4.37463074240333 seasonal -0.2594188
-4.444878588519202 patterns -0.16778579999999996
-3.7699625318155934 inflation -0.34687969999999996
-3.8272012398875295 economist -0.4461294
-3.6018243031194794 society -0.3090977
-4.437596398857585 cleveland -0.2549044999999999
-4.1524477453141 revive -0.23656539999999998
-3.759199910143167 residential -0.19892899999999994
-4.019612867589545 slack -0.17342280000000002
-3.4961619051652555 asked -0.36724139999999994
-3.8235894580325436 draw -0.1637985
-4.078250774150869 blank -0.20215769999999994
-3.7993591343045265 measures -0.3605632
-4.751817913680569 slowly -0.18361929999999999
-4.41559069471752 reserve -0.24189429999999998
-3.78939608200671 economists -0.28619279999999997
-4.188293982984639 predicting -0.3601029
-4.037860488439671 slip -0.1678971
-3.4938967472285944 recession -0.2518635000000001
-3.624068307806954 cite -0.1637985
-4.0592171423100245 lack -0.4920499999999999
-4.209677977004071 imbalances -0.1581247
-3.737185281090354 provide -0.23148729999999995
-4.068839127719754 warning -0.18123289999999997
-4.117661719754254 signals -0.17831609999999998
-4.0606490329940845 inventories -0.3226678
-4.328324645327335 watched -0.218376
-4.451197701522156 clues -0.19333589999999995
-4.420226645310794 buildup -0.24327869999999996
-4.319778004862712 cutbacks -0.331432
-3.8340012323191845 lead -0.31387829999999994
-3.932026160250991 front -0.1744912
-3.8307512084592155 soft -0.2324211
-3.929258762944451 landing -0.19323259999999995
-4.562404611556624 elliott -0.19333580000000003
-4.721736065708898 donaldson -0.7364448
-4.606067340908667 lufkin -0.1361428
-4.360438895807048 jenrette -0.1361428
-4.479691597216535 excessive -0.17571869999999998
-4.378789126664692 slowdown -0.24271500000000001
-3.732962274350303 leading -0.21647319999999998
-4.040476338043394 intended -0.5797396999999999
-3.971673435211351 climbing -0.2140133
-3.7907500544571064 durable -0.6784528
-3.819589050926928 backlogs -0.20215769999999994
-4.156232919216644 unfilled -0.3087250999999999
-3.843668260053234 helped -0.27046629999999994
-4.065191003472553 strength -0.35527859999999994
-3.5400340171559623 declined -0.6799934999999999
-3.8230703672122632 accounts -0.3597122
-4.381285482069534 bankers -0.3513859999999999
-4.30457174216694 predicted -0.37021239999999994
-4.432050854945774 eventually -0.1922442
-3.8475648001337426 boost -0.23952540000000003
-4.249576658072452 single-family -0.23909179999999994
-4.473505743899339 homes -0.3023745
-3.6029286520626282 adjusting -0.1678971
-4.123118875816178 change -0.4074394
-4.3752880992570615 contrast -0.16886719999999997
-3.4840255198654737 mcgraw-hill -0.18127879999999996
-3.81541872553878 dodge -0.1361428
-4.174511470230491 contracts -0.34078089999999994
-4.026438122375121 awarded -0.27511899999999995
-3.879901655637594 counts -0.18111809999999998
-4.102526791330457 slowing -0.2339424
-4.381535539559158 imminent -0.1361428
-3.684652184799821 committee -0.3567115
-3.364616024898828 materials -0.28618589999999994
-4.560538763479613 pitney -0.5305738
-4.164867491285364 bowes -0.1361428
-3.7533091444454123 stamford -0.2808638
-4.068041119728393 low -0.2674929
-3.7281289643825613 evidence -0.47521149999999995
-3.6916687213720802 export -0.20452559999999997
-4.096805390743166 purchased -0.29319459999999997
-4.479121678964542 vendors -0.1361428
-4.310275943167427 delivering -0.1361428
-3.6921927586669034 consider -0.2503233999999999
-3.8396185860176715 pressures -0.2780358
-4.364057048006888 suppliers -0.24575269999999994
-4.603103674520932 handle -0.19602
-4.228020804082603 delivery -0.23868409999999998
-4.2086203347450075 provided -0.39667009999999997
-4.651225154856227 indicators -0.15705229999999998
-4.33243982433549 difference -0.30334529999999993
-3.8361092139045057 reporting -0.23457729999999996
-3.69934396139854 improvement -0.3270238
-4.441747143326848 particular -0.15064809999999995
-4.4124049133249095 worsening -0.1361428
-4.459933005358057 polled -0.1361428
-4.457826311782991 import -0.22256439999999994
-3.614454204570538 acknowledging -0.17342280000000002
-3.79433921026888 trend -0.2865654
-4.232216423893173 suspect -0.21476179999999997
-3.464668889630387 going -0.5133342
-3.8786500971975744 items -0.3444081
-3.8740164864636477 short -0.3923963999999999
-4.489512775897969 supply -0.31581259999999994
-4.542112395391771 numbered -0.21391699999999994
-4.024609171554975 dozen -0.1486886
-4.138585980795463 included -0.3731736
-4.005978994175724 milk -0.2104817
-4.043596153758661 odd -0.1517298
-3.838079059951473 thing -0.31924299999999994
-4.476433868301586 row -0.17571869999999998
-4.384155242091463 shortage -0.26002919999999996
-3.6803397671760236 blamed -0.35705299999999995
-4.752184605830801 dairy -0.21391699999999994
-4.446890379108203 exceptionally -0.17342280000000002
-4.689669348200078 coupled -0.8316038
-4.636970773649175 quotas -0.22010659999999993
-4.590100083888675 contributed -0.7139740999999998
-4.679076173001833 article -0.27628309999999995
-3.726047539193384 seasonally -0.5818938
-3.6784356042176976 sheep -0.1361428
-4.260910037973182 chase -0.24751139999999996
-4.502082523407756 baby -0.2765005
-4.58459324855341 boomers -0.1361428
-4.366054214595343 sides -0.18718399999999996
-3.7658128570971363 lot -0.18360439999999997
-3.5967114514035408 novel -0.1361428
-3.819400512516762 entirely -0.19613659999999997
-3.8565672962774915 especially -0.2816991999999999
-4.396479071042985 characters -0.18536409999999998
-3.841529046797732 drink -0.16570639999999998
-4.502892769523605 dogs -0.1361428
-4.303702992859528 bugs -0.17831609999999998
-4.457455283234812 bunny -0.1361428
-4.387776275394219 reruns -0.1361428
-3.853475852222083 read -0.2577381
-3.8682025452705644 talk -0.415352
-3.581782255645739 worry -0.4118252
-4.657428717287628 careers -0.24428179999999997
-4.219588817593469 reader -0.20805340000000003
-4.36236248880259 engaging -0.37742279999999995
-4.2355908428761255 recognizing -0.21420599999999998
-3.740878846159501 contemporary -0.1361428
-4.562501268501207 author -0.2868237
-4.470476342077032 belong -0.3900082999999999
-2.8912918496253486 school -0.2980398
-3.5747075880043417 writers -0.19323259999999995
-3.8063059228941287 notion -0.2759599
-4.45225484834514 unique -0.18111809999999998
-4.267745248230917 outsiders -0.331432
-4.27154236898799 carries -0.22802909999999998
-4.532752152294422 implicit -0.17342280000000002
-3.967448820734762 relations -0.27660660000000004
-4.2930701521261545 think -0.3808225
-4.612760169588425 plot -0.1768314
-4.704568044655929 rooted -0.35564909999999994
-4.573519590951673 reality -0.19317059999999997
-4.702752146998558 funny -0.20767689999999994
-4.112197493653165 hero -0.1606373
-4.327620650009199 snow -0.1361428
-4.246999215739737 search -0.22071769999999996
-3.980821054568631 star -0.24690319999999996
-3.8665322034643395 stanford -0.16379859999999996
-4.014875491320654 degree -0.2355293
-4.449607945193095 girlfriend -0.1361428
-4.472079614953781 sassy -0.1560797
-3.828537398899994 mark -0.16841139999999996
-2.836934629618991 her -0.23515159999999993
-4.295212451691355 meets -0.19333589999999995
-4.249735993452155 christian -0.18468969999999998
-4.301740048741609 offers -0.2601955
-4.20742913146658 god -0.1637985
-4.268213831341854 phone -0.33057819999999993
-3.355330302413296 man -0.26296849999999994
-4.271308997303991 sweet -0.1361428
-4.187280197568351 figure -0.24642019999999995
-4.302999466052521 wears -0.17342280000000002
-4.368378544714667 else -0.2850767
-3.585948149125541 40-year-old -0.1361428
-4.453722771158022 norwegian -0.17342280000000002
-4.253313782093312 wood -0.1650418
-4.026541670350226 seems -0.42239899999999997
-3.8838568428281888 copies -0.47574469999999996
-3.8548910733283535 published -0.3272783
-3.438280064042801 tokyo -0.23694459999999995
-3.987106223889021 pack -0.19877679999999998
-4.183450655579574 charts -0.1361428
-3.7381900871661515 books -0.2831105
-4.334377554478369 written -0.2761759999999999
-4.598307168107247 language -0.21909259999999997
-4.107795307548336 usually -0.17818660000000003
-4.693523790257093 carry -0.265457
-3.9473843900431302 macmillan -0.18659619999999996
-4.484820321309984 baseball -0.2109613
-4.4628365737463 version -0.5529461999999999
-4.383001760793643 call -0.3198349999999999
-3.926567086809525 game -0.2692997
-4.242541020710858 describes -0.18853309999999998
-4.557139069345397 mirror -0.19877679999999998
-4.575374313155273 harmony -0.1361428
-3.484779526519066 spirit -0.20920039999999998
-3.568530691849831 player -0.28128739999999997
-3.87575823864741 commitment -0.49426259999999994
-3.767958801803434 practice -0.3026702
-4.24145977498011 image -0.2920584
-3.950773879230398 important -0.22035919999999998
-4.281893608487527 soul -0.1361428
-4.044467073266835 male -0.15295229999999999
-3.9596211524610654 symbol -0.1768314
-4.201839047879623 played -0.28734079999999995
-4.074745203292886 ball -0.15067309999999998
-4.0158517351795116 bat -0.1361428
-3.918164416283546 balls -0.1361428
-3.991853049651456 stadium -0.17718329999999996
-3.721113416478903 strike -0.26499809999999996
-3.8616317187907225 zone -0.1361428
-3.9669310882477826 depending -0.9119516
-3.977152257311755 size -0.3527322
-3.5118297320303475 ties -0.37340209999999996
-3.738356487622004 shame -0.2588992
-3.873915454613479 defeat -0.18853309999999998
-3.8316205098675336 players -0.2899064
-3.6001871010933755 must -0.37086829999999993
-4.004241802482699 strict -0.15295229999999999
-3.8308701238613927 rules -0.3430561999999999
-3.786055061192133 conduct -0.17945319999999998
-3.7156592484292426 lives -0.3322592
-3.577652772452495 always -0.18137569999999997
-3.969200975373674 wear -0.1560797
-3.95450779718645 road -0.204788
-4.081140608780709 amusing -0.1361428
-4.464696688270212 fare -0.19638989999999998
-3.887618248924655 enormous -0.15387969999999998
-4.274237232487362 sums -0.18659619999999996
-4.44642030407166 plate -0.1768314
-4.396405750442395 run -0.34854469999999993
-3.9495356130061245 complaint -0.18319789999999994
-4.04674088168685 whom -0.21631070000000002
-3.8113610901212187 sony -0.30695249999999996
-4.462947562349218 regret -0.1637985
-4.5770830611713995 parties -0.3057274
-3.923139039241955 sometimes -0.15460279999999996
-4.577270294669821 vicious -0.1361428
-4.5689020459390655 mundane -0.18127879999999996
-4.503082544430561 aspects -0.5687928999999999
-4.384937916504046 employees -0.40620949999999995
-4.552238689194452 assigned -0.3444658
-4.489060694441989 lunch -0.1837895
-4.609164239942936 partners -0.3238058
-4.528639743243606 style -0.25969869999999995
-4.469288316059205 overtime -0.15438289999999996
-4.697660687797717 solidarity -0.20008849999999997
-4.577064748158644 letting -0.14893819999999997
-4.363545354248012 young -0.2572015
-4.492629916751327 employee -0.21612299999999998
-4.536168664193178 responsibility -0.5635652999999999
-4.495736924823974 frustrating -0.1361428
-4.420353536488232 science -0.1747126
-3.939828451756088 ultimately -0.15387969999999998
-4.320631077792526 lesson -0.17342280000000002
-3.885422523318316 fired -0.19548279999999998
-4.210537828487711 committed -0.4228739
-3.85352695281852 social -0.3183177
-3.6945057936886965 crime -0.2496427
-4.163621560797345 appointment -0.2598321
-4.1908686534770805 venerable -0.1361428
-3.6065262778957017 never -0.23190139999999995
-4.005776442856397 certainly -0.2172362
-3.97034760538014 learned -0.3467276
-3.8658189000912224 something -0.33894539999999995
-3.809955615485907 deputy -0.3438425
-4.430482348501807 editorial -0.1934321
-4.217522564308019 features -0.2215058
-4.3752930027453285 corners -0.1361428
-4.678109808943898 globe -0.1517298
-4.002174229792812 becoming -0.2825714999999999
-4.668774531565641 tobacco -0.24011379999999996
-4.571446979874626 smoke -0.18865880000000002
-3.832998413228435 singapore -0.2427674
-4.50567367748514 entering -0.3631101
-4.004693130573003 restaurants -0.2698815
-4.457292239936801 stores -0.35762639999999996
-4.35027783969973 sports -0.21933389999999997
-4.0034370554063745 centers -0.26492889999999997
-4.380299330160988 clubs -0.1560797
-4.45189524567302 exempt -0.331432
-3.902111014749588 smoking -0.18111809999999998
-4.362648624010219 bars -0.1637985
-4.120574228677565 except -0.39766549999999995
-3.872566611194588 hours -0.3426508999999999
-4.018845875946839 bans -0.18659619999999996
-4.03546078681164 theaters -0.19312929999999995
-4.139807226431611 elevators -0.1361428
-4.063164449638108 hospitals -0.33885579999999993
-3.7272853831776183 fast-food -0.3008514
-3.8680154882461735 prime -0.4950779999999999
-4.226893342605125 kuala -0.4336638
-4.118890254851552 lumpur -0.1361428
-4.306067047026815 urged -0.22067590000000004
-4.174440244847293 visiting -0.1678971
-4.201055148833797 restricts -0.17342280000000002
-4.213798886920422 designated -0.2217299
-4.244545244175398 indicates -0.42305109999999996
-3.7611313077196376 consumers -0.2716894
-3.6571521149679844 carried -0.3311662
-4.514667726897268 backer -0.6980718
-4.559443550679497 spielvogel -0.1517298
-4.590894543045441 bates -0.1361428
-4.580630200000491 colony -0.1704387
-4.554377820814855 feel -0.2705429
-4.616245395184196 pressured -0.24938210000000002
-4.626651597701845 surveyed -0.18529359999999995
-4.424459438746315 identified -0.21441289999999996
-4.336444602734505 one-third -0.3688603
-3.749669193265291 great -0.21408659999999996
-4.025120184756747 deal -0.3444845999999999
-4.4874777274125 stress -0.25465709999999997
-3.765796834585068 cabinet -0.1704387
-4.176686370975238 endorsed -0.2890362
-3.8987843592547855 proposal -0.34426719999999994
-3.8764560838744813 build -0.2811199
-3.673481167218343 center -0.3729839
-4.262676345020425 central -0.2549125
-4.600620628753596 plaza -0.18111809999999998
-4.456170845280635 balked -0.37742279999999995
-3.8996778113000437 conditions -0.3068814
-4.379145259111779 undertaking -0.1637985
-4.37811451239215 necessary -0.38235889999999995
-3.6100040853760857 arafat -0.17329130000000004
-4.210039098121931 olympic -0.19333580000000003
-3.9625249122060984 asking -0.2693625
-4.258679231348923 palestinian -0.1361428
-4.37313044865769 liberation -0.1361428
-3.7389709530660338 membership -0.24418559999999995
-4.219112626115892 renewed -0.15118289999999998
-4.089237063329569 application -0.18975479999999997
-3.6004351747485828 plo -0.1361428
-4.1209692871303165 organizations -0.1931809
-3.589087310771641 win -0.23572649999999998
-3.401788792412448 health -0.36357339999999994
-4.081962990136814 tourism -0.20920039999999998
-3.5615574888911685 beijing -0.2119411
-4.7188627136530465 chinese -0.19125210000000004
-3.704145928030687 aids -0.24438509999999997
-3.9564609772869583 sex -0.2991209
-3.775097073176274 daily -0.22547259999999994
-3.744861412499562 disease -0.2534525999999999
-4.456450910685251 hospital -0.23014119999999996
-3.2475467491889014 tests -0.33127829999999997
-4.114594066780454 confirmed -0.36757979999999996
-4.0803173958114884 family -0.283234
-3.6796541215924914 tested -0.14975060000000004
-3.8668601982922843 newspaper -0.2363127
-4.2203734181409365 chaotic -0.1361428
-3.4833712883249666 life -0.4037788
-3.835566131732752 polish -0.17342280000000002
-3.873845689249017 charges -0.43842829999999994
-4.404200996348206 gas -0.23875199999999994
-3.7074386917578868 line -0.35359669999999993
-4.646000372160762 compensate -0.22480739999999996
-4.636477995166043 coal -0.179915
-4.371906679060258 establishing -0.28100829999999993
-4.160632678907748 diplomatic -0.1864154
-4.216954615878621 poland -0.34048949999999994
-4.222743998656666 loans -0.43140719999999994
-4.251509947734433 financially -0.21434069999999994
-4.082353044704003 strapped -0.24428179999999997
-4.199947124229898 warsaw -0.1517298
-3.9863834005322065 victory -0.2600760999999999
-4.475949717991161 environmentalists -0.1864154
-3.733973730353411 hungary -0.20674439999999997
-4.709302720841919 terminated -0.23656529999999995
-4.675174880130203 multibillion-dollar -0.1361428
-4.6354142081688 river -0.196603
-3.8340406524062502 dam -0.1361428
-3.845977071374891 czechoslovakia -0.19892899999999994
-3.5845764024843074 ending -0.2692845
-4.559203114785081 authorized -0.18659619999999996
-4.289270545563668 modify -0.17342280000000002
-4.038144519085049 damage -0.43277439999999995
-3.6574458585446883 planned -0.2926918
-4.078252809527894 ca -1.6109219999999997
-4.283311270371528 operated -0.20416000000000004
-4.336237487155466 solely -0.2500699
-4.195573719850178 peak -0.2511364
-4.218992528505321 periods -0.2045453
-3.567892041187885 painting -0.18111809999999998
-3.93912475244675 stockholm -0.19333589999999995
-4.2138204533900385 painted -0.1637985
-4.5042501578163785 oils -0.20556719999999995
-4.424154912043567 playwright -0.19333589999999995
-3.9411014017868786 couples -0.16570639999999998
-4.157864708374843 statistics -0.3011154
-3.998225141211144 debentures -0.24101669999999997
-4.744145836572405 due -0.5435627
-4.153422978717956 bond -0.4276791
-3.8036179299854034 warrants -0.2228941
-3.827051666918546 toronto-based -0.15438289999999996
-3.8910264527019045 real -0.3900615
-4.153996684865989 estate -0.1559001
-4.128354247684503 warrant -0.20203719999999997
-4.125238287781751 holder -0.26561909999999994
-4.148244443502291 par -0.18468969999999998
-4.186875309221642 accrued -0.23656539999999998
-4.046955503597855 date -0.30302369999999995
-3.599167389844616 underwriters -0.229434
-4.3707745890524015 dominion -0.20215769999999994
-3.7108476812287368 actor -0.20215769999999994
-3.501364215833312 lane -0.15295229999999999
-3.9861678698346426 charlie -0.35564909999999994
-3.6124529848660507 martin -0.1637985
-4.613784583602476 laid -0.19319809999999998
-4.327963320413364 claim -0.3577759999999999
-3.7427455733336035 writer -0.22355099999999997
-3.344395180986397 tramp -0.1361428
-3.737071326030401 film -0.18694529999999998
-3.3914448164976725 student -0.1485673
-4.283693926559006 campus -0.1361428
-3.8979070344618374 shot -0.332736
-4.137892850189188 black-and-white -0.1361428
-3.4365183748445856 artist -0.162122
-3.6684110183973693 streets -0.22940689999999997
-4.305332989375772 revived -0.15438289999999996
-3.7596758341622416 sidewalk -0.2808639
-3.7277410997507574 stories -0.2335225
-4.25974676227866 piece -0.3936313
-3.9398975997511037 contained -0.3470893
