
\data\
ngram 1=102
ngram 2=9233

\1-grams:
-2.154575	0000	-2.826012
-2.181696	00010	-2.977193
-1.818176	00011	-2.860605
-2.396696	00100	-3.052193
-2.009043	00101	-2.526483
-1.799914	00110	-3.081643
-2.007858	0011100	-2.889545
-2.290527	0011101	-2.776482
-2.550583	0011110	-2.433539
-2.342308	0011111	-2.929094
-1.946526	0100	-2.892696
-2.282962	01010	-2.839855
-2.181268	01011	-2.951735
-2.088959	01100	-2.528923
-2.164181	011010	-1.943361
-2.722751	011011	-2.224086
-2.299628	01110	-2.787326
-1.928145	01111	-2.607975
-1.602699	100	-3.061024
-1.790878	10100	-2.803821
-1.712059	10101	0
-1.85229	10110	-1.56582
-1.817828	101110	0
-2.03121	101111	-2.378763
-2.055648	1100000	-2.61264
-2.264316	1100001	-2.795494
-2.009727	1100010	-2.583598
-2.130758	1100011	-2.995952
-2.028795	110010	-2.963308
-2.400134	1100110	-2.773912
-2.330013	1100111	-2.423229
-1.813085	11010	-2.715507
-2.724802	11011000	-2.787375
-2.309857	110110010	-2.80594
-2.075427	110110011	-2.208217
-2.229325	110110100	-2.632322
-2.647462	110110101	-2.482541
-2.54536	1101101100	-2.306858
-2.129854	1101101101	-1.649479
-2.476668	1101101110	-2.592186
-2.565346	1101101111	-2.649871
-1.485302	1101110	-2.824216
-2.057816	11011110	-3.113962
-2.344793	110111110	-2.785009
-2.582643	1101111110	-2.411018
-2.41471	11011111110	-2.98957
-2.426584	11011111111	-2.360374
-2.159123	11100	-2.692175
-1.927608	111010	-2.719262
-2.141307	1110110	-3.015121
-2.086975	11101110	-3.209726
-1.458672	11101111	-3.101095
-2.058258	11110000	-1.715289
-2.166345	1111000100	-1.213901
-2.340375	11110001010	-1.924523
-2.277991	11110001011	-2.684936
-1.953937	1111000110	-2.636098
-2.477091	1111000111	-1.850029
-1.704147	111100100	0
-2.020963	111100101	-99
-2.226527	111100110	-2.511294
-2.003221	111100111	-1.906615
-1.90908	111101000	-2.635763
-2.49964	111101001	-2.632824
-2.145127	11110101000	-2.073553
-2.398191	11110101001	-2.418156
-2.22481	11110101010	-1.53545
-2.22122	111101010110	-1.533138
-2.260899	111101010111	-1.958076
-2.185242	1111010110	-2.24437
-2.742733	11110101110	-2.405268
-2.311225	111101011110	-1.845452
-2.582778	1111010111110	-2.261573
-2.440148	1111010111111	-2.282648
-2.095754	1111011000	-3.02609
-2.304429	1111011001	-2.670755
-2.266262	1111011010	-3.111836
-2.11828	11110110110	-3.066529
-2.053412	11110110111	-2.998793
-2.283165	111101110	-2.688311
-2.138585	1111011110	-3.433653
-1.991772	1111011111	-3.409406
-1.972211	111110000	-3.066645
-2.045832	1111100010	-2.923626
-2.254841	1111100011	-2.419912
-2.00184	111110010	-2.501731
-1.820709	1111100110	-2.439868
-2.270114	11111001110	-2.451701
-2.346432	11111001111	-2.689178
-1.563705	11111010	-2.229485
-1.063395	111110110	0
-1.753779	111110111	-2.507502
-1.745057	1111110	-2.349828
-1.895443	11111110	-2.563208
-2.154273	1111111100	-1.39553
-1.843851	1111111101	-1.863864
-1.9382	1111111110	-2.119505
-2.575032	11111111110	-2.330447
-2.61916	111111111110	-2.299948
-2.565475	111111111111	-2.346191
-1.188861	</s>
-99	<s>	-3.713289

\2-grams:
-3.936514	0000 00011
-3.635484	0000 00100
-3.459393	0000 00101
-3.936514	0000 00110
-3.635484	0000 0011100
-3.936514	0000 0011101
-3.237544	0000 0011110
-3.936514	0000 0011111
-3.459393	0000 01011
-3.936514	0000 01111
-3.459393	0000 100
-3.156406	0000 10100
-2.857332	0000 10101
-3.459393	0000 10110
-2.706065	0000 101110
-3.334454	0000 101111
-1.691001	0000 1100000
-1.81594	0000 1100001
-1.686094	0000 1100010
-1.996994	0000 1100011
-2.151184	0000 110010
-2.392446	0000 1100110
-2.431364	0000 1100111
-1.594091	0000 11010
-2.65776	0000 11011000
-1.932192	0000 110110010
-1.61845	0000 110110011
-1.600054	0000 110110100
-1.82257	0000 110110101
-2.418	0000 1101101100
-2.20412	0000 1101101101
-2.431364	0000 1101101110
-2.556303	0000 1101101111
-0.8939382	0000 1101110
-3.635484	0000 11011110
-1.781178	0000 110111110
-2.283301	0000 1101111110
-1.526581	0000 11011111110
-1.987124	0000 11011111111
-2.431364	0000 11100
-3.635484	0000 111010
-3.459393	0000 1110110
-2.895121	0000 11101110
-2.732394	0000 11101111
-3.936514	0000 11110000
-3.459393	0000 1111000100
-3.091416	0000 11110001010
-2.857332	0000 11110001011
-3.237544	0000 1111000110
-2.760422	0000 111100100
-3.091416	0000 111100101
-3.091416	0000 111100110
-2.32373	0000 111100111
-2.180639	0000 111101000
-3.033424	0000 111101001
-3.334454	0000 11110101000
-2.936514	0000 11110101001
-2.982271	0000 11110101010
-2.857332	0000 111101010110
-2.635484	0000 111101010111
-2.0227	0000 1111010110
-2.982271	0000 11110101110
-2.028029	0000 111101011110
-2.489356	0000 1111010111110
-2.007095	0000 1111010111111
-2.158362	0000 1111011000
-2.538574	0000 1111011001
-3.237544	0000 1111011010
-2.180639	0000 11110110110
-2.237544	0000 11110110111
-3.237544	0000 111101110
-2.392446	0000 1111011110
-2.392446	0000 1111011111
-2.65776	0000 111110000
-2.061452	0000 1111100010
-2.50515	0000 1111100011
-2.65776	0000 111110010
-2.52154	0000 1111100110
-2.65776	0000 11111001110
-2.936514	0000 11111001111
-2.556303	0000 11111010
-1.671696	0000 111110110
-1.940879	0000 111110111
-3.635484	0000 11111110
-3.459393	0000 1111111100
-3.237544	0000 1111111101
-3.459393	0000 1111111110
-3.936514	0000 11111111110
-3.156406	0000 111111111110
-3.936514	0000 111111111111
-0.3528616	0000 </s>
-3.909395	00010 00011
-3.307336	00010 00101
-3.608366	00010 0011100
-2.830214	00010 0011110
-3.909395	00010 01011
-3.608366	00010 01111
-2.955153	00010 100
-2.795452	00010 10100
-2.955153	00010 10101
-3.210426	00010 10110
-2.705276	00010 101110
-2.566973	00010 101111
-1.386951	00010 1100000
-1.386951	00010 1100001
-2.219199	00010 1100010
-2.377917	00010 1100011
-1.632934	00010 110010
-2.169033	00010 1100110
-2.296612	00010 1100111
-1.21743	00010 11010
-3.608366	00010 11011000
-1.527379	00010 110110010
-1.591332	00010 110110011
-1.459146	00010 110110100
-2.955153	00010 110110101
-1.969876	00010 1101101100
-1.964913	00010 1101101101
-2.830214	00010 1101101110
-3.210426	00010 1101101111
-0.9503542	00010 1101110
-1.534647	00010 11011110
-1.81949	00010 110111110
-3.608366	00010 1101111110
-2.058137	00010 11011111110
-2.404246	00010 11011111111
-2.733304	00010 11100
-3.432274	00010 111010
-3.909395	00010 1110110
-2.868003	00010 11101110
-2.654123	00010 11101111
-3.909395	00010 11110000
-3.608366	00010 1111000100
-2.630642	00010 11110001010
-2.390882	00010 11110001011
-3.210426	00010 1111000110
-3.909395	00010 1111000111
-2.763268	00010 111100100
-3.006305	00010 111100101
-3.064297	00010 111100110
-2.110055	00010 111100111
-2.318331	00010 111101000
-3.909395	00010 111101001
-2.418034	00010 11110101000
-2.830214	00010 11110101001
-2.390882	00010 11110101010
-2.909395	00010 111101010110
-2.733304	00010 111101010111
-2.630642	00010 1111010110
-3.129287	00010 11110101110
-2.219199	00010 111101011110
-2.795452	00010 1111010111110
-2.246638	00010 1111010111111
-1.792124	00010 1111011000
-2.145967	00010 1111011001
-3.210426	00010 1111011010
-2.547668	00010 11110110110
-1.785544	00010 11110110111
-3.608366	00010 111101110
-2.418034	00010 1111011110
-2.103215	00010 1111011111
-3.210426	00010 111110000
-2.046073	00010 1111100010
-2.705276	00010 1111100011
-2.733304	00010 111110010
-2.307336	00010 1111100110
-3.006305	00010 11111001110
-2.795452	00010 11111001111
-2.654123	00010 11111010
-1.649324	00010 111110110
-2.341194	00010 111110111
-3.307336	00010 11111110
-2.462238	00010 1111111100
-2.462238	00010 1111111101
-1.91376	00010 111111111110
-3.064297	00010 111111111111
-0.4796433	00010 </s>
-3.427787	00011 00011
-4.272885	00011 00100
-3.272886	00011 00101
-2.892674	00011 00110
-3.318643	00011 0011101
-4.272885	00011 0011110
-2.930463	00011 0011111
-4.272885	00011 01010
-3.670825	00011 01011
-3.971855	00011 01100
-4.272885	00011 011010
-4.272885	00011 01110
-3.492777	00011 01111
-2.728817	00011 100
-2.994132	00011 10100
-2.704684	00011 10101
-3.068765	00011 10110
-2.573915	00011 101110
-2.649636	00011 101111
-1.780125	00011 1100000
-1.934429	00011 1100001
-1.635396	00011 1100010
-1.736327	00011 1100011
-2.660102	00011 110010
-2.380791	00011 1100110
-2.480494	00011 1100111
-1.360663	00011 11010
-2.517011	00011 11011000
-1.878434	00011 110110010
-1.468746	00011 110110011
-1.525474	00011 110110100
-2.039889	00011 110110101
-2.085365	00011 1101101100
-1.959018	00011 1101101101
-2.231493	00011 1101101110
-2.022465	00011 1101101111
-0.8480038	00011 1101110
-0.9292799	00011 11011110
-1.719002	00011 110111110
-1.980629	00011 1101111110
-1.517011	00011 11011111110
-1.974032	00011 11011111111
-2.353807	00011 11100
-3.272886	00011 111010
-4.272885	00011 1110110
-3.318643	00011 11101110
-3.068765	00011 11101111
-3.427787	00011 11110000
-4.272885	00011 1111000100
-3.318643	00011 11110001010
-2.795764	00011 11110001011
-3.017613	00011 1111000110
-3.971855	00011 1111000111
-2.660102	00011 111100100
-3.573915	00011 111100101
-3.017613	00011 111100110
-2.231493	00011 111100111
-2.175975	00011 111101000
-2.892674	00011 111101001
-3.492777	00011 11110101000
-2.874945	00011 11110101001
-2.517011	00011 11110101010
-2.781524	00011 111101010110
-3.042437	00011 111101010111
-2.600788	00011 1111010110
-2.670825	00011 11110101110
-2.186526	00011 111101011110
-2.582689	00011 1111010111110
-2.133006	00011 1111010111111
-2.012814	00011 1111011000
-2.741406	00011 1111011001
-2.892674	00011 1111011010
-2.044999	00011 11110110110
-2.290614	00011 11110110111
-3.231493	00011 111101110
-2.239462	00011 1111011110
-2.375258	00011 1111011111
-2.950666	00011 111110000
-2.208427	00011 1111100010
-2.810488	00011 1111100011
-2.810488	00011 111110010
-2.693102	00011 1111100110
-2.841522	00011 11111001110
-3.017613	00011 11111001111
-2.795764	00011 11111010
-1.932441	00011 111110110
-2.120597	00011 111110111
-4.272885	00011 1111110
-3.670825	00011 11111110
-3.670825	00011 1111111100
-3.369796	00011 1111111101
-3.318643	00011 1111111110
-3.573915	00011 11111111110
-3.795764	00011 111111111110
-3.369796	00011 111111111111
-0.5579692	00011 </s>
-3.09237	00100 00101
-3.217309	00100 0011110
-3.3934	00100 0011111
-3.217309	00100 100
-2.580486	00100 10101
-3.3934	00100 10110
-2.849332	00100 101110
-3.69443	00100 101111
-2.138127	00100 1100000
-2.518338	00100 1100001
-2.263066	00100 1100010
-2.415676	00100 1100011
-2.352007	00100 110010
-3.217309	00100 1100110
-2.740187	00100 1100111
-2.372211	00100 11010
-3.217309	00100 11011000
-2.49031	00100 110110010
-2.29649	00100 110110011
-2.415676	00100 110110100
-3.69443	00100 110110101
-3.69443	00100 1101101100
-2.615248	00100 1101101101
-2.99546	00100 1101101110
-3.3934	00100 1101101111
-0.0955298	00100 1101110
-1.923578	00100 11011110
-1.69443	00100 110111110
-3.217309	00100 1101111110
-2.463981	00100 11011111110
-3.217309	00100 11011111111
-2.740187	00100 11100
-3.69443	00100 11101111
-3.3934	00100 11110001010
-2.914322	00100 11110001011
-3.217309	00100 1111000110
-3.217309	00100 111100100
-3.69443	00100 111100110
-2.79134	00100 111100111
-2.49031	00100 111101000
-3.217309	00100 11110101000
-3.09237	00100 11110101010
-2.99546	00100 111101010110
-2.849332	00100 111101010111
-2.79134	00100 1111010110
-2.99546	00100 111101011110
-2.99546	00100 1111010111110
-2.849332	00100 1111010111111
-2.580486	00100 1111011000
-2.849332	00100 1111011001
-2.79134	00100 11110110110
-2.740187	00100 11110110111
-2.79134	00100 1111011110
-2.740187	00100 1111011111
-3.217309	00100 111110000
-2.548302	00100 1111100010
-3.217309	00100 1111100011
-3.217309	00100 111110010
-3.217309	00100 1111100110
-3.09237	00100 11111001110
-3.69443	00100 11111010
-2.232032	00100 111110110
-2.653037	00100 111110111
-3.3934	00100 1111110
-3.69443	00100 11111110
-3.3934	00100 1111111100
-3.09237	00100 1111111101
-2.99546	00100 1111111110
-2.518338	00100 111111111110
-1.253521	00100 </s>
-4.082031	00101 0000
-3.479971	00101 00011
-3.479971	00101 00100
-2.634873	00101 00101
-3.082031	00101 00110
-3.127789	00101 0011100
-3.383061	00101 0011101
-3.383061	00101 0011110
-2.935903	00101 0011111
-4.082031	00101 0100
-3.781001	00101 01011
-4.082031	00101 01100
-4.082031	00101 01111
-3.781001	00101 100
-3.082031	00101 10100
-2.851582	00101 10101
-3.040638	00101 10110
-2.537963	00101 101110
-2.968088	00101 101111
-1.751617	00101 1100000
-1.812518	00101 1100001
-1.650667	00101 1100010
-1.888906	00101 1100011
-2.19554	00101 110010
-2.236933	00101 1100110
-2.326156	00101 1100111
-1.622638	00101 11010
-2.667058	00101 11011000
-2.064998	00101 110110010
-1.783178	00101 110110011
-1.869843	00101 110110100
-2.448563	00101 110110101
-2.469247	00101 1101101100
-2.086396	00101 1101101101
-2.458782	00101 1101101110
-2.374461	00101 1101101111
-0.5839962	00101 1101110
-1.254016	00101 11011110
-0.905072	00101 110111110
-1.995671	00101 1101111110
-1.450587	00101 11011111110
-1.929743	00101 11011111111
-2.803277	00101 11100
-3.781001	00101 111010
-3.60491	00101 1110110
-3.781001	00101 11101110
-2.935903	00101 11101111
-3.301923	00101 11110000
-3.040638	00101 1111000100
-2.935903	00101 11110001010
-2.70182	00101 11110001011
-3.00285	00101 1111000110
-4.082031	00101 1111000111
-2.851582	00101 111100100
-3.383061	00101 111100101
-3.127789	00101 111100110
-2.262487	00101 111100111
-2.537963	00101 111101000
-3.040638	00101 111101001
-2.803277	00101 11110101000
-3.178941	00101 11110101001
-3.127789	00101 11110101010
-2.479971	00101 111101010110
-3.00285	00101 111101010111
-2.458782	00101 1111010110
-2.935903	00101 11110101110
-2.243182	00101 111101011110
-2.448563	00101 1111010111110
-1.951697	00101 1111010111111
-2.006484	00101 1111011000
-2.634873	00101 1111011001
-3.236933	00101 1111011010
-2.073431	00101 11110110110
-2.275851	00101 11110110111
-3.178941	00101 111101110
-2.289639	00101 1111011110
-2.341668	00101 1111011111
-2.550552	00101 111110000
-2.282691	00101 1111100010
-2.650667	00101 1111100011
-2.720303	00101 111110010
-2.438578	00101 1111100110
-2.458782	00101 11111001110
-2.851582	00101 11111001111
-2.781001	00101 11111010
-1.829178	00101 111110110
-2.230773	00101 111110111
-4.082031	00101 1111110
-3.301923	00101 11111110
-3.178941	00101 1111111100
-3.301923	00101 1111111101
-3.60491	00101 1111111110
-4.082031	00101 11111111110
-3.236933	00101 111111111110
-4.082031	00101 111111111111
-0.7469745	00101 </s>
-3.814025	00110 00100
-3.012393	00110 00101
-3.087027	00110 00110
-3.990117	00110 0011100
-3.689087	00110 0011101
-3.291147	00110 0011110
-3.511039	00110 0011111
-3.336904	00110 01010
-4.291147	00110 011010
-3.814025	00110 01110
-3.689087	00110 01111
-3.511039	00110 100
-3.060698	00110 10100
-2.814025	00110 10101
-2.843989	00110 10110
-2.722945	00110 101110
-3.145019	00110 101111
-1.468979	00110 1100000
-1.539098	00110 1100001
-1.743372	00110 1100010
-2.019305	00110 1100011
-1.740918	00110 110010
-2.341757	00110 1100110
-2.410333	00110 1100111
-1.252924	00110 11010
-2.990117	00110 11011000
-1.618126	00110 110110010
-1.505105	00110 110110011
-1.412625	00110 110110100
-2.304375	00110 110110101
-2.076303	00110 1101101100
-1.808273	00110 1101101101
-2.399052	00110 1101101110
-2.491806	00110 1101101111
-0.8887134	00110 1101110
-1.357154	00110 11011110
-1.962767	00110 110111110
-2.361728	00110 1101111110
-1.717116	00110 11011111110
-2.222961	00110 11011111111
-2.458638	00110 11100
-3.446049	00110 111010
-3.689087	00110 1110110
-3.814025	00110 11101110
-2.843989	00110 11101111
-3.177203	00110 11110000
-3.249754	00110 1111000100
-2.637934	00110 11110001010
-2.399052	00110 11110001011
-2.843989	00110 1111000110
-3.511039	00110 1111000111
-2.678363	00110 111100100
-2.893207	00110 111100101
-2.876173	00110 111100110
-2.148132	00110 111100111
-2.197725	00110 111101000
-2.859783	00110 111101001
-2.799785	00110 11110101000
-2.859783	00110 11110101001
-2.505817	00110 11110101010
-2.600951	00110 111101010110
-2.929419	00110 111101010111
-2.592177	00110 1111010110
-2.876173	00110 11110101110
-2.211966	00110 111101011110
-2.575143	00110 1111010111110
-2.219265	00110 1111010111111
-1.796992	00110 1111011000
-2.356648	00110 1111011001
-3.060698	00110 1111011010
-2.234242	00110 11110110110
-1.971	00110 11110110111
-3.145019	00110 111101110
-2.291147	00110 1111011110
-2.190776	00110 1111011111
-2.843989	00110 111110000
-2.173876	00110 1111100010
-2.968927	00110 1111100011
-2.657678	00110 111110010
-2.39352	00110 1111100110
-2.772633	00110 11111001110
-2.929419	00110 11111001111
-2.575143	00110 11111010
-1.696754	00110 111110110
-2.241929	00110 111110111
-4.291147	00110 1111110
-3.689087	00110 11111110
-2.747079	00110 1111111100
-2.968927	00110 1111111101
-3.990117	00110 1111111110
-3.814025	00110 11111111110
-2.520295	00110 111111111110
-3.689087	00110 111111111111
-0.515318	00110 </s>
-3.782186	0011100 00011
-3.782186	0011100 00100
-3.180126	0011100 00101
-3.384246	0011100 00110
-4.083216	0011100 0011100
-3.782186	0011100 0011101
-3.606095	0011100 0011110
-3.384246	0011100 0011111
-4.083216	0011100 0100
-4.083216	0011100 01010
-4.083216	0011100 01011
-3.041823	0011100 100
-3.180126	0011100 10100
-2.804462	0011100 10101
-2.879096	0011100 10110
-2.526913	0011100 101110
-3.004035	0011100 101111
-1.710304	0011100 1100000
-1.804462	0011100 1100001
-1.746756	0011100 1100010
-1.868372	0011100 1100011
-2.270303	0011100 110010
-2.367213	0011100 1100110
-2.503432	0011100 1100111
-1.292227	0011100 11010
-2.636058	0011100 11011000
-1.865732	0011100 110110010
-1.488823	0011100 110110011
-1.522115	0011100 110110100
-2.074616	0011100 110110101
-2.066183	0011100 1101101100
-1.795414	0011100 1101101101
-2.225883	0011100 1101101110
-2.263672	0011100 1101101111
-0.9303163	0011100 1101110
-0.9656132	0011100 11011110
-1.742772	0011100 110111110
-2.515014	0011100 1101111110
-1.687016	0011100 11011111110
-1.972626	0011100 11011111111
-2.539148	0011100 11100
-3.782186	0011100 111010
-3.303108	0011100 1110110
-2.651852	0011100 11101110
-2.703005	0011100 11101111
-3.481156	0011100 11110000
-3.303108	0011100 1111000100
-2.937088	0011100 11110001010
-2.606095	0011100 11110001011
-3.128973	0011100 1111000110
-3.782186	0011100 1111000111
-2.879096	0011100 111100100
-2.827943	0011100 111100101
-2.879096	0011100 111100110
-2.208155	0011100 111100111
-2.290824	0011100 111101000
-3.238118	0011100 111101001
-3.083216	0011100 11110101000
-2.804462	0011100 11110101001
-2.651852	0011100 11110101010
-2.551737	0011100 111101010110
-3.004035	0011100 111101010111
-2.703005	0011100 1111010110
-2.721488	0011100 11110101110
-2.078894	0011100 111101011110
-2.651852	0011100 1111010111110
-2.066183	0011100 1111010111111
-1.924853	0011100 1111011000
-2.551737	0011100 1111011001
-2.937088	0011100 1111011010
-2.128973	0011100 11110110110
-2.026311	0011100 11110110111
-3.303108	0011100 111101110
-2.225883	0011100 1111011110
-2.401975	0011100 1111011111
-2.668242	0011100 111110000
-2.124174	0011100 1111100010
-2.503432	0011100 1111100011
-2.937088	0011100 111110010
-2.375646	0011100 1111100110
-2.937088	0011100 11111001110
-2.620818	0011100 11111001111
-2.827943	0011100 11111010
-1.809058	0011100 111110110
-2.319788	0011100 111110111
-4.083216	0011100 1111110
-4.083216	0011100 11111110
-2.879096	0011100 1111111100
-2.620818	0011100 1111111101
-3.782186	0011100 11111111110
-2.740793	0011100 111111111110
-4.083216	0011100 111111111111
-0.516425	0011100 </s>
-3.49955	0011101 0000
-3.49955	0011101 00100
-3.323458	0011101 00101
-3.323458	0011101 00110
-2.570131	0011101 0011101
-3.323458	0011101 0011110
-2.89749	0011101 0011111
-3.49955	0011101 01011
-3.10161	0011101 011010
-3.49955	0011101 01110
-3.49955	0011101 01111
-2.846337	0011101 100
-2.89749	0011101 10100
-2.846337	0011101 10101
-2.686636	0011101 10110
-2.545307	0011101 101110
-2.458157	0011101 101111
-1.510545	0011101 1100000
-1.919766	0011101 1100001
-1.96173	0011101 1100010
-2.40264	0011101 1100011
-1.728698	0011101 110010
-2.686636	0011101 1100110
-2.80058	0011101 1100111
-1.394039	0011101 11010
-3.10161	0011101 11011000
-1.775274	0011101 110110010
-1.572693	0011101 110110011
-1.567584	0011101 110110100
-2.060217	0011101 110110101
-2.008188	0011101 1101101100
-1.846337	0011101 1101101101
-2.49955	0011101 1101101110
-2.232378	0011101 1101101111
-0.8937061	0011101 1101110
-2.256512	0011101 11011110
-1.85119	0011101 110111110
-2.137822	0011101 1101111110
-1.987666	0011101 11011111110
-1.955482	0011101 11011111111
-2.624488	0011101 11100
-3.80058	0011101 111010
-3.323458	0011101 1110110
-3.10161	0011101 11101110
-2.545307	0011101 11101111
-3.80058	0011101 11110000
-3.19852	0011101 1111000100
-2.458157	0011101 11110001010
-2.545307	0011101 11110001011
-3.10161	0011101 1111000110
-3.323458	0011101 1111000111
-2.570131	0011101 111100100
-2.80058	0011101 111100101
-2.686636	0011101 111100110
-2.157127	0011101 111100111
-2.220796	0011101 111101000
-3.323458	0011101 11110101000
-2.89749	0011101 11110101001
-2.59646	0011101 11110101010
-2.89749	0011101 111101010110
-2.955482	0011101 111101010111
-2.80058	0011101 1111010110
-2.721398	0011101 11110101110
-1.949321	0011101 111101011110
-2.624488	0011101 1111010111110
-2.052392	0011101 1111010111111
-1.736122	0011101 1111011000
-2.385606	0011101 1111011001
-2.59646	0011101 1111011010
-2.385606	0011101 11110110110
-1.881502	0011101 11110110111
-2.846337	0011101 111101110
-2.309218	0011101 1111011110
-2.187796	0011101 1111011111
-2.521826	0011101 111110000
-1.949321	0011101 1111100010
-2.256512	0011101 1111100011
-2.40264	0011101 111110010
-2.029728	0011101 1111100110
-2.759187	0011101 11111001110
-2.759187	0011101 11111001111
-2.458157	0011101 11111010
-1.375698	0011101 111110110
-1.755257	0011101 111110111
-3.19852	0011101 1111111100
-2.545307	0011101 1111111101
-3.19852	0011101 1111111110
-3.323458	0011101 11111111110
-2.008188	0011101 111111111110
-3.020472	0011101 111111111111
-0.4777403	0011101 </s>
-2.93852	0011110 00100
-2.63749	0011110 00101
-2.760472	0011110 00110
-3.063458	0011110 0011100
-3.23955	0011110 0011101
-2.093422	0011110 0011110
-3.063458	0011110 0011111
-3.23955	0011110 0100
-2.93852	0011110 01010
-3.54058	0011110 01011
-3.23955	0011110 01100
-3.23955	0011110 011010
-3.54058	0011110 01110
-2.84161	0011110 01111
-2.63749	0011110 100
-2.198157	0011110 10100
-1.984277	0011110 10101
-2.261826	0011110 10110
-1.960796	0011110 101110
-2.461398	0011110 101111
-1.31527	0011110 1100000
-1.400701	0011110 1100001
-1.468698	0011110 1100010
-1.601061	0011110 1100011
-1.762429	0011110 110010
-2.285307	0011110 1100110
-2.14264	0011110 1100111
-1.468698	0011110 11010
-3.23955	0011110 11011000
-1.907111	0011110 110110010
-1.824576	0011110 110110011
-1.769728	0011110 110110100
-3.23955	0011110 110110101
-2.426636	0011110 1101101100
-1.93852	0011110 1101101101
-3.063458	0011110 1101101110
-3.23955	0011110 1101101111
-0.9977543	0011110 1101110
-1.75525	0011110 11011110
-2.14264	0011110 110111110
-2.695482	0011110 1101111110
-2.310131	0011110 11011111110
-2.198157	0011110 11011111111
-2.84161	0011110 11100
-2.760472	0011110 111010
-2.21836	0011110 1110110
-2.285307	0011110 11101111
-2.84161	0011110 11110000
-2.93852	0011110 1111000100
-2.160368	0011110 11110001010
-2.426636	0011110 11110001011
-2.760472	0011110 1111000110
-3.063458	0011110 1111000111
-2.21836	0011110 111100100
-2.54058	0011110 111100101
-1.877822	0011110 111100111
-1.850384	0011110 111101000
-2.760472	0011110 111101001
-1.824576	0011110 11110101000
-2.285307	0011110 11110101001
-2.760472	0011110 11110101010
-2.310131	0011110 111101010110
-1.907111	0011110 111101010111
-2.33646	0011110 1111010110
-2.695482	0011110 11110101110
-2.049218	0011110 111101011110
-2.63749	0011110 1111010111110
-2.160368	0011110 1111010111111
-1.859339	0011110 1111011000
-2.109216	0011110 1111011001
-2.63749	0011110 1111011010
-1.93852	0011110 11110110110
-1.907111	0011110 11110110111
-2.84161	0011110 111101110
-2.178852	0011110 1111011110
-1.808186	0011110 1111011111
-2.21836	0011110 111110000
-1.996512	0011110 1111100010
-2.364488	0011110 1111100011
-2.261826	0011110 111110010
-1.960796	0011110 1111100110
-2.33646	0011110 11111001110
-2.364488	0011110 11111001111
-2.049218	0011110 11111010
-1.235228	0011110 111110110
-1.63749	0011110 111110111
-2.760472	0011110 11111110
-2.93852	0011110 1111111100
-2.84161	0011110 1111111101
-3.54058	0011110 1111111110
-3.063458	0011110 111111111110
-3.54058	0011110 111111111111
-0.7364403	0011110 </s>
-3.271687	0011111 00101
-3.271687	0011111 00110
-3.748808	0011111 0011100
-3.271687	0011111 0011110
-3.748808	0011111 01111
-3.049838	0011111 10100
-2.845718	0011111 10101
-3.447778	0011111 10110
-2.544688	0011111 101110
-3.271687	0011111 101111
-1.544688	0011111 1100000
-1.479295	0011111 1100001
-1.723502	0011111 1100010
-2.032805	0011111 1100011
-1.22898	0011111 110010
-2.447778	0011111 1100110
-2.447778	0011111 1100111
-1.569831	0011111 11010
-2.572717	0011111 11011000
-1.851181	0011111 110110010
-1.510762	0011111 110110011
-1.819389	0011111 110110100
-1.916299	0011111 110110101
-2.217329	0011111 1101101100
-1.834994	0011111 1101101101
-2.669627	0011111 1101101110
-2.707415	0011111 1101101111
-0.8183684	0011111 1101110
-2.794565	0011111 11011110
-1.891476	0011111 110111110
-2.406385	0011111 1101111110
-1.885485	0011111 11011111110
-2.230294	0011111 11011111111
-2.707415	0011111 11100
-3.049838	0011111 111010
-3.748808	0011111 1110110
-3.748808	0011111 11101110
-3.146748	0011111 11101111
-3.447778	0011111 11110000
-3.748808	0011111 1111000100
-2.493536	0011111 11110001010
-2.845718	0011111 11110001011
-2.845718	0011111 1111000110
-2.9687	0011111 1111000111
-2.669627	0011111 111100100
-2.90371	0011111 111100101
-2.90371	0011111 111100110
-2.180606	0011111 111100111
-2.157743	0011111 111101000
-3.271687	0011111 111101001
-2.067567	0011111 11110101000
-2.794565	0011111 11110101001
-2.90371	0011111 11110101010
-2.634865	0011111 111101010110
-2.493536	0011111 111101010111
-2.572717	0011111 1111010110
-2.794565	0011111 11110101110
-2.368597	0011111 111101011110
-2.669627	0011111 1111010111110
-2.406385	0011111 1111010111111
-1.851181	0011111 1111011000
-2.243658	0011111 1111011001
-3.447778	0011111 1111011010
-2.257446	0011111 11110110110
-1.727619	0011111 11110110111
-3.748808	0011111 111101110
-2.146748	0011111 1111011110
-2.180606	0011111 1111011111
-3.049838	0011111 111110000
-2.243658	0011111 1111100010
-2.426589	0011111 1111100011
-2.748808	0011111 111110010
-2.368597	0011111 1111100110
-2.447778	0011111 11111001110
-2.90371	0011111 11111001111
-2.845718	0011111 11111010
-1.225062	0011111 111110110
-1.977956	0011111 111110111
-3.748808	0011111 11111110
-2.90371	0011111 1111111100
-3.271687	0011111 1111111101
-3.271687	0011111 111111111110
-0.5163201	0011111 </s>
-4.144543	0100 0000
-4.144543	0100 00011
-4.144543	0100 00100
-3.843513	0100 00101
-3.542483	0100 00110
-4.144543	0100 0011100
-4.144543	0100 0011101
-3.445573	0100 0011110
-3.667422	0100 01010
-3.299445	0100 01011
-4.144543	0100 011011
-3.843513	0100 01110
-3.667422	0100 01111
-2.215124	0100 100
-2.782815	0100 10100
-2.968452	0100 10101
-3.241453	0100 10110
-3.144543	0100 101110
-2.968452	0100 101111
-3.065362	0100 1100000
-3.364435	0100 1100001
-2.968452	0100 1100010
-3.1903	0100 1100011
-3.241453	0100 110010
-3.843513	0100 1100110
-3.843513	0100 1100111
-2.412149	0100 11010
-3.0306	0100 110110010
-2.345202	0100 110110011
-1.743142	0100 110110100
-2.037333	0100 110110101
-3.445573	0100 1101101100
-2.639393	0100 1101101101
-1.968452	0100 1101101110
-2.445573	0100 1101101111
-1.350055	0100 1101110
-2.011004	0100 11011110
-2.157771	0100 110111110
-2.076357	0100 1101111110
-2.381115	0100 11011111110
-2.26373	0100 11011111111
-1.363506	0100 11100
-1.397131	0100 111010
-2.564759	0100 1110110
-1.856741	0100 11101110
-1.541399	0100 11101111
-3.299445	0100 11110000
-4.144543	0100 1111000100
-3.667422	0100 11110001010
-3.299445	0100 1111000110
-3.843513	0100 1111000111
-3.241453	0100 111100100
-4.144543	0100 111100101
-4.144543	0100 111100110
-3.10315	0100 111100111
-2.889271	0100 111101000
-3.542483	0100 11110101000
-2.782815	0100 11110101010
-3.241453	0100 111101010110
-2.889271	0100 111101010111
-2.246916	0100 1111010110
-3.445573	0100 11110101110
-2.50109	0100 111101011110
-3.065362	0100 1111010111110
-2.697385	0100 1111010111111
-3.241453	0100 1111011000
-4.144543	0100 1111011001
-4.144543	0100 1111011010
-3.10315	0100 11110110110
-3.0306	0100 11110110111
-3.843513	0100 111101110
-3.241453	0100 1111011110
-2.889271	0100 1111011111
-2.454347	0100 111110000
-2.275311	0100 1111100010
-2.600475	0100 1111100011
-2.782815	0100 111110010
-2.822324	0100 1111100110
-3.0306	0100 11111001110
-3.10315	0100 11111001111
-2.148908	0100 11111010
-1.739709	0100 111110110
-1.812105	0100 111110111
-3.542483	0100 1111110
-3.542483	0100 11111110
-3.144543	0100 1111111100
-3.065362	0100 1111111101
-3.445573	0100 1111111110
-3.667422	0100 11111111110
-3.10315	0100 111111111110
-0.1965705	0100 </s>
-3.808143	01010 00101
-3.206084	01010 00110
-2.662015	01010 0011101
-2.6942	01010 0011111
-2.195359	01010 01010
-3.808143	01010 01011
-2.963045	01010 01110
-3.808143	01010 01111
-3.028035	01010 100
-3.808143	01010 10100
-2.808143	01010 10101
-3.109174	01010 10110
-3.109174	01010 101110
-2.427932	01010 101111
-2.217079	01010 1100000
-2.808143	01010 1100001
-2.37678	01010 1100010
-2.507113	01010 1100011
-3.109174	01010 110010
-3.109174	01010 1100110
-2.808143	01010 1100111
-2.164691	01010 11010
-3.507113	01010 11011000
-2.289629	01010 110110010
-2.117947	01010 110110011
-1.889065	01010 110110100
-1.687569	01010 110110101
-3.206084	01010 1101101100
-2.577694	01010 1101101101
-2.264075	01010 1101101110
-2.662015	01010 1101101111
-1.353299	01010 1101110
-0.4708839	01010 11011110
-1.786954	01010 110111110
-1.89433	01010 1101111110
-1.494276	01010 11011111110
-2.217079	01010 11011111111
-1.921653	01010 11100
-2.766751	01010 111010
-3.331022	01010 1110110
-2.853901	01010 11101110
-2.316782	01010 11101111
-3.507113	01010 11110000
-3.331022	01010 11110001010
-3.028035	01010 11110001011
-3.507113	01010 1111000110
-3.206084	01010 1111000111
-3.028035	01010 111100100
-3.206084	01010 111100101
-3.109174	01010 111100110
-2.853901	01010 111100111
-2.662015	01010 111101000
-3.808143	01010 111101001
-3.206084	01010 11110101000
-3.808143	01010 11110101001
-2.766751	01010 11110101010
-2.853901	01010 111101010110
-2.632052	01010 111101010111
-2.37678	01010 1111010110
-3.028035	01010 11110101110
-2.485924	01010 111101011110
-2.6942	01010 1111010111110
-2.174675	01010 1111010111111
-2.963045	01010 1111011000
-3.808143	01010 1111011001
-3.808143	01010 1111011010
-3.109174	01010 11110110110
-2.632052	01010 11110110111
-3.507113	01010 111101110
-3.109174	01010 1111011110
-2.577694	01010 1111011111
-2.766751	01010 111110000
-2.39317	01010 1111100010
-2.446416	01010 1111100011
-2.552871	01010 111110010
-2.427932	01010 1111100110
-3.331022	01010 11111001110
-3.206084	01010 11111001111
-2.164691	01010 11111010
-1.543326	01010 111110110
-1.878724	01010 111110111
-3.808143	01010 1111110
-2.963045	01010 1111111100
-2.507113	01010 1111111101
-2.905053	01010 1111111110
-3.808143	01010 11111111110
-3.206084	01010 111111111110
-0.5023623	01010 </s>
-3.909823	01011 00100
-3.064725	01011 00101
-3.909823	01011 00110
-3.608793	01011 0011101
-3.909823	01011 0011110
-3.608793	01011 01010
-3.307763	01011 011010
-3.608793	01011 011011
-3.909823	01011 01111
-2.432702	01011 100
-2.868431	01011 10100
-2.955581	01011 10101
-3.129715	01011 10110
-2.955581	01011 101110
-3.129715	01011 101111
-2.210853	01011 1100000
-2.63107	01011 1100001
-1.975325	01011 1100010
-2.247066	01011 1100011
-2.868431	01011 110010
-3.064725	01011 1100110
-2.830642	01011 1100111
-1.905502	01011 11010
-3.006733	01011 11011000
-2.266371	01011 110110010
-1.654551	01011 110110011
-1.705703	01011 110110100
-2.012196	01011 110110101
-2.763695	01011 1101101100
-2.307763	01011 1101101101
-1.923052	01011 1101101110
-2.307763	01011 1101101111
-0.9663289	01011 1101110
-2.237725	01011 11011110
-1.751461	01011 110111110
-1.61097	01011 1101111110
-1.730846	01011 11011111110
-1.88044	01011 11011111111
-1.483312	01011 11100
-2.33004	01011 111010
-2.705703	01011 1110110
-2.077314	01011 11101110
-1.802613	01011 11101111
-3.307763	01011 11110000
-3.432702	01011 1111000100
-3.129715	01011 11110001010
-3.210853	01011 11110001011
-2.955581	01011 1111000110
-2.733732	01011 111100100
-3.909823	01011 111100101
-3.608793	01011 111100110
-2.447425	01011 111100111
-2.404673	01011 111101000
-3.307763	01011 111101001
-3.064725	01011 11110101000
-3.210853	01011 11110101001
-3.064725	01011 11110101010
-2.763695	01011 111101010110
-3.129715	01011 111101010111
-1.985544	01011 1111010110
-2.955581	01011 11110101110
-2.318759	01011 111101011110
-2.47846	01011 1111010111110
-2.17743	01011 1111010111111
-2.529612	01011 1111011000
-3.210853	01011 1111011001
-3.307763	01011 1111011010
-2.432702	01011 11110110110
-2.587604	01011 11110110111
-3.307763	01011 111101110
-2.763695	01011 1111011110
-2.79588	01011 1111011111
-2.608793	01011 111110000
-2.131672	01011 1111100010
-2.462665	01011 1111100011
-2.733732	01011 111110010
-2.49485	01011 1111100110
-2.763695	01011 11111001110
-2.705703	01011 11111001111
-2.169461	01011 11111010
-1.785972	01011 111110110
-1.676827	01011 111110111
-2.955581	01011 11111110
-3.006733	01011 1111111100
-2.909823	01011 1111111101
-3.608793	01011 1111111110
-3.608793	01011 111111111110
-3.909823	01011 111111111111
-0.3134462	01011 </s>
-4.002123	01100 0000
-3.400063	01100 00011
-1.625546	01100 00100
-1.651875	01100 00101
-0.7902018	01100 00110
-1.690369	01100 0011100
-1.828937	01100 0011101
-3.701093	01100 0011110
-1.532301	01100 0011111
-3.303153	01100 0100
-1.14479	01100 01010
-2.115632	01100 01011
-2.14479	01100 01100
-3.222015	01100 011010
-3.525002	01100 011011
-2.110028	01100 01110
-2.038335	01100 01111
-1.739672	01100 100
-1.669684	01100 10100
-1.681977	01100 10101
-1.577241	01100 10110
-1.868584	01100 101110
-1.40773	01100 101111
-2.223972	01100 1100000
-2.798003	01100 1100001
-2.294553	01100 1100010
-2.483609	01100 1100011
-2.470644	01100 110010
-2.6597	01100 1100110
-2.96073	01100 1100111
-2.470644	01100 11010
-4.002123	01100 11011000
-3.099033	01100 110110010
-3.04788	01100 110110011
-2.798003	01100 110110100
-2.679904	01100 1101101100
-2.269729	01100 1101101101
-3.525002	01100 1101101110
-1.96073	01100 1101110
-1.503812	01100 11011110
-4.002123	01100 1101111110
-3.525002	01100 11011111110
-3.525002	01100 11011111111
-2.88818	01100 11100
-2.303153	01100 111010
-2.604183	01100 1110110
-2.855995	01100 11101110
-2.121309	01100 11101111
-3.099033	01100 11110000
-3.099033	01100 1111000100
-2.640395	01100 11110001010
-3.099033	01100 11110001011
-2.157025	01100 1111000110
-2.701093	01100 1111000111
-1.964696	01100 111100100
-2.182579	01100 111100101
-3.099033	01100 111100110
-1.74927	01100 111100111
-1.501064	01100 111101000
-2.34891	01100 111101001
-2.110028	01100 11110101000
-2.121309	01100 11110101001
-2.389339	01100 11110101010
-2.34891	01100 111101010110
-2.286119	01100 111101010111
-2.44582	01100 1111010110
-2.26176	01100 11110101110
-2.570759	01100 111101011110
-3.099033	01100 1111010111110
-2.330025	01100 1111010111111
-2.067624	01100 1111011000
-2.311927	01100 1111011001
-1.871789	01100 1111011010
-2.238695	01100 11110110110
-2.006488	01100 11110110111
-2.496973	01100 111101110
-1.881549	01100 1111011110
-1.826032	01100 1111011111
-2.05764	01100 111110000
-2.132891	01100 1111100010
-2.104496	01100 1111100011
-2.010897	01100 111110010
-2.03364	01100 1111100110
-2.458055	01100 11111001110
-2.621912	01100 11111001111
-1.912218	01100 11111010
-1.026691	01100 111110110
-1.98509	01100 111110111
-3.303153	01100 1111110
-3.04788	01100 11111110
-2.286119	01100 1111111100
-3.002123	01100 1111111101
-2.922942	01100 11111111110
-2.34891	01100 </s>
-3.1468	011010 0000
-3.449787	011010 00010
-2.812965	011010 00011
-2.528968	011010 00100
-1.297498	011010 00101
-1.171796	011010 00110
-1.809637	011010 0011100
-2.202632	011010 0011101
-3.023818	011010 0011110
-2.78078	011010 0011111
-3.1468	011010 0100
-1.528968	011010 01010
-1.87383	011010 01011
-2.696459	011010 01100
-3.08181	011010 011010
-2.511935	011010 011011
-1.57666	011010 01110
-1.935682	011010 01111
-0.835945	011010 100
-1.481304	011010 10100
-1.240272	011010 10101
-1.387832	011010 10110
-1.893484	011010 101110
-1.66923	011010 101111
-2.303659	011010 1100000
-2.546697	011010 1100001
-2.16348	011010 1100010
-2.528968	011010 1100011
-2.511935	011010 110010
-2.435546	011010 1100110
-2.847727	011010 1100111
-2.094399	011010 11010
-3.926908	011010 110110010
-2.408394	011010 110110011
-2.671636	011010 110110100
-3.023818	011010 1101101100
-2.696459	011010 1101101101
-3.625878	011010 1101101110
-2.057676	011010 1101110
-2.847727	011010 11011110
-2.885515	011010 110111110
-3.449787	011010 1101111110
-3.625878	011010 11011111110
-2.885515	011010 11011111111
-3.449787	011010 11100
-1.328118	011010 111010
-2.495544	011010 1110110
-2.421758	011010 11101110
-1.816318	011010 11101111
-3.926908	011010 11110000
-3.324848	011010 1111000100
-2.885515	011010 11110001010
-3.023818	011010 11110001011
-2.625878	011010 1111000110
-2.847727	011010 1111000111
-1.87383	011010 111100100
-2.347125	011010 111100101
-2.972666	011010 111100110
-2.324848	011010 111100111
-1.967867	011010 111101000
-2.671636	011010 111101001
-1.914071	011010 11110101000
-2.148757	011010 11110101001
-2.171033	011010 11110101010
-2.421758	011010 111101010110
-2.148757	011010 111101010111
-2.283455	011010 1111010110
-2.370606	011010 11110101110
-2.625878	011010 111101011110
-3.1468	011010 1111010111110
-2.885515	011010 1111010111111
-2.546697	011010 1111011000
-2.972666	011010 1111011001
-2.528968	011010 1111011010
-2.47975	011010 11110110110
-2.324848	011010 11110110111
-2.885515	011010 111101110
-2.421758	011010 1111011110
-2.148757	011010 1111011111
-1.816318	011010 111110000
-2.245667	011010 1111100010
-2.107364	011010 1111100011
-1.997489	011010 111110010
-2.040417	011010 1111100110
-2.408394	011010 11111001110
-2.722788	011010 11111001111
-1.530709	011010 11111010
-1.137327	011010 111110110
-1.889482	011010 111110111
-3.625878	011010 1111110
-3.1468	011010 11111110
-2.358706	011010 1111111100
-2.885515	011010 1111111101
-3.625878	011010 1111111110
-1.621557	011010 11111111110
-3.926908	011010 111111111111
-2.227938	011010 </s>
-1.970533	011011 0000
-1.669503	011011 00010
-1.169816	011011 00011
-2.523375	011011 00100
-2.588365	011011 00101
-2.138024	011011 00110
-1.849959	011011 0011100
-2.523375	011011 0011101
-2.523375	011011 0011110
-3.067443	011011 0011111
-2.006745	011011 0100
-2.006745	011011 01010
-1.937109	011011 01011
-1.921315	011011 01100
-1.906075	011011 011010
-1.877111	011011 01110
-1.644197	011011 01111
-0.8884659	011011 100
-2.222345	011011 10100
-2.32708	011011 10101
-2.1132	011011 10110
-2.32708	011011 101110
-2.046253	011011 101111
-3.368473	011011 1100001
-3.067443	011011 1100010
-2.588365	011011 110010
-3.368473	011011 1100111
-1.937109	011011 11010
-3.067443	011011 110110011
-2.465383	011011 110110100
-2.368473	011011 110110101
-2.523375	011011 1101101101
-1.863323	011011 1101101110
-3.067443	011011 1101101111
-1.39999	011011 1101110
-2.465383	011011 11011110
-3.368473	011011 110111110
-3.368473	011011 1101111110
-3.368473	011011 11011111110
-2.254529	011011 11011111111
-2.669503	011011 11100
-1.669503	011011 111010
-1.597621	011011 1110110
-1.465383	011011 11101110
-1.285687	011011 11101111
-2.588365	011011 1111000100
-3.368473	011011 11110001011
-2.891352	011011 1111000110
-2.164353	011011 111100100
-2.368473	011011 111100101
-2.41423	011011 111100110
-2.368473	011011 111100111
-2.465383	011011 111101000
-2.891352	011011 111101001
-2.046253	011011 11110101000
-2.669503	011011 11110101001
-1.906075	011011 11110101010
-2.046253	011011 111101010110
-2.368473	011011 111101010111
-2.222345	011011 1111010110
-3.067443	011011 11110101110
-2.588365	011011 111101011110
-3.368473	011011 1111010111110
-2.465383	011011 1111011000
-3.067443	011011 1111011001
-3.368473	011011 1111011010
-2.766413	011011 11110110111
-2.41423	011011 111101110
-2.766413	011011 1111011110
-2.588365	011011 1111011111
-1.755689	011011 111110000
-2.669503	011011 1111100010
-3.368473	011011 1111100011
-2.222345	011011 111110010
-2.289292	011011 1111100110
-2.891352	011011 11111001110
-2.669503	011011 11111001111
-1.597621	011011 11111010
-1.285687	011011 111110110
-1.877111	011011 111110111
-1.953499	011011 1111110
-2.41423	011011 11111110
-2.138024	011011 1111111100
-1.953499	011011 1111111101
-2.669503	011011 1111111110
-2.368473	011011 11111111110
-2.891352	011011 111111111111
-0.884173	011011 </s>
-3.79148	01110 00100
-2.200416	01110 00101
-2.88839	01110 00110
-3.49045	01110 0011100
-3.49045	01110 01011
-3.79148	01110 011010
-3.314359	01110 011011
-3.79148	01110 01110
-3.79148	01110 01111
-2.223278	01110 100
-2.645352	01110 10100
-1.568764	01110 10101
-2.28633	01110 10110
-1.698058	01110 101110
-2.946382	01110 101111
-2.79148	01110 1100000
-3.49045	01110 1100010
-3.18942	01110 1100011
-2.837238	01110 110010
-3.18942	01110 1100110
-2.946382	01110 1100111
-2.223278	01110 11010
-3.49045	01110 11011000
-3.314359	01110 110110011
-2.88839	01110 110110100
-3.49045	01110 110110101
-3.79148	01110 1101101100
-3.09251	01110 1101101101
-3.79148	01110 1101101110
-2.512727	01110 1101110
-3.09251	01110 110111110
-3.011372	01110 1101111110
-3.49045	01110 11011111110
-3.314359	01110 11011111111
-3.49045	01110 11100
-1.899386	01110 111010
-1.916419	01110 1110110
-2.360116	01110 11101110
-1.034084	01110 11101111
-2.645352	01110 11110000
-1.492627	01110 1111000100
-2.512727	01110 11110001010
-1.627127	01110 11110001011
-1.26385	01110 1111000110
-2.260001	01110 1111000111
-1.827692	01110 111100100
-1.719598	01110 111100101
-2.946382	01110 111100110
-2.28633	01110 111100111
-3.09251	01110 111101000
-2.49045	01110 11110101000
-3.79148	01110 11110101001
-2.837238	01110 11110101010
-2.58736	01110 111101010110
-2.677537	01110 111101010111
-3.09251	01110 1111010110
-3.314359	01110 111101011110
-3.79148	01110 1111010111110
-1.862061	01110 1111011000
-2.449057	01110 1111011001
-2.615389	01110 1111011010
-2.235178	01110 11110110110
-2.411269	01110 11110110111
-1.592823	01110 111101110
-2.677537	01110 1111011110
-2.101284	01110 1111011111
-1.433545	01110 111110000
-1.832439	01110 1111100010
-2.075477	01110 1111100011
-1.940222	01110 111110010
-1.677537	01110 1111100110
-1.787159	01110 11111001110
-1.386646	01110 11111001111
-1.198194	01110 11111010
-0.854464	01110 111110110
-1.846997	01110 111110111
-3.49045	01110 1111110
-3.09251	01110 11111110
-2.09251	01110 1111111100
-1.698058	01110 1111111101
-3.49045	01110 1111111110
-1.822997	01110 11111111110
-1.101284	01110 111111111110
-1.284975	01110 111111111111
-2.300118	01110 </s>
-4.162923	01111 0000
-3.861893	01111 00011
-2.700525	01111 00101
-3.048979	01111 00110
-3.463953	01111 0011100
-3.861893	01111 0011110
-3.463953	01111 0100
-3.560863	01111 01010
-2.932474	01111 01011
-3.560863	01111 01100
-3.560863	01111 011011
-4.162923	01111 01110
-2.840703	01111 01111
-1.830484	01111 100
-3.317825	01111 10100
-2.19444	01111 10101
-2.764983	01111 10110
-2.282109	01111 101110
-3.162923	01111 101111
-2.884169	01111 1100000
-2.840703	01111 1100001
-2.19444	01111 1100010
-3.12153	01111 1100011
-3.259833	01111 110010
-3.20868	01111 1100110
-3.20868	01111 1100111
-1.814618	01111 11010
-3.463953	01111 11011000
-2.840703	01111 110110010
-2.430529	01111 110110011
-2.00456	01111 110110100
-3.560863	01111 110110101
-2.594721	01111 1101101100
-2.685802	01111 1101101101
-3.463953	01111 1101101110
-3.083741	01111 1101101111
-1.696055	01111 1101110
-2.045651	01111 11011110
-2.571858	01111 110111110
-3.20868	01111 1101111110
-2.472727	01111 11011111110
-2.764983	01111 11011111111
-3.463953	01111 11100
-1.868456	01111 111010
-3.162923	01111 1110110
-3.20868	01111 11101110
-2.21844	01111 11101111
-4.162923	01111 11110000
-2.631444	01111 1111000100
-3.861893	01111 11110001010
-3.016795	01111 11110001011
-2.644409	01111 1111000110
-2.141733	01111 1111000111
-2.731559	01111 111100100
-2.30559	01111 111100101
-2.392071	01111 111100110
-2.8205	01111 111100111
-3.162923	01111 111101000
-3.259833	01111 111101001
-2.840703	01111 11110101000
-3.463953	01111 11110101001
-2.2996	01111 11110101010
-2.446919	01111 111101010110
-2.51947	01111 111101010111
-3.20868	01111 1111010110
-3.259833	01111 11110101110
-2.840703	01111 111101011110
-3.463953	01111 1111010111110
-2.958803	01111 1111010111111
-3.048979	01111 1111011000
-3.560863	01111 1111011001
-3.685802	01111 1111011010
-2.700525	01111 11110110110
-2.8205	01111 11110110111
-3.162923	01111 111101110
-2.700525	01111 1111011110
-2.60662	01111 1111011111
-2.430529	01111 111110000
-2.958803	01111 1111100010
-2.782712	01111 1111100011
-2.571858	01111 111110010
-2.685802	01111 1111100110
-3.382815	01111 11111001110
-3.463953	01111 11111001111
-2.087376	01111 11111010
-1.956097	01111 111110110
-2.2996	01111 111110111
-2.087376	01111 1111110
-2.048979	01111 11111110
-1.438647	01111 1111111100
-1.182011	01111 1111111101
-0.4045407	01111 1111111110
-0.8541449	01111 11111111110
-1.622593	01111 111111111110
-1.274182	01111 111111111111
-1.449432	01111 </s>
-1.194108	100 0000
-1.259696	100 00010
-0.9102874	100 00011
-3.342225	100 00101
-2.643255	100 00110
-1.678794	100 0011100
-2.387983	100 0011101
-2.488353	100 0011110
-2.764077	100 0011111
-0.54575	100 0100
-1.451325	100 01010
-2.24038	100 01011
-1.296344	100 01100
-1.487052	100 011010
-3.886293	100 011011
-1.556895	100 01110
-0.9911471	100 01111
-2.162017	100 100
-3.011232	100 10100
-2.662278	100 10101
-3.166134	100 10110
-3.37441	100 101110
-2.51987	100 101111
-4.187323	100 1100000
-3.886293	100 1100001
-4.187323	100 1100010
-4.488353	100 1100011
-4.187323	100 1100111
-2.45897	100 11010
-4.488353	100 110110010
-3.585263	100 110110011
-2.637095	100 110110100
-3.789383	100 110110101
-4.011232	100 1101101100
-3.643255	100 1101101101
-4.187323	100 1101101110
-4.488353	100 1101101111
-2.361248	100 1101110
-2.932051	100 11011110
-3.534111	100 110111110
-3.37441	100 1101111110
-4.011232	100 11011111110
-3.37441	100 11011111111
-2.643255	100 11100
-2.065107	100 111010
-2.44303	100 1110110
-2.631021	100 11101110
-1.640164	100 11101111
-3.108142	100 11110000
-4.011232	100 1111000100
-3.789383	100 11110001011
-3.409172	100 1111000110
-3.534111	100 1111000111
-2.543871	100 111100100
-2.816255	100 111100101
-3.126626	100 111100110
-3.789383	100 111100111
-4.488353	100 111101000
-3.2096	100 11110101000
-2.956874	100 11110101010
-3.233081	100 111101010110
-3.07338	100 111101010111
-3.789383	100 1111010110
-4.187323	100 11110101110
-4.011232	100 111101011110
-4.187323	100 1111010111110
-4.488353	100 1111010111111
-3.643255	100 1111011000
-4.488353	100 1111011001
-4.488353	100 11110110110
-4.011232	100 11110110111
-3.312262	100 111101110
-4.187323	100 1111011110
-3.708245	100 1111011111
-3.2096	100 111110000
-3.07338	100 1111100010
-3.585263	100 1111100011
-3.312262	100 111110010
-2.932051	100 1111100110
-3.789383	100 11111001110
-3.886293	100 11111001111
-2.068398	100 11111010
-1.544364	100 111110110
-2.270869	100 111110111
-2.875569	100 1111110
-2.75596	100 11111110
-2.134245	100 1111111100
-2.049021	100 1111111101
-1.809835	100 1111111110
-3.488353	100 11111111110
-3.284233	100 111111111110
-2.543871	100 111111111111
-1.648875	100 </s>
-1.253297	10100 0000
-0.7981651	10100 00010
-0.4886743	10100 00011
-2.853024	10100 00101
-2.163462	10100 00110
-1.498093	10100 0011100
-2.609986	10100 0011101
-2.322459	10100 0011110
-3.04491	10100 0011111
-1.591761	10100 0100
-2.522031	10100 01010
-2.768703	10100 01011
-1.1482	10100 01100
-1.245186	10100 011010
-1.710233	10100 01110
-1.054423	10100 01111
-2.308956	10100 100
-2.551994	10100 10100
-2.386369	10100 10101
-3.186239	10100 10110
-3.300182	10100 101110
-2.003517	10100 101111
-3.698122	10100 1100000
-4.300182	10100 1100001
-3.698122	10100 1100010
-3.34594	10100 1100011
-3.601212	10100 110010
-2.047329	10100 11010
-4.300182	10100 110110010
-3.34594	10100 110110011
-3.021429	10100 110110100
-3.520074	10100 110110101
-3.999152	10100 1101101100
-3.698122	10100 1101101101
-3.999152	10100 1101101110
-4.300182	10100 1101101111
-2.455084	10100 1101110
-3.34594	10100 11011110
-3.823061	10100 110111110
-3.823061	10100 1101111110
-3.823061	10100 11011111110
-3.520074	10100 11011111111
-3.25879	10100 11100
-2.628084	10100 111010
-3.221001	10100 1110110
-3.999152	10100 11101110
-2.448924	10100 11101111
-3.154054	10100 11110000
-3.823061	10100 1111000100
-3.999152	10100 11110001010
-3.823061	10100 11110001011
-2.687398	10100 1111000110
-3.601212	10100 1111000111
-2.474108	10100 111100100
-2.386369	10100 111100101
-2.436859	10100 111100110
-3.25879	10100 111100111
-3.520074	10100 111101000
-4.300182	10100 111101001
-2.676933	10100 11110101000
-4.300182	10100 11110101001
-3.698122	10100 11110101010
-3.124091	10100 111101010110
-3.124091	10100 111101010111
-3.999152	10100 1111010110
-3.698122	10100 11110101110
-3.999152	10100 1111011000
-4.300182	10100 1111011001
-4.300182	10100 1111011010
-3.520074	10100 11110110110
-3.698122	10100 11110110111
-3.397092	10100 111101110
-3.397092	10100 1111011110
-3.186239	10100 1111011111
-3.154054	10100 111110000
-3.520074	10100 1111100010
-3.999152	10100 1111100011
-3.455084	10100 111110010
-2.919971	10100 1111100110
-3.823061	10100 11111001110
-3.698122	10100 11111001111
-2.189593	10100 11111010
-1.691656	10100 111110110
-2.756114	10100 111110111
-1.988428	10100 1111110
-2.80882	10100 11111110
-2.313411	10100 1111111100
-2.199812	10100 1111111101
-1.799123	10100 1111111110
-3.397092	10100 11111111110
-3.186239	10100 111111111110
-2.676933	10100 111111111111
-2.413692	10100 </s>
-1.226385	10101 0000
-1.141687	10101 00010
-0.7194431	10101 00011
-3.232851	10101 00100
-2.100225	10101 00101
-1.770453	10101 00110
-1.628471	10101 0011100
-1.977578	10101 0011101
-2.586587	10101 0011110
-3.424736	10101 0011111
-1.570768	10101 0100
-2.275175	10101 01010
-2.05676	10101 01011
-1.379848	10101 01100
-1.512692	10101 011010
-1.651438	10101 011011
-1.832436	10101 01110
-1.216116	10101 01111
-1.626163	10101 100
-1.786802	10101 10100
-2.097946	10101 10101
-2.444481	10101 10110
-2.251874	10101 101110
-1.993373	10101 101111
-2.947615	10101 1100000
-3.533881	10101 1100001
-2.860465	10101 1100010
-3.123707	10101 1100011
-3.337586	10101 110010
-3.533881	10101 1100110
-3.533881	10101 1100111
-1.626931	10101 11010
-4.378979	10101 11011000
-4.077949	10101 110110010
-2.8475	10101 110110011
-2.470494	10101 110110100
-2.834911	10101 110110101
-2.931821	10101 1101101100
-2.766195	10101 1101101101
-3.475889	10101 1101101110
-3.776919	10101 1101101111
-1.969046	10101 1101110
-2.559435	10101 11011110
-3.232851	10101 110111110
-3.14853	10101 1101111110
-3.475889	10101 11011111110
-2.964006	10101 11011111111
-2.931821	10101 11100
-2.307097	10101 111010
-2.810777	10101 1110110
-3.265036	10101 11101110
-2.255127	10101 11101111
-3.202888	10101 11110000
-2.998768	10101 1111000100
-3.202888	10101 11110001010
-3.232851	10101 11110001011
-2.345555	10101 1111000110
-3.100225	10101 1111000111
-2.200002	10101 111100100
-1.981039	10101 111100101
-2.314521	10101 111100110
-2.444481	10101 111100111
-2.444481	10101 111101000
-2.860465	10101 111101001
-2.310793	10101 11110101000
-3.337586	10101 11110101001
-2.444481	10101 11110101010
-2.410496	10101 111101010110
-2.345555	10101 111101010111
-2.916581	10101 1111010110
-2.998768	10101 11110101110
-3.036556	10101 111101011110
-3.680009	10101 1111010111110
-3.265036	10101 1111010111111
-3.232851	10101 1111011000
-3.265036	10101 1111011001
-3.202888	10101 1111011010
-2.887617	10101 11110110110
-2.706881	10101 11110110111
-2.776919	10101 111101110
-2.54647	10101 1111011110
-2.586587	10101 1111011111
-2.799195	10101 111110000
-2.873829	10101 1111100010
-2.776919	10101 1111100011
-2.261708	10101 111110010
-2.24544	10101 1111100110
-3.424736	10101 11111001110
-3.202888	10101 11111001111
-2.036556	10101 11111010
-1.449049	10101 111110110
-2.282069	10101 111110111
-1.390866	10101 1111110
-2.118908	10101 11111110
-1.733557	10101 1111111100
-1.730619	10101 1111111101
-1.617803	10101 1111111110
-3.598871	10101 11111111110
-2.527721	10101 111111111110
-2.486884	10101 111111111111
-1.84116	10101 </s>
-2.12483	10110 0000
-2.148868	10110 00010
-1.878938	10110 00011
-2.72026	10110 00100
-2.243138	10110 00101
-0.4660119	10110 00110
-1.365453	10110 0011100
-2.148868	10110 0011101
-2.576016	10110 0011110
-2.446382	10110 0011111
-2.498411	10110 0100
-1.944307	10110 01010
-1.865862	10110 01011
-1.284049	10110 01100
-2.083437	10110 011010
-1.944307	10110 01110
-1.23704	10110 01111
-1.623876	10110 100
-1.439433	10110 10100
-2.19345	10110 10101
-1.633469	10110 10110
-2.42586	10110 101110
-1.914491	10110 101111
-2.983501	10110 1100000
-3.284531	10110 1100001
-2.877046	10110 1100010
-3.197381	10110 1100011
-3.12483	10110 110010
-3.458665	10110 1100110
-2.595321	10110 1100111
-1.973956	10110 11010
-3.937743	10110 11011000
-3.761652	10110 110110010
-3.335684	10110 110110011
-3.008325	10110 110110100
-3.761652	10110 110110101
-2.916554	10110 1101101100
-2.747412	10110 1101101101
-3.636714	10110 1101101110
-3.937743	10110 1101101111
-2.062682	10110 1101110
-2.213468	10110 11011110
-2.896351	10110 110111110
-3.937743	10110 1101111110
-3.238774	10110 11011111110
-2.916554	10110 11011111111
-3.062682	10110 11100
-2.514498	10110 111010
-3.197381	10110 1110110
-3.197381	10110 11101110
-2.341146	10110 11101111
-3.335684	10110 11110000
-3.393676	10110 1111000100
-3.284531	10110 11110001010
-3.458665	10110 11110001011
-2.467921	10110 1111000110
-3.335684	10110 1111000111
-2.557532	10110 111100100
-1.983501	10110 111100101
-2.475346	10110 111100110
-2.490586	10110 111100111
-2.381441	10110 111101000
-3.062682	10110 111101001
-1.981095	10110 11110101000
-1.83394	10110 11110101001
-2.615524	10110 11110101010
-2.230173	10110 111101010110
-2.274986	10110 111101010111
-2.858562	10110 1111010110
-3.092645	10110 11110101110
-3.12483	10110 111101011110
-3.335684	10110 1111010111110
-3.458665	10110 1111010111111
-2.791615	10110 1111011000
-2.96002	10110 1111011001
-2.747412	10110 1111011010
-2.937743	10110 11110110110
-2.840833	10110 11110110111
-2.840833	10110 111101110
-2.636714	10110 1111011110
-2.399925	10110 1111011111
-2.62599	10110 111110000
-2.707295	10110 1111100010
-2.707295	10110 1111100011
-2.399925	10110 111110010
-2.121502	10110 1111100110
-3.062682	10110 11111001110
-3.284531	10110 11111001111
-2.089554	10110 11111010
-1.292813	10110 111110110
-2.279732	10110 111110111
-2.062682	10110 1111110
-2.32496	10110 11111110
-1.372486	10110 1111111100
-2.040116	10110 1111111101
-2.234452	10110 1111111110
-3.458665	10110 11111111110
-2.916554	10110 111111111110
-3.008325	10110 111111111111
-2.128184	10110 </s>
-1.443906	101110 0000
-2.105892	101110 00010
-1.663615	101110 00011
-3.37012	101110 00100
-2.053102	101110 00101
-2.354132	101110 00110
-1.06909	101110 0011100
-1.841846	101110 0011101
-1.894812	101110 0011110
-1.965714	101110 0011111
-2.33369	101110 0100
-2.639741	101110 01010
-2.03266	101110 01011
-1.656209	101110 01100
-1.512034	101110 011010
-1.400471	101110 011011
-2.235783	101110 01110
-1.74687	101110 01111
-2.142876	101110 100
-2.256176	101110 10100
-1.27495	101110 10101
-1.845075	101110 10110
-2.045323	101110 101110
-2.239786	101110 101111
-2.781848	101110 1100000
-2.76806	101110 1100001
-2.705008	101110 1100010
-2.754696	101110 1100011
-3.27321	101110 110010
-3.57424	101110 1100110
-2.525022	101110 1100111
-1.400471	101110 11010
-3.67115	101110 11011000
-3.097118	101110 110110010
-2.223992	101110 110110011
-2.295486	101110 110110100
-1.976544	101110 110110101
-3.159266	101110 1101101100
-3.231817	101110 1101101101
-3.428112	101110 1101101110
-3.428112	101110 1101101111
-1.681033	101110 1101110
-2.95099	101110 11011110
-2.540816	101110 110111110
-2.930787	101110 1101111110
-2.693426	101110 11011111110
-2.841846	101110 11011111111
-2.95099	101110 11100
-2.460296	101110 111010
-3.097118	101110 1110110
-3.796088	101110 11101110
-2.013138	101110 11101111
-2.328727	101110 11110000
-1.372297	101110 1111000100
-2.159266	101110 11110001010
-1.779055	101110 11110001011
-1.326757	101110 1111000110
-2.027697	101110 1111000111
-1.147728	101110 111100100
-1.582128	101110 111100101
-2.290938	101110 111100110
-2.066384	101110 111100111
-2.729142	101110 111101000
-3.37012	101110 111101001
-2.509782	101110 11110101000
-2.87527	101110 11110101001
-2.660426	101110 11110101010
-2.858236	101110 111101010110
-3.097118	101110 111101010111
-3.194028	101110 1111010110
-2.810812	101110 11110101110
-2.97218	101110 111101011110
-3.796088	101110 1111010111110
-2.557206	101110 1111010111111
-3.06909	101110 1111011000
-3.017937	101110 1111011001
-2.841846	101110 1111011010
-2.781848	101110 11110110110
-2.64996	101110 11110110111
-1.780449	101110 111101110
-2.994456	101110 1111011110
-2.548934	101110 1111011111
-2.796088	101110 111110000
-3.231817	101110 1111100010
-3.042761	101110 1111100011
-2.858236	101110 111110010
-1.987652	101110 1111100110
-3.042761	101110 11111001110
-3.042761	101110 11111001111
-1.482924	101110 11111010
-1.152965	101110 111110110
-2.223992	101110 111110111
-2.34893	101110 1111110
-2.67115	101110 11111110
-2.693426	101110 1111111100
-2.268888	101110 1111111101
-2.729142	101110 1111111110
-4.27321	101110 11111111110
-3.37012	101110 111111111110
-2.841846	101110 111111111111
-1.628771	101110 </s>
-1.705758	101111 0000
-1.588575	101111 00010
-1.303991	101111 00011
-3.582745	101111 00100
-2.064231	101111 00101
-1.668931	101111 00110
-0.6878753	101111 0011100
-1.170565	101111 0011101
-1.089055	101111 0011110
-1.248962	101111 0011111
-1.556076	101111 0100
-1.936015	101111 01010
-1.869534	101111 01011
-1.056406	101111 01100
-1.628502	101111 011010
-3.457806	101111 011011
-1.53612	101111 01110
-1.226719	101111 01111
-2.679655	101111 100
-3.059866	101111 10100
-2.568505	101111 10101
-2.528387	101111 10110
-2.554716	101111 101110
-1.939292	101111 101111
-3.360896	101111 1100000
-3.214768	101111 1100001
-3.758836	101111 1100010
-3.582745	101111 1100011
-3.582745	101111 1100110
-2.06864	101111 11010
-3.582745	101111 110110010
-2.913738	101111 110110011
-3.156776	101111 110110100
-2.945923	101111 110110101
-3.758836	101111 1101101100
-3.279758	101111 1101101101
-3.758836	101111 1101101110
-3.758836	101111 1101101111
-2.059866	101111 1101110
-2.612708	101111 11011110
-2.883775	101111 110111110
-3.360896	101111 1101111110
-3.279758	101111 11011111110
-2.781113	101111 11011111111
-3.105624	101111 11100
-2.945923	101111 111010
-2.980685	101111 1110110
-3.059866	101111 11101110
-2.162239	101111 11101111
-3.059866	101111 11110000
-2.628502	101111 1111000100
-3.279758	101111 11110001010
-2.698138	101111 11110001011
-2.327472	101111 1111000110
-3.059866	101111 1111000111
-2.02244	101111 111100100
-2.568505	101111 111100101
-2.661926	101111 111100110
-2.468801	101111 111100111
-3.582745	101111 111101000
-3.582745	101111 111101001
-2.002961	101111 11110101000
-2.568505	101111 11110101001
-3.457806	101111 11110101010
-3.156776	101111 111101010110
-3.582745	101111 111101010111
-3.214768	101111 1111010110
-3.758836	101111 11110101110
-3.360896	101111 111101011110
-3.758836	101111 1111010111110
-3.360896	101111 1111010111111
-2.679655	101111 1111011000
-3.279758	101111 1111011001
-3.360896	101111 1111011010
-3.156776	101111 11110110110
-3.582745	101111 11110110111
-2.360896	101111 111101110
-3.582745	101111 1111011110
-2.913738	101111 1111011111
-2.679655	101111 111110000
-2.804594	101111 1111100010
-3.214768	101111 1111100011
-2.883775	101111 111110010
-2.515798	101111 1111100110
-2.980685	101111 11111001110
-2.679655	101111 11111001111
-2.151381	101111 11111010
-1.380438	101111 111110110
-2.447082	101111 111110111
-2.515798	101111 1111110
-3.457806	101111 11111110
-2.221017	101111 1111111100
-2.503564	101111 1111111101
-2.855746	101111 1111111110
-3.018474	101111 111111111110
-3.582745	101111 111111111111
-1.880889	101111 </s>
-3.13234	1100000 0000
-3.43337	1100000 00010
-2.921486	1100000 00011
-1.683247	1100000 00100
-1.479127	1100000 00101
-2.295067	1100000 00110
-3.13234	1100000 0011100
-2.994037	1100000 0011101
-2.573032	1100000 0011111
-3.33646	1100000 01010
-4.03543	1100000 01011
-3.255322	1100000 01100
-2.994037	1100000 011010
-2.956249	1100000 01110
-2.994037	1100000 01111
-2.190332	1100000 100
-1.817946	1100000 10100
-1.719459	1100000 10101
-1.815322	1100000 10110
-1.470764	1100000 101110
-2.006046	1100000 101111
-3.03543	1100000 1100000
-4.03543	1100000 1100001
-3.558309	1100000 1100010
-4.03543	1100000 1100011
-2.272002	1100000 110010
-2.994037	1100000 1100110
-2.994037	1100000 1100111
-2.503951	1100000 11010
-3.13234	1100000 11011000
-3.255322	1100000 110110010
-2.655219	1100000 110110011
-2.994037	1100000 110110100
-3.558309	1100000 110110101
-2.257278	1100000 1101101100
-1.617128	1100000 1101101101
-2.573032	1100000 1101101110
-3.43337	1100000 1101101111
-2.467228	1100000 1101110
-3.190332	1100000 11011110
-2.63749	1100000 110111110
-3.13234	1100000 1101111110
-3.7344	1100000 11011111110
-3.43337	1100000 11011111111
-3.558309	1100000 11100
-2.859339	1100000 111010
-3.33646	1100000 1110110
-2.63749	1100000 11101111
-2.804981	1100000 11110000
-1.685182	1100000 1111000100
-2.100931	1100000 11110001010
-2.160368	1100000 11110001011
-1.519556	1100000 1111000110
-2.303036	1100000 1111000111
-1.694986	1100000 111100100
-1.717366	1100000 111100101
-2.491362	1100000 111100110
-1.516916	1100000 111100111
-1.102956	1100000 111101000
-1.696973	1100000 111101001
-1.69897	1100000 11110101000
-2.372672	1100000 11110101001
-1.918158	1100000 11110101010
-1.605677	1100000 111101010110
-1.787457	1100000 111101010111
-2.573032	1100000 1111010110
-2.048658	1100000 11110101110
-2.014241	1100000 111101011110
-2.106011	1100000 1111010111110
-2.022593	1100000 1111010111111
-1.7258	1100000 1111011000
-1.982351	1100000 1111011001
-1.485201	1100000 1111011010
-1.666214	1100000 11110110110
-1.431204	1100000 11110110111
-2.076388	1100000 111101110
-1.62381	1100000 1111011110
-1.470764	1100000 1111011111
-1.921486	1100000 111110000
-2.066947	1100000 1111100010
-2.018396	1100000 1111100011
-1.754396	1100000 111110010
-1.457938	1100000 1111100110
-2.014241	1100000 11111001110
-1.963548	1100000 11111001111
-1.874062	1100000 11111010
-1.166198	1100000 111110110
-2.32786	1100000 111110111
-4.03543	1100000 1111110
-2.804981	1100000 11111110
-2.53028	1100000 1111111100
-1.959883	1100000 1111111101
-3.33646	1100000 11111111110
-2.620456	1100000 111111111110
-1.942008	1100000 111111111111
-2.573032	1100000 </s>
-3.224727	1100001 0000
-3.127817	1100001 00010
-3.525757	1100001 00011
-1.716197	1100001 00100
-1.452039	1100001 00101
-2.102511	1100001 00110
-3.046679	1100001 0011100
-2.214003	1100001 0011110
-2.622667	1100001 0011111
-3.525757	1100001 01010
-3.127817	1100001 01100
-3.525757	1100001 011010
-3.826787	1100001 011011
-2.712844	1100001 01110
-3.046679	1100001 01111
-2.308273	1100001 100
-1.573934	1100001 10100
-1.62813	1100001 10101
-1.693248	1100001 10110
-1.306959	1100001 101110
-1.835561	1100001 101111
-2.411814	1100001 1100000
-3.826787	1100001 1100001
-3.826787	1100001 1100010
-3.826787	1100001 1100011
-2.086425	1100001 110010
-2.785395	1100001 1100110
-3.127817	1100001 1100111
-2.923697	1100001 11010
-3.349666	1100001 11011000
-3.349666	1100001 110110010
-2.596338	1100001 110110011
-2.335426	1100001 1101101100
-1.650696	1100001 1101101101
-2.872545	1100001 1101101110
-2.596338	1100001 1101110
-2.872545	1100001 110111110
-3.525757	1100001 1101111110
-3.525757	1100001 11011111111
-3.349666	1100001 111010
-2.981689	1100001 11101111
-2.981689	1100001 11110000
-2.571515	1100001 1111000100
-2.258585	1100001 11110001010
-3.525757	1100001 11110001011
-1.853659	1100001 1111000110
-2.785395	1100001 1111000111
-1.636456	1100001 111100100
-2.173575	1100001 111100101
-3.046679	1100001 111100110
-1.392218	1100001 111100111
-1.059631	1100001 111101000
-1.766089	1100001 111101001
-1.601478	1100001 11110101000
-2.173575	1100001 11110101001
-1.963464	1100001 11110101010
-1.378081	1100001 111101010110
-2.484365	1100001 111101010111
-3.826787	1100001 1111010110
-2.173575	1100001 11110101110
-2.247004	1100001 111101011110
-1.994278	1100001 1111010111110
-2.020607	1100001 1111010111111
-1.502505	1100001 1111011000
-1.683772	1100001 1111011001
-1.557274	1100001 1111011010
-1.430588	1100001 11110110110
-1.356965	1100001 11110110111
-2.214003	1100001 111101110
-1.44477	1100001 1111011110
-1.364389	1100001 1111011111
-1.902508	1100001 111110000
-2.078599	1100001 1111100010
-1.994278	1100001 1111100011
-1.789361	1100001 111110010
-1.680659	1100001 1111100110
-2.411814	1100001 11111001110
-2.321637	1100001 11111001111
-2.127817	1100001 11111010
-1.123496	1100001 111110110
-3.127817	1100001 111110111
-3.525757	1100001 1111110
-3.127817	1100001 11111110
-3.826787	1100001 1111111100
-3.525757	1100001 1111111101
-3.826787	1100001 11111111110
-3.525757	1100001 </s>
-2.967404	1100010 0000
-2.850899	1100010 00011
-3.236249	1100010 00100
-1.325472	1100010 00101
-2.490283	1100010 00110
-2.967404	1100010 0011100
-3.382377	1100010 0011110
-3.081347	1100010 0011111
-3.780317	1100010 0100
-3.382377	1100010 01010
-2.967404	1100010 01011
-3.236249	1100010 01100
-2.71962	1100010 01110
-2.738925	1100010 01111
-2.189253	1100010 100
-1.798046	1100010 10100
-1.452958	1100010 10101
-1.821276	1100010 10110
-1.502708	1100010 101110
-2.094576	1100010 101111
-2.468564	1100010 1100000
-3.780317	1100010 1100001
-3.236249	1100010 1100010
-3.301239	1100010 1100011
-2.303196	1100010 110010
-1.807189	1100010 1100110
-2.604226	1100010 1100111
-2.780317	1100010 11010
-3.479287	1100010 11011000
-4.081347	1100010 110110010
-2.618949	1100010 110110011
-3.301239	1100010 110110100
-4.081347	1100010 110110101
-2.490283	1100010 1101101100
-1.483652	1100010 1101101101
-2.275167	1100010 1101101110
-3.604226	1100010 1101101111
-2.618949	1100010 1101110
-2.310495	1100010 110111110
-2.261803	1100010 1101111110
-4.081347	1100010 11011111110
-3.178257	1100010 11011111111
-3.382377	1100010 11100
-2.905256	1100010 111010
-3.127105	1100010 1110110
-3.780317	1100010 11101110
-2.967404	1100010 11101111
-3.178257	1100010 11110000
-2.967404	1100010 1111000100
-2.666374	1100010 11110001010
-3.780317	1100010 11110001011
-1.998562	1100010 1111000110
-2.759128	1100010 1111000111
-1.944627	1100010 111100100
-2.589986	1100010 111100101
-2.935219	1100010 111100110
-1.509638	1100010 111100111
-1.129524	1100010 111101000
-1.01279	1100010 111101001
-1.678227	1100010 11110101000
-2.666374	1100010 11110101001
-2.032129	1100010 11110101010
-1.420482	1100010 111101010110
-2.043921	1100010 111101010111
-2.618949	1100010 1111010110
-1.987926	1100010 11110101110
-1.926011	1100010 111101011110
-1.941468	1100010 1111010111110
-1.960773	1100010 1111010111111
-1.551148	1100010 1111011000
-1.86916	1100010 1111011001
-1.775996	1100010 1111011010
-1.238738	1100010 11110110110
-1.715859	1100010 11110110111
-2.194857	1100010 111101110
-1.19373	1100010 1111011110
-1.517866	1100010 1111011111
-1.960773	1100010 111110000
-1.746894	1100010 1111100010
-2.131957	1100010 1111100011
-1.798046	1100010 111110010
-1.908161	1100010 1111100110
-2.043921	1100010 11111001110
-2.296017	1100010 11111001111
-2.365344	1100010 11111010
-1.325472	1100010 111110110
-2.501564	1100010 111110111
-4.081347	1100010 1111110
-3.479287	1100010 11111110
-2.589986	1100010 1111111100
-2.905256	1100010 1111111101
-4.081347	1100010 1111111110
-3.382377	1100010 11111111110
-4.081347	1100010 111111111110
-4.081347	1100010 111111111111
-3.301239	1100010 </s>
-2.580117	1100011 00011
-2.784237	1100011 00100
-1.283634	1100011 00101
-2.279087	1100011 00110
-3.006086	1100011 0011100
-3.358268	1100011 0011111
-3.659298	1100011 01010
-3.057238	1100011 01011
-3.261358	1100011 01100
-3.960328	1100011 011010
-2.638109	1100011 01110
-2.681574	1100011 01111
-2.41626	1100011 100
-1.642265	1100011 10100
-1.623868	1100011 10101
-1.922902	1100011 10110
-1.395662	1100011 101110
-1.881147	1100011 101111
-2.49793	1100011 1100000
-3.11523	1100011 1100010
-2.5986	1100011 110010
-2.252758	1100011 1100110
-2.380544	1100011 1100111
-2.167936	1100011 11010
-3.358268	1100011 11011000
-3.659298	1100011 110110010
-2.729879	1100011 110110011
-3.006086	1100011 110110100
-2.51317	1100011 1101101100
-1.560654	1100011 1101101101
-1.787142	1100011 1101101110
-3.960328	1100011 1101101111
-2.681574	1100011 1101110
-2.729879	1100011 110111110
-2.960328	1100011 1101111110
-3.960328	1100011 11011111110
-3.659298	1100011 11011111111
-3.960328	1100011 111010
-3.960328	1100011 1110110
-3.006086	1100011 11101111
-2.960328	1100011 11110000
-2.784237	1100011 1111000100
-2.545355	1100011 11110001010
-3.659298	1100011 11110001011
-1.956007	1100011 1111000110
-3.006086	1100011 1111000111
-1.833223	1100011 111100100
-2.483207	1100011 111100101
-2.918935	1100011 111100110
-1.480321	1100011 111100111
-0.9867384	1100011 111101000
-2.729879	1100011 111101001
-1.612023	1100011 11110101000
-2.279087	1100011 11110101001
-1.811109	1100011 11110101010
-1.127819	1100011 111101010110
-2.358268	1100011 111101010111
-3.358268	1100011 1111010110
-2.227934	1100011 11110101110
-1.978057	1100011 111101011110
-1.742844	1100011 1111010111110
-1.915005	1100011 1111010111111
-1.426302	1100011 1111011000
-1.873968	1100011 1111011001
-1.383987	1100011 1111011010
-1.17216	1100011 11110110110
-1.769996	1100011 11110110111
-2.1969	1100011 111101110
-1.310021	1100011 1111011110
-1.602393	1100011 1111011111
-2.02583	1100011 111110000
-1.758931	1100011 1111100010
-2.127819	1100011 1111100011
-1.829994	1100011 111110010
-1.918935	1100011 1111100110
-1.930944	1100011 11111001110
-2.369263	1100011 11111001111
-2.468966	1100011 11111010
-1.322838	1100011 111110110
-2.918935	1100011 111110111
-3.18022	1100011 11111110
-3.11523	1100011 1111111100
-3.057238	1100011 1111111101
-3.960328	1100011 11111111110
-3.960328	1100011 111111111111
-3.659298	1100011 </s>
-3.108039	110010 0000
-1.333116	110010 00100
-1.746311	110010 00101
-2.170187	110010 00110
-3.159191	110010 0011100
-2.700553	110010 0011101
-2.372085	110010 0011111
-3.460221	110010 01011
-3.159191	110010 01100
-3.58516	110010 011010
-4.062281	110010 011011
-2.761251	110010 01110
-3.108039	110010 01111
-2.557131	110010 100
-2.020888	110010 10100
-2.217183	110010 10101
-1.598388	110010 10110
-1.883304	110010 101110
-2.249368	110010 101111
-2.204949	110010 1100000
-3.062281	110010 1100001
-3.460221	110010 1100010
-3.217183	110010 1100011
-1.87476	110010 110010
-3.159191	110010 1100110
-3.108039	110010 1100111
-1.011129	110010 11010
-3.58516	110010 11011000
-3.282173	110010 110110010
-2.858161	110010 110110011
-1.807009	110010 110110100
-2.916153	110010 110110101
-2.557131	110010 1101101100
-1.772246	110010 1101101101
-3.217183	110010 1101101110
-1.17692	110010 1101110
-2.9831	110010 110111110
-3.460221	110010 1101111110
-3.159191	110010 11011111110
-2.132862	110010 11011111111
-3.020888	110010 11100
-3.282173	110010 1110110
-3.020888	110010 11101111
-2.494079	110010 11110000
-2.807009	110010 1111000100
-1.844797	110010 11110001010
-3.020888	110010 11110001011
-1.579407	110010 1111000110
-2.948338	110010 1111000111
-1.797463	110010 111100100
-2.223432	110010 111100101
-2.321918	110010 111100110
-1.475694	110010 111100111
-1.021283	110010 111101000
-2.505979	110010 111101001
-1.807009	110010 11110101000
-2.346278	110010 11110101001
-2.28413	110010 11110101010
-1.994095	110010 111101010110
-2.211023	110010 111101010111
-2.88619	110010 1111010110
-2.783527	110010 11110101110
-2.153796	110010 111101011110
-2.193049	110010 1111010111110
-2.505979	110010 1111010111111
-1.601383	110010 1111011000
-1.68207	110010 1111011001
-1.842173	110010 1111011010
-2.256101	110010 11110110110
-1.355563	110010 11110110111
-2.249368	110010 111101110
-1.892019	110010 1111011110
-1.299603	110010 1111011111
-2.049444	110010 111110000
-1.928742	110010 1111100010
-2.439032	110010 1111100011
-2.053681	110010 111110010
-1.68207	110010 1111100110
-2.164654	110010 11111001110
-2.236206	110010 11111001111
-2.449497	110010 11111010
-1.251377	110010 111110110
-2.159191	110010 111110111
-2.916153	110010 1111110
-1.797463	110010 11111110
-2.858161	110010 1111111100
-2.428813	110010 1111111101
-2.530802	110010 1111111110
-4.062281	110010 11111111110
-3.217183	110010 111111111110
-1.909993	110010 </s>
-1.912842	1100110 0000
-1.793366	1100110 00100
-1.10893	1100110 00101
-2.910885	1100110 00110
-3.690993	1100110 0011100
-3.389963	1100110 0011101
-2.910885	1100110 0011111
-3.690993	1100110 01011
-3.690993	1100110 01100
-3.389963	1100110 011010
-3.389963	1100110 01111
-2.736751	1100110 100
-2.368774	1100110 10100
-2.146925	1100110 10101
-2.146925	1100110 10110
-1.756495	1100110 101110
-2.690993	1100110 101111
-3.213872	1100110 1100000
-3.690993	1100110 1100001
-2.310782	1100110 1100010
-1.935118	1100110 1100011
-2.228595	1100110 110010
-3.213872	1100110 1100110
-1.608208	1100110 1100111
-2.228595	1100110 11010
-2.486873	1100110 11011000
-3.389963	1100110 110110010
-3.389963	1100110 110110011
-2.787903	1100110 110110100
-2.992023	1100110 110110101
-2.910885	1100110 1101101100
-1.992023	1100110 1101101101
-2.736751	1100110 1101101110
-0.8039386	1100110 1101110
-3.690993	1100110 11011110
-2.389963	1100110 110111110
-2.845895	1100110 1101111110
-2.368774	1100110 11011111111
-3.690993	1100110 11100
-3.690993	1100110 11101111
-3.088933	1100110 1111000100
-2.486873	1100110 11110001010
-2.122791	1100110 1111000110
-3.213872	1100110 1111000111
-2.389963	1100110 111100100
-2.787903	1100110 111100101
-2.787903	1100110 111100110
-1.678156	1100110 111100111
-0.9553941	1100110 111101000
-1.484167	1100110 111101001
-2.293053	1100110 11110101000
-2.690993	1100110 11110101001
-2.486873	1100110 11110101010
-2.009752	1100110 111101010110
-2.460544	1100110 111101010111
-2.910885	1100110 1111010110
-2.845895	1100110 11110101110
-1.708722	1100110 111101011110
-1.771915	1100110 1111010111110
-2.460544	1100110 1111010111111
-1.731952	1100110 1111011000
-1.416835	1100110 1111011001
-1.884813	1100110 1111011010
-1.051507	1100110 11110110110
-1.520731	1100110 11110110111
-2.43572	1100110 111101110
-1.162076	1100110 1111011110
-1.634088	1100110 1111011111
-2.611812	1100110 111110000
-1.717865	1100110 1111100010
-3.213872	1100110 1111100011
-2.787903	1100110 111110010
-2.486873	1100110 1111100110
-2.57705	1100110 11111001110
-2.243835	1100110 11111001111
-2.992023	1100110 11111010
-1.622807	1100110 111110110
-2.736751	1100110 111110111
-3.690993	1100110 1111110
-2.389963	1100110 11111110
-2.992023	1100110 1111111101
-3.389963	1100110 1111111110
-3.389963	1100110 111111111111
-2.34857	1100110 </s>
-1.671195	1100111 0000
-3.283979	1100111 00010
-2.980992	1100111 00011
-1.891869	1100111 00100
-1.422644	1100111 00101
-2.15904	1100111 00110
-2.380889	1100111 0011100
-3.761101	1100111 0011101
-3.283979	1100111 0011110
-2.217032	1100111 0011111
-3.761101	1100111 0100
-2.858011	1100111 01011
-2.614973	1100111 01100
-2.806858	1100111 011010
-2.858011	1100111 01110
-2.399373	1100111 01111
-2.438881	1100111 100
-2.117648	1100111 10100
-2.036825	1100111 10101
-2.098343	1100111 10110
-1.727677	1100111 101110
-2.242587	1100111 101111
-2.482347	1100111 1100000
-3.460071	1100111 1100001
-1.968709	1100111 1100010
-2.181317	1100111 1100011
-1.826602	1100111 110010
-1.916003	1100111 1100110
-1.954921	1100111 1100111
-1.482347	1100111 11010
-2.438881	1100111 11011000
-2.980992	1100111 110110010
-2.505828	1100111 110110011
-2.098343	1100111 110110100
-2.399373	1100111 110110101
-2.858011	1100111 1101101100
-1.836821	1100111 1101101101
-2.647157	1100111 1101101110
-3.283979	1100111 1101101111
-0.7930848	1100111 1101110
-3.15904	1100111 11011110
-2.418678	1100111 110111110
-3.283979	1100111 1101111110
-3.15904	1100111 11011111110
-1.87461	1100111 11011111111
-3.283979	1100111 11100
-3.761101	1100111 111010
-3.460071	1100111 1110110
-3.761101	1100111 11101111
-3.761101	1100111 11110000
-2.980992	1100111 1111000100
-3.15904	1100111 11110001010
-1.968709	1100111 1111000110
-2.980992	1100111 1111000111
-2.098343	1100111 111100100
-2.916003	1100111 111100101
-2.363161	1100111 111100110
-1.689219	1100111 111100111
-0.9829493	1100111 111101000
-1.493929	1100111 111101001
-1.935026	1100111 11110101000
-2.505828	1100111 11110101001
-2.380889	1100111 11110101010
-1.739911	1100111 111101010110
-2.438881	1100111 111101010111
-2.681919	1100111 1111010110
-2.482347	1100111 11110101110
-1.941557	1100111 111101011110
-1.948187	1100111 1111010111110
-2.380889	1100111 1111010111111
-1.593783	1100111 1111011000
-2.079859	1100111 1111011001
-1.87461	1100111 1111011010
-1.528104	1100111 11110110110
-1.633996	1100111 11110110111
-2.530652	1100111 111101110
-1.361427	1100111 1111011110
-1.565201	1100111 1111011111
-2.298702	1100111 111110000
-1.602738	1100111 1111100010
-2.363161	1100111 1111100011
-2.380889	1100111 111110010
-2.269739	1100111 1111100110
-2.460071	1100111 11111001110
-2.25595	1100111 11111001111
-2.858011	1100111 11111010
-1.559703	1100111 111110110
-2.614973	1100111 111110111
-2.418678	1100111 11111110
-3.15904	1100111 1111111100
-2.681919	1100111 1111111101
-3.761101	1100111 1111111110
-3.761101	1100111 11111111110
-3.761101	1100111 111111111111
-1.954921	1100111 </s>
-4.277976	11010 0000
-3.976946	11010 00011
-2.561972	11010 00100
-2.499825	11010 00101
-2.955756	11010 00110
-3.800854	11010 0011100
-3.976946	11010 0011101
-3.800854	11010 0011110
-3.976946	11010 0011111
-3.976946	11010 01010
-4.277976	11010 01011
-4.277976	11010 01100
-4.277976	11010 011010
-4.277976	11010 011011
-3.976946	11010 01110
-3.277976	11010 01111
-2.304848	11010 100
-1.805219	11010 10100
-1.546387	11010 10101
-1.947562	11010 10110
-1.351633	11010 101110
-2.318934	11010 101111
-1.745221	11010 1100000
-2.147642	11010 1100001
-1.929671	11010 1100010
-2.244552	11010 1100011
-1.608659	11010 110010
-2.644507	11010 1100110
-2.20979	11010 1100111
-3.675916	11010 11010
-3.497868	11010 11011000
-2.529788	11010 110110010
-3.022703	11010 110110011
-3.976946	11010 110110100
-4.277976	11010 110110101
-2.698192	11010 1101101100
-2.232653	11010 1101101101
-3.164032	11010 1101101110
-4.277976	11010 1101101111
-3.323733	11010 1101110
-3.164032	11010 110111110
-4.277976	11010 1101111110
-4.277976	11010 11011111110
-2.213518	11010 11011111111
-3.236583	11010 11100
-2.522101	11010 111010
-2.955756	11010 1110110
-3.976946	11010 11101110
-2.104789	11010 11101111
-2.304848	11010 11110000
-2.348557	11010 1111000100
-2.098999	11010 11110001010
-2.125687	11010 11110001011
-1.823131	11010 1111000110
-2.976946	11010 1111000111
-1.352148	11010 111100100
-2.232653	11010 111100101
-2.746497	11010 111100110
-1.475202	11010 111100111
-1.492646	11010 111101000
-2.358898	11010 111101001
-2.800854	11010 11110101000
-2.686911	11010 11110101001
-2.545582	11010 11110101010
-2.323733	11010 111101010110
-2.615218	11010 111101010111
-2.846612	11010 1111010110
-2.465062	11010 11110101110
-2.380349	11010 111101011110
-2.654727	11010 1111010111110
-2.079319	11010 1111010111111
-1.843407	11010 1111011000
-1.571258	11010 1111011001
-1.85473	11010 1111011010
-1.666252	11010 11110110110
-1.153798	11010 11110110111
-2.047527	11010 111101110
-1.542377	11010 1111011110
-1.547194	11010 1111011111
-2.068461	11010 111110000
-2.198795	11010 1111100010
-1.608659	11010 1111100011
-2.030003	11010 111110010
-1.448672	11010 1111100110
-2.432878	11010 11111001110
-1.809628	11010 11111001111
-1.674831	11010 11111010
-0.6567994	11010 111110110
-2.008463	11010 111110111
-2.955756	11010 1111110
-3.101885	11010 11111110
-2.786614	11010 1111111100
-2.634523	11010 1111111101
-4.277976	11010 1111111110
-3.800854	11010 11111111110
-4.277976	11010 111111111110
-3.579006	11010 111111111111
-2.634523	11010 </s>
-2.889302	11011000 0000
-2.667453	11011000 00101
-3.065393	11011000 100
-3.366423	11011000 10100
-3.065393	11011000 10101
-3.366423	11011000 10110
-1.935059	11011000 101110
-2.889302	11011000 101111
-2.32503	11011000 1100000
-2.764363	11011000 1100001
-2.586315	11011000 1100010
-2.889302	11011000 1100011
-1.753639	11011000 110010
-0.5313669	11011000 1100110
-0.8558779	11011000 1100111
-2.41218	11011000 11010
-2.135974	11011000 11011000
-3.366423	11011000 110110010
-2.521325	11011000 110110011
-3.065393	11011000 110110100
-2.764363	11011000 1101101101
-3.065393	11011000 1101101110
-3.065393	11011000 1101101111
-1.236089	11011000 1101110
-2.366423	11011000 11011110
-1.798221	11011000 110111110
-3.366423	11011000 1101111110
-2.889302	11011000 11011111110
-2.41218	11011000 11011111111
-2.667453	11011000 11100
-3.065393	11011000 11101111
-1.875061	11011000 11110000
-2.889302	11011000 1111000100
-1.236089	11011000 11110001010
-2.024	11011000 11110001011
-2.764363	11011000 1111000110
-3.366423	11011000 1111000111
-2.41218	11011000 111100100
-2.41218	11011000 111100101
-1.375197	11011000 111100111
-2.220295	11011000 111101000
-2.889302	11011000 11110101001
-2.764363	11011000 111101010110
-2.889302	11011000 111101010111
-2.32503	11011000 1111010110
-2.889302	11011000 11110101110
-3.366423	11011000 111101011110
-3.366423	11011000 1111010111110
-3.366423	11011000 1111010111111
-2.586315	11011000 1111011000
-1.294541	11011000 1111011001
-3.065393	11011000 1111011010
-1.036009	11011000 11110110110
-2.667453	11011000 11110110111
-3.065393	11011000 111101110
-2.889302	11011000 1111011110
-1.71321	11011000 1111011111
-2.667453	11011000 1111100010
-3.065393	11011000 1111100011
-2.764363	11011000 111110010
-2.366423	11011000 1111100110
-3.065393	11011000 11111001110
-2.521325	11011000 11111001111
-2.586315	11011000 11111010
-1.232884	11011000 111110110
-3.065393	11011000 111110111
-3.366423	11011000 11111110
-3.366423	11011000 111111111110
-1.798221	11011000 </s>
-3.781253	110110010 0000
-3.179193	110110010 00011
-3.082283	110110010 00100
-3.001144	110110010 00101
-2.936155	110110010 00110
-3.781253	110110010 0011100
-3.781253	110110010 0100
-3.480223	110110010 01100
-3.082283	110110010 01110
-3.304131	110110010 01111
-3.179193	110110010 100
-2.318855	110110010 10100
-2.550804	110110010 10101
-2.550804	110110010 10110
-2.401041	110110010 101110
-2.82701	110110010 101111
-1.029974	110110010 1100000
-1.12804	110110010 1100001
-1.142763	110110010 1100010
-1.320355	110110010 1100011
-0.6913475	110110010 110010
-1.323371	110110010 1100110
-1.856973	110110010 1100111
-2.12804	110110010 11011000
-3.179193	110110010 110110010
-3.001144	110110010 110110011
-3.781253	110110010 110110100
-3.781253	110110010 110110101
-2.936155	110110010 1101101100
-1.889158	110110010 1101101101
-2.237185	110110010 1101101110
-2.04089	110110010 1101110
-2.82701	110110010 110111110
-3.781253	110110010 1101111110
-3.781253	110110010 11011111111
-3.179193	110110010 11100
-2.936155	110110010 111010
-3.781253	110110010 1110110
-3.304131	110110010 11101110
-2.936155	110110010 11101111
-2.702071	110110010 11110000
-2.366279	110110010 1111000100
-1.53574	110110010 11110001010
-1.585353	110110010 11110001011
-3.001144	110110010 1111000110
-2.334095	110110010 111100100
-2.667309	110110010 111100101
-3.480223	110110010 111100110
-1.794481	110110010 111100111
-1.883626	110110010 111101000
-2.878163	110110010 111101001
-2.781253	110110010 11110101000
-2.605161	110110010 11110101001
-2.502499	110110010 11110101010
-2.383313	110110010 111101010110
-2.550804	110110010 111101010111
-1.862175	110110010 1111010110
-2.781253	110110010 11110101110
-2.190188	110110010 111101011110
-2.82701	110110010 1111010111110
-2.577133	110110010 1111010111111
-1.484587	110110010 1111011000
-1.448814	110110010 1111011001
-2.52598	110110010 1111011010
-1.790027	110110010 11110110110
-1.638238	110110010 11110110111
-2.936155	110110010 111101110
-1.856973	110110010 1111011110
-1.862175	110110010 1111011111
-2.366279	110110010 111110000
-1.936155	110110010 1111100010
-2.201469	110110010 1111100011
-2.577133	110110010 111110010
-1.764219	110110010 1111100110
-2.334095	110110010 11111001110
-2.1378	110110010 11111001111
-2.383313	110110010 11111010
-1.417641	110110010 111110110
-2.401041	110110010 111110111
-3.781253	110110010 1111110
-3.304131	110110010 11111110
-3.781253	110110010 1111111101
-3.781253	110110010 111111111111
-3.480223	110110010 </s>
-3.316683	110110011 0000
-3.538532	110110011 00011
-3.413593	110110011 00100
-2.471585	110110011 00101
-3.235545	110110011 00110
-2.101839	110110011 0011100
-2.90171	110110011 0011101
-2.936472	110110011 0011110
-3.714623	110110011 0011111
-3.538532	110110011 0100
-2.67323	110110011 01010
-2.60068	110110011 01011
-3.413593	110110011 01100
-3.538532	110110011 011010
-4.015653	110110011 011011
-3.015653	110110011 01111
-2.617713	110110011 100
-2.510503	110110011 10100
-2.061411	110110011 10101
-2.29965	110110011 10110
-1.748481	110110011 101110
-2.484174	110110011 101111
-1.206093	110110011 1100000
-1.29965	110110011 1100001
-1.105563	110110011 1100010
-1.154716	110110011 1100011
-1.374179	110110011 110010
-1.490608	110110011 1100110
-1.689317	110110011 1100111
-3.235545	110110011 11010
-2.325457	110110011 11011000
-2.714623	110110011 110110010
-2.447451	110110011 110110011
-3.714623	110110011 110110100
-3.316683	110110011 110110101
-2.7369	110110011 1101101100
-1.652041	110110011 1101101101
-1.830962	110110011 1101101110
-4.015653	110110011 1101101111
-2.002816	110110011 1101110
-2.839562	110110011 11011110
-2.343555	110110011 110111110
-3.170555	110110011 1101111110
-3.714623	110110011 11011111110
-3.061411	110110011 11011111111
-3.235545	110110011 11100
-2.67323	110110011 111010
-2.839562	110110011 1110110
-2.435869	110110011 11101110
-2.252225	110110011 11101111
-2.785204	110110011 11110000
-2.785204	110110011 1111000100
-2.101839	110110011 11110001010
-1.875774	110110011 11110001011
-2.497139	110110011 1111000110
-3.170555	110110011 1111000111
-1.943771	110110011 111100100
-2.459351	110110011 111100101
-2.785204	110110011 111100110
-1.661545	110110011 111100111
-1.775104	110110011 111101000
-2.352895	110110011 111101001
-2.693434	110110011 11110101000
-2.325457	110110011 11110101001
-2.164395	110110011 11110101010
-2.183144	110110011 111101010110
-2.447451	110110011 111101010111
-1.590771	110110011 1111010110
-2.760381	110110011 11110101110
-1.671261	110110011 111101011110
-2.352895	110110011 1111010111110
-1.891801	110110011 1111010111111
-1.517343	110110011 1111011000
-1.727851	110110011 1111011001
-2.267465	110110011 1111011010
-1.57949	110110011 11110110110
-1.571608	110110011 11110110111
-2.760381	110110011 111101110
-1.706023	110110011 1111011110
-1.589142	110110011 1111011111
-2.033382	110110011 111110000
-1.721187	110110011 1111100010
-1.990347	110110011 1111100011
-1.863365	110110011 111110010
-1.891801	110110011 1111100110
-1.866434	110110011 11111001110
-2.27529	110110011 11111001111
-2.03793	110110011 11111010
-1.297983	110110011 111110110
-1.951195	110110011 111110111
-3.015653	110110011 1111110
-3.538532	110110011 11111110
-2.237502	110110011 1111111100
-3.112563	110110011 1111111101
-2.97426	110110011 1111111110
-4.015653	110110011 11111111110
-3.413593	110110011 111111111110
-2.447451	110110011 </s>
-3.861773	110110100 00011
-1.953288	110110100 00100
-2.330294	110110100 00101
-3.162803	110110100 00110
-3.560743	110110100 0011100
-3.560743	110110100 0011111
-3.861773	110110100 0100
-3.560743	110110100 01010
-2.685682	110110100 01011
-3.861773	110110100 01100
-3.560743	110110100 011010
-3.560743	110110100 01110
-3.162803	110110100 01111
-1.808695	110110100 100
-2.180532	110110100 10100
-1.897985	110110100 10101
-2.055593	110110100 10110
-1.786226	110110100 101110
-2.715645	110110100 101111
-1.390482	110110100 1100000
-1.64693	110110100 1100001
-1.509591	110110100 1100010
-1.728234	110110100 1100011
-1.778988	110110100 110010
-2.218321	110110100 1100110
-2.238524	110110100 1100111
-3.081665	110110100 11011000
-2.14577	110110100 110110010
-2.399375	110110100 110110011
-3.384652	110110100 110110100
-3.081665	110110100 110110101
-2.293571	110110100 1101101100
-1.771868	110110100 1101101101
-2.317705	110110100 1101101110
-3.162803	110110100 1101101111
-2.958683	110110100 1101110
-3.081665	110110100 110111110
-3.016675	110110100 11011111110
-2.330294	110110100 11011111111
-2.631324	110110100 11100
-1.947959	110110100 111010
-2.171577	110110100 1110110
-2.098345	110110100 11101110
-1.31277	110110100 11101111
-2.631324	110110100 11110000
-2.685682	110110100 1111000100
-2.399375	110110100 11110001010
-2.238524	110110100 11110001011
-1.986712	110110100 1111000110
-3.081665	110110100 1111000111
-1.879502	110110100 111100100
-2.218321	110110100 111100101
-2.631324	110110100 111100110
-1.685682	110110100 111100111
-1.469076	110110100 111101000
-2.463833	110110100 111101001
-2.685682	110110100 11110101000
-2.539554	110110100 11110101001
-2.14577	110110100 11110101010
-2.137497	110110100 111101010110
-1.771868	110110100 111101010111
-1.688587	110110100 1111010110
-2.343259	110110100 11110101110
-1.74783	110110100 111101011110
-2.399375	110110100 1111010111110
-2.035698	110110100 1111010111111
-1.685682	110110100 1111011000
-1.778988	110110100 1111011001
-2.171577	110110100 1111011010
-1.67993	110110100 11110110110
-1.306679	110110100 11110110111
-2.218321	110110100 111101110
-1.725053	110110100 1111011110
-1.409987	110110100 1111011111
-1.804868	110110100 111110000
-1.789891	110110100 1111100010
-1.483375	110110100 1111100011
-2.022924	110110100 111110010
-1.812555	110110100 1111100110
-2.330294	110110100 11111001110
-1.866138	110110100 11111001111
-1.744502	110110100 11111010
-0.9089808	110110100 111110110
-1.771868	110110100 111110111
-3.560743	110110100 1111110
-3.259713	110110100 11111110
-2.861773	110110100 1111111100
-2.430409	110110100 1111111101
-3.861773	110110100 1111111110
-3.560743	110110100 11111111110
-3.861773	110110100 111111111111
-2.606501	110110100 </s>
-2.744762	110110101 0000
-3.443732	110110101 00010
-2.966611	110110101 00011
-1.981334	110110101 00100
-0.9468026	110110101 00101
-2.598634	110110101 00110
-3.443732	110110101 0011110
-3.443732	110110101 0011111
-3.443732	110110101 0100
-3.142702	110110101 01010
-2.18846	110110101 01011
-2.841672	110110101 01100
-2.239612	110110101 011010
-2.841672	110110101 011011
-2.663624	110110101 01110
-2.329789	110110101 01111
-1.245075	110110101 100
-1.637552	110110101 10100
-1.336522	110110101 10101
-1.87553	110110101 10110
-2.329789	110110101 101110
-1.830948	110110101 101111
-1.580409	110110101 1100000
-2.239612	110110101 1100001
-1.611223	110110101 1100010
-1.736162	110110101 1100011
-2.297604	110110101 110010
-2.540642	110110101 1100110
-2.402339	110110101 1100111
-2.744762	110110101 11010
-3.443732	110110101 110110010
-2.841672	110110101 110110011
-3.142702	110110101 110110101
-2.744762	110110101 1101101100
-2.966611	110110101 1101101101
-2.663624	110110101 1101101110
-1.719456	110110101 1101110
-3.142702	110110101 110111110
-2.598634	110110101 11011111110
-3.443732	110110101 11011111111
-1.736162	110110101 111010
-2.663624	110110101 1110110
-3.443732	110110101 11101110
-2.598634	110110101 11101111
-2.966611	110110101 11110000
-2.966611	110110101 1111000100
-2.841672	110110101 11110001010
-2.213283	110110101 11110001011
-3.443732	110110101 1111000110
-2.364551	110110101 1111000111
-2.164979	110110101 111100100
-2.966611	110110101 111100101
-3.443732	110110101 111100110
-2.297604	110110101 111100111
-2.297604	110110101 111101000
-2.966611	110110101 111101001
-1.430895	110110101 11110101000
-2.663624	110110101 11110101001
-1.79052	110110101 11110101010
-1.938582	110110101 111101010110
-2.297604	110110101 111101010111
-1.443732	110110101 1111010110
-2.598634	110110101 11110101110
-2.121513	110110101 111101011110
-2.966611	110110101 1111010111110
-3.443732	110110101 1111010111111
-2.402339	110110101 1111011000
-3.443732	110110101 1111011001
-2.598634	110110101 1111011010
-2.841672	110110101 11110110110
-2.598634	110110101 11110110111
-2.10131	110110101 111101110
-2.841672	110110101 1111011110
-2.329789	110110101 1111011111
-1.996574	110110101 111110000
-2.164979	110110101 1111100010
-2.329789	110110101 1111100011
-2.082004	110110101 111110010
-1.852668	110110101 1111100110
-2.329789	110110101 11111001110
-1.504213	110110101 11111010
-0.7553124	110110101 111110110
-1.063521	110110101 111110111
-2.540642	110110101 1111111101
-3.142702	110110101 11111111110
-2.402339	110110101 111111111110
-3.443732	110110101 111111111111
-1.753536	110110101 </s>
-3.244772	1101101100 00011
-2.545802	1101101100 00100
-1.805439	1101101100 00101
-2.46662	1101101100 00110
-2.290529	1101101100 0011100
-3.545802	1101101100 0011101
-3.244772	1101101100 0011110
-3.244772	1101101100 0011111
-3.545802	1101101100 0100
-2.700704	1101101100 01010
-2.943742	1101101100 01011
-3.244772	1101101100 01100
-3.068681	1101101100 01111
-2.165591	1101101100 100
-2.027288	1101101100 10100
-1.989499	1101101100 10101
-2.027288	1101101100 10110
-1.67657	1101101100 101110
-2.290529	1101101100 101111
-1.253546	1101101100 1100000
-1.621522	1101101100 1100001
-1.500479	1101101100 1100010
-1.492723	1101101100 1100011
-1.829798	1101101100 110010
-1.883044	1101101100 1100110
-2.46662	1101101100 1100111
-3.545802	1101101100 11010
-2.504409	1101101100 11011000
-2.846832	1101101100 110110010
-2.943742	1101101100 110110011
-3.244772	1101101100 110110100
-3.545802	1101101100 110110101
-2.943742	1101101100 1101101100
-1.855606	1101101100 1101101101
-2.05444	1101101100 1101101110
-3.545802	1101101100 1101101111
-1.694543	1101101100 1101110
-3.244772	1101101100 11011110
-2.700704	1101101100 110111110
-3.545802	1101101100 11011111110
-3.545802	1101101100 11011111111
-3.244772	1101101100 11100
-2.431858	1101101100 111010
-3.068681	1101101100 1110110
-3.545802	1101101100 11101110
-2.765694	1101101100 11101111
-2.341682	1101101100 11110000
-2.290529	1101101100 1111000100
-1.846832	1101101100 11110001010
-2.244772	1101101100 11110001011
-2.504409	1101101100 1111000110
-2.014323	1101101100 111100100
-2.341682	1101101100 111100101
-3.244772	1101101100 111100110
-1.739622	1101101100 111100111
-1.9776	1101101100 111101000
-2.591559	1101101100 111101001
-1.154867	1101101100 11110101000
-1.532965	1101101100 11110101001
-2.290529	1101101100 11110101010
-1.933018	1101101100 111101010110
-1.883044	1101101100 111101010111
-2.765694	1101101100 1111010110
-2.001734	1101101100 11110101110
-2.147862	1101101100 111101011110
-2.642712	1101101100 1111010111110
-2.027288	1101101100 1111010111111
-1.563531	1101101100 1111011000
-1.966018	1101101100 1111011001
-2.315353	1101101100 1111011010
-1.902349	1101101100 11110110110
-1.719727	1101101100 11110110111
-2.184074	1101101100 111101110
-1.892589	1101101100 1111011110
-2.040652	1101101100 1111011111
-1.312806	1101101100 111110000
-1.943742	1101101100 1111100010
-2.147862	1101101100 1111100011
-1.114438	1101101100 111110010
-1.481344	1101101100 1111100110
-1.283351	1101101100 11111001110
-2.147862	1101101100 11111001111
-1.912333	1101101100 11111010
-1.205358	1101101100 111110110
-2.267048	1101101100 111110111
-2.431858	1101101100 1111110
-3.244772	1101101100 11111110
-2.943742	1101101100 1111111101
-2.943742	1101101100 11111111110
-3.244772	1101101100 111111111110
-2.545802	1101101100 </s>
-2.961231	1101101101 0000
-3.48411	1101101101 00010
-2.88205	1101101101 00011
-2.308019	1101101101 00100
-1.874871	1101101101 00101
-1.952631	1101101101 00110
-2.599503	1101101101 0011100
-2.429752	1101101101 0011101
-3.961231	1101101101 0011110
-2.155051	1101101101 0011111
-2.730782	1101101101 0100
-3.181123	1101101101 01010
-2.155051	1101101101 01011
-3.262261	1101101101 01100
-2.599503	1101101101 011010
-2.236955	1101101101 01110
-2.705959	1101101101 01111
-1.821352	1101101101 100
-1.70116	1101101101 10100
-1.749044	1101101101 10101
-1.743747	1101101101 10110
-1.616839	1101101101 101110
-1.788045	1101101101 101111
-1.478358	1101101101 1100000
-1.533096	1101101101 1100001
-1.327763	1101101101 1100010
-1.437485	1101101101 1100011
-1.607123	1101101101 110010
-1.78514	1101101101 1100110
-2.036952	1101101101 1100111
-3.058141	1101101101 11010
-2.58102	1101101101 11011000
-3.359171	1101101101 110110010
-2.730782	1101101101 110110011
-3.262261	1101101101 110110100
-3.660201	1101101101 110110101
-2.298473	1101101101 1101101100
-2.228837	1101101101 1101101101
-2.618809	1101101101 1101101110
-2.006989	1101101101 1101110
-3.058141	1101101101 11011110
-2.58102	1101101101 110111110
-2.618809	1101101101 1101111110
-3.961231	1101101101 11011111110
-2.815103	1101101101 11011111111
-3.48411	1101101101 11100
-2.245228	1101101101 111010
-2.757111	1101101101 1110110
-2.404929	1101101101 11101110
-2.092	1101101101 11101111
-2.730782	1101101101 11110000
-2.705959	1101101101 1111000100
-1.952631	1101101101 11110001010
-2.016748	1101101101 11110001011
-2.197803	1101101101 1111000110
-2.757111	1101101101 1111000111
-1.885684	1101101101 111100100
-2.359171	1101101101 111100101
-3.48411	1101101101 111100110
-1.521899	1101101101 111100111
-1.636949	1101101101 111101000
-2.155051	1101101101 111101001
-1.708378	1101101101 11110101000
-1.718193	1101101101 11110101001
-2.213043	1101101101 11110101010
-2.080418	1101101101 111101010110
-2.092	1101101101 111101010111
-1.900533	1101101101 1111010110
-2.639012	1101101101 11110101110
-2.161891	1101101101 111101011110
-2.308019	1101101101 1111010111110
-2.228837	1101101101 1111010111111
-1.668975	1101101101 1111011000
-1.808943	1101101101 1111011001
-1.889349	1101101101 1111011010
-1.653735	1101101101 11110110110
-1.664566	1101101101 11110110111
-2.393029	1101101101 111101110
-1.645261	1101101101 1111011110
-1.597619	1101101101 1111011111
-1.720682	1101101101 111110000
-1.988103	1101101101 1111100010
-2.135156	1101101101 1111100011
-1.815103	1101101101 111110010
-1.666765	1101101101 1111100110
-1.796878	1101101101 11111001110
-2.381448	1101101101 11111001111
-1.923805	1101101101 11111010
-1.063604	1101101101 111110110
-1.782254	1101101101 111110111
-3.359171	1101101101 1111110
-3.262261	1101101101 11111110
-3.181123	1101101101 1111111100
-2.682478	1101101101 1111111101
-3.262261	1101101101 1111111110
-3.359171	1101101101 11111111110
-2.815103	1101101101 111111111110
-2.730782	1101101101 111111111111
-2.546258	1101101101 </s>
-3.614475	1101101110 00010
-2.573083	1101101110 00011
-3.012415	1101101110 00100
-2.252748	1101101110 00101
-2.834367	1101101110 00110
-2.915505	1101101110 0011100
-3.012415	1101101110 0011101
-3.137354	1101101110 0011111
-3.137354	1101101110 0100
-2.834367	1101101110 01010
-2.535294	1101101110 01011
-3.614475	1101101110 01100
-3.137354	1101101110 011010
-1.614475	1101101110 011011
-3.012415	1101101110 01111
-1.605875	1101101110 100
-2.500532	1101101110 10100
-1.866287	1101101110 10101
-2.359203	1101101110 10110
-1.8902	1101101110 101110
-2.252748	1101101110 101111
-1.503886	1101101110 1100000
-1.836324	1101101110 1100001
-1.438384	1101101110 1100010
-1.109325	1101101110 1100011
-1.745244	1101101110 110010
-2.335722	1101101110 1100110
-2.034692	1101101110 1100111
-3.614475	1101101110 11010
-3.614475	1101101110 110110010
-3.614475	1101101110 110110011
-2.834367	1101101110 1101101100
-2.313445	1101101110 1101101101
-3.313445	1101101110 1101101110
-2.834367	1101101110 1101110
-2.915505	1101101110 11011110
-3.012415	1101101110 110111110
-2.199502	1101101110 1101111110
-3.137354	1101101110 11011111111
-3.012415	1101101110 11100
-2.058173	1101101110 111010
-2.272053	1101101110 1110110
-2.359203	1101101110 11101110
-1.54629	1101101110 11101111
-2.769377	1101101110 11110000
-2.834367	1101101110 1111000100
-2.359203	1101101110 11110001010
-2.046274	1101101110 11110001011
-2.500532	1101101110 1111000110
-2.152077	1101101110 111100100
-2.535294	1101101110 111100101
-3.614475	1101101110 111100110
-1.898472	1101101110 111100111
-1.801562	1101101110 111101000
-2.535294	1101101110 111101001
-2.292256	1101101110 11110101000
-1.459139	1101101110 11110101001
-1.843623	1101101110 11110101010
-2.234264	1101101110 111101010110
-2.082996	1101101110 111101010111
-0.8555635	1101101110 1111010110
-2.614475	1101101110 11110101110
-1.70599	1101101110 111101011110
-2.711385	1101101110 1111010111110
-2.167317	1101101110 1111010111111
-1.829146	1101101110 1111011000
-2.234264	1101101110 1111011001
-2.535294	1101101110 1111011010
-1.660233	1101101110 11110110110
-1.971023	1101101110 11110110111
-2.438384	1101101110 111101110
