
\data\
ngram 1=52
ngram 2=2368

\1-grams:
-1.742362	000	-1.788907
-1.780038	0010	-1.751302
-2.228086	0011	-2.137848
-1.602747	0100	-2.749325
-2.31181	01010	-1.906599
-2.639708	01011	-2.30685
-1.132791	0110	-2.896582
-1.333794	0111	-2.409099
-2.012748	1000	-3.818886
-2.051732	10010	-2.314224
-1.436684	10011	-2.438767
-1.191016	10100	-3.955719
-1.57265	10101	-3.032377
-1.629138	10110	-2.187508
-1.366981	1011100	-2.163983
-1.760764	10111010	-2.254931
-1.736337	10111011	-1.795204
-1.085664	1011110	-2.446081
-1.772225	10111110	-1.970493
-2.290228	101111110	-2.039845
-1.858341	101111111	-1.884473
-1.574155	11000	-2.242566
-1.809506	11001	-2.604007
-1.799764	11010000	-2.07937
-2.155712	11010001	-2.743854
-2.154243	11010010	-2.445815
-2.288772	110100110	-2.402684
-2.210971	110100111	-2.177943
-1.696217	11010100	-2.120194
-1.944627	11010101	-2.079095
-1.903534	11010110	-1.826911
-1.892161	110101110	-1.436387
-1.932661	110101111	-2.492101
-2.187038	1101100	-4.148433
-2.327214	11011010	-1.960828
-1.971211	110110110	-2.05676
-2.342773	110110111	-3.084651
-1.473524	1101110	-2.921346
-1.490158	11011110	-2.537184
-2.43694	110111110	-3.961852
-2.672724	110111111	-2.443824
-2.143255	111000	-2.305387
-2.394723	1110010	-3.1754
-2.223685	1110011	-2.481751
-1.580012	111010	-3.056715
-1.490924	1110110	-3.161356
-1.96686	11101110	-4.337141
-1.642242	11101111	-3.038145
-1.967987	11110	-3.773026
-1.594662	11111	-3.431716
-1.344339	</s>
-99	<s>	-3.599005

\2-grams:
-2.013767	000 000
-1.792986	000 0010
-2.613171	000 0011
-2.312141	000 0100
-3.146774	000 01010
-3.924925	000 01011
-1.517534	000 0110
-1.816022	000 0111
-2.328328	000 1000
-2.509952	000 10010
-2.172877	000 10011
-1.437787	000 10100
-1.704817	000 10101
-2.47008	000 10110
-2.150408	000 1011100
-2.563197	000 10111010
-2.440625	000 10111011
-1.646171	000 1011110
-1.885511	000 10111110
-2.192531	000 101111110
-2.112012	000 101111111
-2.748834	000 11000
-1.980442	000 11001
-1.499228	000 11010000
-2.271713	000 11010001
-2.845744	000 11010010
-2.845744	000 110100110
-2.995506	000 110100111
-1.690661	000 11010100
-2.970683	000 11010101
-2.008471	000 11010110
-1.641624	000 110101110
-1.905809	000 110101111
-2.526985	000 1101100
-2.184562	000 11011010
-2.157769	000 110110110
-2.368623	000 110110111
-1.295006	000 1101110
-1.747389	000 11011110
-4.225955	000 110111111
-2.095621	000 111000
-2.122151	000 1110010
-2.115365	000 1110011
-0.9919443	000 111010
-0.8442986	000 1110110
-1.27123	000 11101110
-1.17985	000 11101111
-1.875707	000 11110
-1.131135	000 11111
-1.004802	000 </s>
-2.535069	0010 000
-2.035993	0010 0010
-2.845859	0010 0011
-2.440094	0010 0100
-3.586221	0010 01010
-4.188282	0010 01011
-1.71261	0010 0110
-1.828446	0010 0111
-2.669768	0010 1000
-3.586221	0010 10010
-2.179681	0010 10011
-1.394491	0010 10100
-1.891616	0010 10101
-2.656803	0010 10110
-2.188282	0010 1011100
-2.565032	0010 10111010
-2.253783	0010 10111011
-1.61194	0010 1011110
-2.179681	0010 10111110
-2.498085	0010 101111110
-2.09486	0010 101111111
-2.669768	0010 11000
-1.91644	0010 11001
-1.722899	0010 11010000
-2.440094	0010 11010001
-2.330949	0010 11010010
-2.71116	0010 110100110
-2.756918	0010 110100111
-1.608498	0010 11010100
-2.554813	0010 11010101
-1.973438	0010 11010110
-1.566067	0010 110101110
-1.945243	0010 110101111
-1.880785	0010 1101100
-2.432407	0010 11011010
-1.839977	0010 110110110
-2.20601	0010 110110111
-1.795585	0010 1101110
-1.828446	0010 11011110
-4.188282	0010 110111111
-2.098376	0010 111000
-2.575498	0010 1110010
-2.175444	0010 1110011
-0.3682772	0010 111010
-1.390322	0010 1110110
-1.820926	0010 11101110
-1.536035	0010 11101111
-2.045267	0010 11110
-1.61541	0010 11111
-1.137515	0010 </s>
-1.514974	0011 000
-2.068186	0011 0010
-0.9890046	0011 0011
-2.277886	0011 0100
-1.344084	0011 0110
-1.276391	0011 0111
-1.623012	0011 1000
-3.740284	0011 10010
-1.714978	0011 10011
-1.7109	0011 10100
-2.30892	0011 10101
-2.740284	0011 10110
-1.92737	0011 1011100
-2.661103	0011 10111010
-2.378556	0011 10111011
-1.616432	0011 1011110
-2.172082	0011 10111110
-1.401827	0011 101111110
-2.661103	0011 101111111
-1.758013	0011 11000
-2.293126	0011 11001
-1.395891	0011 11010000
-2.293126	0011 11010001
-2.439254	0011 11010010
-3.439254	0011 110100110
-3.001386	0011 110100111
-1.587995	0011 11010100
-3.138224	0011 11010101
-2.032714	0011 11010110
-2.485011	0011 110101110
-1.805785	0011 110101111
-2.62634	0011 1101100
-2.485011	0011 11011010
-2.32531	0011 110110110
-2.418064	0011 110110111
-0.9913208	0011 1101110
-1.842657	0011 11011110
-2.342344	0011 111000
-2.439254	0011 1110010
-2.46153	0011 1110011
-1.210084	0011 111010
-1.317038	0011 1110110
-1.502238	0011 11101110
-1.514974	0011 11101111
-2.016008	0011 11110
-1.790894	0011 11111
-0.8964283	0011 </s>
-1.95563	0100 000
-1.95563	0100 0010
-2.785779	0100 0011
-2.047499	0100 0100
-4.365563	0100 01010
-3.763503	0100 01011
-1.319849	0100 0110
-1.568295	0100 0111
-2.950589	0100 1000
-2.657993	0100 10011
-1.877012	0100 10100
-2.161443	0100 10101
-2.32417	0100 10110
-1.868633	0100 1011100
-2.702805	0100 10111010
-2.426044	0100 10111011
-1.319849	0100 1011110
-2.401775	0100 10111110
-2.406522	0100 101111110
-2.426044	0100 101111111
-1.623624	0100 11000
-2.017258	0100 11001
-1.257675	0100 11010000
-1.575278	0100 11010001
-2.235229	0100 11010010
-2.156048	0100 110100110
-2.490502	0100 110100111
-1.414225	0100 11010100
-1.103587	0100 11010101
-1.41374	0100 11010110
-1.705647	0100 110101110
-1.860413	0100 110101111
-2.462473	0100 1101100
-1.829004	0100 11011010
-2.431064	0100 110110110
-2.344373	0100 110110111
-1.373894	0100 1101110
-1.394287	0100 11011110
-3.626665	0100 110111111
-2.140254	0100 111000
-2.32024	0100 1110010
-2.34853	0100 1110011
-1.031914	0100 111010
-1.399891	0100 1110110
-2.043344	0100 11101110
-1.481901	0100 11101111
-1.501052	0100 11110
-1.52483	0100 11111
-0.9895337	0100 </s>
-2.753487	01010 000
-2.314155	01010 0010
-0.7567568	01010 0011
-2.043793	01010 0100
-3.355547	01010 01010
-1.900702	01010 0110
-2.003365	01010 0111
-3.656577	01010 10010
-1.817728	01010 10011
-1.466246	01010 10100
-1.940574	01010 10101
-2.656577	01010 10110
-1.885725	01010 1011100
-2.753487	01010 10111010
-2.355547	01010 10111011
-1.507358	01010 1011110
-2.510449	01010 10111110
-2.702335	01010 101111110
-2.194179	01010 101111111
-2.334358	01010 11000
-1.652256	01010 11001
-1.770087	01010 11010000
-2.294849	01010 11010001
-2.258637	01010 11010010
-2.542634	01010 110100110
-2.452457	01010 110100111
-1.563156	01010 11010100
-1.200211	01010 11010101
-1.957607	01010 11010110
-1.864186	01010 110101110
-1.431268	01010 110101111
-2.241604	01010 1101100
-2.577396	01010 11011010
-1.908389	01010 110110110
-2.165215	01010 110110111
-1.403724	01010 1101110
-1.737499	01010 11011110
-2.076794	01010 111000
-2.043793	01010 1110010
-2.334358	01010 1110011
-1.824068	01010 111010
-1.338514	01010 1110110
-1.885725	01010 11101110
-1.426128	01010 11101111
-2.033328	01010 11110
-1.542634	01010 11111
-0.7180576	01010 </s>
-2.426105	01011 000
-2.073922	01011 0010
-2.852073	01011 0011
-1.264736	01011 0100
-0.836434	01011 0110
-1.232284	01011 0111
-3.028164	01011 1000
-1.948983	01011 10100
-2.215251	01011 10101
-2.551043	01011 10110
-0.6937107	01011 1011100
-1.986772	01011 10111010
-2.125074	01011 10111011
-1.189315	01011 1011110
-2.551043	01011 10111110
-2.590297	01011 101111110
-2.590297	01011 101111111
-1.299811	01011 11000
-2.125074	01011 11001
-1.705945	01011 11010000
-2.006975	01011 11010001
-2.098746	01011 11010010
-2.590297	01011 110100110
-2.590297	01011 110100111
-1.370153	01011 11010100
-1.50312	01011 11010101
-1.613191	01011 11010110
-2.183066	01011 110101110
-1.967467	01011 110101111
-3.329194	01011 1101100
-2.050441	01011 11011010
-2.484096	01011 110110110
-2.727134	01011 110110111
-1.613191	01011 1101110
-1.657097	01011 11011110
-3.329194	01011 110111111
-2.551043	01011 111000
-2.590297	01011 1110010
-3.329194	01011 1110011
-2.329194	01011 111010
-1.986772	01011 1110110
-2.250013	01011 11101110
-1.931254	01011 11101111
-2.028164	01011 11110
-2.329194	01011 11111
-1.076341	01011 </s>
-1.971589	0110 000
-1.966275	0110 0010
-2.273214	0110 0011
-1.946205	0110 0100
-3.455295	0110 01010
-1.181523	0110 0110
-1.288594	0110 0111
-2.763625	0110 1000
-3.835507	0110 10010
-2.402537	0110 10011
-1.738944	0110 10100
-2.107153	0110 10101
-2.216413	0110 10110
-1.799277	0110 1011100
-2.543251	0110 10111010
-2.393027	0110 10111011
-1.40527	0110 1011110
-2.242221	0110 10111110
-2.31176	0110 101111110
-2.274405	0110 101111111
-1.418866	0110 11000
-2.050177	0110 11001
-1.402537	0110 11010000
-1.860075	0110 11010001
-1.964518	0110 11010010
-2.391462	0110 110100110
-2.330357	0110 110100111
-1.277158	0110 11010100
-1.47929	0110 11010101
-1.835507	0110 11010110
-1.712963	0110 110101110
-1.742786	0110 110101111
-2.327651	0110 1101100
-2.00556	0110 11011010
-2.222723	0110 110110110
-2.272026	0110 110110111
-1.37702	0110 1101110
-1.537965	0110 11011110
-4.096609	0110 110111111
-2.014649	0110 111000
-2.318311	0110 1110010
-2.18133	0110 1110011
-1.481206	0110 111010
-1.183551	0110 1110110
-1.73964	0110 11101110
-1.291067	0110 11101111
-1.675338	0110 11110
-1.364509	0110 11111
-0.9210048	0110 </s>
-2.227967	0111 000
-1.772376	0111 0010
-1.706624	0111 0011
-2.835167	0111 0100
-4.157386	0111 01010
-1.804561	0111 0110
-1.923544	0111 0111
-2.720694	0111 1000
-4.032447	0111 10010
-1.949662	0111 10011
-1.796288	0111 10100
-2.045676	0111 10101
-1.786935	0111 10110
-2.254296	0111 1011100
-2.726022	0111 10111010
-2.406621	0111 10111011
-1.549931	0111 1011110
-1.948766	0111 10111110
-2.411791	0111 101111110
-2.151634	0111 101111111
-2.351206	0111 11000
-2.077	0111 11001
-1.882459	0111 11010000
-2.12129	0111 11010001
-1.271084	0111 11010010
-1.778383	0111 110100110
-1.617474	0111 110100111
-1.250872	0111 11010100
-1.946088	0111 11010101
-1.712301	0111 11010110
-1.66138	0111 110101110
-1.734687	0111 110101111
-2.340041	0111 1101100
-1.765863	0111 11011010
-2.294063	0111 110110110
-2.302069	0111 110110111
-1.191871	0111 1101110
-1.429845	0111 11011110
-3.856356	0111 110111111
-1.988104	0111 111000
-2.298048	0111 1110010
-2.100482	0111 1110011
-1.241811	0111 111010
-1.14091	0111 1110110
-1.576082	0111 11101110
-1.308787	0111 11101111
-1.518897	0111 11110
-1.428762	0111 11111
-0.8935924	0111 </s>
-3.955591	1000 10010
-0.003235073	1000 10011
-2.192163	1000 1011110
-3.955591	1000 11010000
-3.955591	1000 111010
-3.955591	1000 1110110
-3.955591	1000 11101111
-3.47847	1000 </s>
-1.855914	10010 000
-1.934341	10010 0010
-2.385133	10010 0011
-2.008127	10010 0100
-1.588232	10010 0110
-1.357903	10010 0111
-1.997534	10010 1000
-2.385133	10010 10010
-2.411462	10010 10011
-2.035798	10010 10100
-1.052694	10010 10101
-3.314552	10010 10110
-1.678566	10010 1011100
-2.153184	10010 10111010
-1.582158	10010 10111011
-1.622146	10010 1011110
-2.103698	10010 10111110
-2.097068	10010 101111110
-2.712492	10010 101111111
-2.712492	10010 11000
-2.594393	10010 11001
-2.283143	10010 11010000
-2.661339	10010 11010001
-2.686163	10010 11010010
-3.439491	10010 110100110
-3.615582	10010 110100111
-1.635579	10010 11010100
-3.916612	10010 11010101
-2.837431	10010 11010110
-2.661339	10010 110101110
-2.090537	10010 110101111
-3.138461	10010 1101100
-2.875219	10010 11011010
-2.916612	10010 110110110
-3.177714	10010 110110111
-1.553	10010 1101110
-2.34841	10010 11011110
-2.574189	10010 111000
-0.8454666	10010 1110010
-2.637858	10010 1110011
-1.207342	10010 111010
-0.9421002	10010 1110110
-1.19811	10010 11101110
-1.564429	10010 11101111
-2.501638	10010 11110
-1.410107	10010 11111
-0.866619	10010 </s>
-1.620995	10011 000
-2.441714	10011 0010
-2.639525	10011 0011
-2.514586	10011 0100
-3.040258	10011 01010
-1.739929	10011 0110
-1.219866	10011 0111
-3.069221	10011 1000
-0.642598	10011 10010
-0.6365838	10011 10011
-2.100256	10011 10100
-1.53336	10011 10101
-2.824049	10011 10110
-1.906307	10011 1011100
-2.587137	10011 10111010
-1.925238	10011 10111011
-1.72953	10011 1011110
-2.243818	10011 10111110
-2.612541	10011 101111110
-2.361358	10011 101111111
-2.799226	10011 11000
-2.535984	10011 11001
-2.237153	10011 11010000
-2.918836	10011 11010001
-2.775744	10011 11010010
-3.417676	10011 110100110
-3.133679	10011 110100111
-1.655402	10011 11010100
-2.918836	10011 11010101
-2.5921	10011 11010110
-2.680361	10011 110101110
-2.036075	10011 110101111
-3.084461	10011 1101100
-2.705545	10011 11011010
-2.60734	10011 110110110
-2.753468	10011 110110111
-1.69277	10011 1101110
-2.355528	10011 11011110
-2.628529	10011 111000
-1.89313	10011 1110010
-2.963418	10011 1110011
-1.56454	10011 111010
-1.464549	10011 1110110
-1.781111	10011 11101110
-1.976525	10011 11101111
-2.494193	10011 11110
-1.211265	10011 11111
-1.103971	10011 </s>
-1.456305	10100 000
-1.433873	10100 0010
-2.317889	10100 0011
-0.7520169	10100 0100
-2.158188	10100 01010
-3.874192	10100 01011
-0.806006	10100 0110
-1.275265	10100 0111
-2.148893	10100 1000
-4.30016	10100 10010
-1.854038	10100 10011
-3.455062	10100 10100
-3.932184	10100 10101
-2.446868	10100 10110
-0.6959705	10100 1011100
-1.266871	10100 10111010
-1.380037	10100 10111011
-0.8598288	10100 1011110
-1.894188	10100 10111110
-2.090646	10100 101111110
-2.698101	10100 101111111
-1.607607	10100 11000
-2.631154	10100 11001
-3.823039	10100 11010000
-4.175222	10100 11010001
-4.777282	10100 11010010
-3.874192	10100 110100110
-2.957738	10100 110100111
-4.30016	10100 11010100
-4.30016	10100 11010101
-3.546833	10100 11010110
-4.777282	10100 110101110
-3.601191	10100 110101111
-4.476252	10100 1101100
-3.258768	10100 110110110
-4.777282	10100 110110111
-2.042482	10100 1101110
-2.347529	10100 11011110
-3.99913	10100 110111111
-3.330124	10100 1110010
-2.65343	10100 1110011
-4.038384	10100 1110110
-4.476252	10100 11101111
-3.663338	10100 11110
-3.735889	10100 </s>
-0.7916659	10101 000
-1.375314	10101 0010
-2.194279	10101 0011
-1.25959	10101 0100
-1.460168	10101 01010
-3.793616	10101 01011
-1.049127	10101 0110
-2.342597	10101 0111
-1.713531	10101 1000
-3.116922	10101 10010
-1.591536	10101 10011
-3.656778	10101 10100
-3.550578	10101 10101
-2.210984	10101 10110
-1.103641	10101 1011100
-0.8471636	10101 10111010
-1.770363	10101 10111011
-0.6921265	10101 1011110
-1.254854	10101 10111110
-3.219584	10101 101111110
-2.526444	10101 101111111
-1.590855	10101 11000
-2.37037	10101 11001
-3.918555	10101 11010000
-4.094646	10101 11010010
-4.094646	10101 110100110
-3.441433	10101 110100111
-3.918555	10101 11010100
-3.395676	10101 11010101
-3.094646	10101 11010110
-2.804611	10101 110101111
-4.395676	10101 1101100
-3.918555	10101 11011010
-2.997736	10101 110110110
-2.205344	10101 1101110
-2.013659	10101 11011110
-4.395676	10101 111000
-2.655313	10101 1110011
-4.395676	10101 111010
-3.617525	10101 1110110
-3.656778	10101 11101111
-3.918555	10101 11110
-4.395676	10101 11111
-4.094646	10101 </s>
-2.313867	10110 000
-1.679257	10110 0010
-2.820659	10110 0011
-2.441546	10110 0100
-4.038143	10110 01010
-4.339173	10110 01011
-1.331852	10110 0110
-1.335713	10110 0111
-2.006735	10110 1000
-3.600275	10110 10010
-2.103645	10110 10011
-0.8267555	10110 10100
-1.11103	10110 10101
-2.106177	10110 10110
-1.681162	10110 1011100
-1.723223	10110 10111010
-1.786505	10110 10111011
-1.100375	10110 1011110
-1.34135	10110 10111110
-2.242263	10110 101111110
-1.513098	10110 101111111
-2.447078	10110 11000
-2.15733	10110 11001
-2.494075	10110 11010000
-3.06042	10110 11010001
-3.135053	10110 11010010
-3.384931	10110 110100110
-3.737113	10110 110100111
-2.031677	10110 11010100
-2.892015	10110 11010101
-2.301747	10110 11010110
-1.639335	10110 110101110
-2.088753	10110 110101111
-2.389783	10110 1101100
-2.977445	10110 11011010
-1.672655	10110 110110110
-2.807694	10110 110110111
-0.9571561	10110 1101110
-1.370223	10110 11011110
-3.862052	10110 110111111
-2.180811	10110 111000
-2.366045	10110 1110010
-2.02111	10110 1110011
-2.330573	10110 111010
-1.332279	10110 1110110
-1.948238	10110 11101110
-1.539144	10110 11101111
-2.69572	10110 11110
-1.740383	10110 11111
-1.511158	10110 </s>
-1.698774	1011100 000
-1.613655	1011100 0010
-2.477469	1011100 0011
-1.310174	1011100 0100
-2.203381	1011100 01010
-3.698231	1011100 01011
-0.4768168	1011100 0110
-1.054902	1011100 0111
-2.656838	1011100 1000
-3.756223	1011100 10010
-2.069842	1011100 10011
-2.334149	1011100 10100
-2.41663	1011100 10101
-2.559928	1011100 10110
-1.173348	1011100 1011100
-2.080183	1011100 10111010
-1.71258	1011100 10111011
-1.230253	1011100 1011110
-2.661802	1011100 10111110
-2.334149	1011100 101111110
-2.762472	1011100 101111111
-1.187351	1011100 11000
-2.350901	1011100 11001
-1.888671	1011100 11010000
-2.228409	1011100 11010001
-2.687507	1011100 11010010
-2.815991	1011100 110100110
-2.929223	1011100 110100111
-1.447201	1011100 11010100
-1.804054	1011100 11010101
-2.219304	1011100 11010110
-2.548243	1011100 110101110
-2.327163	1011100 110101111
-2.893751	1011100 1101100
-2.470987	1011100 11011010
-2.788408	1011100 110110110
-2.957868	1011100 110110111
-1.733854	1011100 1101110
-1.977039	1011100 11011110
-4.1242	1011100 110111111
-2.605686	1011100 111000
-2.458306	1011100 1110010
-2.877045	1011100 1110011
-1.859382	1011100 111010
-1.864128	1011100 1110110
-2.315764	1011100 11101110
-2.010257	1011100 11101111
-2.160412	1011100 11110
-2.090776	1011100 11111
-1.494451	1011100 </s>
-1.201944	10111010 000
-1.29374	10111010 0010
-2.239071	10111010 0011
-0.9771047	10111010 0100
-2.9288	10111010 01010
-0.9011285	10111010 01011
-0.7825087	10111010 0110
-0.8696952	10111010 0111
-2.315459	10111010 1000
-3.605494	10111010 10010
-2.234426	10111010 10011
-2.517358	10111010 10100
-2.865131	10111010 10101
-2.350221	10111010 10110
-1.190103	10111010 1011100
-1.664728	10111010 10111010
-1.575096	10111010 10111011
-0.9144121	10111010 1011110
-2.09361	10111010 10111110
-3.429402	10111010 101111110
-2.517358	10111010 101111111
-1.69567	10111010 11000
-2.59477	10111010 11001
-2.9288	10111010 11010000
-3.166161	10111010 11010001
-3.253311	10111010 11010010
-3.468656	10111010 110100110
-3.362456	10111010 110100111
-2.003434	10111010 11010100
-3.061425	10111010 11010101
-2.906524	10111010 11010110
-2.77619	10111010 110101110
-2.639352	10111010 110101111
-3.207554	10111010 1101100
-3.362456	10111010 11011010
-2.79258	10111010 110110110
-3.207554	10111010 110110111
-2.321063	10111010 1101110
-2.207554	10111010 11011110
-2.760396	10111010 111000
-2.9288	10111010 1110010
-3.166161	10111010 1110011
-2.9288	10111010 111010
-2.59477	10111010 1110110
-3.128372	10111010 11101110
-2.526312	10111010 11101111
-3.253311	10111010 11110
-2.47516	10111010 11111
-1.940382	10111010 </s>
-2.025153	10111011 000
-1.83578	10111011 0010
-2.223379	10111011 0011
-1.628835	10111011 0100
-3.277736	10111011 01010
-3.930949	10111011 01011
-0.8905445	10111011 0110
-0.3916847	10111011 0111
-3.231979	10111011 1000
-1.848164	10111011 10010
-3.027859	10111011 10011
-2.889556	10111011 10100
-2.834039	10111011 10101
-2.7005	10111011 10110
-0.9757425	10111011 1011100
-1.573968	10111011 10111010
-1.51182	10111011 10111011
-1.052715	10111011 1011110
-2.009263	10111011 10111110
-3.453828	10111011 101111110
-2.889556	10111011 101111111
-1.851768	10111011 11000
-2.663777	10111011 11001
-2.533009	10111011 11010000
-3.027859	10111011 11010001
-2.619195	10111011 11010010
-3.118036	10111011 110100110
-2.851768	10111011 110100111
-1.842813	10111011 11010100
-2.834039	10111011 11010101
-2.817006	10111011 11010110
-3.118036	10111011 110101110
-2.619195	10111011 110101111
-3.328889	10111011 1101100
-2.870251	10111011 11011010
-3.055888	10111011 110110110
-3.386881	10111011 110110111
-2.175074	10111011 1101110
-2.142074	10111011 11011110
-3.930949	10111011 110111111
-2.652195	10111011 111000
-2.231979	10111011 1110010
-3.231979	10111011 1110011
-1.579733	10111011 111010
-2.268191	10111011 1110110
-2.90976	10111011 11101110
-2.439587	10111011 11101111
-2.713465	10111011 11110
-2.254256	10111011 11111
-1.899541	10111011 </s>
-1.838093	1011110 000
-1.629537	1011110 0010
-2.620182	1011110 0011
-1.601827	1011110 0100
-3.104481	1011110 01010
-3.603879	1011110 01011
-1.056299	1011110 0110
-1.266262	1011110 0111
-2.489936	1011110 1000
-3.54021	1011110 10010
-2.23918	1011110 10011
-1.426267	1011110 10100
-1.638355	1011110 10101
-2.308601	1011110 10110
-1.499716	1011110 1011100
-2.118457	1011110 10111010
-1.933731	1011110 10111011
-0.9276187	1011110 1011110
-2.094464	1011110 10111110
-2.608475	1011110 101111110
-2.101596	1011110 101111111
-1.297059	1011110 11000
-1.672047	1011110 11001
-1.723065	1011110 11010000
-2.189786	1011110 11010001
-2.292683	1011110 11010010
-2.519021	1011110 110100110
-2.588166	1011110 110100111
-1.320102	1011110 11010100
-1.896309	1011110 11010101
-1.686456	1011110 11010110
-1.916491	1011110 110101110
-1.964602	1011110 110101111
-2.513417	1011110 1101100
-2.002391	1011110 11011010
-2.274107	1011110 110110110
-2.495243	1011110 110110111
-1.570667	1011110 1101110
-1.682056	1011110 11011110
-4.037535	1011110 110111111
-2.125997	1011110 111000
-2.308601	1011110 1110010
-2.268791	1011110 1110011
-1.489584	1011110 111010
-1.409438	1011110 1110110
-1.93081	1011110 11101110
-1.425508	1011110 11101111
-1.997837	1011110 11110
-1.6094	1011110 11111
-1.123948	1011110 </s>
-1.617454	10111110 000
-1.526776	10111110 0010
-2.072242	10111110 0011
-1.787853	10111110 0100
-3.241851	10111110 01010
-0.9565435	10111110 0110
-1.175318	10111110 0111
-3.116912	10111110 1000
-3.594033	10111110 10010
-2.113308	10111110 10011
-1.903837	10111110 10100
-1.805158	10111110 10101
-2.017116	10111110 10110
-1.518486	10111110 1011100
-1.721877	10111110 10111010
-1.884339	10111110 10111011
-0.9778204	10111110 1011110
-1.155491	10111110 10111110
-2.425241	10111110 101111110
-2.251611	10111110 101111111
-2.389913	10111110 11000
-2.583309	10111110 11001
-2.61631	10111110 11010000
-2.733695	10111110 11010001
-3.293003	10111110 11010010
-2.815882	10111110 110100110
-2.764729	10111110 110100111
-1.696406	10111110 11010100
-4.196093	10111110 11010101
-2.241851	10111110 11010110
-2.298466	10111110 110101110
-1.869757	10111110 110101111
-2.488523	10111110 1101100
-3.417942	10111110 11011010
-2.370018	10111110 110110110
-2.440218	10111110 110110111
-1.617454	10111110 1101110
-1.537128	10111110 11011110
-2.91734	10111110 110111111
-0.8304181	10111110 111000
-2.440218	10111110 1110010
-2.143015	10111110 1110011
-1.806927	10111110 111010
-1.403002	10111110 1110110
-1.815882	10111110 11101110
-1.678897	10111110 11101111
-2.965644	10111110 11110
-1.690943	10111110 11111
-1.270266	10111110 </s>
-1.577783	101111110 000
-1.686928	101111110 0010
-2.723912	101111110 0011
-1.422881	101111110 0100
-0.3375117	101111110 01010
-0.9253376	101111110 0110
-2.377124	101111110 0111
-2.775064	101111110 1000
-3.678154	101111110 10010
-1.318319	101111110 10011
-2.636761	101111110 10100
-2.939256	101111110 10101
-2.775064	101111110 10110
-1.502063	101111110 1011100
-1.598973	101111110 10111010
-1.636761	101111110 10111011
-1.418083	101111110 1011110
-2.263181	101111110 10111110
-2.598973	101111110 101111110
-2.3994	101111110 101111111
-2.109952	101111110 11000
-3.377124	101111110 11001
-1.296137	101111110 11010000
-2.201033	101111110 11010001
-2.900003	101111110 11010010
-2.636761	101111110 110100110
-3.678154	101111110 110100111
-2.564211	101111110 11010100
-2.636761	101111110 11010101
-2.377124	101111110 11010110
-3.377124	101111110 110101110
-2.598973	101111110 110101111
-3.201033	101111110 1101100
-3.678154	101111110 11011010
-3.377124	101111110 110110110
-2.900003	101111110 110110111
-2.173004	101111110 1101110
-1.962151	101111110 11011110
-3.678154	101111110 110111111
-2.447705	101111110 111000
-3.678154	101111110 1110010
-2.833056	101111110 111010
-2.3994	101111110 1110110
-3.076094	101111110 11101110
-2.474034	101111110 11101111
-1.791663	101111110 11110
-2.215756	101111110 11111
-2.06537	101111110 </s>
-1.573425	101111111 000
-1.559755	101111111 0010
-2.787764	101111111 0011
-1.553681	101111111 0100
-1.421564	101111111 01010
-0.9940401	101111111 0110
-0.8003531	101111111 0111
-2.160593	101111111 1000
-2.476515	101111111 10010
-2.00618	101111111 10011
-1.293742	101111111 10100
-1.847532	101111111 10101
-2.283909	101111111 10110
-1.348055	101111111 1011100
-1.444402	101111111 10111010
-1.414502	101111111 10111011
-1.04254	101111111 1011110
-1.738915	101111111 10111110
-2.331832	101111111 101111110
-2.002773	101111111 101111111
-1.999394	101111111 11000
-2.385707	101111111 11001
-2.034436	101111111 11010000
-2.283909	101111111 11010001
-2.196169	101111111 11010010
-2.578504	101111111 110100110
-2.377589	101111111 110100111
-2.29707	101111111 11010100
-2.428742	101111111 11010101
-2.346555	101111111 11010110
-2.109983	101111111 110101110
-2.180564	101111111 110101111
-2.518919	101111111 1101100
-2.109983	101111111 11011010
-2.212356	101111111 110110110
-2.565915	101111111 110110111
-1.735235	101111111 1101110
-1.845165	101111111 11011110
-4.109983	101111111 110111111
-2.212356	101111111 111000
-2.339131	101111111 1110010
-2.647585	101111111 1110011
-1.033343	101111111 111010
-1.859563	101111111 1110110
-2.507923	101111111 11101110
-2.038101	101111111 11101111
-2.170464	101111111 11110
-2.160593	101111111 11111
-1.740767	101111111 </s>
-2.337249	11000 000
-2.257433	11000 0010
-2.630726	11000 0011
-2.136475	11000 0100
-4.093124	11000 01010
-3.792094	11000 01011
-1.615279	11000 0110
-1.908432	11000 0111
-2.66176	11000 1000
-3.655256	11000 10010
-2.163705	11000 10011
-1.81437	11000 10100
-1.535016	11000 10101
-2.475076	11000 10110
-1.721133	11000 1011100
-2.206633	11000 10111010
-2.019406	11000 10111011
-1.33459	11000 1011110
-2.57461	11000 10111110
-2.760685	11000 101111110
-2.421026	11000 101111111
-1.103007	11000 11000
-1.481932	11000 11001
-1.391556	11000 11010000
-1.552169	11000 11010001
-2.156108	11000 11010010
-2.0824	11000 110100110
-2.300732	11000 110100111
-1.166267	11000 11010100
-1.196873	11000 11010101
-1.0098	11000 11010110
-2.119996	11000 110101110
-2.215177	11000 110101111
-2.837851	11000 1101100
-1.660155	11000 11011010
-2.555305	11000 110110110
-2.902792	11000 110110111
-1.351972	11000 1101110
-1.400277	11000 11011110
-4.093124	11000 110111111
-2.297244	11000 111000
-2.740941	11000 1110010
-2.542896	11000 1110011
-1.173001	11000 111010
-1.558463	11000 1110110
-2.088803	11000 11101110
-1.632226	11000 11101111
-1.698672	11000 11110
-1.869109	11000 11111
-1.14349	11000 </s>
-3.079664	11001 000
-2.903572	11001 0010
-3.681724	11001 0011
-2.681724	11001 0100
-2.954725	11001 01010
-3.204602	11001 01011
-2.129461	11001 0110
-2.627366	11001 0111
-3.556785	11001 10010
-3.556785	11001 10011
-2.928396	11001 10100
-2.640331	11001 10101
-2.903572	11001 10110
-2.133539	11001 1011100
-2.515392	11001 10111010
-2.954725	11001 10111011
-0.5096073	11001 1011110
-2.982754	11001 10111110
-3.681724	11001 101111110
-3.681724	11001 101111111
-0.3008493	11001 11000
-0.9477242	11001 11001
-2.426451	11001 11010000
-2.614777	11001 11010001
-3.857815	11001 11010010
-3.556785	11001 110100110
-3.556785	11001 110100111
-2.25036	11001 11010100
-2.176574	11001 11010101
-2.352665	11001 11010110
-3.419947	11001 110101110
-3.556785	11001 110101111
-3.681724	11001 1101100
-2.903572	11001 11011010
-2.627366	11001 110110110
-4.158845	11001 110110111
-2.352665	11001 1101110
-2.743871	11001 11011110
-3.419947	11001 111000
-3.857815	11001 1110010
-3.419947	11001 1110011
-3.044901	11001 111010
-3.012717	11001 1110110
-3.857815	11001 11101110
-3.313747	11001 11101111
-2.797117	11001 11110
-3.313747	11001 11111
-2.434569	11001 </s>
-2.195458	11010000 000
-1.74534	11010000 0010
-3.089405	11010000 0011
-2.913313	11010000 0100
-4.168586	11010000 01010
-1.793838	11010000 0110
-2.093039	11010000 0111
-1.96176	11010000 1000
-3.867556	11010000 10010
-1.899073	11010000 10011
-1.157439	11010000 10100
-1.04637	11010000 10101
-2.428223	11010000 10110
-1.938137	11010000 1011100
-1.945869	11010000 10111010
-2.028707	11010000 10111011
-1.038574	11010000 1011110
-1.225091	11010000 10111110
-2.577521	11010000 101111110
-1.563281	11010000 101111111
-2.362406	11010000 11000
-2.299354	11010000 11001
-3.429688	11010000 11010000
-3.390435	11010000 11010001
-3.691465	11010000 11010010
-3.390435	11010000 110100110
-2.663436	11010000 11010100
-4.168586	11010000 11010101
-2.282095	11010000 11010110
-1.588802	11010000 110101110
-2.270959	11010000 110101111
-2.788375	11010000 1101100
-3.867556	11010000 11011010
-2.181814	11010000 110110110
-3.089405	11010000 110110111
-0.8210607	11010000 1101110
-0.7020148	11010000 11011110
-1.402917	11010000 110111110
-3.429688	11010000 110111111
-2.555802	11010000 111000
-2.992495	11010000 1110010
-1.824194	11010000 1110011
-2.737222	11010000 111010
-1.415003	11010000 1110110
-2.282095	11010000 11101110
-2.022458	11010000 11101111
-3.214343	11010000 11110
-1.695829	11010000 11111
-2.17736	11010000 </s>
-2.281167	11010001 000
-2.490427	11010001 0010
-1.858404	11010001 0011
-2.967548	11010001 0100
-1.858404	11010001 0110
-1.733465	11010001 0111
-2.470223	11010001 1000
-1.651278	11010001 10011
-1.496676	11010001 10100
-1.069136	11010001 10101
-1.705436	11010001 10110
-2.105076	11010001 1011100
-2.041794	11010001 10111010
-1.943414	11010001 10111011
-1.291508	11010001 1011110
-1.511616	11010001 10111110
-2.967548	11010001 101111110
-1.915019	11010001 101111111
-3.210586	11010001 11000
-2.666518	11010001 11001
-2.967548	11010001 11010000
-2.056771	11010001 11010001
-3.073748	11010001 110100111
-2.733465	11010001 11010100
-1.611249	11010001 11010110
-2.582197	11010001 110101110
-3.034495	11010001 110101111
-3.210586	11010001 1101100
-2.381282	11010001 110110110
-3.335525	11010001 110110111
-0.7943617	11010001 1101110
-0.8019221	11010001 11011110
-1.379677	11010001 110111110
-0.8263223	11010001 110111111
-2.858403	11010001 111000
-3.335525	11010001 1110010
-1.825874	11010001 1110011
-3.210586	11010001 111010
-2.056771	11010001 1110110
-2.812646	11010001 11101110
-2.432435	11010001 11101111
-3.335525	11010001 11110
-1.194598	11010001 11111
-2.335525	11010001 </s>
-2.20133	11010010 000
-1.895036	11010010 0010
-3.336993	11010010 0011
-2.772722	11010010 0100
-3.814114	11010010 01011
-2.058239	11010010 0110
-1.956782	11010010 0111
-2.160902	11010010 1000
-2.22305	11010010 10011
-1.626594	11010010 10100
-1.75721	11010010 10101
-2.382751	11010010 10110
-2.20133	11010010 1011100
-1.845631	11010010 10111010
-2.001201	11010010 10111011
-0.9137473	11010010 1011110
-1.121267	11010010 10111110
-3.513084	11010010 101111110
-1.530813	11010010 101111111
-2.911024	11010010 11000
-2.638023	11010010 11001
-3.513084	11010010 11010000
-3.513084	11010010 11010001
-3.336993	11010010 11010100
-3.814114	11010010 11010101
-2.336993	11010010 11010110
-2.416174	11010010 110101110
-2.558842	11010010 110101111
-2.734933	11010010 1101100
-3.814114	11010010 11011010
-2.667986	11010010 110110110
-3.814114	11010010 110110111
-0.6587783	11010010 1101110
-0.5636944	11010010 11011110
-1.254208	11010010 110111110
-3.212054	11010010 110111111
-2.859872	11010010 111000
-3.212054	11010010 1110010
-1.734933	11010010 1110011
-2.772722	11010010 111010
-1.496051	11010010 1110110
-2.058239	11010010 11101110
-2.667986	11010010 11101111
-2.180646	11010010 11111
-2.667986	11010010 </s>
-3.67961	110100110 000
-2.35739	110100110 0010
-3.37858	110100110 0011
-2.901458	110100110 0100
-1.880269	110100110 0110
-1.853535	110100110 0111
-2.901458	110100110 1000
-2.940712	110100110 10011
-1.145584	110100110 10100
-1.765796	110100110 10101
-1.955334	110100110 10110
-2.05636	110100110 1011100
-2.264636	110100110 10111010
-2.449161	110100110 10111011
-1.715822	110100110 1011110
-1.701886	110100110 10111110
-2.05636	110100110 101111110
-1.901458	110100110 101111111
-2.77652	110100110 11000
-1.931422	110100110 11001
-1.931422	110100110 11010000
-3.37858	110100110 11010001
-2.834512	110100110 11010010
-2.503518	110100110 110100110
-2.248246	110100110 110100111
-2.424337	110100110 11010100
-2.901458	110100110 11010110
-0.9780416	110100110 110101110
-1.787515	110100110 110101111
-1.35739	110100110 1101100
-2.47549	110100110 11011010
-1.353274	110100110 110110110
-1.998368	110100110 110110111
-2.232451	110100110 1101110
-1.22936	110100110 11011110
-0.447376	110100110 110111110
-3.67961	110100110 110111111
-2.901458	110100110 111000
-3.07755	110100110 1110010
-1.87343	110100110 1110011
-2.17446	110100110 111010
-1.947216	110100110 1110110
-2.67961	110100110 11101110
-1.98064	110100110 11101111
-2.37858	110100110 11110
-2.248246	110100110 11111
-1.353274	110100110 </s>
-2.643453	110100111 000
-2.342423	110100111 0010
-3.018498	110100111 0011
-2.803154	110100111 0100
-3.757396	110100111 01010
-1.779672	110100111 0110
-1.753075	110100111 0111
-2.803154	110100111 1000
-3.757396	110100111 10010
-2.342423	110100111 10011
-1.28318	110100111 10100
-1.183365	110100111 10101
-1.986544	110100111 10110
-2.001521	110100111 1011100
-2.049826	110100111 10111010
-2.166332	110100111 10111011
-1.292013	110100111 1011110
-1.439333	110100111 10111110
-2.678215	110100111 101111110
-1.643453	110100111 101111111
-2.643453	110100111 11000
-2.581305	110100111 11001
-2.716003	110100111 11010000
-1.986544	110100111 11010001
-3.456366	110100111 11010010
-3.757396	110100111 110100110
-3.456366	110100111 110100111
-2.611268	110100111 11010100
-1.843582	110100111 11010110
-2.113943	110100111 110101110
-2.526947	110100111 110101111
-2.478642	110100111 1101100
-3.456366	110100111 11011010
-2.177613	110100111 110110110
-3.155336	110100111 110110111
-1.025807	110100111 1101110
-0.8869921	110100111 11011110
-1.76617	110100111 110111110
-0.9553068	110100111 110111111
-2.359456	110100111 111000
-3.155336	110100111 1110010
-2.310238	110100111 1110011
-2.716003	110100111 111010
-1.888164	110100111 1110110
-2.310238	110100111 11101110
-1.906138	110100111 11101111
-3.757396	110100111 11110
-0.6546194	110100111 11111
-1.931321	110100111 </s>
-2.19655	11010100 000
-1.855456	11010100 0010
-2.539703	11010100 0011
-1.917989	11010100 0100
-3.493946	11010100 01010
-3.794976	11010100 01011
-1.118282	11010100 0110
-1.332578	11010100 0111
-2.10478	11010100 1000
-3.533199	11010100 10010
-1.666792	11010100 10011
-1.092258	11010100 10100
-1.544556	11010100 10101
-1.546185	11010100 10110
-1.170007	11010100 1011100
-1.700388	11010100 10111010
-1.160498	11010100 10111011
-0.7599465	11010100 1011110
-1.678811	11010100 10111110
-2.659313	11010100 101111110
-1.702723	11010100 101111111
-1.863857	11010100 11000
-1.575741	11010100 11001
-1.832764	11010100 11010000
-2.135376	11010100 11010001
-2.342678	11010100 11010010
-2.347818	11010100 110100110
-2.547821	11010100 110100111
-3.096006	11010100 11010100
-3.971067	11010100 11010101
-2.076197	11010100 11010110
-1.761552	11010100 110101110
-2.090253	11010100 110101111
-1.954034	11010100 1101100
-2.766947	11010100 11011010
-1.812705	11010100 110110110
-2.385606	11010100 110110111
-1.501982	11010100 1101110
-1.329593	11010100 11011110
-3.493946	11010100 110111111
-2.715795	11010100 111000
-3.794976	11010100 1110010
-2.332578	11010100 1110011
-2.910369	11010100 111010
-1.870696	11010100 1110110
-2.353019	11010100 11101110
-2.0707	11010100 11101111
-1.966746	11010100 11110
-2.081765	11010100 11111
-1.562827	11010100 </s>
-1.284925	11010101 000
-1.567339	11010101 0010
-1.923334	11010101 0011
-1.244109	11010101 0100
-3.546584	11010101 01010
-3.546584	11010101 01011
-0.8305805	11010101 0110
-1.123338	11010101 0111
-1.94092	11010101 1000
-4.023705	11010101 10010
-1.703559	11010101 10011
-2.019384	11010101 10100
-1.697369	11010101 10101
-2.443921	11010101 10110
-0.8528568	11010101 1011100
-1.292116	11010101 10111010
-1.351607	11010101 10111011
-0.8123175	11010101 1011110
-1.59557	11010101 10111110
-2.643494	11010101 101111110
-2.283342	11010101 101111111
-1.543698	11010101 11000
-1.930283	11010101 11001
-2.625765	11010101 11010000
-2.661977	11010101 11010001
-3.722675	11010101 11010010
-3.421645	11010101 110100110
-2.909762	11010101 110100111
-2.148644	11010101 11010100
-2.400456	11010101 11010110
-2.561307	11010101 110101110
-2.909762	11010101 110101111
-4.023705	11010101 1101100
-3.546584	11010101 11011010
-3.023705	11010101 110110110
-3.722675	11010101 110110111
-1.749547	11010101 1101110
-1.375345	11010101 11011110
-4.023705	11010101 110111110
-2.643494	11010101 110111111
-3.120615	11010101 111000
-3.546584	11010101 1110010
-2.592341	11010101 1110011
-3.120615	11010101 111010
-2.592341	11010101 1110110
-3.069463	11010101 11101110
-2.944524	11010101 11101111
-2.982312	11010101 11110
-3.546584	11010101 11111
-2.275517	11010101 </s>
-2.786041	11010110 000
-2.357225	11010110 0010
-1.944221	11010110 0011
-2.742575	11010110 0100
-4.064795	11010110 01010
-4.064795	11010110 01011
-1.638283	11010110 0110
-1.691883	11010110 0111
-2.950851	11010110 1000
-4.064795	11010110 10010
-2.082524	11010110 10011
-0.8389688	11010110 10100
-1.590579	11010110 10101
-2.834346	11010110 10110
-1.903427	11010110 1011100
-2.293943	11010110 10111010
-2.078023	11010110 10111011
-1.268915	11010110 1011110
-2.251881	11010110 10111110
-2.348791	11010110 101111110
-1.732356	11010110 101111111
-2.1727	11010110 11000
-0.9461994	11010110 11001
-2.213537	11010110 11010000
-3.023402	11010110 11010001
-2.633431	11010110 11010010
-3.219697	11010110 110100110
-3.064795	11010110 110100111
-2.245251	11010110 11010100
-3.161705	11010110 11010101
-2.985614	11010110 11010110
-0.9328555	11010110 110101110
-2.023402	11010110 110101111
-1.51702	11010110 1101100
-3.064795	11010110 11011010
-0.9675375	11010110 110110110
-1.468198	11010110 110110111
-2.348791	11010110 1101110
-1.992913	11010110 11011110
-2.786041	11010110 111000
-3.219697	11010110 1110010
-2.546281	11010110 1110011
-2.684584	11010110 111010
-1.708769	11010110 1110110
-2.520727	11010110 11101110
-2.15631	11010110 11101111
-2.340519	11010110 11110
-1.985614	11010110 11111
-0.8425987	11010110 </s>
-1.979257	110101110 000
-1.87751	110101110 0010
-2.452918	110101110 0011
-1.861323	110101110 0100
-3.076167	110101110 01010
-1.23921	110101110 0110
-1.488456	110101110 0111
-2.962224	110101110 1000
-4.076167	110101110 10010
-2.385971	110101110 10011
-0.8411438	110101110 10100
-1.630563	110101110 10101
-1.850858	110101110 10110
-1.566964	110101110 1011100
-2.011709	110101110 10111010
-1.866652	110101110 10111011
-1.267281	110101110 1011110
-1.681715	110101110 10111110
-2.269987	110101110 101111110
-1.577856	110101110 101111111
-2.377197	110101110 11000
-1.646415	110101110 11001
-1.262586	110101110 11010000
-1.797413	110101110 11010001
-1.764413	110101110 11010010
-1.996986	110101110 110100110
-1.952315	110101110 110100111
-2.360164	110101110 11010100
-1.515066	110101110 11010101
-2.250092	110101110 11010110
-2.17854	110101110 110101110
-1.766537	110101110 110101111
-1.370303	110101110 1101100
-3.298016	110101110 11011010
-1.25139	110101110 110110110
-1.572376	110101110 110110111
-1.504458	110101110 1101110
-1.435686	110101110 11011110
-4.076167	110101110 110111110
-3.775137	110101110 110111111
-2.394926	110101110 111000
-2.996986	110101110 1110010
-2.452918	110101110 1110011
-2.532099	110101110 111010
-1.725919	110101110 1110110
-2.404069	110101110 11101110
-2.136648	110101110 11101111
-1.278899	110101110 11110
-1.905905	110101110 11111
-1.636834	110101110 </s>
-2.573272	110101111 000
-2.154856	110101111 0010
-2.43361	110101111 0011
-2.422886	110101111 0100
-3.081427	110101111 01010
-1.340188	110101111 0110
-1.358063	110101111 0111
-2.588512	110101111 1000
-2.190572	110101111 10011
-0.7064754	110101111 10100
-1.506753	110101111 10101
-2.491602	110101111 10110
-1.59319	110101111 1011100
-1.956489	110101111 10111010
-1.651855	110101111 10111011
-1.342823	110101111 1011110
-1.828844	110101111 10111110
-1.889542	110101111 101111110
-1.404226	110101111 101111111
-2.172347	110101111 11000
-1.483002	110101111 11001
-2.091187	110101111 11010000
-2.504191	110101111 11010001
-2.573272	110101111 11010010
-2.178337	110101111 110100110
-2.655459	110101111 110100111
-2.422886	110101111 11010100
-3.73464	110101111 11010101
-1.982591	110101111 11010110
-1.588512	110101111 110101110
-1.792632	110101111 110101111
-1.107274	110101111 1101100
-2.756916	110101111 11011010
-1.103196	110101111 110110110
-1.367284	110101111 110110111
-1.657272	110101111 1101110
-1.251766	110101111 11011110
-4.03567	110101111 110111111
-2.166438	110101111 111000
-3.296772	110101111 1110010
-2.43361	110101111 1110011
-2.956489	110101111 111010
-1.62743	110101111 1110110
-2.22949	110101111 11101110
-1.921726	110101111 11101111
-2.203161	110101111 11110
-2.345474	110101111 11111
-1.736817	110101111 </s>
-1.846826	1101100 000
-2.109227	1101100 0010
-3.781324	1101100 0011
-2.878234	1101100 0100
-2.118567	1101100 0110
-3.042427	1101100 0111
-2.936226	1101100 10100
-3.781324	1101100 10101
-1.066995	1101100 10110
-2.605233	1101100 1011100
-3.480294	1101100 10111010
-3.781324	1101100 10111011
-1.507167	1101100 1011110
-2.605233	1101100 10111110
-2.334167	1101100 101111111
-3.781324	1101100 11000
-3.781324	1101100 11001
-1.736001	1101100 11010000
-1.739932	1101100 11010001
-0.7240388	1101100 11010010
-0.8063524	1101100 110100110
-0.8393164	1101100 110100111
-2.635196	1101100 11010100
-3.480294	1101100 11010101
-1.732106	1101100 11010110
-2.739932	1101100 110101110
-3.003173	1101100 110101111
-2.878234	1101100 1101100
-3.179265	1101100 11011010
-3.480294	1101100 110110110
-1.401113	1101100 1101110
-1.066995	1101100 11011110
-3.480294	1101100 110111111
-3.304203	1101100 111000
-3.179265	1101100 1110010
-3.179265	1101100 1110011
-3.781324	1101100 111010
-2.936226	1101100 1110110
-3.042427	1101100 11101111
-0.818009	1101100 11110
-2.702143	1101100 11111
-2.526052	1101100 </s>
-2.209813	11011010 000
-2.084874	11011010 0010
-2.410728	11011010 0011
-2.641176	11011010 0100
-1.738087	11011010 0110
-1.558391	11011010 0111
-3.164055	11011010 1000
-3.641176	11011010 10010
-2.465085	11011010 10011
-1.632576	11011010 10100
-2.279449	11011010 10101
-1.482814	11011010 10110
-2.260965	11011010 1011100
-2.796078	11011010 10111010
-2.340147	11011010 10111011
-1.226203	11011010 1011110
-2.863025	11011010 10111110
-2.318957	11011010 101111110
-2.109698	11011010 101111111
-2.686934	11011010 11000
-1.933606	11011010 11001
-0.7690203	11011010 11010000
-0.9765345	11011010 11010001
-1.314841	11011010 11010010
-1.611793	11011010 110100110
-1.400627	11011010 110100111
-3.164055	11011010 11010100
-2.243237	11011010 11010101
-1.611793	11011010 11010110
-3.340147	11011010 110101110
-2.279449	11011010 110101111
-1.863025	11011010 1101100
-3.340147	11011010 11011010
-1.732692	11011010 110110110
-1.908783	11011010 110110111
-0.9404728	11011010 1101110
-1.04458	11011010 11011110
-3.641176	11011010 110111111
-2.738086	11011010 111000
-3.164055	11011010 1110010
-2.902279	11011010 1110011
-3.039117	11011010 111010
-2.017927	11011010 1110110
-2.641176	11011010 11101110
-2.385904	11011010 11101111
-1.165505	11011010 11110
-2.796078	11011010 11111
-2.495049	11011010 </s>
-2.766675	110110110 000
-2.343912	110110110 0010
-3.094034	110110110 0011
-3.218973	110110110 0100
-3.997124	110110110 01010
-2.298154	110110110 0110
-2.099497	110110110 0111
-3.258226	110110110 1000
-3.696094	110110110 10010
-2.917943	110110110 10011
-2.325026	110110110 10100
-2.158275	110110110 10101
-2.38434	110110110 10110
-2.197784	110110110 1011100
-2.883181	110110110 10111010
-2.654701	110110110 10111011
-1.570613	110110110 1011110
-2.184211	110110110 10111110
-2.917943	110110110 101111110
-2.334366	110110110 101111111
-1.850996	110110110 11000
-2.363656	110110110 11001
-0.7408876	110110110 11010000
-1.126135	110110110 11010001
-1.55152	110110110 11010010
-1.631636	110110110 110100110
-2.218973	110110110 110100111
-1.944046	110110110 11010100
-0.7979177	110110110 11010101
-1.445674	110110110 11010110
-2.453056	110110110 110101110
-2.197784	110110110 110101111
-2.440822	110110110 1101100
-2.171049	110110110 11011010
-2.766675	110110110 110110110
-2.616913	110110110 110110111
-1.106145	110110110 1101110
-1.12848	110110110 11011110
-3.997124	110110110 110111111
-2.47861	110110110 111000
-2.491974	110110110 1110010
-2.696094	110110110 1110011
-2.883181	110110110 111010
-1.847905	110110110 1110110
-2.197784	110110110 11101110
-1.944046	110110110 11101111
-0.9830238	110110110 11110
-1.863585	110110110 11111
-1.432458	110110110 </s>
-2.346868	110110111 000
-2.722531	110110111 0010
-3.625621	110110111 0011
-3.625621	110110111 0100
-3.023561	110110111 0110
-1.877433	110110111 0111
-3.023561	110110111 10010
-3.625621	110110111 10100
-3.625621	110110111 10101
-2.283198	110110111 10110
-2.84747	110110111 1011100
-3.324591	110110111 10111011
-1.380108	110110111 1011110
-3.023561	110110111 10111110
-3.625621	110110111 101111110
-3.625621	110110111 101111111
-0.8592082	110110111 11010000
-1.039034	110110111 11010001
-2.722531	110110111 11010010
-1.495287	110110111 110100110
-2.303402	110110111 110100111
-1.869746	110110111 11010100
-1.647897	110110111 11010101
-0.426964	110110111 11010110
-2.84747	110110111 110101111
-3.023561	110110111 11011010
-1.109747	110110111 1101110
-1.04928	110110111 11011110
-3.625621	110110111 110111111
-3.625621	110110111 111000
-2.780523	110110111 1110010
-3.1485	110110111 1110011
-3.324591	110110111 111010
-1.120471	110110111 11110
-2.457368	1101110 000
-1.781304	1101110 0010
-2.731366	1101110 0011
-2.397884	1101110 0100
-3.755897	1101110 01010
-1.482801	1101110 0110
-1.794091	1101110 0111
-1.757602	1101110 1000
-1.089277	1101110 10011
-1.219253	1101110 10100
-1.400673	1101110 10101
-2.591704	1101110 10110
-1.930128	1101110 1011100
-2.229977	1101110 10111010
-1.943344	1101110 10111011
-1.532425	1101110 1011110
-1.702403	1101110 10111110
-2.290674	1101110 101111110
-1.956975	1101110 101111111
-2.675251	1101110 11000
-2.348666	1101110 11001
-2.655945	1101110 11010000
-3.172575	1101110 11010001
-2.938492	1101110 11010010
-3.290674	1101110 110100110
-3.133067	1101110 110100111
-1.919607	1101110 11010100
-3.755897	1101110 11010101
-2.591704	1101110 11010110
-2.116396	1101110 110101110
-1.989644	1101110 110101111
-2.770519	1101110 1101100
-3.591704	1101110 11011010
-2.315818	1101110 110110110
-2.861326	1101110 110110111
-1.626738	1101110 1101110
-1.798438	1101110 11011110
-3.755897	1101110 110111111
-1.909334	1101110 111000
-2.591704	1101110 1110010
-2.020578	1101110 1110011
-2.401373	1101110 111010
-1.049657	1101110 1110110
-1.265625	1101110 11101110
-0.8711317	1101110 11101111
-2.861326	1101110 11110
-0.7245317	1101110 11111
-1.394769	1101110 </s>
-1.982604	11011110 000
-1.746559	11011110 0010
-2.523905	11011110 0011
-2.313795	11011110 0100
-3.73925	11011110 01010
-1.546182	11011110 0110
-1.659262	11011110 0111
-2.671968	11011110 1000
-3.575058	11011110 10010
-2.32586	11011110 10011
-1.181922	11011110 10100
-1.266493	11011110 10101
-1.433216	11011110 10110
-1.859055	11011110 1011100
-1.906439	11011110 10111010
-1.949231	11011110 10111011
-1.102301	11011110 1011110
-1.280867	11011110 10111110
-2.285023	11011110 101111110
-1.622629	11011110 101111111
-2.313795	11011110 11000
-2.018755	11011110 11001
-1.694959	11011110 11010000
-1.879357	11011110 11010001
-2.20399	11011110 11010010
-2.056544	11011110 110100110
-1.967603	11011110 110100111
-2.133756	11011110 11010100
-3.302057	11011110 11010101
-1.791512	11011110 11010110
-1.476847	11011110 110101110
-1.704361	11011110 110101111
-1.985387	11011110 1101100
-3.097937	11011110 11011010
-1.819183	11011110 110110110
-2.177118	11011110 110110111
-1.098299	11011110 1101110
-1.179295	11011110 11011110
-2.285023	11011110 110111111
-1.983993	11011110 111000
-2.887083	11011110 1110010
-1.947948	11011110 1110011
-2.360877	11011110 111010
-1.369583	11011110 1110110
-2.068215	11011110 11101110
-1.46028	11011110 11101111
-1.96493	11011110 11110
-1.277571	11011110 11111
-1.399691	11011110 </s>
-1.467021	110111110 000
-1.975176	110111110 0010
-3.230449	110111110 0011
-2.276206	110111110 0100
-1.940414	110111110 0110
-2.929419	110111110 0111
-1.868721	110111110 10100
-1.841283	110111110 10101
-0.5551289	110111110 10110
-2.355388	110111110 1011100
-2.686381	110111110 10111010
-2.929419	110111110 10111011
-1.108233	110111110 1011110
-1.783291	110111110 10111110
-3.054358	110111110 101111110
-1.832509	110111110 101111111
-3.230449	110111110 11000
-3.054358	110111110 11001
-3.230449	110111110 11010000
-2.452298	110111110 11010001
-1.181231	110111110 110100110
-0.9788107	110111110 110100111
-3.054358	110111110 11010100
-2.686381	110111110 11010110
-2.792581	110111110 110101110
-2.753328	110111110 110101111
-2.452298	110111110 1101100
-2.628389	110111110 110110110
-3.531479	110111110 110110111
-1.126645	110111110 1101110
-0.7125935	110111110 11011110
-1.59698	110111110 110111111
-2.20926	110111110 111000
-3.531479	110111110 1110010
-2.452298	110111110 1110011
-2.929419	110111110 111010
-2.230449	110111110 1110110
-3.230449	110111110 11101110
-2.686381	110111110 11101111
-2.792581	110111110 11111
-2.069081	110111110 </s>
-2.017253	110111111 000
-1.833609	110111111 0010
-2.693947	110111111 0011
-1.994977	110111111 0110
-1.934279	110111111 0111
-2.392917	110111111 1000
-2.182063	110111111 10011
-1.532579	110111111 10100
-1.309235	110111111 10101
-2.254614	110111111 10110
-2.216825	110111111 1011100
-2.182063	110111111 10111010
-2.017253	110111111 10111011
-0.8630374	110111111 1011110
-1.075899	110111111 10111110
-2.693947	110111111 101111110
-1.597037	110111111 101111111
-2.149879	110111111 11000
-2.296007	110111111 11001
-2.818885	110111111 11010000
-3.296007	110111111 11010001
-3.296007	110111111 11010010
-2.557109	110111111 11010100
-2.017253	110111111 11010110
-2.392917	110111111 110101110
-2.818885	110111111 110101111
-3.296007	110111111 1101100
-3.296007	110111111 11011010
-2.557109	110111111 110110110
-3.296007	110111111 110110111
-0.6014014	110111111 1101110
-0.7519386	110111111 11011110
-3.296007	110111111 110111111
-2.557109	110111111 111000
-2.994977	110111111 1110010
-1.934279	110111111 1110011
-2.994977	110111111 111010
-1.278973	110111111 1110110
-1.994977	110111111 11101110
-1.934279	110111111 11101111
-1.693947	110111111 11111
-1.973787	110111111 </s>
-2.393738	111000 000
-1.494688	111000 0010
-2.783709	111000 0011
-2.620981	111000 0100
-3.524071	111000 01010
-1.476797	111000 0110
-1.511234	111000 0111
-1.452189	111000 1000
-1.155784	111000 10011
-0.9641648	111000 10100
-0.842378	111000 10101
-2.377943	111000 10110
-1.544068	111000 1011100
-1.812264	111000 10111010
-1.461489	111000 10111011
-1.047675	111000 1011110
-0.9824921	111000 10111110
-2.524071	111000 101111110
-1.36722	111000 101111111
-1.856618	111000 11000
-1.738742	111000 11001
-2.362703	111000 11010000
-2.922011	111000 11010001
-2.870859	111000 11010010
-2.524071	111000 110100110
-3.524071	111000 110100111
-3.825101	111000 11010100
-3.524071	111000 11010110
-2.212317	111000 110101110
-2.039772	111000 110101111
-1.604993	111000 1101100
-3.34798	111000 11011010
-1.629202	111000 110110110
-2.012188	111000 110110111
-1.812264	111000 1101110
-1.428902	111000 11011110
-3.223042	111000 110111111
-3.04695	111000 111000
-2.678973	111000 1110011
-1.999027	111000 111010
-1.816501	111000 1110110
-2.922011	111000 11101110
-2.069227	111000 11101111
-3.825101	111000 11110
-2.162344	111000 11111
-3.223042	111000 </s>
-1.920471	1110010 000
-1.9939	1110010 0010
-2.728586	1110010 0011
-2.175744	1110010 0100
-3.272654	1110010 01010
-1.552494	1110010 0110
-1.741175	1110010 0111
-0.8102557	1110010 1000
-0.9128182	1110010 10011
-1.582458	1110010 10100
-1.45311	1110010 10101
-1.449832	1110010 10110
-1.644265	1110010 1011100
-2.068534	1110010 10111010
-1.320831	1110010 10111011
-1.100927	1110010 1011110
-1.400497	1110010 10111110
-2.795532	1110010 101111110
-1.75414	1110010 101111111
-2.494503	1110010 11000
-2.573684	1110010 11001
-2.343235	1110010 11010000
-2.318411	1110010 11010001
-2.272654	1110010 11010010
-2.795532	1110010 110100110
-2.427556	1110010 110100111
-2.231261	1110010 11010100
-3.096562	1110010 11010101
-2.369564	1110010 11010110
-2.096562	1110010 110101110
-1.866114	1110010 110101111
-2.834786	1110010 1101100
-3.096562	1110010 11011010
-2.619441	1110010 110110110
-2.834786	1110010 110110111
-1.424465	1110010 1101110
-1.318411	1110010 11011110
-3.573684	1110010 110111111
-2.532291	1110010 111000
-2.45974	1110010 1110010
-1.670594	1110010 1110011
-1.802832	1110010 111010
-1.487324	1110010 1110110
-1.532291	1110010 11101110
-1.892442	1110010 11101111
-2.494503	1110010 11110
-1.910926	1110010 11111
-1.32571	1110010 </s>
-2.703291	1110011 000
-1.589348	1110011 0010
-2.899586	1110011 0011
-2.46593	1110011 0100
-3.142624	1110011 01010
-1.43293	1110011 0110
-1.583316	1110011 0111
-0.916669	1110011 1000
-0.6851206	1110011 10011
-0.7865982	1110011 10100
-1.328044	1110011 10101
-2.744684	1110011 10110
-1.630741	1110011 1011100
-2.01229	1110011 10111010
-1.369936	1110011 10111011
-1.247754	1110011 1011110
-1.800201	1110011 10111110
-2.346744	1110011 101111110
-1.43293	1110011 101111111
-2.329711	1110011 11000
-1.795294	1110011 11001
-2.841594	1110011 11010000
-3.443654	1110011 11010001
-2.899586	1110011 11010010
-3.744684	1110011 110100110
-3.443654	1110011 110100111
-1.973832	1110011 11010100
-2.665503	1110011 11010110
-1.800201	1110011 110101110
-2.402261	1110011 110101111
-3.005786	1110011 1101100
-2.790442	1110011 11011010
-1.727651	1110011 110110110
-2.966533	1110011 110110111
-1.952292	1110011 1101110
-1.695466	1110011 11011110
-2.297526	1110011 111000
-2.899586	1110011 1110010
-2.443654	1110011 1110011
-2.966533	1110011 111010
-1.959354	1110011 1110110
-2.665503	1110011 11101110
-2.188382	1110011 11101111
-3.443654	1110011 11110
-1.887352	1110011 11111
-1.703291	1110011 </s>
-2.379714	111010 000
-2.09828	111010 0010
-2.595923	111010 0011
-2.045892	111010 0100
-3.543216	111010 01010
-3.157866	111010 01011
-1.014667	111010 0110
-1.253819	111010 0111
-1.402439	111010 1000
-3.543216	111010 10010
-1.370447	111010 10011
-0.5724711	111010 10100
-1.338322	111010 10101
-2.786254	111010 10110
-1.149265	111010 1011100
-1.543837	111010 10111010
-1.39931	111010 10111011
-0.8484858	111010 1011110
-1.820113	111010 10111110
-1.906872	111010 101111110
-1.452807	111010 101111111
-2.111853	111010 11000
-1.805116	111010 11001
-4.388314	111010 11010000
-4.388314	111010 11010010
-4.087285	111010 110100110
-4.388314	111010 110100111
-3.543216	111010 11010100
-3.786254	111010 11010110
-2.09828	111010 110101110
-3.309133	111010 110101111
-3.649416	111010 1101100
-2.354891	111010 11011010
-1.992115	111010 110110110
-4.388314	111010 110110111
-2.181489	111010 1101110
-1.973341	111010 11011110
-4.388314	111010 110111111
-2.956951	111010 111000
-3.649416	111010 1110010
-1.887255	111010 1110011
-3.242186	111010 1110110
-3.109561	111010 11101110
-4.087285	111010 11101111
-3.610163	111010 11110
-4.087285	111010 11111
-3.184194	111010 </s>
-2.596568	1110110 000
-1.862485	1110110 0010
-2.153099	1110110 0011
-2.239336	1110110 0100
-3.331254	1110110 01010
-3.477382	1110110 01011
-0.9497519	1110110 0110
-1.528969	1110110 0111
-2.049247	1110110 1000
-4.477382	1110110 10010
-1.206936	1110110 10011
-0.5016283	1110110 10100
-1.12694	1110110 10101
-2.744988	1110110 10110
-1.138129	1110110 1011100
-1.402565	1110110 10111010
-1.40147	1110110 10111011
-1.095185	1110110 1011110
-1.898743	1110110 10111110
-1.973591	1110110 101111110
-1.45785	1110110 101111111
-2.523139	1110110 11000
-2.102633	1110110 11001
-3.574292	1110110 11010000
-4.477382	1110110 11010010
-3.69923	1110110 110100110
-3.875322	1110110 110100111
-2.713954	1110110 11010100
-3.176352	1110110 11010110
-1.951043	1110110 110101110
-2.875322	1110110 110101111
-2.972232	1110110 1101100
-2.127134	1110110 11011010
-2.219703	1110110 110110110
-2.972232	1110110 110110111
-2.325094	1110110 1101110
-2.024063	1110110 11011110
-4.00026	1110110 110111111
-3.062408	1110110 111000
-3.331254	1110110 1110010
-2.452076	1110110 1110011
-2.729194	1110110 1110110
-2.886317	1110110 11101110
-2.664468	1110110 11101111
-2.692052	1110110 11110
-2.69923	1110110 11111
-2.347048	1110110 </s>
-2.320233	11101110 000
-2.603534	11101110 0010
-2.771025	11101110 0011
-2.348262	11101110 0100
-3.098384	11101110 01010
-1.280488	11101110 0110
-1.659051	11101110 0111
-0.911569	11101110 1000
-0.9422895	11101110 10011
-0.6369231	11101110 10100
-1.050623	11101110 10101
-3.262576	11101110 10110
-1.386577	11101110 1011100
-1.849186	11101110 10111010
-1.610539	11101110 10111011
-1.067481	11101110 1011110
-1.887531	11101110 10111110
-1.956151	11101110 101111110
-1.386577	11101110 101111111
-2.348262	11101110 11000
-1.791959	11101110 11001
-2.960081	11101110 11010010
-4.001474	11101110 110100110
-4.001474	11101110 110100111
-3.399414	11101110 11010100
-4.001474	11101110 11010110
-2.047232	11101110 110101110
-3.262576	11101110 110101111
-4.001474	11101110 1101100
-2.539076	11101110 11011010
-2.047232	11101110 110110110
-2.496324	11101110 1101110
-1.984441	11101110 11011110
-4.001474	11101110 110111111
-3.098384	11101110 111000
-3.399414	11101110 1110010
-1.216857	11101110 1110011
-2.746202	11101110 1110110
-3.399414	11101110 11101110
-4.001474	11101110 11101111
-3.524353	11101110 11110
-3.700444	11101110 11111
-2.771025	11101110 </s>
-2.396671	11101111 000
-2.088044	11101111 0010
-2.62712	11101111 0011
-1.955022	11101111 0100
-2.769788	11101111 01010
-3.587192	11101111 01011
-1.143961	11101111 0110
-1.273781	11101111 0111
-1.713306	11101111 1000
-4.02506	11101111 10010
-1.584151	11101111 10011
-0.6125154	11101111 10100
-1.019236	11101111 10101
-2.433995	11101111 10110
-1.267664	11101111 1011100
-1.610087	11101111 10111010
-1.363247	11101111 10111011
-0.9217695	11101111 1011110
-1.567935	11101111 10111110
-2.061272	11101111 101111110
-1.16144	11101111 101111111
-2.061272	11101111 11000
-1.583365	11101111 11001
-4.02506	11101111 11010000
-4.32609	11101111 11010010
-3.587192	11101111 110100111
-3.070817	11101111 11010100
-3.246909	11101111 11010110
-2.124693	11101111 110101110
-2.964362	11101111 110101111
-3.246909	11101111 1101100
-2.593696	11101111 11011010
-1.901208	11101111 110110110
-3.848969	11101111 110110111
-2.051932	11101111 1101110
-1.686603	11101111 11011110
-4.32609	11101111 110111111
-2.82094	11101111 111000
-4.02506	11101111 1110010
-1.82916	11101111 1110011
-2.983667	11101111 1110110
-2.62712	11101111 11101110
-3.149999	11101111 11101111
-3.480992	11101111 11110
-3.848969	11101111 11111
-3.179962	11101111 </s>
-1.251428	11110 000
-1.996069	11110 0010
-3.523269	11110 0011
-2.276115	11110 0100
-3.699361	11110 01010
-2.022667	11110 0110
-3.222239	11110 0111
-2.356938	11110 10011
-2.481877	11110 10100
-2.745118	11110 10101
-0.2577441	11110 10110
-2.481877	11110 1011100
-4.000391	11110 10111010
-3.046148	11110 10111011
-1.160913	11110 1011110
-2.097301	11110 10111110
-3.097301	11110 101111110
-2.886447	11110 101111111
-3.261493	11110 11000
-3.155293	11110 11001
-3.523269	11110 11010000
-3.699361	11110 11010001
-1.714833	11110 110100110
-1.002568	11110 110100111
-3.000391	11110 11010100
-3.261493	11110 11010110
-3.261493	11110 110101110
-2.824299	11110 110101111
-2.468912	11110 1101100
-2.796271	11110 110110110
-2.824299	11110 110110111
-2.260028	11110 1101110
-1.057887	11110 11011110
-1.426359	11110 110111110
-4.000391	11110 110111111
-4.000391	11110 111000
-3.523269	11110 1110010
-3.097301	11110 1110011
-3.155293	11110 111010
-2.657968	11110 1110110
-3.155293	11110 11101110
-3.155293	11110 11101111
-3.261493	11110 11110
-3.097301	11110 11111
-2.328293	11110 </s>
-1.293382	11111 000
-2.104135	11111 0010
-2.842169	11111 0011
-2.043234	11111 0100
-3.896526	11111 01010
-4.373648	11111 01011
-1.463557	11111 0110
-1.788187	11111 0111
-1.316743	11111 1000
-1.068942	11111 10011
-1.062106	11111 10100
-1.531663	11111 10101
-0.4211941	11111 10110
-1.773764	11111 1011100
-2.115969	11111 10111010
-1.829579	11111 10111011
-0.9784959	11111 1011110
-2.061894	11111 10111110
-2.492834	11111 101111110
-1.834571	11111 101111111
-2.498586	11111 11000
-2.064017	11111 11001
-3.896526	11111 11010000
-4.373648	11111 11010010
-1.74322	11111 110100110
-1.684339	11111 110100111
-3.470557	11111 11010100
-3.771587	11111 11010110
-2.510325	11111 110101110
-3.528549	11111 110101111
-3.595496	11111 1101100
-3.051428	11111 11011010
-2.470557	11111 110110110
-4.072618	11111 110110111
-2.395924	11111 1101110
-2.115969	11111 11011110
-3.094894	11111 111000
-3.771587	11111 1110010
-2.209295	11111 1110011
-3.470557	11111 1110110
-3.528549	11111 11101110
-3.634749	11111 11101111
-3.771587	11111 11110
-4.072618	11111 11111
-2.975708	11111 </s>
-2.628327	<s> 000
-2.052253	<s> 0010
-2.013302	<s> 0011
-2.29968	<s> 0100
-3.510019	<s> 01010
-4.146841	<s> 01011
-1.368448	<s> 0110
-1.454288	<s> 0111
-3.011178	<s> 1000
-3.885064	<s> 10010
-2.674572	<s> 10011
-0.7483801	<s> 10100
-1.617496	<s> 10101
-2.439271	<s> 10110
-1.407796	<s> 1011100
-1.99968	<s> 10111010
-1.603187	<s> 10111011
-1.168052	<s> 1011110
-2.098917	<s> 10111110
-1.835087	<s> 101111110
-1.446426	<s> 101111111
-1.909632	<s> 11000
-1.186687	<s> 11001
-3.281539	<s> 11010000
-3.544781	<s> 11010001
-3.58257	<s> 11010010
-3.032897	<s> 110100110
-3.66972	<s> 110100111
-1.850907	<s> 11010100
-4.623962	<s> 11010101
-2.785113	<s> 11010110
-1.67117	<s> 110101110
-1.072146	<s> 110101111
-1.404902	<s> 1101100
-2.891568	<s> 11011010
-1.306526	<s> 110110110
-1.624832	<s> 110110111
-1.938221	<s> 1101110
-1.369172	<s> 11011110
-4.623962	<s> 110111111
-2.076187	<s> 111000
-2.990494	<s> 1110010
-2.442119	<s> 1110011
-2.838632	<s> 111010
-1.162164	<s> 1110110
-2.032897	<s> 11101110
-1.707508	<s> 11101111
-3.132601	<s> 11110
-2.442119	<s> 11111

\end\
